64,4,1,256,256,64
-0.0024765484,-0.00411875,0.00077281211,-0.0027744578,-0.001243398,-0.0047433615,-0.00052718732,-0.0038153999,0.0037381374,0.0049463433,0.0035320275,-3.2326581e-06,0.0014200095,0.0036145621,0.00096469795,-0.004092499,-0.003597902,0.0045008832,0.0042455548,0.0038946896,0.00050508353,-0.0031948345,0.00050085458,-0.0024103324,0.0044312167,0.0032150101,-0.0034470611,0.0032939475,-0.00033077689,-0.0043929517,-0.0047754478,0.00037288757,0.0032996028,0.0034533214,0.0018091808,-0.0011924193,0.00085656857,0.0019639717,0.0021136538,0.0021861808,0.0049028748,-0.00050247166,-0.0040207362,-0.0030840586,-0.00052621398,-0.0037299889,0.002687649,0.00093720471,0.003046441,-0.0011058865,-0.0028423093,-0.0022794054,-0.0048091531,-0.0022202818,-0.001660317,0.0038286614,0.0045587808,-0.0030730139,0.0037130105,0.0008232293,-0.0016331891,-0.0018567256,-0.0037064075,0.0047997022,-0.0039702731,0.0042151373,0.003057351,-0.00067043755,0.0021006028,-0.001933354,-0.003814069,9.2335051e-05,-0.0038262539,-0.0025647025,0.0010409514,0.0019782446,-9.3201106e-05,-0.0029032581,-0.0027269946,0.0019428317,0.0038182192,0.0031695949,0.0019716923,0.0033947687,-0.00098359322,-0.0034684288,-0.0037370973,0.00039813133,0.0015167228,0.0048782068,-0.00074037348,0.0024703728,-0.00069735621,-0.0045446038,-0.0042274761,0.0032572495,0.0047873121,0.0029970198,-0.0033134883,-0.0011340503,-0.0021682779,-0.00010110945,0.0034096169,0.0041376817,-0.0030241989,-0.0018397157,0.00030034097,-0.0023590474,-0.00096137202,-0.004875704,0.0014798013,-0.001333187,-0.00025595577,-0.0024517272,0.00093487298,0.0020072983,0.00052790377,0.001035578,-0.0026813917,-0.0012016783,-0.00081678425,0.0043599319,-0.0026458351,0.0042082774,0.0044994271,0.00071358,0.0042485052,-0.0047464144,-0.0024479066,0.00041054221,2.210349e-05,0.0045224571,0.0047991949,0.0020761846,0.0031609296,-0.00191191,0.0006403384,0.0018543748,-0.0045030653,-0.0016074095,-0.00040489587,0.0026634644,0.0047233194,-0.0046171683,0.00075677787,-0.0019676552,0.0014507977,0.0016795228,-0.00032226892,-0.0024521594,0.0022111462,6.0727898e-05,-0.0046573162,0.0034446703,0.0023142527,0.0040410929,0.002386115,0.00036924215,0.0049649435,0.0048280197,0.0012100575,0.0028485267,-0.0044541853,0.00043604585,0.0011585376,-0.0025047444,0.0024723409,-0.0047593206,0.0044049066,-0.00051929745,-0.0014735142,0.00075293456,0.00070830618,-0.0046937138,-0.00092490768,0.00089581942,-0.0043044692,-0.0035947411,-0.003920719,-0.0024359713,-0.0021754686,0.00060571466,-0.00069888864,0.0047480935,0.0016858015,0.00098618305,-0.0013862334,0.0020042209,-0.0022020869,0.0041550481,0.0038214975,0.00055110547,0.0015534405,0.0024850444,0.00089558637,-0.002225071,-0.003528481,-0.0026659177,-0.0039674287,-0.0015761814,-0.00058669541,0.0027836524,0.0014409945,0.0032730096,-0.0020834355,0.0019260554,-0.00073709522,-0.0014580438,0.0023056655,0.00023171158,0.0025363873,0.0018446557,-0.0022668026,0.003027802,0.0046053505,0.0029544114,0.0038094919,-0.0033805208,0.00088283335,0.00016431064,0.0019762771,-0.004915086,-0.00062592421,-0.0044753486,0.003280729,-0.0027245812,-0.0011343942,0.004738571,0.0017061559,0.0010518942,-0.0038134079,-2.872646e-06,0.00071558092,0.0042888599,-0.003551287,-0.0034649103,0.00316446,0.0046773106,0.0026707886,-0.0038113248,-0.0027612083,0.002857651,0.0036944305,0.0037364905,0.0035748719,-0.0040860432,0.0017969583,0.0043049275,0.0012169287,0.00076081847,0.0039078301,0.002619264,0.0025689112,-0.00054599318,0.0028348361,-0.0026182859,-3.3411386e-06,0.00095622158,-0.0025936864,-0.0034423178,-0.00076328431,-0.003610832,0.002935624,0.0018514745,-0.0027319656,-0.0026967912,-0.004085856,0.0031527029,0.0048028219,-0.0010041562,-0.00066097293,-0.0037653428,-0.0039472275,0.0034102737,-0.002418025,-0.00051412973,0.00092694675,-0.0013547168,0.0022052811,-0.0020438657,-0.002682464,0.0046077114,0.0026313834,-0.0045017701,0.0036297714,-0.0031612592,-0.0019278137,-0.0017134009,0.0042122173,0.0030452757,-0.00037560078,-0.004505772,0.0028437166,-0.00063236568,0.0039371371,-0.0045910221,0.0019332145,-0.0040851658,0.0023580395,-0.0022293775,-0.00241127,0.0035986965,0.0019641541,-0.0043901652,0.0032117181,-0.0032019739,-0.0026161639,0.0023703848,-0.0032269352,-0.0011158667,0.0048159146,0.002595778,-0.00057301197,0.00013891668,0.0021523706,-0.0030383908,-0.004380939,9.6783942e-05,0.0016107855,0.0049348646,-0.0026553606,-0.0011583475,0.0037828022,0.00084142064,-0.0022860746,0.0042902708,0.0045048523,0.0016230092,0.0014799193,0.0049931222,-0.0015425996,-0.0029351257,0.0026855157,0.00048415813,-0.0041010481,-0.0042246109,0.0020859895,0.0037106078,0.001441078,0.0026988708,-0.00049688014,0.0025741123,-0.0037292957,-0.0035571491,-0.0012327913,0.0001144442,-0.0022740815,-0.002798947,-0.0045967632,-0.0046329492,0.0026315413,-0.0014466844,-0.00028258713,-0.00057432566,0.0033007114,-0.0010762785,0.00044036063,0.0037413048,-0.0023912595,0.00097818529,-0.0034168022,0.00018870504,-0.0029545205,-0.00025726529,-0.0023372422,0.0049317718,-0.00084754502,0.0027237515,0.0049521989,0.00061896417,0.0032510148,-0.0021885846,-0.0010867474,0.0039400726,0.00086774623,-0.0027524023,0.00046637091,-0.0019244454,0.0047634047,-0.0015605388,-0.0037449967,0.0020697079,0.0029716121,0.0049000096,0.00056027386,0.0016589145,-0.0032464336,0.0030968456,-0.00097771084,-0.0014137838,0.0038750225,0.003490377,0.0018243496,-0.0020665304,0.001111779,-0.0034572726,-0.0035037123,-0.0044976735,0.0023899458,-0.0030213963,0.0029932069,-0.00022470744,0.001467211,0.0020793585,-0.0037941437,-0.0045118832,0.00056138549,0.0022915135,0.0035588991,-0.0016552434,-0.0011675451,0.0049309838,-0.0021466844,0.0029061716,-0.0028755944,0.0042642533,-0.0019907926,-0.0018158058,-0.0021269427,0.0037477546,0.0028652291,-0.0020282666,0.0015861682,-0.0012932978,-0.0043090778,-0.0045594501,0.0038020509,0.00023462982,-0.00043181571,0.0040378647,-0.0010670427,0.0035948782,-0.0037018751,-0.00078695868,-0.00010051817,-0.0030947142,0.0039895743,-0.0019943992,0.0049622184,-0.0016126589,0.0009854666,-0.0039741891,-0.0043430525,0.0029610215,-0.0037166213,0.0038591068,0.0022395812,0.0014666025,-0.00089354908,-0.0025744145,-0.0044528764,-0.0017053394,0.0027809481,-0.00067416583,-0.0033191012,-0.0042944699,0.0005767164,0.00070433055,-0.0015817044,-0.0043805343,0.0036667781,-0.0043383234,0.0047592741,0.0021587549,0.0038623153,0.0027469067,-0.0024861096,0.00072303746,-0.0037207025,0.00056112621,0.0013370899,0.001879075,-0.00040700229,-0.0029962729,0.0011170087,0.00084622418,0.0040366482,0.0041924309,-0.0018769537,-0.0041411352,-0.00019950957,0.0035884123,0.0038199543,0.0011870287,0.00098746276,-0.001642252,0.0027541857,0.0030964814,0.002781779,0.0025004469,-0.0015812335,-0.00047048899,0.0019866489,-0.0012216965,-0.001497073,-0.0032123332,0.0035873883,-2.7163328e-05,-0.0015672479,-0.0010023001,-0.0015038297,0.00050454769,0.0046090966,-0.0013580404,0.00013466627,-0.0020552359,0.0012490151,-0.0010655067,1.0828078e-05,-0.0035486912,-0.0027630411,0.0013240973,0.0049460626,-0.0033407556,0.0018919883,0.0039055698,0.0011090413,-0.00094204759,0.0010572485,-0.00097957647,0.0025124095,0.00038578304,-0.0025820349,0.00082829153,0.0041286271,-0.0049264634,0.0014542011,-0.0038697051,0.0022812061,-0.0037319719,0.0019346313,0.004225611,-0.0025324158,0.0034669684,-0.0026424168,0.004082489,-0.0027301042,-0.0037035673,0.0022455941,-0.00039502116,-0.00049012515,-0.0035378431,0.0046997279,-0.0037233954,-0.0016958473,0.0024059068,0.0041199159,0.0049622482,-0.0018237988,0.0036981773,0.00049755844,0.0011494759,0.003881157,0.0046984738,-0.00081335639,0.00041058215,-0.0039002078,-0.00048558268,-0.0024403714,0.0033665722,-0.0043421214,0.0027909284,0.0024543421,-0.0040656411,0.0014271823,0.003360741,-0.00018185348,0.0031384074,-0.00043563935,0.00028749259,0.0004556224,-0.0027319197,0.0042439925,0.0033326422,-0.0017139898,0.003661946,0.0025419985,0.00237747,1.667589e-05,-9.9724239e-05,-0.0013742898,0.0028313999,-0.0023611639,-0.0033129918,0.0049068201,-0.003442096,-0.0023481963,0.0012024078,0.00031347545,0.00034923526,0.0034219938,-0.0037923216,-0.0016622315,-0.0035187655,-0.00041705104,0.00068278227,1.4857353e-05,0.0023794703,-0.00011736781,0.00027870865,-0.00051001522,-0.0010720477,0.0023842274,-0.0016345505,0.0023296361,-0.00054832074,-0.0015732847,0.0009569261,-0.00076691483,0.0039042562,0.0042514586,0.0012941156,0.00030058594,-0.0047081518,-0.0032989471,0.0023676394,-0.0024855529,-0.0021352915,-0.0031033026,-0.0018389551,-0.0044107443,-0.00089246725,-0.0016996715,-0.0031039541,0.0038474869,5.9894625e-05,-0.0019322334,0.0020609675,0.0042767512,0.0009980092,0.003099135,-0.00049636337,0.0034249412,0.0020090733,0.0046927857,0.0013699863,-0.0017104892,0.00048943433,-0.001790999,0.00016960175,-0.07847241,-0.034117719,-0.1292256,-0.0098890731,-0.056344792,-0.028733136,0.02325347,0.085582914,-0.013406507,0.038053799,0.0038255738,-0.035428376,0.0015889582,-0.12548571,0.084750676,-0.028035032,-0.16206705,-0.095804857,-0.08084584,-0.0032978803,-0.028831777,0.11383663,0.019619164,0.028420072,0.056449257,0.028264648,0.05705574,0.019171478,0.0052509613,0.0096393903,0.079616971,0.034188566,0.057262042,0.10028002,0.0089934534,-0.043989226,0.0010850906,-0.084522689,0.024937838,0.098116213,0.14083013,-0.053853983,0.066507393,0.021071974,-0.0085755981,-0.031475006,-0.12503077,0.11050575,-0.010406993,-0.031154423,-0.0036348313,0.047394904,0.057289968,-0.14172621,-0.022807516,0.078011362,0.057968975,0.085258626,0.043249016,0.027593235,0.073951772,-0.069220301,0.033951756,-0.036436582,0.003354408,-0.0021620713,0.0010195843,-0.0045761108,0.0022013388,-0.0048024094,0.0024567901,0.00058306727,0.0026733558,-0.00080553328,0.0024860512,-0.0039206743,0.0020787345,-0.0025625406,-0.00053476247,-0.0035622155,-0.0037845265,0.0040542161,-0.0035236209,-0.0026562713,0.0026629226,0.0034197681,0.0019854556,0.0026573764,0.0016612939,-0.0024722545,0.0028557007,-0.0029756467,0.004735325,-0.00096457934,-0.0038793259,-0.0026368778,0.0037183236,0.0045138323,-0.0015766499,-0.00098939156,-0.0046671438,0.0049342322,0.0045274675,0.0048072857,-0.0010156707,0.002922117,-0.0011926011,-0.0020970396,-0.0020762942,-0.0011899171,-0.0038772147,0.001564515,-0.0035643821,2.0761789e-05,0.0009841845,0.0017668442,-0.0017918817,0.00081108068,-0.0035840147,0.00084825491,0.0035403191,0.0019091056,-0.0035771584,0.0030115639,-0.0044558245,0.00207471,-0.0015341357,0.0049521494,-0.0020033382,-0.0038846808,0.0048548359,-0.0026057963,-1.4212728e-06,-0.0036120086,0.0044626867,-0.0041835522,-0.0049037385,-0.0026809351,-0.0013315097,0.0011485336,-0.0049775749,0.0049726415,-0.0020647804,0.0037194144,0.00071239804,-0.0038008528,-0.0020714776,-0.0037610894,-0.0042480039,0.0043952208,-0.0034172385,0.004093731,-8.67042e-05,0.0014061753,-0.0039794289,0.0037391936,0.0029345344,-0.0023977034,-0.0042678242,0.0024679045,0.0012004099,0.0046602148,-0.0040792703,-0.0046633607,0.0024790232,-0.0019194005,0.0024199186,-0.0024673264,-0.0036282986,-0.0010265545,-0.0029099231,0.0029608201,0.00063197289,-0.0028578256,9.9073356e-05,0.0023324154,-0.0039900767,-2.1806361e-06,0.0029942082,-0.003462482,0.0047781992,0.0043345409,0.0039713799,0.0035815494,0.00059589837,0.00049771401,-0.00075223421,-0.00013235778,-0.0001333961,0.00097584879,-0.0030557327,-0.00089405393,-0.0027531968,-0.0020524113,0.0023839728,0.0046311283,0.00046095702,-0.0031849663,-0.0037871163,0.0034093331,0.0020794479,-0.0047453558,-0.00075083886,0.0025158446,-0.0015843217,-0.0001830265,0.00046712968,0.0013646994,-0.0018014435,0.0046064764,-0.0029776947,-0.0045284968,-0.003823381,-0.00092735445,-0.0022763143,3.0703844e-05,-0.00068994914,0.0044437313,0.0038595527,0.0040885621,-0.0042931598,0.0008342812,0.0037830471,-0.0014069197,-0.0010406712,-0.00044223579,0.00016375334,0.0041021317,0.0030373983,-0.0023244779,0.0013115541,-0.0035689568,-0.0046054512,0.0043132954,0.00047899458,0.0010208837,-0.0015568779,0.00077658032,-0.00045157823,-0.00069130276,0.0020549087,-0.0010039357,-0.0039898711,0.002880954,0.0022433989,-0.004665612,0.0046377748,0.0036914384,0.0036839264,-0.00071451281,-0.0022326921,0.0011248521,-0.0037720513,-0.00090224063,0.00058567259,-0.00081263696,-0.0019322769,-0.001147686,0.00033551129,-0.00039463612,0.00070761417,0.0040275448,0.00084214841,-0.0008863244,0.0033983045,-0.0049187165,-0.0037309211,0.0017144618,-0.0028098653,0.0010817853,0.00050823304,-0.000811908,0.0012618408,-0.0020812194,0.0011112437,-0.0043627917,-0.0033190696,-0.0018741284,-0.00083200787,0.0043452477,-0.0047480517,0.0018454913,-0.00096134043,-0.0022693376,0.0036088847,0.00096770084,0.0043455529,0.0036781024,-0.0047920287,0.00097406006,-0.00086906408,0.004027788,-0.0046228778,-0.0024821715,-0.004412862,0.0035043483,-0.0029217379,-0.0027282559,0.0022651677,-0.00013364465,-0.002461205,-0.0049253714,-0.00083190357,-0.0014421854,-0.0015915356,0.0019080738,-0.0013645361,-0.002357146,0.0045978576,0.00073445056,0.0034249347,0.0013048754,-0.00054520819,-0.00027249606,-0.0041025155,0.0026913951,-0.003565148,0.0049267703,0.0047123456,-0.00061414692,-7.7688997e-05,-0.0031529265,-0.0020620326,-0.0027123849,0.00035769137,-0.0019256477,0.0039852446,0.0011814294,0.0013282225,0.0013790611,0.0042692607,0.0027775894,-0.0012225661,0.00037840339,0.0040057963,-0.00049595389,0.0049901414,-0.0027213608,4.885346e-05,-0.00016827018,0.0025090717,0.0047287273,-0.0028245531,0.0034143155,-0.0043606203,0.0013165347,-0.0032760911,-0.0031763016,-0.00030269297,0.0027388846,0.0039919596,-0.0018375764,0.00065922771,0.0031766789,0.0033007943,-0.0036656897,0.00036733719,0.0039063459,0.0021314375,0.0032545399,0.0049482328,-0.0013211302,-0.0017603896,-0.00021956177,-0.003399369,-0.0021023516,-0.0038446366,-0.0013557807,0.001408482,-0.0038735741,0.0019737272,0.00016892285,-0.0016642843,-4.1444006e-05,-0.0021573745,-0.00095118737,-0.0029411136,-0.004221158,5.4310265e-05,0.0029754751,0.0047939545,-0.00055079076,-0.0028534483,-0.0036091303,0.0047734582,0.0024494462,-0.0030801444,-0.0048514151,0.0015303282,0.0015042857,0.0037769382,0.00036454769,0.00064459179,0.0012280551,0.00029071959,0.002238429,0.0031092172,0.0018181566,-0.00059291694,-0.0028729855,-0.0030286514,-0.0036713695,-0.003811351,0.0036507707,0.0014051829,0.0045550406,0.00050581607,-0.0038851398,0.00087273573,0.0030619382,0.0045813155,-0.0039741265,-0.00047125074,0.0033841603,0.0017945318,0.0049854982,-0.0014740119,0.0029331993,-0.0043481582,0.0047424036,0.0013771818,-0.0043600982,0.00032921704,0.002683572,-0.0049701512,0.0018647508,-0.0033066606,0.0035463362,-0.0031897287,-0.00039303216,0.00020748766,0.00063236509,-0.000107148,0.0015436999,-0.00037156554,0.002304862,0.0024511151,0.0049305332,-0.0020993863,0.0020502041,-0.0018533991,0.0038945811,-0.00084619915,0.002885295,-0.0018881039,-0.0038485961,-0.0017894433,-0.0006081346,-0.0029159455,-0.0013229904,0.0015096925,0.0031589775,-0.0011553345,-0.00063382719,0.0008519951,-8.5017388e-05,-0.0013771967,0.004208343,0.0038744729,-0.0008698157,0.0026171248,0.002012373,-0.0023406397,-0.0006285486,-0.0027066468,0.0012113319,0.0043841475,-0.0048099661,0.0036134057,-0.0042213618,0.00041886541,0.003823837,0.0038524073,-0.00021321983,0.0027768944,0.00249539,0.0011598507,0.0026398568,-0.00067446444,-0.00041322144,0.004521144,-0.00048880073,0.0016625963,-0.0045272308,0.0042757976,0.0040173262,0.0020652435,0.0012933979,-0.0041514968,0.0026594649,-0.0015826295,-0.0035527497,0.0018493567,0.0030639141,0.003521735,-0.0019132952,-0.004800536,0.0005524734,-0.0022968982,-0.0016036252,-0.0015618042,7.4209873e-05,-0.0038913351,-0.0020639978,-0.0031316738,0.003029797,0.0046119725,-0.0041709417,-0.0043046826,0.0010196832,0.00072662626,7.8293388e-05,0.0038169926,0.0010473416,-0.0015640072,0.003789494,-0.00058015559,-0.00079115902,-0.0016548185,-0.0044153124,-0.0049617523,0.0024000029,-0.0029384648,0.0049860591,0.0022327982,7.2381203e-05,0.0022098939,-0.0039481919,-0.0014559541,0.00056932125,0.0019888632,-0.0049547774,0.0018778793,-0.00092664992,0.00067435954,0.00041819605,-2.1216573e-05,-0.0033038609,0.0039766621,-0.0041095495,-0.0048527479,0.0027423011,0.00065723691,-9.4282335e-05,-0.0031424146,0.0046782583,-0.00068842803,-0.0027538876,-0.0025676756,0.0028374462,0.0017242811,0.0010859714,-0.0015704141,-0.00060690913,-0.0032972806,-0.0037336146,-0.0021004723,0.0036298155,0.00079537069,-0.0029283075,0.0011662099,-0.0019546763,0.0048012459,-0.0047108352,0.00029109808,0.0023134141,-0.0025234561,-0.0031668388,-0.00012554795,0.0046395689,0.00034484061,-0.0022850321,-0.00064914022,0.0025403748,1.702577e-05,0.0026396071,0.0044351607,-0.0024219798,-0.0030727266,0.0020108382,0.0028750061,0.0010811189,0.0018912623,-0.0043743837,0.0021663169,0.00038311335,0.0043929243,0.0038392561,-0.00061212335,-0.0023904918,-0.00099405086,-0.00051746103,-0.004188683,-0.0044548231,-0.0011436871,-0.0036879598,0.0014427451,-0.0023869966,-0.0024679355,0.0022748922,-0.0028477441,0.0014950941,0.0033466344,-0.0016307406,0.0045475954,-0.0015721784,0.0023619018,-0.0036182313,-0.003751797,0.0027019523,-0.00092271423,0.0012831346,0.0017159049,-0.0016009108,-0.0038089042,-0.003436756,-0.0037015121,0.0028957062,-0.002659599,0.0032869445,0.0036424249,-0.00083399986,-0.00077433859,-0.00384822,0.0041309797,0.0014148299,0.0020263801,0.0023289363,0.004503963,0.0010719738,-0.00048598322,0.0013686333,-0.0036846309,0.0026789747,0.0027684204,-0.0030487733,0.0033851634,0.0016998074,0.0039040219,0.0037652599,0.00090145027,-0.0012133757,-0.0012879512,-0.0047062868,0.0013292895,-0.0024681656,-0.00037499698,0.00078972255,0.0047823995,-0.0047622472,0.0029096531,0.0022229777,0.004014002,-0.001264917,-0.003505209,0.0044780969,-0.0033169418,-0.00021852167,-0.0026599889,0.00458619,5.2143636e-05,-0.0029285728,-0.00024825366,-0.0017291222,-0.0042267847,0.0043887215,-0.0014471743,0.0045900202,0.0049175203,-0.0030672531,0.0035117947,0.0019543855,-0.0040941125,0.00034986051,0.0039382523,0.0013045392,0.00049567732,-0.00049891564,0.0048504543,0.0047271705,-0.0045194012,-0.0035026114,-0.0013785688,0.00029213043,0.00025968821,3.3797326e-05,-0.0014901284,-0.003608579,0.0029316645,0.00055356953,0.0029820214,0.0013613901,7.0930426e-05,-0.0017262826,0.0022308491,-0.0033306288,-0.0021585314,0.0036030935,0.00079872762,0.0044460386,0.0046048695,0.0019843082,0.0027098785,0.0026447038,-0.0023212479,-0.002309268,-0.0019811652,0.0036088239,-0.00059816394,0.0036098169,0.0021811698,0.0043289578,0.00016188652,-0.0034560012,0.0021527384,-0.00082957243,-0.0014571861,6.0433451e-05,-0.0043763142,-0.0016470651,0.001247159,-0.00057919834,0.0022934745,-0.0020366256,-0.0020497839,-0.0043775516,-0.0014068291,-0.00021689267,-0.0012579469,-0.0019179003,-0.00023874731,0.0017109338,0.0043136668,-0.0020065944,-0.0043208187,0.0020630209,0.00154353,-0.0031104391,-0.00062701318,0.0035310297,-0.00035921665,-0.0025577407,-0.00041287872,-0.0049202979,0.0045013106,-0.0039717829,0.0013368259,0.0025651459,0.0014329592,-0.00090546643,0.00084526753,0.0013550691,-0.0010938463,-0.0021458785,0.0037716853,-0.0032677697,-0.0015138576,-0.0016575263,-0.0018631933,0.00036232921,-0.0013968585,-0.0036329984,-0.0041482222,0.0036076062,0.0023166172,-0.00061979447,-0.00074313794,0.00096739268,0.0017299579,-0.00019207926,0.0015761475,-0.00057312939,0.0042117869,-0.0031361078,0.0026945286,0.0019952754,-0.0019198309,-0.0036180704,0.004163196,-0.0037851911,-0.0020940457,0.00069688831,-0.00016010077,0.00092150604,0.0020915101,0.0031057261,0.0010702179,-0.0029607033,-0.0021188979,0.0039398962,-0.0021838973,0.00068853233,0.0014591584,-0.0022196923,-0.00036206933,-0.00060979519,0.0032926761,0.0038461249,0.0029363285,0.0046471274,0.001374021,0.004088633,0.0033600061,-0.0033166908,-0.0024796365,-0.0039785569,0.0047858626,-0.00037720533,0.0043860125,-0.00018172951,-0.0012223992,-0.0021108059,0.0033438789,0.0017095379,0.00092911458,-0.0028928231,-0.0041076612,-0.001790937,0.0029988878,-0.0047128397,0.0037437385,-0.0017979304,0.0022416548,0.0025744604,-0.004749223,0.002425779,0.0018435882,0.00034413191,-0.001672952,0.0023738281,-0.0011327616,0.0029227798,0.0025179563,0.003155769,-0.0013874976,-0.0022814421,-0.0046217179,-0.00265711,-0.0032001566,0.0020406292,0.00081263875,-0.00066837643,0.0034820419,-0.0026106744,-0.00046493742,0.0022557746,-0.0049093032,0.0044982636,0.0043040025,0.0019788293,0.003523758,0.0049096608,-0.0049110573,-0.0048024028,0.0036803084,-0.0026358937,0.0018249224,0.001188424,0.0033488761,-0.0002139637,0.0049111891,-0.00077276741,0.0018555013,0.00014615805,-0.0038897502,-0.0037853479,-0.0036221748,0.0019820808,-0.004996441,0.0015374629,-0.002668557,0.002858399,-0.0013399039,-0.001302375,-0.0032652294,-0.0034525215,0.0046740866,-0.0042598623,-0.0040413212,0.0022121976,0.00022811086,-0.00098902738,0.0017671434,-0.0036281162,0.0023378591,-0.0027236663,0.002055159,-0.0040672838,-0.0030652331,-0.0042654979,-0.0048098284,0.0030638199,-0.0030571972,0.0019515042,-0.00063672636,-0.0047996819,0.0020056389,-0.0017481456,0.00085641479,-0.0040454113,-0.0049795377,-0.0024043618,0.0026318817,-0.0047830278,0.0031346845,0.0024731593,-0.0028497099,-0.00077282046,0.0033617799,-0.0011515794,-0.00017665596,0.0038976603,-0.0045274734,-0.00031730982,0.0020076088,-0.0028298317,-0.0026821213,-0.0049306184,0.0049455529,-0.0013132171,0.00023973556,-0.001488475,-0.0014398972,-0.0024433683,0.0047258466,0.0013730577,0.0015089647,0.0014995668,-0.0010348914,3.5198631e-05,0.0014049599,0.0031480472,-0.0045404905,0.0027891468,-0.0033913707,0.0017884688,0.0033489518,-0.0040036404,0.0034993522,0.0013232032,-0.0033947771,0.001547663,-0.0043687749,-0.0022654162,0.0007513604,0.00015242846,0.0036799686,0.0018321029,0.0032626455,-0.0025109057,-0.0024129151,-0.0044359487,-0.0046944988,0.0027482514,0.0048075461,0.0026748727,0.0049705231,0.0015995608,0.0010672323,-0.0030105393,0.0046558964,-0.0018862436,0.0025364004,0.0041056674,-0.0022425316,0.0026709657,0.00082540785,0.0047762579,0.0023216973,-0.004613387,0.0047089583,0.00076157425,0.0018177466,-0.0029138451,0.0049851066,-0.0035658502,-0.004315027,0.002359886,0.001375287,0.0019165246,0.0048120516,0.0017290763,0.0028716026,-0.0039664846,-0.0003960106,0.0024546902,-0.0045623725,-0.00013980658,0.0007932881,1.9928516e-05,0.0034689849,0.0041468071,-0.0043485128,0.00481785,0.0039199256,-0.0035980885,0.0047573566,0.001075323,0.0045021879,-0.004085043,-0.0030220305,-0.0024554472,-0.00013763995,-0.0025004308,0.00281893,0.0019934396,0.00214402,-0.0027612107,-0.0012000231,0.0040260094,0.0048408788,-0.0039864796,-0.0019877617,0.0032641803,0.0013471995,-0.0009045813,0.0045133722,0.0024221025,0.0021117256,0.0025854944,0.0017168472,-0.0026956736,-0.00319862,-2.0339192e-05,-0.0025683807,-0.0017409484,0.00038097473,0.0046424949,0.00070844088,0.00011769862,0.0045151889,-0.0035295623,-0.0018509321,0.00015206487,-0.0018009398,0.003525713,-0.00016539604,-0.0039196938,0.0040232497,0.0019221852,-0.0024707673,-0.0013470051,-0.0010196922,-0.00025556953,0.00031559976,-0.0041494911,0.0012182222,0.0032812565,-0.0046819269,-0.0017770032,-0.0033525341,-0.0036450755,0.0036701553,-0.002595828,0.0018078272,-0.0039726698,0.0043822777,0.0023301844,0.0019012378,0.00046437833,0.0012662397,0.00019482048,-0.0046031183,-0.0027601819,0.00057254109,0.0016722832,-0.00088518893,0.0028597813,-0.00050315234,0.0024387966,0.00019432814,-0.0032107322,-0.0017881481,-0.0044757086,0.0038533901,-0.0042381596,0.00058077786,0.001525418,-0.0016547338,-0.0033462285,0.0012087677,-0.0037888657,0.0010187272,-0.0012961135,-0.001011583,-0.0024478702,0.0018879835,-0.0016396288,-0.00020430179,-0.0032946812,0.0036186545,0.0025357752,0.003492521,-1.5333594e-05,-0.00066401158,-0.0014485333,0.0028921883,0.001349592,0.0021616135,0.0015527991,0.004843992,-0.0025577985,0.0028850399,0.0026762192,-0.0039068043,-0.00029540451,0.0046761882,0.0037495904,-0.00092733478,0.00060750876,-0.0037548225,-0.0031930416,-0.0047176218,0.0035215246,-0.0026443659,-0.00080097114,-0.0035869121,-0.0017378829,0.0030977582,-0.002419409,-0.0041296321,-0.0031602209,-0.0041725873,-0.0034438514,-0.0041446995,-0.0035535341,-0.0038225215,0.00026500376,-0.0023419432,-0.00079037284,-0.0029522805,-0.0023129587,-0.0046793842,0.00074506198,-0.0030205839,0.0049504715,-0.0046751243,0.0020398549,0.0018210171,0.00042276653,-0.0025375955,0.0016966365,-0.0039089482,0.00086606239,0.0045420801,-0.0019295744,-0.002055435,-0.00056174669,0.0010918734,0.0033292996,0.0041493082,-0.001178954,0.0037110238,0.0039701366,0.0039779537,-0.0047437888,-0.0017711524,0.0048206973,0.0034225737,0.0017712979,0.0013264469,-0.0039407271,0.0036376321,0.001376035,-0.0032224493,-0.0047168308,1.7741622e-05,0.0035107051,-0.001035246,-0.00084273373,0.00081644153,-0.00047229323,-0.0011726115,0.0016739039,-0.0032877653,-0.0045124244,-0.00010270447,-0.0014446507,-0.0047718537,0.0030507098,0.0045787287,-0.00016990812,-0.0035889583,0.0017460422,0.0033286511,-0.0048857868,-0.0013230345,-0.0016020731,0.0018936793,-0.0013709114,-0.0037712567,0.0019924675,0.004259907,0.0034866642,0.001952102,0.0047645545,0.0014718763,-0.0027264355,0.002196549,0.0027868532,-0.0010230598,0.0034652769,0.0023472761,0.0018420003,-0.0023487405,-0.0042983365,0.0045943224,-0.0031407558,-0.0038363009,0.004455055,0.0018052558,-0.0043032026,0.0048338574,-0.0018778382,0.0039076185,0.00055113706,0.0036404865,0.0030710827,-0.0043126118,0.0027745079,-0.00046343717,-0.00032538088,-0.0025902908,-0.00061811719,0.00072723542,0.0038611858,0.0021681319,0.0020286242,-0.001933078,-0.0037854623,-0.0036313789,0.0017400966,-0.0037682038,0.0031535845,0.0022545849,-0.0048255163,-0.00017608912,-0.002776479,0.0038791602,0.00070006166,0.0020632158,-0.0039704495,0.00043101939,-0.0049318314,-0.003776285,0.001844425,0.0033199452,0.0039631372,0.0024700163,-0.0035789352,-0.0040715885,0.002210416,-0.004749484,-0.0019584839,-0.0025645576,0.0019241623,-0.0010965184,0.00033347162,0.0046189737,-0.00062447879,0.0016322688,0.0048856318,-0.0019570081,0.0038628667,0.00050593409,0.002193136,0.0015356825,0.0043652457,0.002641484,-0.0020356713,-0.0036351573,0.0022602711,0.00022401722,0.0043200987,0.0040168148,0.00088772332,-0.00047899219,-0.0020829539,0.0039851808,-0.0047599023,-0.0034530227,-0.00047426554,-0.0045245254,-0.0024386345,0.0045348072,0.0020952599,0.0044321626,-0.0028648244,0.00086994445,-0.0031645923,-0.00020587118,-0.0049562305,0.0036437469,-0.00065236423,-0.0046150559,-0.0028211545,0.00048221442,0.0003361282,-0.0036558669,0.0012856237,0.0048063719,-0.0020698105,0.0015057174,-0.0036786323,-0.0028194718,0.0011492065,-0.0043697321,0.0049096107,0.0019046901,-0.003458557,-0.0021032671,0.0021713279,0.0015073554,0.0025279127,-0.004439733,-0.0032856809,0.0042949527,-0.0015174226,0.0041823405,0.0020620422,0.0026141726,-0.0019198714,-0.0016606496,-0.00069685374,0.001983435,-0.0010574088,-0.00078398858,0.0042429655,0.003749749,0.0031160097,-0.0020102475,0.0048382056,-0.0035727834,-0.0045915419,-0.0035876214,-0.0028039043,0.0033734231,-0.00087936436,-0.0015047423,0.00091923213,-0.0030400335,0.0012002806,-0.00029573949,-0.0029226183,0.0018933867,0.001351671,0.0025707291,0.0045874893,0.0028427212,0.0021314476,0.0001246968,0.0032831298,0.0040299653,-0.00043798181,0.0010566393,0.0044546759,0.000939664,-0.0037062102,0.0030139773,0.0021414064,-0.0031961017,0.0018474762,0.0029386036,0.00095682955,-0.00098108804,-0.0030322628,-0.0041483271,-0.0012715516,0.003149625,0.0016193954,-0.004008091,0.0047332376,0.0046782934,-0.0013425247,-0.0032863282,-0.003189932,0.0011535577,-0.0022976671,-0.0019489519,0.0031303393,-0.00010387093,-0.0037489008,0.003354203,-0.0030919414,-0.0010826299,-0.0024432878,-0.0010957525,0.0048306328,0.0012070141,-0.0026942282,0.0029128735,0.0024916016,-0.0049537253,0.0036264764,0.0028130011,0.0026065837,-0.0044974005,-0.0025421189,0.0022466962,0.0042936712,0.004762308,0.0028117447,0.0016566,0.0041995281,0.0014573745,-0.0010418067,-0.0011128757,0.0027524428,0.28071727,0.11536839,-0.43453653,-0.5308935,0.38094555,-0.69057653,-1.3183161,0.32002429,1.2647392,0.44367551,2.4393064,1.4453525,0.055751326,1.8778445,0.34685417,1.3755416,2.7165249,-0.45396884,2.124042,-1.0882186,-0.094835658,0.12576495,0.37243394,-1.0724768,-0.17888581,-0.98611173,0.9868753,-0.25572001,-1.8177428,-0.52953026,-1.6670751,0.25229793,2.5966436,-0.23588433,2.13555,-1.2659265,-0.25754576,-0.39050301,0.59637059,-0.72996581,-1.483616,-0.60107915,-0.61696084,-1.0139353,-0.39672256,-0.40085609,-1.3801613,1.4235394,2.9648751,-0.4827744,-2.0543665,-1.6901325,-1.2058873,-0.86112055,0.0092733921,-0.52428866,-1.3842653,1.462911,1.506774,0.75489211,0.22271043,1.0574929,0.73547143,0.73684573,0.011025741,-0.016509366,-0.0026737657,-0.0031094253,0.0024660961,-0.010146721,-0.01476988,-0.0085361892,0.017558887,-0.0070216452,0.027730975,0.026318582,0.0071544717,0.028547711,-0.0017207457,0.0099083484,-0.025923764,0.012127229,0.043752477,-0.016473511,-0.0030408728,-0.015032245,0.014569498,-0.0088775409,-0.0061924457,-0.012786868,0.008478251,-0.013580771,-0.023789689,-0.010606611,-0.029673736,-0.015787254,0.040156576,-0.014245559,0.010262331,-0.029024683,-0.011594404,0.0099485438,0.0074626182,-0.0057167885,-0.013117382,0.0036850818,-0.0089246173,-0.0083572832,-0.0075891149,-0.0061903566,-0.010808429,0.0025186123,0.040779947,-0.0080812033,-0.025620804,-0.057970155,-0.0305972,-0.010884754,0.0045570311,-0.016549964,-0.024229318,0.0076168603,0.017374833,-0.0030956869,-0.0030012441,0.014937869,0.010771303,0.022080703,-0.090027297,0.085530942,-0.069372223,0.027746474,-0.0057329476,-0.025618954,0.041559428,0.023694828,0.025883109,0.0098932263,-0.010816413,0.044476406,0.038101647,-0.073812937,0.07822658,0.074157251,0.21363722,-0.043412588,0.080772736,-0.073383458,-0.052280888,0.14331498,-0.039103447,-0.19907073,-0.0910448,0.00029590352,-0.013098499,0.089829843,0.12855726,0.039088757,0.015227396,0.077209401,0.083584925,0.061536548,0.14340653,-0.050986966,-0.045942754,-0.0040824294,0.10737985,0.048855558,-0.068849937,-0.0079055769,-0.029673882,-0.073026077,-0.02940587,-0.13946536,-0.06202341,0.14314372,0.14121242,-0.02155835,0.030884369,-0.091168151,-0.067529715,-0.11991425,-0.075446311,0.085183988,-0.10479232,0.031816713,0.21267091,-0.056058861,-0.028050114,0.016948123,-0.0060306776,-0.034292312,-0.027619133,-0.070311692,-0.1315051,0.02197609,-0.024212813,-0.022124925,0.0025344781,0.0314989,0.029277135,-0.018723321,0.017896701,-0.010759616,0.060548034,-0.0059050228,0.0062147234,-0.087578669,-0.15777445,-0.068433316,0.046463963,0.014002321,-0.021386202,0.024388579,-0.032244443,0.038661487,0.04682022,-0.081209137,0.032676342,-0.00058918671,0.0089396272,0.00063000062,-0.014791813,-0.013363056,0.037629326,0.038081031,-0.021632243,-0.14475478,-0.02611556,-0.042307837,0.042669545,0.1508013,0.17789833,-0.084553057,0.04645712,0.030103943,-0.03496805,-0.024186054,-0.067197021,0.094823358,0.028625263,-0.050019528,0.023996311,-0.007140201,-0.031983117,-0.10288162,-0.031762136,-0.025940402,0.011682492,0.10066698,0.027678163,0.0089799322,0.069682302,0.0054104294,0.077488894,0.051594744,0.0015085696,-0.0027534679,-0.0034317763,0.0021643038,-0.0038308946,0.0033023604,0.0010361929,0.0036126163,-0.00030966269,0.0048245145,-0.0034711339,0.0037126836,-0.0018714969,0.0011491299,0.0029772815,-0.0035699248,0.0047761057,-0.00029704826,0.0037041237,-0.0045197719,-0.0029155014,0.0026424168,0.00275723,0.00055520718,-0.0032272687,-0.0010274931,0.001897535,0.0042760822,-0.0037171575,0.0011814227,-0.0015170781,-0.0031959896,-0.0010901875,0.0031040921,-0.0038379761,0.00077481106,0.0023456753,0.00074175793,0.0020417485,0.0034604009,-0.0033104672,0.0049626905,0.0018121212,0.0014212332,-0.00094968285,0.0038264663,-0.0045021562,-0.0043435403,-0.0005192904,0.0036382058,-0.0035611986,0.0030676223,0.0020344093,0.0019330966,-0.0036976414,-0.0012675571,-0.00021766621,-0.0021086462,-0.0023814492,-0.0013407311,-0.0044445382,0.0056382292,-0.0041840183,-0.0018583651,0.0024387877,0.00034724238,0.00032793569,-0.005995248,-0.0015572494,-0.0016073914,-0.0078964145,0.0026824344,0.0028498943,0.0019051132,0.011411024,0.0038426385,0.002243475,0.0080063445,-0.00064945232,-3.3028432e-05,0.015382891,0.00036508345,0.0090038277,-0.00068615203,-0.0041686393,-0.00045942201,-0.0016910964,-0.0069468014,0.0029619824,-0.0010303613,0.0032332194,-0.0031284531,-0.0096530468,-0.0053567166,-0.0022251401,-0.00088960366,0.0050024125,0.0022149936,0.011111009,-0.0036358126,0.0021264214,0.0049109012,-0.00094541266,-0.0039581023,-0.0061630319,0.0013910852,-0.0077208065,-0.0062942601,0.0018753365,0.0038960292,-0.00094737604,0.0038839622,0.015253306,-0.0047300951,-0.0050434934,-0.0097713681,-0.0063347228,-0.002307078,0.0050705862,-0.00017896973,-0.0021027541,0.0018922647,0.00085969818,-0.00085232334,-0.00075935666,0.0010474988,-0.00047476824,-0.00045822294,0.0065916379,-2.3807075e-05,-0.015777458,-0.0047054054,-0.0014188269,-0.013282862,-0.043914669,0.00073472748,0.031645498,0.0093206014,0.071945424,0.046065262,0.0016242899,0.06198506,0.012582835,0.025692248,0.062022629,-0.0011598926,0.074135834,-0.033849444,-0.0020423594,-0.0077447374,0.0075419827,-0.029805258,-0.0098585997,-0.032519104,0.030658665,-0.013520629,-0.037699648,-0.011975696,-0.053142132,-0.0055319283,0.082249576,-0.014790164,0.032083954,-0.053353209,-0.021798615,0.0019773254,0.02091323,-0.016737427,-0.011627798,-0.01105938,-0.016547931,-0.015220061,-0.021913512,-0.013657271,-0.021386916,0.03732084,0.077361628,-0.018265603,-0.068876738,-0.060706696,-0.046098314,-0.024800159,0.0030964282,-0.023200174,-0.051291574,0.042882673,0.039877648,0.01049522,0.0031604075,0.015647462,0.02256765,0.028662224,0.0037992141,-0.020810015,-0.032408691,0.0072513529,-0.0015705162,-0.013196046,-0.010443384,-0.011326845,0.012049334,-0.025403311,-0.0032046727,-0.030340649,0.020936778,-0.033281702,0.014552875,-0.017930344,0.065214076,-0.030735722,0.028186878,0.040502894,-0.0064654455,-0.0018456111,-0.030718141,0.0021352333,0.023178276,-0.046636789,-0.047403908,-0.0014837181,0.045924774,-0.015672823,0.019602985,-0.00071260847,-0.030799475,0.0094125492,-0.03612758,0.036932973,-0.027613894,0.029302434,-0.028839569,0.032877244,-0.02980452,-0.020362153,0.0024420434,-0.0060799205,-0.00097105541,0.0067574277,0.10531671,0.032671271,-0.018709038,-0.010091438,0.032206937,0.019946208,0.0065173779,0.002597355,-0.0027159168,-0.024490776,-0.0057724401,0.01285521,-0.0019379781,0.0096436566,-0.015083402,-0.015620161,-0.014604737,0.0073410991,-0.0661717,-0.014028329,-0.094549126,-0.093237902,0.039065168,0.0013680692,0.080086852,-0.10352398,0.009217049,-0.098580543,0.033407849,-0.11963465,0.055254267,-0.16074282,0.10245739,-0.01980573,0.41590965,-0.13555147,-0.12330247,0.13279995,-0.12761884,0.11653289,-0.095505413,-0.08379791,-0.038700672,-0.079179237,0.0080817075,0.12165105,0.21421371,-0.049236004,-0.026242837,-0.039056374,-0.035923352,-0.095767167,-0.046204912,0.046153754,-0.12652647,0.19143446,-0.15203373,-0.048140635,-0.14733695,0.095324425,0.021089035,0.0030964494,-0.031431801,0.022928141,0.33710786,0.019004807,0.029620253,-0.056008715,0.005419374,0.021785003,-0.064553421,0.028376487,0.044367846,-0.14696055,0.024926295,-0.054947583,-0.021169264,-0.018210562,-0.19523446,-0.076078286,-0.057525911,-0.20783914,-0.23127621,-0.1030475,-0.1189943,0.11550909,0.029882924,-0.074556524,0.045951331,0.030816019,-0.056125428,0.045710368,-0.074352957,-0.3269149,0.11898456,-0.05914256,0.16033267,0.075304597,0.15597539,-0.19523008,0.11843859,-0.13613871,-0.11823746,0.23108556,-0.25082946,0.092031353,-0.070513198,0.039779062,-0.086039758,0.18142942,0.16249973,0.023842521,-0.10568539,0.13713118,0.12878817,-0.031192241,0.085905259,-0.23577339,-0.083143092,0.054195983,0.16814203,0.26170413,0.18738696,0.0038176795,0.095965451,0.016683505,-0.0062173801,-0.071225844,-0.24272414,0.46517139,0.10237682,-0.023560386,0.015470071,-0.0010250534,0.18559232,-0.020186604,-0.0092536043,0.11645312,0.068514547,-0.07553866,0.091547661,0.098090145,0.068459254,-0.13088192,0.076806935,-0.0572211,-0.17243601,-0.020660664,-0.028125425,0.13746621,-0.0058785695,-0.023806885,-0.14289734,0.021108393,-0.041319986,-0.092531119,0.032325767,-0.16686863,0.057319389,0.028930398,0.033217456,0.15046905,0.073292907,-0.097187676,0.26329602,-0.10570201,-0.021668857,0.078915971,-0.19303427,0.080969001,-0.010021188,-0.21497149,-0.18908678,0.13786034,0.060697045,0.013492794,-0.10251362,0.070100627,-0.0021811795,0.1010718,0.22578746,-0.030591071,-0.012717367,0.12713335,-0.10517549,0.15413239,-0.45275167,-0.11623114,-0.055568912,-0.10752156,0.095381707,-0.043766903,0.15113219,0.47928863,0.08599623,-0.048233016,0.073621826,0.025980315,0.1963631,0.12858326,-0.062698873,0.0021174978,0.033322756,-0.0018654242,0.12891266,0.1851438,-0.016392067,0.16382072,0.029989641,0.10088849,-0.01071532,-0.034746612,-0.07396938,0.03329409,-0.018403697,-0.020454433,-0.041526257,0.0078886227,0.048544913,0.00094430923,0.064322217,0.0096435969,0.026969705,0.047781827,0.01384954,-0.027827348,-0.040026222,-0.038580831,0.090993619,-0.029269444,-0.020375151,0.0079745605,-0.00098542521,0.0070253126,0.0013323712,-0.050086685,0.023062572,-0.015600548,-0.0036404455,-0.0099908853,-0.072577213,-0.027701267,0.079193199,0.00086961657,-0.028021968,-0.12312983,-0.054567713,-0.010244011,0.056499102,0.097029555,0.11977166,-0.031606538,0.01155809,0.016120912,-0.042316398,-0.041180083,-0.045041792,0.061313241,0.052618393,-0.038269905,-0.043685756,-0.05429733,-0.044025471,-0.050170584,-0.0066367416,-0.030728749,-0.050759786,0.065272939,0.051146768,0.0062395297,0.045304918,0.0054233521,0.043704576,0.059698006,0.088137158,-0.045688507,-0.18689268,-0.15033497,0.086458722,-0.19879773,-0.51807411,0.016546343,0.40693132,0.076822448,0.83273303,0.61034688,0.075197747,0.58626207,0.12542658,0.18579907,0.96740726,-0.11698974,0.7800422,-0.35438883,-0.026479348,-0.028478869,0.077350428,-0.32383419,0.013823831,-0.40088014,0.27237763,-0.14131467,-0.61608033,-0.22708627,-0.48248392,0.020034877,0.78684153,-0.034617844,0.52935578,-0.36884907,-0.2032887,-0.11755282,0.12558242,-0.19767877,-0.28947841,-0.20870051,-0.17162015,-0.18749846,-0.24457001,-0.11468928,-0.26367617,0.46514272,1.0246952,-0.2003799,-0.80637959,-0.67619945,-0.46000203,-0.2866723,0.0066665443,-0.32023117,-0.52971883,0.4860241,0.39603766,0.16736538,0.07164707,0.16838305,0.19225354,0.37892301,0.23549323,-0.084642709,-0.080344508,-0.13146845,0.031874377,-0.12326753,-0.25091268,0.082233265,0.12585484,0.014763655,-0.057301925,-0.014509515,-0.12190994,0.099922774,0.0055904856,0.02185538,-0.070645884,0.022813902,-0.048354464,0.080652492,0.14992218,-0.043322898,0.057048284,-0.13331261,0.1771141,-0.064092241,-0.035871616,-0.16204921,0.076569517,-0.050370238,0.07529224,0.18780854,-0.02792085,0.050065155,-0.12801083,-0.28855808,0.082699324,-0.17745342,-0.00034222746,-0.040197783,0.39698033,-0.15418378,-0.06227436,-0.15657839,0.13489761,0.057064239,0.042317313,0.14786656,-0.060066243,-0.085175609,-0.024815112,0.27011835,0.069607638,-0.28759717,0.020043213,0.19567298,0.12137097,0.27635548,0.061837096,0.08499144,-0.08933683,0.089083171,-0.00020273741,-0.022255977,-0.0366154,-0.1292231,-0.01279755,-0.097107396,-0.18238662,-0.032893345,-0.22339254,-0.094442311,-0.018171564,-0.045213222,0.22107084,0.27177307,0.082741541,0.029813045,0.089312739,0.11502347,0.22944358,0.096640332,-0.040029984,-0.013663262,-0.081771728,-0.076841952,0.14671051,-0.34452818,-0.064801923,-0.14220276,0.23221976,0.12559654,-0.25682365,-0.072951671,0.091788196,0.080010408,0.037939674,0.015802081,0.43636459,0.12803461,-0.054299592,-0.19069173,-0.066356779,-0.39412192,-0.30337847,0.045423129,-0.17530017,-0.026305483,-0.11279898,-0.19952653,-0.39352169,0.30754082,0.071970725,0.069925718,-0.21655912,-0.21531395,0.11887983,-0.12503555,0.10123908,-0.11459044,-0.12009344,0.22083339,0.11596164,0.0007787072,0.030259201,-0.034472086,0.10013169,-0.050731364,0.040852392,-0.0011940194,-0.063641468,-0.0098802734,-0.01533788,-0.06123576,-0.18043143,0.010074583,0.14496257,0.0021288175,0.26177912,0.19768852,-0.0015053497,0.17096898,0.041711559,0.09768016,0.24847749,-0.019745624,0.26538089,-0.11807771,-0.016512623,-0.025367624,0.10804445,-0.10371664,-0.0089049449,-0.11636351,0.10592467,-0.063821255,-0.18035178,-0.069547285,-0.14939999,-0.026091195,0.28745115,-0.019649964,0.11432647,-0.083712749,-0.097908853,-0.012586301,0.03594913,-0.090169206,-0.1249593,-0.035284939,-0.070147951,-0.075947887,-0.057301182,-0.048237551,-0.07036606,0.16550853,0.27811233,-0.069181649,-0.26957269,-0.28233866,-0.13595504,-0.10821878,0.0033700733,-0.079781973,-0.17921421,0.12495848,0.12870581,0.036591179,-0.002310547,0.022201452,0.061315669,0.12359065,-0.030940453,0.026650568,-0.019845857,0.019998051,-0.020161603,0.0046676141,0.0076216478,-0.0021877066,-0.0085524945,0.017846174,-0.015180828,-0.066718812,-0.0047426316,-0.027868443,0.013684254,0.020073533,0.039052065,-0.028131606,-0.052257177,0.0026581269,-0.016751719,0.040945801,-0.023155726,-0.027109143,-0.0079919734,0.013758874,-0.039725758,0.040187227,0.062314084,0.020001812,0.0075433186,0.034100361,-0.050874159,0.031115221,-0.012508161,0.010531024,-0.0087202896,0.006202761,0.0081590557,0.046806313,0.0083720696,-0.005651929,-0.005198162,-0.01161068,0.0099398227,-0.028881716,0.027828482,0.027791059,-0.028374254,-0.0093478724,0.042430303,0.087488291,0.050117211,0.0065915646,-0.017457132,0.034647529,0.0092571271,-0.0046849709,0.01875322,-0.0048878296,0.025147769,0.004491192,-0.020679245,-0.039084333,-0.034825713,0.017931789,-0.020798184,0.030232201,-0.065252915,0.013075341,0.000201151,0.0076922555,0.0050995781,0.034158036,0.029011395,-0.068225135,-0.022031266,-0.029647711,0.014260966,0.024807504,-0.014576416,-0.027107696,-0.067668622,0.0060092478,-0.0022428226,0.0210342,0.036025862,-0.0181261,0.00020477533,0.024187156,-0.029747948,0.043591358,0.045609293,0.017989819,0.019076254,0.036375651,-0.058293948,0.042634338,-0.03378823,0.005680342,-0.0073815879,-0.0035610924,0.012137326,0.049868706,0.027624941,-0.0063591564,0.0046322847,-0.0098658194,0.0087812326,-0.055179045,0.011714752,0.017207573,-0.061737205,-0.0035610618,0.05360551,0.12844382,0.06144097,-0.0073105199,-0.013216448,0.047088765,0.0067342687,0.018056408,0.017536597,0.0026033805,0.067764357,0.0025302442,-0.021020069,-0.044799407,-0.0095422444,0.0029979963,-0.033891983,0.0033900383,-0.026975463,0.0013137392,-0.0082268485,-0.0034970562,0.015724104,0.01423982,0.025341866,-0.02498497,-0.0026699227,-0.013284524,0.00066369324,-0.0064697435,0.045547417,-0.023872373,-0.029249962,0.020281483,0.0095450735,-0.0092276021,0.00826865,-0.017217229,0.025625581,-0.016424333,-0.018395732,0.012054245,0.013161314,-0.0043522319,0.017009198,0.017329695,-0.058111416,0.036358497,-0.015215986,0.021063086,-0.0036058657,-0.015194004,-0.0081715965,0.030820065,-0.003404636,-0.033671519,-0.0051934938,-0.010117542,-0.0086057448,-0.027034621,0.029063797,0.0054630584,-0.033989053,-0.005076772,0.046549786,0.089169489,0.017525426,-0.0058866703,-0.016900018,-0.0013511322,-0.0034202168,0.035220599,0.011175898,0.011005001,0.042094723,0.014679522,0.00060239053,-0.005743813,0.0081905754,-0.011004248,-0.02046266,-0.010426649,-0.027714237,-0.0087394637,-0.040434413,0.0019099103,0.034438977,0.019227155,0.076654559,0.019242506,-0.0064133849,0.048270714,0.0086072602,0.02849215,0.082763149,-0.012082082,0.03655201,-0.010517252,-0.0019634129,-0.02144241,0.03077153,-0.028682812,0.0052392932,-0.024944657,0.0044843605,0.0087725499,-0.029864846,-0.011334568,-0.030149123,0.0061209316,0.02209328,0.0016064369,0.012708711,-0.034240252,-0.0025738934,-0.0081401345,0.0086956517,0.00094481441,-0.0043882564,-0.014795654,-0.0074255015,-0.0091252407,-0.02065659,-0.030767331,-0.0075774717,0.01027322,0.03484826,-0.015413474,-0.017828121,0.021290556,-0.01502105,-0.013373474,-0.0051823861,-0.011107104,-0.03794414,0.047092125,0.023129667,0.01127197,0.043465298,0.017040086,0.015554892,0.0084622142,0.0092183562,-0.0085455825,-0.02437984,-0.0069503565,-0.026888006,-0.010208714,-0.064379786,0.003573198,0.047498202,0.014484447,0.11665536,0.037957533,-0.01435627,0.063911457,0.010989563,0.032299482,0.11460078,-0.0078619623,0.060517174,-0.02143557,0.0027691698,-0.02852046,0.046695719,-0.047060488,0.0082493258,-0.037475453,0.018461223,0.0029921503,-0.061268992,-0.019231313,-0.049204887,0.0047115551,0.058999842,0.0030562539,0.028446916,-0.055169073,-0.021917042,-0.0057418182,0.021149988,-0.0038120955,-0.010903514,-0.017636066,-0.019275305,-0.018932983,-0.017708632,-0.046260954,-0.02342373,0.025018359,0.081412993,-0.026693121,-0.055332448,-0.010237556,-0.016851431,-0.021696413,-0.0042712869,-0.021165123,-0.066016811,0.064178245,0.045151192,0.0162478,0.045583531,0.02497886,0.017014256,0.02261489,0.0081113413,0.0025455445,-0.010644256,0.0022019161,-0.022533311,-0.0055001456,-0.034132336,-0.0023729921,0.022437396,0.013938484,0.067740539,0.010815399,-0.0034602402,0.035551208,0.0074743279,0.022107165,0.060928595,-0.0090471608,0.031068501,-0.015620684,-0.0025153684,-0.013443901,0.021279018,-0.022452699,-0.0014136175,-0.022331184,0.005955821,0.0045603855,-0.023890371,-0.0054799248,-0.028066639,0.00050979084,0.019898138,-0.0064885295,0.0092243533,-0.019483378,-0.012973437,0.0054075562,0.0068726858,-0.0009335399,-0.0048295005,-0.010285116,-0.013096906,-0.011332907,-0.017435192,-0.026927365,-0.0069552427,0.016705385,0.03376411,-0.013759038,-0.015431889,0.010041028,-0.0088994334,-0.0090768993,-0.0036361158,-0.013008039,-0.042503262,0.034392416,0.023733196,0.011915097,0.026679204,0.020266797,0.011204946,0.011924646,0.0059733239,-0.0081805709,-0.001852658,-0.0029910207,-0.016704895,-0.00332987,-0.021293597,-0.0022237752,0.0098705063,0.0093054889,0.030632425,0.0039405601,-0.0058332005,0.016362388,-0.00058218227,0.012496255,0.031839167,0.0041868115,0.013366822,0.0031878626,0.006020415,-0.013840815,0.020994541,-0.01484697,0.0097927845,-0.014820299,8.3397756e-06,0.0045934277,-0.013757528,-0.0012698611,-0.005480517,0.0080662757,-0.0011268511,0.0036226172,0.0015279155,-0.014587505,0.0046914716,-0.0079634948,0.0062433236,-0.0062678779,0.011112189,-0.01060027,-0.0099789532,-0.0028073119,0.00054974593,-0.0076627708,-0.0040286618,0.0014812264,0.0085110255,-0.0044327043,-0.0081046822,0.020578952,-0.0059688361,-0.011346857,0.00082116429,-0.0017431855,-0.010215664,0.026941586,0.012281763,0.0062085771,0.020485426,0.0056872527,0.006179246,0.0062774226,-0.0011012441,-0.0064781805,0.0013963516,0.0035791259,-0.0080821209,-0.00078974772,0.0015912683,-0.0021549195,-0.002965008,0.0070520163,0.01145013,-0.0059806101,-0.002491907,0.0014957,-0.00096410737,0.0034233692,0.015483778,-0.00065680999,-0.0082507594,0.0090365684,-8.5915302e-05,-0.0050089633,0.00041343302,-0.0043954564,0.000801187,-0.0034855252,-0.0043425818,0.0088547367,-9.4372256e-05,0.0045723011,0.0033880698,0.0064074095,-0.0042824372,0.0032790251,0.0018682514,0.00016858022,-0.0025458313,0.0021769855,-0.0034849741,-0.0012762158,0.0013157217,-0.0030685201,-0.0024022054,-0.0011094212,0.00014027834,-0.0027870002,-0.0023019154,0.0027753611,-0.011320399,-0.0020394554,0.010322557,0.018521693,0.0057904996,-0.0011052336,-0.0019376703,-0.0021126256,-0.0055659346,0.00060875315,-0.0016960179,0.0057970037,0.010434313,-0.0038197158,0.00094573025,-0.0067667382,0.00083267388,0.0060513336,-0.0039225089,0.002778721,-0.00053735816,0.00020132077,0.0047679098,-0.0035850941,-0.004852372,0.0086776467,0.0030445009,-0.0072900016,-0.002999699,-0.0028696976,-0.0017641251,-0.00080871802,0.018717199,-0.0087951373,-0.010216677,0.0018767398,-0.0010137654,0.0084812963,-0.016268004,-0.0036508781,-0.0059326344,-0.0025579469,-0.0028174715,0.00959823,0.0040587358,0.0072776987,-0.005953948,0.0066552767,-0.0065007731,0.011030484,0.0012397513,0.014668162,-0.0013736949,0.0015959087,-0.005577488,0.00389582,0.00067301002,-0.0020422274,8.9783504e-05,-0.0019846107,-0.004227947,-0.0011087993,-0.0055405709,0.0090895713,0.0013579318,0.0030835433,0.0028462364,0.014918825,0.0073104653,0.0014330931,0.0018520405,-0.006564723,0.0041327917,0.0039413989,0.00016244918,0.0012911722,0.0057295859,0.0052946377,-0.0025882552,-0.0092479014,-0.0074786999,-0.0067838829,-0.00090987084,0.0044287437,-0.0070538672,0.0020474845,-0.00500316,-0.0012187091,-0.0012122317,-0.0017348275,0.014087172,-0.00013000769,-0.0029131499,0.0038394899,-0.00305483,0.0072619964,0.018278032,-0.0020600592,-0.00020779063,0.0028410489,-0.0040203233,-0.0029428779,0.0050147472,-0.0016951487,-0.0016991188,-7.2360669e-05,-0.0039366901,0.0088862107,-0.0057913682,0.00054201615,0.00042209127,0.0036619924,-0.0053251215,0.0027628395,0.0022211673,-0.0042224786,0.002265324,0.0018620381,0.0059687224,0.0032305646,0.00058664849,-0.0027292086,0.0045382778,-0.0010365961,0.0014373886,-0.010404555,-0.0015663637,0.0061941381,-0.005544559,-0.0027941073,0.0019430979,0.011770365,0.0047808579,-0.00023507854,0.0043926559,-0.00081001088,-0.0068356799,0.0087334777,-0.00034689513,0.0050277636,0.012450727,0.00013118318,-0.002551866,-0.0035736633,-0.15243903,-0.22417413,-0.16903891,0.023862852,0.0024334487,-0.055213911,0.042486085,0.032185254,0.0063830511,0.035814691,0.035173028,-0.1305378,0.087663869,0.0059505665,0.12440237,-0.030300519,0.16413811,-0.15958048,0.072070718,-0.10446377,-0.11938638,0.1127088,-0.12438727,0.12985552,-0.033603516,0.031825955,0.082360234,0.10342606,0.023434654,0.0080156884,-0.13725293,0.011557656,0.25435086,-0.061497353,0.069820276,-0.30264045,-0.062976345,-0.057959307,0.20319693,0.23034263,0.39480026,0.039864634,0.13899185,0.1049332,-0.074126913,-0.12120673,-0.38085311,0.31265883,0.15686691,-0.032439027,-0.11054055,-0.12312994,0.040811662,-0.11857396,0.055792183,0.048078753,0.068701521,0.056727096,0.029314388,0.0524657,0.14810949,-0.18391861,0.14341842,-0.00059816644,-0.077126434,-0.10483904,-0.068170316,0.013614526,-0.0043930395,-0.01758266,0.060836174,0.018757939,-0.029563226,0.020810914,-0.039291735,-0.10059839,0.03234815,-0.045146164,0.055593477,-0.026363507,0.043193478,-0.068396377,-0.047790298,-0.023468102,-0.052913161,0.063346119,-0.062394697,0.085524819,-0.0077442528,0.052077609,0.024680371,0.062056043,0.046992156,0.021725317,-0.015784129,0.020508195,0.049324902,-0.013995041,0.019589455,-0.10887752,-0.0045740252,-0.030052265,0.080418374,0.11635074,0.19749173,0.027372423,0.073483189,0.053800912,-0.0132983,-0.047777429,-0.1712008,0.12441751,0.0016692746,0.0024376523,-0.00027866899,-0.0022346084,0.055070255,-0.042030563,0.024219533,0.045903865,0.080105155,-0.0076665142,-0.020594088,0.023537941,0.065667979,-0.10200368,0.056904604,-0.039082571,0.044367714,-0.040181199,-0.032548878,-0.0090383751,-0.017950495,-0.039750171,-0.11039218,-0.004635889,0.078671198,-0.0043291129,0.1724715,0.12531619,0.0054069042,0.11192583,0.019336801,0.05499919,0.028358105,0.025680294,0.18443857,-0.065522789,-0.015002063,-0.034719309,0.084746767,-0.06664267,-0.029393653,-0.079141656,0.085667296,-0.025161893,-0.093814624,-0.041597369,-0.090184643,-0.045469269,0.19578619,-0.039777171,0.081992682,-0.087642881,-0.05609986,0.022542103,0.04039134,-0.062717139,-0.077522112,0.00019090218,-0.032942178,-0.02536133,-0.050967376,-0.043654512,-0.050230067,0.069311374,0.16946926,-0.037341879,-0.15712547,-0.21314012,-0.10412758,-0.055232116,0.011697554,-0.054978838,-0.12130069,0.075284799,0.078429976,0.016698811,0.0034472661,0.023689182,0.039747874,0.057432562,0.016985948,-0.10077079,-0.13321665,0.00052649304,0.016130671,-0.065954754,-0.094466588,-0.0017753568,0.1213854,-0.0150016,0.16329408,0.090599112,0.084497294,0.1140114,0.0084146808,-0.050418825,-0.00034476591,-0.062274743,0.23472007,-0.041670075,-0.029375896,0.0046683908,-0.037009316,-0.022038814,0.01020313,-0.14598914,0.059712964,-0.049693456,-0.084987397,-0.042318138,-0.13257244,-0.05128873,0.19795586,-0.031018095,0.057038607,-0.1796532,-0.07802505,-0.036391514,0.080041441,0.11020694,0.090513726,-0.057085649,0.010660833,0.0013006836,-0.085911447,-0.041297225,-0.093245044,0.13750994,0.22428845,-0.046861835,-0.129043,-0.2301927,-0.14859572,-0.10596178,-0.01350514,-0.10087396,-0.086167326,0.16541846,0.080328258,0.024808924,0.037371095,0.026922933,0.10486846,0.13686705,-0.043124426,-0.073717421,-0.072032209,0.014050005,0.0039202496,-0.0089480922,0.036862117,0.010099705,-0.0011116982,-0.015198815,-0.043929593,-0.046799707,0.037740499,-0.05489752,0.018627123,-0.062790328,-0.043130554,-0.045800827,-0.010143923,0.019013825,-0.024996989,0.028739279,-0.054687504,0.046314368,0.0047292633,-0.010739557,-0.0011832069,0.013407698,0.045266986,0.0036871963,0.023052332,-0.0013259794,0.002417333,0.016063279,-0.008562389,-0.053298678,-0.010234761,-0.0301942,0.033816593,0.097493142,0.12986339,-0.010982403,0.039000751,0.034685477,-0.0070768694,-0.015238303,-0.067537209,0.077015598,0.0040386714,-0.0024838514,0.036085747,-0.0062340455,0.023078926,-0.042400894,-0.0025498267,0.0095861367,0.046886496,0.014469609,-0.012649089,0.0059665776,0.022777595,-0.051475554,0.027322889,-0.0019671006,-0.022121051,-0.012430243,-0.009972905,-0.0021232681,-0.0075051984,-0.0047911803,0.0019886166,-0.001905665,0.0017538678,-0.0010369907,-0.0036904085,-0.00061340102,0.014667318,-0.010171836,0.011938027,0.00053638369,-0.010009077,1.2731854e-05,-0.011107044,-0.0020309859,-0.018150959,0.018479993,-0.0087059417,-0.012420126,-0.015312246,0.00030973321,0.012980707,0.012812574,0.0018845762,-0.0010259158,0.0034054362,0.0069211712,0.010972173,0.0086426068,0.029848555,0.0014253656,-0.0036811725,-0.015626253,0.0053388667,-0.0015077671,0.0082433853,0.0085169112,0.0052241963,0.0084478716,-0.0030013232,-0.015729247,-0.044551042,0.038679075,0.035770374,0.00097942395,-0.011182893,-0.041669131,0.0083496748,-0.01732519,0.01330221,3.7453795e-06,-0.0027581247,0.0055689563,0.0077666374,-0.0043379608,0.001303639,-0.012772198,0.0063634967,-0.0052237761,0.0046877126,0.0039933998,-0.00052845658,-0.00082654286,0.0017805457,-0.0015907183,0.0030836182,-0.0026124279,-0.0045411603,-0.00060073279,-0.0043523077,0.0048659059,-0.0022190023,0.0018486468,0.0035589152,-0.00027224996,-0.0047589566,0.0024646412,-0.0014677655,0.001774386,0.0016182173,0.0037343226,0.0034360898,0.0027993339,-0.0017619724,0.0015714416,-0.0021832615,-0.0038231714,0.0037130499,0.0020289566,0.0073839772,-0.0037162771,-0.0021384795,0.00064085836,-0.00095735695,0.0032708639,0.0036893859,0.0012033543,-0.0016254962,-0.0058765161,-0.0068607424,-0.0044075706,8.9864175e-05,0.004195695,-0.0025472753,0.004144477,0.0012388037,-0.0044021923,-0.0024851877,-0.0036336668,0.0027800521,0.0014520999,0.00049984993,-0.00041291232,-0.0054740656,-0.0015245209,0.0040508273,0.00023695817,0.0025944609,-0.00081143077,-0.0015683443,0.0032502792,0.0026691593,-0.0023968682,0.018555269,0.073903649,-0.012964432,-0.029921224,-0.0063623719,-0.0080679409,-0.091930984,0.036980839,0.045838766,0.057028603,0.12322085,0.10124888,-0.036188862,-0.040043111,0.066961807,0.064064332,0.29176842,-0.050749889,0.053770806,-0.028130073,-0.013826827,0.086530618,0.010644392,-0.057037198,-0.0099231068,-0.0097203774,-0.0094257261,-0.011981737,-0.13606692,-0.021435565,-0.031903618,0.069474744,0.093714653,0.11358077,0.091772127,0.10788364,-0.052759923,-0.01104394,-0.027312015,-0.071385002,-0.17572681,-0.033267299,-0.040986555,-0.077989239,-0.032128617,0.029256912,0.086909067,0.091592255,0.22967263,-0.0075163511,-0.10674621,-0.084367453,-0.0089763539,-0.013429501,-0.030383704,0.019642589,-0.061732517,0.042627652,0.030763117,0.010315552,-0.027730326,0.010789538,-0.060716473,0.014711698,-0.048572738,0.17085319,0.053887774,-0.0073235206,0.034203812,0.016935685,0.051126136,0.037646622,-0.011849718,0.079603937,0.0085147692,-0.012686066,-0.028721747,-0.0041777346,-0.014560619,0.03687292,0.061735026,-0.033046449,-0.061976858,-0.049444384,0.022942652,0.063814359,-0.051398611,-0.013924807,-0.013708493,0.083923622,-0.032647576,0.035251949,-0.035524161,0.0091034792,-0.013983133,0.083113606,-0.041260342,0.061932158,0.064829225,0.073254258,0.053432697,-0.015337964,0.0092501382,-0.0094732153,-0.095910126,-0.053798417,-0.00092544962,-0.031141694,0.0091099326,0.015317164,0.01459077,-0.066889643,0.024911552,-0.0039583643,0.054848294,0.13887615,0.0091012766,0.05094912,-0.056936669,0.034419554,-0.029768906,-0.052234131,0.057461159,0.022602369,0.038020707,0.094092602,-0.02931599,-0.0056775414,-0.052475959,-0.044523755,0.022779657,-0.055784673,0.13613614,0.046914434,0.12787332,0.037457822,0.016775014,0.11433796,0.12851715,0.096376587,0.022605337,0.050920245,-0.055511647,0.089214197,0.25780817,-0.036308172,0.14256784,-0.16842493,-0.0044266443,-0.04979167,0.0036562698,-0.14044896,0.051007181,-0.021544153,0.00074265211,-0.081592123,-0.023408406,-0.0034469977,-0.038331451,0.043437332,0.082698408,0.092373914,0.21757732,-0.086218619,0.03501951,-0.093903879,-0.04797261,-0.066371966,-0.14920322,-0.023802401,-0.13967234,-0.10304457,0.087260109,0.039483645,-0.2489308,0.094437339,0.030139589,-0.015744463,0.021647162,0.19055336,-0.067864681,-0.0088390538,-0.075547511,-0.029581427,-0.078948514,-0.022831547,0.11138495,0.014571189,0.028539185,0.19086332,0.051786509,0.087363023,-0.10722954,0.22075935,0.084091658,-0.04062678,0.044326226,-0.031843556,0.049414275,0.041726422,0.0057711088,0.15201517,0.12792907,0.04950489,-0.011676534,0.091877278,0.024564821,0.099982196,0.16396921,-0.064586938,0.03679151,-0.17502773,0.062685224,0.14479444,-0.23932732,-0.12708415,-0.061404727,0.13254581,-0.064787967,0.1163698,-0.060847327,0.036878756,-0.13727324,0.15035263,0.10084223,-0.048447919,0.23797231,0.12636631,0.065504086,0.017840299,0.13620119,-0.045477513,-0.14542487,-0.072961571,0.025403908,-0.017703001,-0.03643723,-0.068075997,5.3573177e-05,-0.035519776,0.099719418,-0.039573927,-0.032558404,0.059412918,-0.089186789,0.054582213,-0.05932235,0.025227926,-0.088587048,-0.069485177,0.22270417,0.057334618,0.14452428,0.095023107,-0.043723903,0.0023057499,-0.065482759,0.17094095,-0.12074283,-0.03772544,0.14481514,0.2349426,-0.22924143,0.035974864,0.012103486,-0.0051122596,-0.23603955,0.058649596,-0.003641575,-0.095501816,0.053559803,-0.053955367,0.1192067,-0.018130132,-0.30089204,-0.032273297,-0.086096318,0.16434189,-0.16515508,0.0045126086,0.0010577898,0.0086518271,-0.11182659,0.13291635,0.0066077846,-0.037660976,0.20067725,0.12347691,-0.33571946,0.22769282,0.022777542,0.16138682,-0.07519284,-0.19456184,-0.14641413,0.17786842,-0.20464425,-0.076253902,-0.03270687,-0.074078967,-0.069052953,-0.0048525179,0.039821189,-0.13428313,0.37135996,0.13617188,-0.20527063,-0.01437969,0.13185073,-0.040951028,0.025126047,-0.108062,0.22641395,-0.044388077,-0.19701084,0.060529943,0.063774442,-0.22372543,0.054217478,-0.17160664,-0.05590695,0.15203032,0.018995434,0.036715735,0.019855356,0.055456772,0.085332156,0.02085208,-0.0087681728,0.05242644,0.025512628,-0.045634201,0.002547483,0.0058818977,0.004028785,0.040921387,0.17542519,-0.051730769,-0.063581079,-0.031554607,-0.029596158,0.041306618,0.013417523,-0.010674962,-0.036842467,0.019468096,0.034124846,0.032825659,-0.0025161423,0.028834722,-0.045737722,0.084298465,-0.050346047,0.079428397,0.084968621,0.077309745,-0.00010095297,-0.024770345,0.018310763,0.0080940328,-0.043566004,-0.026589297,-0.0748987,-0.034536356,0.0096675011,-0.0019808473,-0.11418038,0.068386446,-0.020946968,-0.0083120527,0.088480158,0.092156401,0.025398571,0.0036417734,-0.037622341,0.037541821,0.005009649,-0.03533015,0.0019576864,0.0088510522,0.027015334,0.077462955,-0.0048074182,-0.028048697,-0.046144333,0.10554272,0.026410031,-0.015211562,0.055426772,0.062863964,-0.010059585,0.017630102,-0.01924991,0.023060554,-0.045583467,0.0022722473,-0.011559503,0.011465261,-0.013198848,0.0051721185,-0.0038049192,0.015398107,-0.095006087,-0.04355026,0.0021763354,0.049016344,-0.066373283,-0.0050293785,-0.010701954,0.032456361,-0.0037304503,0.051566805,-0.02859588,0.01252129,0.025014825,0.051121991,-0.10214548,0.046207365,0.063187433,0.059410641,0.039309133,-0.036943656,-0.028589557,0.016249076,-0.12653743,-0.032656355,-0.0075372931,-0.019199556,-0.017006136,0.0020971383,-0.028638097,-0.112027,0.074223394,0.034274512,-0.023144857,0.067883198,0.026842147,0.021664226,-0.013024099,-0.021965289,0.038142356,-0.042352155,-0.0041892241,0.020626809,0.037929939,0.014631998,0.007426282,-0.045266032,-0.036778471,0.067853174,0.01884265,0.006439222,0.016180577,0.015738927,0.040177762,0.016449661,-0.010950224,0.032093318,0.0068036621,-0.030062225,0.0028265704,0.012020749,0.0008481907,0.017772611,0.084513603,-0.025464596,-0.030603076,-0.035591579,-0.007561744,0.026963482,-0.027510437,-0.0012503325,-0.017612599,0.016640865,0.012292571,0.023404675,0.0085590147,0.017798007,-0.033748162,0.041637316,-0.012493579,0.022322219,0.047545013,0.026170732,0.0014048259,-0.014338251,0.016213901,0.0029517195,-0.022430479,-0.016602248,-0.015582865,-0.02416655,0.0050565309,0.011556084,-0.069011062,0.00629357,-0.0047205029,-0.0068625876,0.01095215,0.057009021,0.0060124903,0.016023956,-0.013372537,0.011077038,0.0088622578,-0.024905314,0.026531069,0.0095533807,0.014628918,0.036492354,0.012591156,-0.011985101,-0.060599875,0.1922768,-0.030089127,-0.039265027,0.066772331,0.12416264,-0.12568359,0.06773834,0.051303635,0.0029476253,-0.015386569,0.14825925,0.0094531627,-0.020250811,0.042773477,0.050901778,-0.10377515,0.017558053,-0.010278373,-0.037376134,0.029995297,0.074042581,-0.053682299,-0.084506628,0.0070490214,-0.0074888276,-0.098442977,0.10064733,-0.035832102,0.0063706572,0.096421395,0.073317479,-0.14799456,0.13271143,0.096560403,0.22385096,0.028317331,-0.05270962,-0.042333215,-0.018361901,-0.24361382,-0.036770192,-0.055212114,-0.071850562,-0.013122082,-0.080395307,0.071482179,-0.14813602,0.20200834,0.0541444,-0.169697,-0.037073388,-0.0042363116,0.014322765,-0.05433006,-0.018004548,0.023521404,-0.062383044,0.058860173,0.066400348,0.062955499,-0.074214459,-0.022752225,-0.090903953,-0.00344191,0.035301268,0.0056323644,0.0035432997,-9.5928996e-05,0.0090435782,-0.0021145267,0.0034830289,0.0043309455,0.005834753,0.012195672,0.0081493811,-0.0069817989,0.0070205625,-0.0015614556,0.0082195125,0.015014158,-0.0037916115,-0.0084064909,-0.015246575,-0.00053214624,-0.0004693269,0.00053032892,-0.00010890752,0.0020322535,0.003661044,0.0085644256,-0.0020500362,-0.0088424394,0.0016223726,-0.0082068288,0.0080094365,-0.0053464575,0.0067503219,0.010559498,0.021882609,-0.00086919458,0.0013523558,-0.0013392728,-0.0044960689,-0.025315045,-0.005417121,-0.015364133,-0.008577946,-0.0019284423,0.00096720078,-0.0021205845,-0.0092056039,-0.004975013,-0.0041672434,-0.0012720546,0.013254833,0.00092792245,0.0033950885,-0.0012224976,0.0037526298,-0.0099454879,-0.0070265198,0.0051590392,0.0066211932,-0.0020798495,0.01956568,-0.0015922764,0.0018932436,-0.15182537,0.26866289,0.11397126,-0.082683486,0.058004307,-0.060081272,0.13297654,-0.0014449767,-0.027106501,0.20227221,0.034094204,0.03057508,0.0044750286,-0.0027935777,0.076104131,0.088698622,-0.12819224,-0.08520909,-0.0027177467,-0.17310833,0.13450751,0.25668669,-0.45083944,-0.24446917,-0.093330611,0.24366002,-0.24764978,0.17961325,0.026769409,0.062093574,-0.064065243,0.23743899,0.071344115,-0.06316742,0.26551591,0.3088438,0.095226383,0.0079180575,0.16699387,-0.047475924,-0.058127123,-0.079840076,0.05292268,0.030984129,-0.031327275,-0.13569711,0.080770087,-0.054939089,0.053608216,-0.026495707,-0.0091513282,0.030727848,-0.11787235,0.10531389,-0.12703101,0.042198058,-0.085047506,-0.12840251,0.30800103,0.07785388,0.19541206,0.021818509,-0.15128717,-0.034684864,-0.072927763,0.20752497,0.10291432,0.043038914,0.027477734,0.093259035,0.13279037,0.044938599,-0.05760034,0.10006343,-0.049402582,-0.10335437,-0.030840982,0.01171768,-0.072068601,0.017478022,-0.031295286,-0.024425754,-0.14700575,-0.06630593,0.013774033,0.052466169,-0.049857126,0.0069505228,-0.038905009,0.078680342,0.0086366972,0.037227566,0.034852761,0.090120173,-0.02674605,0.13093937,-0.15664188,0.14263475,0.020644194,0.17885865,0.050652878,-0.036244769,0.015453699,-0.015195328,0.0039038941,-0.065884115,-0.063179738,-0.018394049,0.035623606,0.057966582,-0.10275394,-0.087691469,-0.084260849,0.0045711767,0.1317046,0.24408787,0.052634965,0.081117463,-0.026597139,0.052650226,0.042589358,-0.09273963,0.017029169,-0.0050499513,0.060292521,0.13865865,-0.046887449,-0.028289304,-0.10778039,0.12898795,0.071884756,0.048765051,-0.093379628,0.083252631,0.019204712,0.0062522326,-0.098049937,0.056938074,-0.024335426,-0.037127379,-0.010137518,-0.011670822,-0.057196673,-0.013784917,-0.035744359,0.054167376,-0.16955722,-0.05924898,-0.01119497,-0.010039021,-0.033284722,-0.034682519,-0.0019497799,0.034191512,0.0530538,0.078129995,0.017635217,0.044989745,-0.0018197641,0.089959464,-0.18070466,0.047131401,0.065015827,0.082341775,0.010924537,-0.061417389,-0.0071418067,-0.059257631,-0.087078948,-0.017647691,-0.086856167,-0.00081930843,0.020659342,-0.024710158,-0.13776381,-0.081446026,-0.14034051,0.016929965,0.090177088,0.27295205,0.080935662,0.052967898,-0.0029599402,-0.021207491,0.027700575,-0.015822446,0.058130871,-0.024440442,0.064009966,0.10785894,-0.00038293474,-0.055677645,-0.087516485,-0.028503137,0.18056651,-0.094180251,0.073600119,0.11099375,0.17825428,-0.10154421,-0.12841445,0.175658,-0.11922249,-0.093789606,0.064407894,0.055489316,-0.078478796,-0.041559012,0.13243383,0.046652743,-0.1032228,-0.14036675,-0.0089623025,0.071093311,-0.2782831,-0.20149526,-0.066942895,-0.039935312,0.085931534,0.014840915,0.087337401,0.10899036,-0.086632881,0.27438188,-0.14286629,0.13060847,0.23216579,0.21521712,-0.015413284,-0.099875068,-0.014328824,-0.18513646,0.10375718,-0.087010915,-0.15457688,0.048900253,-0.017619947,0.1353134,-0.32513642,0.076377659,0.10101304,0.022608149,0.028126538,0.12463923,-0.029965536,0.11742839,0.10667186,-0.16406295,0.10411285,0.034201913,0.10249743,-0.12757784,-0.0091487307,0.24086953,-0.12374533,0.0089700003,-0.12522655,0.10612742,-0.054333455,-0.093192927,0.049678321,-0.10298797,0.10175941,0.07831022,-0.045825107,0.036895497,0.14121123,0.013549078,-0.030565258,-0.33538253,0.073195947,0.050951002,-0.2484768,-0.14768816,-0.094706488,0.061010059,-0.058394167,0.26498499,0.065366293,0.0022054774,0.073923725,0.10365226,-0.030494605,-0.045359049,-0.24913374,-0.069474656,0.27551197,0.068809025,0.0082384939,0.34167745,0.12243654,-0.019501511,0.14948723,-0.060445366,-0.29665494,0.06959386,-0.38844858,-0.12839255,0.034049286,-0.13466668,-0.075932602,0.18462259,-0.0060642087,0.013852015,0.33793409,0.074150208,0.030444196,0.17607443,0.11808222,0.00016137822,-0.16044937,0.047542817,-0.10106259,0.035004852,0.044924313,0.097493426,-0.1032603,0.077689327,-0.14059541,0.0058283342,-0.031430179,0.21844838,0.06701494,-0.00092809745,0.02728681,0.042061472,0.0092893283,0.03408623,-0.0045506707,0.098899247,-0.013194007,0.023492318,-0.058721851,-0.025177342,-0.00083464695,0.04806457,0.11290101,-0.030766009,-0.099581879,-0.054859973,0.024711053,0.070228433,0.0010728092,0.0061393452,-0.019145856,0.08307296,-0.024315364,0.002579457,-0.092746022,-0.011182978,-0.0039676064,0.097905147,-0.046373944,0.13321788,0.057964987,0.12602983,0.030527599,-0.053356953,-0.017846609,-0.048595632,-0.16512326,-0.073722651,-0.040193025,-0.070708495,0.0075672206,0.054632162,0.060343729,-0.064329817,0.092473009,-0.0010906882,0.070194161,0.10926615,0.036743769,0.067850639,-0.065988966,0.03280448,-0.049184392,-0.028973077,0.009703281,0.00065763664,0.011724745,0.10199096,-0.063931542,0.010474283,-0.0027179985,0.019538205,0.0027129801,0.0017773471,0.010141267,0.0035431142,0.016035637,0.0027204264,-0.0087787873,0.010293343,-0.015069075,-0.018862564,-0.0016304302,-0.0060998159,-0.0024475643,-0.0084837575,0.021043692,-0.0016024209,-0.010475238,-0.0043614419,-0.0053747433,0.01576211,-0.014123982,-0.0001026537,-0.0059428646,0.007026305,-0.0052598939,0.0038483405,0.014013533,0.0050202327,0.0018623947,0.016718531,-0.020910584,0.012907662,-0.0013305443,0.0089493576,0.0015187228,0.0033157607,-0.0020169557,0.0033828762,0.008015985,-0.0028739661,-0.0076166603,0.0035164802,0.0029603096,0.0086918407,-0.0071892301,0.0033179419,-0.0018207892,0.001791502,0.025438708,0.012551319,-0.00079807401,0.0053896508,-0.0053451555,0.0060756343,0.00040411657,-0.0034989561,-0.0016753901,-0.0018944402,-0.0060050446,0.017224871,-0.0066457693,-0.0038944508,-0.10099291,0.20124746,0.069568207,0.040902985,0.051879244,0.092433141,0.045934333,0.014305478,-0.029431472,0.073255793,-0.08291573,-0.097686007,-0.0060471231,0.036270629,-0.036231324,0.016660317,0.1292322,-0.025480838,-0.14009059,-0.084836213,-0.011481652,0.13284387,-0.092388658,0.044234586,-0.07864654,-0.0076428448,0.097357945,0.04000809,-0.015254538,0.1060812,-0.13314468,0.17735208,-0.12028468,0.15841419,0.10276437,0.08163509,0.018370221,-0.043460626,0.01938664,0.00074980339,0.035671518,-0.088420972,-0.026606909,-0.0170386,-0.017521704,0.05994692,-0.24063313,-0.024216936,0.19294281,0.025550216,-0.067804904,0.029780762,0.040724277,0.042985586,0.03494136,0.0087883859,0.092452134,-0.01742375,0.040019936,-0.020919844,0.036957561,0.13550509,0.02029176,-0.063069499,-0.04925294,0.08055223,0.02712969,-0.0087646029,-0.15053281,0.005649944,0.0061033531,0.017258608,-0.086751624,0.096408355,0.031045483,0.0067933157,-0.0050278186,-0.050187153,0.045600259,-0.0099723182,0.32554695,-0.0063514602,-0.21211348,0.00082141873,-0.0018118737,0.046153751,-0.097047379,-0.078287028,-0.0051991995,0.11490707,-0.00098939351,0.074133269,-0.040972596,-0.0027657211,0.080990299,0.10721513,-0.12610692,-0.026918976,0.094816648,0.31066775,-0.10310578,-0.048018811,-0.0072247261,-0.064382876,-0.048001164,-0.063304941,-0.081941043,0.0089912147,0.008156982,-0.0075020357,-0.065044889,0.017143069,-0.25064771,0.027891248,-0.031512225,0.11759879,0.086058157,-0.0076191351,0.036150883,0.0037649267,0.084191245,-0.0088923752,-0.035731394,0.038277686,0.10096474,-0.068564509,-0.096078997,-0.096185246,-0.0012003005,0.096734943,0.013318614,0.11770285,0.13683941,0.067627899,0.21022877,-0.02717705,-0.0020135544,0.13421513,-0.15958848,-0.10383277,0.015858526,0.013892337,-0.0046996392,-0.023162982,0.32423384,-0.051556005,-0.047954543,-0.1118467,-0.054590424,0.076130748,-0.090652436,-0.023312535,-0.014841072,0.044851737,-0.041041279,-0.12831716,0.052320452,0.069946657,-0.036545668,0.11490463,-0.036592979,0.17614574,-0.016358955,0.063347624,-0.092852174,-0.1280292,0.0083787074,0.090157546,0.16200717,-0.09989426,-0.1518712,-0.049603979,0.063937369,0.11091222,-0.13815709,0.13586078,-0.02446002,-0.0366942,0.14007588,0.021129088,0.053039196,0.00514718,-0.12067115,0.088577747,0.061778451,-0.032491887,-0.051500409,-0.10271535,-0.0047408341,0.072560795,0.017655937,0.10065493,-0.0052705793,0.054844634,0.0034809209,-0.028224471,0.018553681,-0.0072918555,-0.0026310204,0.016340658,0.015210972,0.03654524,0.029205484,0.045302254,-0.002961393,-0.031726289,0.022796409,0.031469414,0.082881917,-0.026404331,0.032188165,-0.015440092,0.011373939,0.051214871,-0.052423284,-0.058199401,0.00022722863,0.018638302,-0.048882505,0.017153565,-0.020212206,-0.0024044954,0.01205364,0.049488692,0.028621171,0.044544509,0.046374906,0.097395873,-0.0062634513,-0.0045513475,-0.00022505311,-0.040174271,-0.081689717,-0.0046269037,-0.01558728,-0.020934181,0.0073314022,0.0075019718,0.069695231,0.02693732,0.08069926,-0.0064337849,-0.045980771,-0.021442328,-0.019993682,0.017229875,-0.031349357,0.019383522,-0.016001554,-0.011039888,0.048899416,0.0088408255,-0.0093440218,-0.0070178908,-0.040456843,-0.0051627623,-0.024612447,0.082524575,0.016838509,0.011593593,0.0039537538,0.014755075,0.017312993,0.01000704,-0.0095661574,0.026954722,-0.0062419526,-0.01264173,-0.0080956136,0.012753572,-0.017513321,0.009627608,0.032231735,-0.0062121938,-0.034461878,-0.028901155,0.0038718582,0.018586129,-0.0051864736,-0.0048919078,0.0037484177,0.014285539,0.012282349,0.0069654472,-0.0024521336,0.013613421,-0.015917159,0.026284314,-0.025363746,0.035931486,0.014667468,0.027066996,0.0061523984,-0.020393959,-0.0062374263,-0.010007523,-0.04493508,-0.026143608,-0.022975141,-0.015405776,0.01069913,0.011159514,-0.023796982,-0.027560571,-0.011055075,-0.0079980035,0.016849825,0.071407733,0.011616198,0.013671257,-0.020583467,0.0046240884,-0.0087179177,-0.013466098,0.026446324,-0.0030070836,0.005737379,0.051934582,0.0039798251,-0.0029082754,-0.018554579,0.21921835,0.023698763,0.11048774,0.1240693,0.076436243,0.12667074,0.026886965,0.0072260318,0.092863898,-0.068275331,-0.049798041,-0.023649565,-0.0077083002,-0.038794229,0.024756189,0.15671588,-0.043502993,-0.070904269,-0.054589945,-0.004452286,-0.0057936574,0.060134202,0.002276946,0.010184829,0.03105806,-0.026429499,-0.088040227,0.014737361,0.030472421,0.0064588731,0.053480743,-0.11828428,0.16851177,-0.054034064,0.10196416,-0.030237187,-0.082016016,-0.078600966,0.042585567,-0.056064084,-0.074538355,-0.12479321,-0.093141902,0.085317544,0.082504812,-0.049559426,-0.0057246334,-0.17612917,-0.0089489463,0.12072431,0.19115119,0.072683666,0.02042763,-0.10421769,0.075435489,0.015555669,-0.083869623,-0.034545242,-0.03481678,0.0011921923,0.12160124,0.030953348,0.036406145,-0.022253299,0.086565596,0.025485316,0.023620552,-0.021874984,0.014122839,0.037054104,0.013884384,-0.013286488,0.034927441,-0.012690942,-0.033318385,-0.02247094,-0.036037268,-0.012525055,-0.012818564,-0.082029224,-0.015474522,-0.037002994,-0.015773835,-0.001671579,0.022147053,-0.016814203,-0.035492291,-0.0090843154,0.02320106,-0.0074679172,0.0081898788,0.0090670935,0.036565658,0.00044569039,0.053544353,-0.043273736,0.095595169,-0.0065109026,0.12097744,-0.013390771,-0.0040753723,-0.026584976,-0.019367228,-0.042249928,-0.039193475,-0.014759559,-0.025724623,0.011928681,0.027851357,-0.0040441406,-0.035612489,-0.032241537,0.0078693624,0.01785262,0.08030521,-0.0037148211,0.031398382,-0.0041412026,0.014214824,-0.0023073517,0.0048031823,0.028783221,-0.0013355561,0.011002333,0.067015575,-0.02564784,-0.015279416,-0.023716911,0.092630447,0.0033440867,0.040876494,-0.016930591,0.043701724,0.0029609547,0.025553383,-0.008797801,0.017290545,-0.025708258,-0.029764905,-0.017607754,-0.030287384,0.00010091821,0.00028515228,-0.084383715,-0.010843331,-0.082618765,-0.015569019,-0.0016082948,0.032992409,0.0061016573,-0.0093856439,-0.013242182,0.028086364,-0.013299563,0.032313855,0.044379214,0.0252115,0.02464985,0.046823877,-0.0816663,0.046877583,-0.043515941,0.023720385,-0.0024031765,-0.019199516,-0.0017851398,0.056177152,-0.01305221,-0.014838526,0.004295732,-0.028084408,0.000613864,-0.024791614,0.019436435,-0.062171229,-0.017878946,0.0094071845,0.031362462,0.1034175,0.026091394,0.0084986709,-0.0052861885,0.016707536,0.014813597,-0.030602343,0.001542199,0.012521699,0.048214094,0.025183392,-0.0048554591,-0.030661447,-0.011245088,0.026329193,0.01531272,-0.0038454821,0.0019628862,0.00064984158,0.0081567444,0.0033579407,0.0021827019,0.012211669,-0.0008469914,0.0011618706,0.0010021657,0.008579239,0.00064572991,0.0086100726,0.0053062307,-0.002708865,-0.0050002189,-0.014080376,0.011483548,0.0175923,-0.031025728,-0.01440548,-0.0080038843,0.011590745,-0.0051655447,0.009184196,0.0013255402,0.0025810367,-0.0099909681,0.014253677,0.0016019048,-0.013040991,0.022059677,0.018805106,0.0087266846,0.0033007897,0.012950909,-0.0045733231,-0.011166909,-0.0089231558,0.00068410672,-0.00097585734,0.0022600886,-0.0028036896,0.0018131706,-0.0092068933,0.0035512093,-0.0068737258,-0.0015426858,0.0011227883,-0.0094403241,0.0052538382,-0.0079963233,-0.0057231039,-0.013077994,-0.0064166913,0.023893851,0.0042093733,0.0086195756,0.0089925174,-0.0076443956,-0.0036454159,-0.083509238,-0.058642184,0.0075919867,0.077975626,-0.17003984,0.05435713,-0.028662577,-0.10451416,-0.0051049734,-0.084348909,-0.014552493,-0.0090539803,0.062244551,0.036564981,-0.059204959,0.064717145,0.039687398,0.11252919,-0.13744228,0.0021859489,-0.10914758,-0.013429736,0.044952177,-0.19624658,-0.16199838,-0.020811048,0.04801698,0.072731711,0.074913216,0.050941619,0.03894913,-0.052911119,-0.11020628,0.016188951,0.056920597,0.066220882,-0.03499182,0.041780051,0.048182251,-0.04366189,-0.046429232,0.071091722,-0.081136683,0.036888574,-0.028845272,-0.19402193,-0.044383653,-0.011735719,0.018242058,-0.011118654,0.11601303,-0.094026852,0.045880223,0.037265768,0.10785091,-0.12964834,-0.13086021,-0.022291672,0.055283065,-0.10520107,0.013710367,0.016083487,-0.037249237,-0.026043342,0.0027598767,-0.004122315,-0.0031819188,-0.00077622686,0.00390383,0.0043523001,0.0046722781,-0.0040772724,0.00056359324,-0.0028666131,0.0029868542,-0.0045694285,0.0046769595,-0.0020489363,-0.0031170147,0.0036328994,0.0044155848,0.0027280234,0.0049657738,-0.0035475784,0.00013286383,-0.0021605824,-0.0011097161,0.0026449876,0.00039970073,0.0045153278,-0.002218896,0.0046913063,-0.001715589,0.0014170537,0.003911662,0.0010656241,0.00053302142,-8.1509059e-05,-0.0014504359,-0.0043373924,0.0048062104,-0.00087617373,-0.00062580023,0.002663673,0.0026291333,0.00015281887,0.0033728575,-0.0023759775,-0.0017896042,0.0017249064,0.0016216073,-0.0019383649,-0.004213587,0.0015733872,0.004857204,-0.00067054067,0.0006474087,0.00072093759,0.0012462483,0.0040520566,0.0015013097,0.00014769883,0.00025787146,-0.0040920495,0.0043317765,0.001883196,-0.00095382249,0.001038932,-0.052257237,-0.036088591,-0.066366874,0.019069175,0.012017568,-0.011895251,0.031273437,0.0092802896,0.0056985569,0.01273528,-0.017241038,-0.063742692,0.039152018,-0.020757106,0.031121189,-0.039175486,0.045795583,-0.061007035,-0.0058147393,-0.011209104,-0.0319036,0.057932075,-0.085883495,0.030341148,-0.00051764148,-0.0020594175,-0.0029647811,0.026934274,0.038762601,0.01208976,-0.026471549,0.028641925,0.014828694,0.017067915,0.0090502845,-0.059320843,-0.015712038,-0.024041235,0.050671791,0.10913384,0.12557468,-0.02720041,0.032632139,0.028439941,-0.018068798,-0.01999433,-0.081774284,0.087351681,0.031112463,-0.0081908165,0.011087593,0.016936354,0.012561585,-0.031035485,-0.0026992884,-0.0010922651,0.042783285,0.027101468,0.012217034,0.01268385,0.040304145,-0.024439623,0.037971183,0.0011789735,-0.0051149149,0.0045372406,0.0011472488,0.0023757443,0.0023701285,0.00059166747,0.0044134522,-0.0014828519,-0.0046001094,0.00061401054,0.0034736188,0.00085228672,0.00094768326,0.0020346814,0.0045781103,0.00015211297,0.00108425,0.0003072006,-0.0015997725,-0.0033058607,-0.0051669364,0.0072305292,0.00012780496,-0.0077299458,-0.0057536327,-0.0047998592,-0.0027711738,-0.0012419058,0.0042762525,0.0016415425,-0.0029707512,0.00027695414,-0.0052927836,0.0039860632,0.001136728,0.00499717,-0.0069015552,0.00090321989,-0.0044245355,-0.00024723423,0.00095280877,-0.00071864708,0.0030375754,0.0020156542,0.0025587325,-0.0025282259,0.0015594882,0.0035106753,0.0031094355,0.0014524096,0.00028213147,3.8123856e-05,-0.0047849717,0.0031496586,0.0018756945,0.00370328,0.0011149944,-0.002771375,-0.001251697,-2.0879108e-08,-0.0019922755,0.0018724563,-0.0038767879,0.0018785792,-0.085207254,0.17801975,0.092153001,-0.082485423,0.046234722,0.13092004,0.016656408,0.12079005,-0.049334822,0.016375548,-0.082319529,-0.011756408,-0.041182957,-0.24034302,0.013235788,-0.058086387,0.16576788,-0.090646982,-0.17020492,0.10346165,0.047072816,0.14387968,0.0015069548,0.19730868,0.029435996,0.022944232,0.024367924,0.084137909,-0.071619318,0.10011025,0.099224219,0.092429146,-0.25426281,0.29646129,-0.15125836,0.34513319,0.013469003,0.066253998,-0.15628547,-0.04523318,-0.013897275,0.010079159,0.11823537,-0.063721346,0.009905621,0.18747918,0.046440921,-0.20944869,0.14203717,0.068138232,-0.20001253,0.083416495,0.036339436,0.13237181,0.058593662,0.029809772,0.21891751,-0.20134577,-0.10726696,0.036574876,-0.058873786,-0.070926942,-0.081505798,-0.19693359,0.00061189968,-0.0050966072,0.00089869188,-0.0061755451,0.0018994034,-0.0057887596,-0.012861391,0.0020014279,0.008359153,-0.0031173701,0.028943151,0.020490417,-0.0016496963,0.019581773,0.00065352909,0.0085136367,0.023251698,0.0026055838,0.027607622,-0.011367659,0.0055263923,-0.0060498397,0.0076303022,-0.0087815443,-0.0021009327,-0.0084383059,0.015555536,-0.0080070856,-0.021023603,-0.010862675,-0.010955675,-0.0067844822,0.024124102,-0.00055011521,0.01395801,-0.011970932,-0.0060114983,-0.0057514103,0.0019651458,-0.01222186,-0.01646431,-0.0018627886,-0.0069591375,-0.010994296,-0.0078064712,-0.0068116708,-0.0041431707,0.007708612,0.031366624,-0.0084535056,-0.018205121,-0.020293702,-0.020003044,-0.0079927774,0.0029769523,-0.0088348843,-0.018248213,0.017049963,0.016192692,0.007834406,-0.0050745959,0.012206576,0.010247627,0.016004476,0.35629708,-0.32114657,-0.087545391,-0.16278996,0.073293423,-0.1247906,-0.15248783,-0.1541454,0.12434935,-0.15645951,0.022229703,0.2673191,-0.00036616146,-0.13335945,0.25425824,-0.014656138,0.365517,-0.043503242,0.21185315,0.23137361,0.039973244,-0.093548753,0.056509104,-0.051956213,0.079565822,-0.049243404,-0.20142708,-0.17269303,-0.23255984,-0.19008792,0.24587173,-0.11979514,0.24314597,-0.087739738,-0.010349527,0.33937302,-0.15564869,0.050970609,-0.17481624,-0.22649124,-0.097238093,0.099186091,0.001749142,0.027782372,-0.071613025,0.10672484,0.41389014,0.22920322,0.17636083,0.085371216,-0.22045286,-0.6085797,-0.041572312,-0.048493924,0.082268143,0.011356329,0.014225426,0.13948523,-0.3445369,0.026604508,-0.22884555,-0.47322677,-0.20651707,0.068642168,0.041086162,-0.028935043,0.020470189,-0.018601971,0.022512218,-0.0038060174,-0.010826718,-0.0068448717,-0.0044799176,0.0036307055,-0.022857488,0.011743603,-0.01168852,0.0031782554,0.0099789771,0.010063106,0.0062381932,0.021779541,0.00071067858,-0.019672699,-0.0081814891,-0.0085032512,-0.024703823,-0.01189243,0.010692921,0.015604194,-0.030247706,-0.038230694,0.00066919702,-0.0017714279,0.0019830895,-0.0157792,0.020127377,-0.0052838732,0.023969684,0.029874152,-0.005724111,-0.00077615483,-0.0045485049,-0.030400453,-0.029570594,0.030229527,-0.009368223,0.00070734793,0.008038939,0.026491906,0.023991924,-0.0007131445,0.0064784361,0.022789591,-0.031270757,-0.030749675,0.0025635589,-0.0012324456,0.0017779431,0.00081169894,0.017471768,0.0044036055,-0.029284748,-0.010108031,-0.029827529,-0.022112376,-0.0005152866,0.016807077,0.011109342,-0.12544064,0.0082940794,-0.064307746,0.080243494,-0.010362866,0.041512792,-0.019310999,0.015021632,0.0086209023,0.038941838,0.035698215,0.023153745,0.035073077,0.0018383894,0.021330462,0.20961161,-0.015886507,0.080062491,-0.037303287,-0.010586239,-0.048939191,-0.025961692,4.3085001e-06,0.026545552,-0.019755925,0.0025380441,-0.032730877,-0.032118218,-0.047873353,-0.032064602,-0.0021096306,0.065680987,-0.066152423,0.07845633,-0.050563535,0.0012737126,0.0021762375,-0.026733989,-0.031036762,-0.0014726704,0.020418694,-0.0034658804,-0.0058269798,0.024876371,0.014384008,-0.067946201,0.042545929,0.061825798,-0.0039503593,-0.021629015,-0.024963804,-0.063140447,0.0069813131,0.033664534,-0.068629104,-0.012202346,-0.0080839994,-0.041445002,0.027282659,-0.025522176,0.0084355346,0.0043851699,0.028492755,-0.026903189,-0.0068429564,0.02722203,0.0025599116,0.040173439,-0.016500094,0.017153074,-0.01624682,0.0023364386,0.012012748,0.030204569,-0.041220168,0.02276621,0.12647155,-0.027896712,0.013629358,0.11562339,-0.0088305163,0.033039494,-0.065944826,-0.019123222,0.014558192,-0.06823054,0.034892643,-0.032579536,-0.012070932,0.06570995,0.027805536,-0.035650234,0.014520001,-0.14650814,-0.0014915932,0.050561129,-0.06863468,0.063846785,-0.12951668,0.027611623,0.011509895,0.072638138,0.017634249,0.064008556,-0.0040264091,0.031136054,0.022730718,-0.032552275,-0.0012194213,-0.12282667,0.012658632,0.060749518,-0.015127704,-0.031723248,-0.025893814,-0.037933237,0.028741575,0.012575574,-0.048398219,0.005817623,0.0082710351,0.047722567,0.0014032034,0.034476412,0.061701522,0.089677524,0.029816899,0.22840683,-0.27579064,-0.10018869,-0.18188093,0.21268326,-0.096614681,-0.35329825,-0.14215135,0.095126425,-0.052128042,-0.2184834,0.19638282,0.12543842,0.19554969,0.17038655,-0.15189655,0.31814308,0.07686071,0.18134262,-0.066009672,-0.089703729,0.2023519,-0.51298766,0.0023179032,-0.022401798,-0.17325769,-0.14175092,-0.15856719,-0.13207458,-0.0529588,-0.19103541,-0.049720336,0.31687402,-0.055615177,0.027980834,-0.053753442,-0.23447051,-0.092089574,0.11124681,-0.0037978188,0.28611551,0.089986441,0.049622252,0.087605994,-0.14142394,0.2019921,0.0069024286,0.19166601,0.77143974,0.076941145,-0.73556137,-0.7544698,-0.14381765,-0.046215021,0.1646653,-0.24779896,0.29334731,0.2121465,-0.19675912,-0.06399037,-0.20466044,-0.41043769,0.091463743,0.1519848,0.024303098,-0.21467044,-0.07038899,-0.060986794,-0.092302341,-0.0089773858,-0.046890031,-0.054430449,0.048353381,0.061452959,0.17502827,-0.039794008,-0.021748338,0.076352509,0.020437354,0.022467086,0.27875363,-0.036998575,0.022358347,0.063076181,0.015953949,-0.16577574,0.063709996,5.4741612e-05,0.079718455,-0.013937709,-0.069793801,0.083991594,-0.10718374,-0.053689588,-0.013616539,-0.0055968176,-0.048812548,-0.033106866,-0.01765502,-0.12488371,0.03797641,-0.042912249,0.045779359,0.059211851,0.16888662,0.019417649,0.0083581202,0.045454897,-0.051457268,-0.13528732,-0.053244227,-0.0022377349,0.0025177052,0.0031387074,0.091349388,0.2027257,0.059630892,0.045995532,0.024367347,-0.04152189,-0.044901417,0.12599107,-0.087033266,0.042016294,0.22146566,-0.054178215,0.013131889,-0.009679558,-0.017918418,-0.015793352,0.016201767,-0.0012106677,0.041222695,-0.0072894369,0.018027335,-0.012347351,-0.016573469,0.00076563642,-0.0090712567,-0.026015643,0.019592782,0.055975348,-0.012414297,-0.0048923391,0.068641696,-0.00083710402,0.014965178,-0.023867096,-0.016247262,0.0055032991,-0.054863423,0.020229722,-0.01990162,-0.013588832,0.021215676,0.01716832,-0.0039546197,0.0081338359,-0.06137514,0.0063494079,0.026352647,-0.037820294,0.046116607,-0.08122171,0.021749677,0.0020208466,0.034502438,0.016318579,0.043320399,0.011541228,0.01682993,0.017265081,-0.0077443641,0.0034533017,-0.07183908,0.024256391,0.038216548,-0.0013541906,-0.0081758328,-0.014385744,-0.010835824,0.014389863,0.0059562006,-0.017178777,0.016707431,-0.0055898489,0.022022218,-0.0081098646,0.00540111,0.025115879,0.044421456,0.0086595389,-0.014889917,-0.020339631,0.05652716,-0.027831858,0.049585937,-0.0069580139,0.023118887,-0.026058819,-0.018270612,0.02381381,0.013036505,-0.029276701,0.0084497477,0.11645538,-0.021589343,0.021334144,0.14239224,0.011608142,0.013031755,-0.060547286,-0.022690196,-0.012794604,-0.063573491,0.018398078,-0.031453804,0.0002236046,0.055814035,0.026126474,-0.035136441,0.0036416955,-0.10525063,0.0048665294,0.035854971,-0.067865618,0.066248855,-0.07006079,0.02910461,0.0077569565,0.05785517,-0.034010495,0.032553284,0.010203265,0.010913105,0.021410647,-0.015092149,0.019119118,-0.097791156,-0.017140209,0.056089311,-0.012715763,-0.03295386,-0.0035982391,-0.037936687,0.044340148,0.03581258,-0.055891838,0.0025515415,-0.0027336058,0.025705185,-0.0047028828,0.0089413627,0.041923532,0.046830458,0.010810817,0.076430278,-0.71910462,-0.08531512,-0.43519814,0.047875911,0.15104411,0.049598366,0.13679234,-0.09550109,-0.12376236,-0.17991406,0.2157743,0.18539666,-0.38260247,-0.047416549,-0.046254927,0.27482565,0.067959954,0.12630031,0.25725251,-0.011508146,-0.22095557,0.019175051,-0.072461574,0.21498876,-0.17472744,-0.22587637,-0.03252712,0.33203573,0.047916354,0.44116025,-0.33301479,-0.18541448,0.033924784,-0.02560318,0.15835251,0.072116268,0.10509184,-0.22678458,-0.21894918,-0.069122947,0.40106809,0.057403763,-0.048267144,0.29789701,0.18646023,0.19609621,-0.083050013,-0.15193684,0.1441544,-0.2451836,0.10029903,-0.11299698,0.10655397,0.1262201,-0.095687316,0.35776772,-0.21881024,-0.12512182,-0.062467212,-0.31222962,-0.35608973,-0.0058165515,-0.24686964,-0.011366112,0.025503674,0.006673488,0.008153486,0.0071370522,0.00135372,0.010126255,0.0017641442,-0.0063999755,0.008077398,-0.0023304547,-0.019137609,0.0060064981,0.014928584,-0.0099007872,0.0063047442,0.021617872,0.003192334,-0.0075603257,-0.017621192,-0.0026984312,0.0062664365,-0.017612069,-0.00046650002,-0.0056050361,0.0082462985,0.015982751,0.0054017133,0.0047099893,0.0029892746,-0.030267325,0.004791378,0.0013249225,-0.0055558522,0.007565925,-0.018262928,0.0030278796,0.0074827499,0.0070089053,0.006265284,-0.002756701,-0.0018310826,0.010397419,-0.0023951579,0.0015181945,-0.0053718774,-0.021192359,-0.0086261728,-0.0031621606,-0.0078215863,0.0010144859,0.012543589,-0.00069900076,0.0072545863,0.0022807729,-0.00067846108,-0.0019123097,0.0007696941,0.014330116,0.000899451,0.0044144353,0.016143937,0.016717128,-0.00013129135,-0.014033683,0.022013606,0.079666578,-0.0050304298,0.055235887,-0.014931866,0.042625018,-0.022501438,-0.027270869,0.01950505,0.014260862,-0.04647074,0.008567817,0.12884752,-0.040354854,0.035967079,0.15906533,0.026125293,0.0030305373,-0.052101026,-0.01745432,-0.0052213056,-0.062159424,0.03791964,-0.052020525,0.0067827938,0.071838415,0.024317402,-0.040336646,0.026036269,-0.15037661,-0.012409051,0.032355229,-0.10204986,0.056254692,-0.079095244,0.050136879,0.030155822,0.068442374,-0.022813925,0.020382026,0.032343935,0.030438066,0.010637185,-0.012454209,0.014991352,-0.10048708,-0.055356184,0.012124581,-0.0070175066,-0.039630363,-0.0001866146,-0.034817081,0.067975521,0.029825292,-0.05093455,0.019242527,-0.0329716,0.029096795,-0.014010026,0.015126501,0.071950269,0.079160219,0.0068902053,-0.014801311,-0.055825924,0.11413107,-0.054646067,0.095664091,-0.0086975963,0.040753966,-0.027662257,-0.032783203,0.034247955,0.01085831,-0.039994268,0.012885061,0.14870358,-0.056913647,0.062027409,0.29739426,0.026171166,0.050118515,-0.082542387,-0.026546956,-0.012246667,-0.074542492,0.049718253,-0.047829449,0.0040782229,0.076688556,0.027370871,-0.044618286,0.015096129,-0.15538627,-0.03817215,0.056375836,-0.12917385,0.097193338,-0.13633664,0.068142219,0.056306405,0.066310076,-0.062992289,0.010290117,0.090680277,0.060024381,0.020866143,0.0067398014,0.024078575,-0.13394777,-0.06737965,0.053913076,0.004765447,-0.064380939,-0.020089985,-0.066881647,0.09718335,0.054598918,-0.072252469,0.015069718,-0.036666341,0.018436059,-0.034098079,-0.030972405,0.072405415,0.098218322,0.0089474932,-0.026680591,-0.017420766,0.084307511,-0.025358606,0.051071048,-0.01749129,0.010820685,-0.038978705,-0.021452018,0.013648813,0.033565854,-0.0009210102,0.0056770048,0.11253081,-0.020984922,0.032300877,0.20839437,0.012290195,0.039231947,-0.077256988,-0.0072675682,-0.023116389,-0.039074782,0.029463066,-0.029624481,-0.0016309141,0.0824372,0.048073958,-0.059779671,-0.014398735,-0.11239641,0.0017680207,0.043932421,-0.084736009,0.060406328,-0.10780136,0.023007292,0.012858881,0.041417767,-0.066687873,0.020562484,0.032287823,0.019879531,0.013934079,-0.019825525,0.0027852835,-0.11917755,-0.016615944,0.042980155,-0.014097807,-0.050646259,-0.012637167,-0.036930437,0.055829271,0.029589875,-0.055949024,-0.02256953,-0.01777942,0.026785247,-0.0038772802,-0.00060351386,0.032927869,0.074466169,0.0058404044,0.11500025,-0.31521223,-0.18642964,-0.14643135,-0.068304056,-0.066945304,-0.093415328,0.036969024,0.18073845,0.012182964,0.21306971,0.057093844,0.030097383,-0.0071976057,0.14669204,0.055101342,0.31051598,-0.19847025,0.088550514,0.22417431,-0.02494157,-0.1550728,0.09122065,0.11511564,0.12385647,-0.034479956,-0.072931281,0.026116674,-0.11804844,-0.029024277,-0.012077565,-0.18568714,0.10656222,-0.20682609,-0.25891744,0.23561657,-0.17854335,0.117921,-0.020867858,0.0076368882,0.15072625,0.0237189,0.11937664,0.0041924981,-0.029577243,0.033930116,0.27820913,-0.011766692,0.050409389,-0.062238028,-0.20677479,-0.17092136,-0.1247827,0.060767402,0.15401805,-0.12081076,0.040860362,0.05237676,-0.16540177,0.099543102,0.12148943,-0.39866813,-0.11560959,-0.14225119,0.17216031,-0.37943433,0.048869841,-0.095688386,0.072573987,0.010735379,0.05785099,-0.23346921,-0.040093048,-0.37757964,-0.26361666,0.30043654,0.023236206,-0.42809283,0.012718626,-0.12557614,0.15972885,0.1728593,0.34932657,0.55119445,0.035361697,-0.23118833,0.17132925,0.031955242,-0.0013694923,-0.091604208,-0.080552842,0.072557678,-0.10845492,-0.14201183,0.52571639,-0.018775183,-0.20680477,-0.072187577,0.02521743,-0.065554361,0.18895355,0.058779133,-0.1884326,-0.2862525,0.059067137,0.15882166,-0.012482743,0.094773583,0.029306531,-0.091039465,0.12666689,0.24436535,0.43192119,0.10537736,0.44315868,-0.453154,0.14694287,-0.01913592,0.030214431,0.10278897,-0.039936728,-0.13776927,-0.32170329,-0.077336748,-0.32007091,-0.30657709,-0.29802024,-0.081650658,0.065756839,-0.07972197,0.082167356,-0.075776275,0.099300046,-0.030382371,0.0032290902,-0.078905961,-0.017075888,-0.003067981,-0.025549732,0.047640126,-0.0030229649,0.09565289,0.010636266,0.023618857,0.26926536,0.046735078,0.066558915,-0.038678066,-0.011974008,-0.033595662,-0.08156813,0.026446864,-0.01984218,0.012873967,0.012219845,-0.014832757,-0.10098163,-0.051235443,-0.069563858,-0.0080252194,0.091497108,-0.11628388,0.096364391,-0.061302976,0.02944333,-0.0016538768,0.035548043,-0.098188048,-0.0088211997,0.058616737,0.0036532519,0.035452012,-0.019539082,0.044680271,-0.050435679,-0.015019957,0.14516113,0.018925478,-0.061347941,-0.10765226,-0.039444966,0.066761603,0.043148031,-0.06118579,0.010545685,-0.0010307906,-0.074349072,-0.012057566,-0.05615337,-0.058973048,0.00057629833,0.047072628,0.0032899521,-0.0020036677,0.01511267,0.014991679,-0.00085434566,0.005380915,0.01287135,-0.010487021,-0.0075839183,-0.0071678797,-0.018254689,-0.0032983435,-0.010239725,-0.013968993,-0.014032726,-0.0018666001,0.035921225,0.010722232,0.0056408653,0.018914574,0.0042903,-0.014991305,0.0049137261,0.010977344,0.00090515622,0.007687605,0.0034431546,0.0097760967,0.0011684006,-0.0052610168,0.016883804,0.0019601714,-0.018426865,-0.0030827116,0.0013138777,-0.014721039,0.018563797,0.0039784961,-0.0024988386,-0.0013234686,0.0065366346,-0.0018690206,-0.0049011586,0.012129043,0.0078898181,-0.0078051824,5.3101996e-05,-0.00074076485,0.001782041,0.0028404268,0.053529628,0.0066653309,0.011975533,0.0022215864,-0.0083780883,0.017553071,-0.011009005,-0.013828634,-0.0079563535,-0.0078358189,-0.0064200732,0.0084982718,-0.018589608,-0.0055258987,0.041567444,-0.15079687,0.052426294,-0.10780155,0.12187937,-0.019756619,0.006389311,-0.056174301,0.00046773169,-0.014230832,0.026673382,0.045474742,0.059218775,0.14761976,-0.01106627,0.021850289,0.28972907,0.017327492,0.13039985,-0.033220653,-0.044350648,-0.055337998,-0.112182,0.019422954,-0.032026634,-0.052164838,0.046854183,0.018884211,-0.087477997,-0.024197842,-0.12920223,-0.030011409,0.12218174,-0.12992098,0.13286422,-0.15501147,0.0439729,0.0057579307,0.073323703,-0.081644998,0.054718347,0.074955749,0.023308593,0.033204285,-0.020204505,0.034978827,-0.14149188,0.044342643,0.18950549,0.01769511,-0.12017945,-0.13435539,-0.086019916,0.066926076,0.067664107,-0.10868893,0.04386184,0.0042504857,-0.016631721,-0.0020756828,-0.031244517,-0.033034786,0.073950781,0.02829931,-0.024259598,-0.059367109,0.042254418,-0.050521253,0.095980992,-0.045768802,0.045002416,-0.04009457,0.012462506,0.033661799,0.081791797,-0.067357942,0.060204155,0.19824176,-0.0049356218,0.037008778,0.35366083,-0.050050638,0.052478967,-0.089816125,-0.043039074,0.018906279,-0.13197067,0.059535913,-0.053607034,-0.014165279,0.10337981,0.059343474,-0.080101156,-0.0061421525,-0.2348656,-0.0058450276,0.12741359,-0.16290151,0.10818432,-0.15457583,0.01380967,0.039680995,0.097733933,0.0045727666,0.10702581,0.032215261,0.078565976,0.036744397,-0.048954922,0.0059658127,-0.18295554,0.022377303,0.091185868,-0.022434925,-0.12858696,-0.073384199,-0.091460131,0.068579416,0.05926478,-0.10818482,0.030975263,0.0054542361,0.025423477,0.02089087,0.036417931,0.03195095,0.13112197,0.012256634,-0.011566744,-0.15043386,0.02104874,-0.013224032,0.1175643,0.013425532,0.074059916,-0.046820387,-0.012553353,0.01652754,0.039294538,-0.016924839,0.051513617,0.16729956,-0.059052528,-0.015552884,0.13120076,0.016870173,0.14150306,-0.10669517,-0.048571177,-0.063351614,-0.11154024,-0.0047901239,-0.022211907,-0.044160788,0.077623611,0.0023971807,-0.036673609,-0.030160817,-0.14808082,0.04398069,0.10696339,-0.086063209,0.18274495,-0.32167684,0.068362199,-0.062928671,0.10158711,0.042250812,0.16055083,-0.02382331,-0.029269589,0.054768659,-0.024096163,-0.020791167,-0.29657227,0.13579624,0.17805086,-0.0051120128,0.10719337,0.014775434,-0.058126842,-0.0073233788,0.030353374,-0.079585868,-0.04101614,0.025591365,0.019073527,-0.003659298,0.061295786,0.13091224,0.072468588,0.10744099,0.27503381,-0.15011694,0.022762298,-0.11245809,0.13000521,-0.058585677,-0.13243622,-0.15561719,0.02017318,-0.15166328,-0.16745265,0.23105113,0.010509366,-0.058817469,0.13174642,-0.052192714,0.046880244,0.11848324,0.12314112,0.1402462,-0.0028064746,-0.035727171,-0.055055274,-0.014303837,-0.016461082,-0.039499079,-0.13092182,-0.13899471,-0.16973652,-0.1202913,0.15323808,-0.068093362,0.13839138,-0.054281554,0.032309579,0.14933446,-0.031963011,-0.023795321,-0.068244773,-0.1971506,-0.092247879,0.11850527,-0.023162458,0.049822597,-0.044966055,0.10707305,0.25091606,0.11118184,0.30152503,0.10044476,-0.18049891,-0.53307992,0.017690462,-0.0064365969,0.032202713,0.0075850236,0.081252423,0.053956,-0.24913774,-0.048744305,-0.2460473,-0.34780545,-0.094598884,0.07600463,-0.014205872,0.0037671911,0.060481868,-0.024604129,0.030015444,0.00052367977,0.0077290209,-0.0065077222,-0.021093931,0.016388637,0.012440182,-0.0089269281,-0.0099029828,0.076366608,-0.023841069,0.035522383,0.12535561,0.020120984,-0.0002304517,-0.049865185,-0.014193741,-0.021671937,-0.018213203,0.01972835,-0.019070204,0.011613814,0.035284458,0.018982003,-0.038404347,0.0020562428,-0.062721209,-0.00091457871,0.020458583,-0.058348494,0.033940105,-0.047030099,0.029375356,0.0020439571,0.031981543,-0.046071674,-0.0073774673,0.012395546,0.0028541736,0.0011569931,0.0019690457,0.012119163,-0.056888298,-0.041590772,0.037568363,-0.0122644,-0.0097366864,0.016711458,-0.021376115,0.044234416,0.013238643,-0.035619674,-0.012411735,-0.022904281,0.0091109382,0.0020957546,-0.0013715106,0.022058347,0.024547351,0.0020008393,0.0079128247,0.001462274,0.016897047,-0.0083700411,0.026241613,0.00032898199,0.010454566,0.0046626033,-0.005526799,0.011121147,0.0014761665,0.015092105,-0.0014485055,0.036192994,-0.0052819042,0.018877306,0.067482332,0.011876671,0.015885608,-0.02820253,-0.0021977907,-0.013132873,0.010500306,-0.010252387,-0.0068931216,-0.0012902792,0.011565144,-0.019586295,-0.0088232016,-0.014304751,-0.011798283,0.0085096634,0.017779873,-0.0034903672,0.04942111,-0.031138888,0.015783616,-0.01966618,0.0045717848,-0.0049448209,-0.034047938,-0.0041529578,-0.027732942,-0.014480298,0.013541034,0.002389144,-0.035768704,0.0072478065,0.012586889,0.0013043057,0.012915789,0.021992375,-0.016570479,-0.0087219728,-0.0035283752,-0.002367458,-0.023391718,-0.0030038803,0.0081894251,-0.00050551094,-0.012987367,0.045378677,0.0075143683,0.024279383,-0.16415085,0.099209872,0.12526672,-0.012401012,0.0021369805,-0.18913671,-0.072478527,-0.19417416,-0.078203611,-0.11080647,0.082086952,0.12903164,0.008719916,-0.21402829,0.077610217,-0.066574893,0.37237647,-0.088707559,0.16040358,-0.054264681,0.086451358,0.046696664,0.12964907,-0.062349957,0.0030997906,-0.12700602,0.29491657,0.19995448,-0.058992967,-0.1465801,0.15792646,0.13292993,-0.0079980279,0.028533248,0.038971738,-0.0052393908,-0.094331189,0.01210978,-0.2003452,-0.31543263,-0.062390723,0.044432712,0.044455447,0.033187792,-0.12531475,-0.10010574,-0.26279906,0.23132513,-0.14268496,-0.017905553,-0.13152042,-0.19139263,0.0056524803,-0.044905871,0.017950349,-0.053445715,-0.17765758,-0.0063801526,0.033419086,-0.027372891,-0.20508016,0.0010233935,0.11584207,0.028319384,-0.050709574,-0.10525117,0.051990763,-0.089900706,0.075319815,-0.048289408,0.0077815636,-0.10555616,-0.074225255,-0.036333724,-0.062773096,0.0063550102,0.070313659,-0.10093152,0.0050022445,-0.13243271,0.13422714,-0.02693491,0.12137843,-0.027952109,0.048416,0.05281404,-0.18344965,-0.081222992,0.023991144,-0.13692495,0.0021132685,0.055154619,0.15383256,-0.022624444,0.035379132,0.072671021,-0.054793403,0.063316684,-0.051885461,-0.028649775,-0.039377874,0.016617711,-0.078805838,-0.096442213,0.19946171,0.068023063,0.021384975,0.05952522,-0.02672498,0.026978767,-0.0014204483,0.087388295,0.0049228848,-0.019102524,-0.10958442,0.0032923473,-0.066764421,0.054129851,0.012297938,-0.10124261,0.051454289,-0.017199237,0.070899928,-0.069089103,-0.15084473,0.014100967,0.023274421,0.033789059,-0.0070397804,0.014509005,0.022226556,-0.0044991902,0.016193172,0.002999167,0.014538734,-0.0074217018,-0.0059229308,0.006976843,2.9513869e-05,-0.012384748,-0.0039300281,0.03021391,-0.017620531,