64,4,1,256,256,64
0.00386749,-0.00274048,0.00401215,-0.00367249,-0.00466644,0.00819336,-0.00947296,-0.00210388,-0.0048996,-0.00296265,-0.000126038,0.00628113,-0.00651947,-0.002146,-0.00513458,-0.00195496,0.00578644,0.00970581,0.0033139,-0.00524963,-0.00766937,-0.00334473,-0.00196808,0.00295959,-0.0015744,0.00776489,-0.00316803,-0.00576477,-0.00561615,-0.00290283,0.00252655,0.00513977,-0.00448212,0.0037146,0.00292816,-0.00276428,0.0021402,-0.00832031,-0.0091507,-0.00291443,-0.000436707,-0.00994507,0.00410248,-0.00374817,-0.00190033,-0.00709717,0.00550018,-0.008703,-0.00693817,-0.000714111,0.00285492,0.00378357,0.00476227,-0.0067334,0.00897919,0.000274048,-0.00148651,0.00390747,0.00168549,-0.00766907,0.00462799,0.005271,0.00378632,-0.00348328,-0.00158173,-0.00358032,0.00309418,-0.00560608,0.000196838,0.00141602,-0.00757843,-0.00747498,-0.00472382,0.00932251,0.00958099,0.00247253,-0.00603119,-0.00579834,-0.00261505,0.00079895,-0.00841278,-0.00488403,0.00364594,0.00906677,0.00844391,-0.00387207,0.00117645,-0.0061615,0.00985138,0.00630005,0.007789,0.00667664,0.00612213,-0.000305176,0.00629608,0.00414368,-0.00743134,-0.00462524,0.00451019,0.00780212,0.00950348,-0.00259766,-0.00475616,0.00421448,0.00223907,-0.00515991,-0.00369049,0.00494324,0.00108795,0.00175049,-0.00948029,0.0065509,0.00136261,-0.00280396,0.00568695,-0.00940002,0.00337555,0.00523926,-0.00537628,0.00365295,-0.00756073,-0.00505737,-0.00485748,-0.00272766,-0.00113373,0.000368652,-0.00994415,0.00802063,-0.00203094,0.000579834,0.00717621,-0.00253967,-0.00993988,-0.000361328,-0.000683899,-0.00784607,0.000451965,0.00660767,0.00428802,0.00366394,-0.000542908,-0.00445068,0.00490448,0.00855286,0.002388,0.00552612,0.00897797,0.00838318,0.00955719,0.000600586,0.00932098,0.00971741,0.00627716,0.00983521,0.00374603,0.00411804,0.00286041,0.00729248,-0.00493439,0.00814758,-0.00538055,-0.00796509,-0.00890778,0.00336853,0.00186676,0.008125,0.00463837,-0.00365662,0.00991486,0.00462524,-0.00648346,-0.00136536,0.00907623,-0.00440186,0.000539246,0.00680481,-0.00533661,0.000106201,-0.00648102,0.00241638,0.00698883,0.00221191,0.00526825,-0.00796814,-0.00863495,-0.00902222,-0.00640045,0.00721375,-0.00189545,0.000466309,0.00132538,0.00452454,0.00257687,0.00958434,-0.00390395,0.00518678,0.00449573,0.00230048,-0.00825509,-0.00265536,-0.00905897,0.00911353,0.00401296,0.00987571,0.00972029,0.00175539,-0.00278177,0.000906953,-0.00241365,0.00167123,-0.000123871,-0.00702854,-0.00411002,-0.00979479,0.0025078,-0.00950336,0.00756501,-0.00203428,0.00415395,0.00612216,0.00392616,0.000446609,0.00926179,-0.00254456,0.00175051,-0.00618372,0.00251857,0.00385287,-0.000958087,0.00342278,-0.00161453,-0.00712215,0.00319294,-0.000202017,-0.00405311,-0.00250254,0.00202485,-0.00546061,-0.00466789,-0.00819519,-0.00715654,0.0075777,0.00584764,-0.000245727,-0.00409184,0.00442655,0.00114896,0.00558606,-0.00474399,-0.00797384,-0.00313273,0.00173155,0.00177161,0.00505522,-0.00187202,0.0064856,-0.00792938,0.00390015,-0.00965973,-0.00140686,0.00478668,-0.00891602,0.00810516,0.00641174,0.00580353,-0.00382202,0.00870209,0.00104675,0.00543365,-0.00675537,-0.00505646,-0.000939331,-0.00101044,0.00134644,-0.00535797,0.00201599,0.00678375,0.0045459,0.000610046,-0.00352478,-0.00587128,-0.00809448,-0.0093399,-0.00599915,-0.00866302,-0.00251221,0.00760468,-0.0088446,-0.00627899,0.000355225,-0.000743713,0.00950134,0.00159332,0.00457031,-0.00157257,-0.0043988,0.000266418,-0.000804443,0.0029306,0.00101746,5.27954e-05,-0.00170654,-0.00442169,0.00231262,-0.00373505,0.000926514,0.00418304,0.00104919,0.00921539,-0.00884277,0.00155731,0.00378967,0.00421661,-0.0019519,0.00551361,0.00209656,-0.00841888,-0.00433838,-0.00113556,-0.00746765,0.0066214,0.0030603,0.0094223,-0.00334045,0.00964996,0.00430664,0.00999969,0.00104065,0.00597931,0.00846313,-0.00159088,-0.00276184,0.00592194,0.00959229,-0.00253693,0.00181458,0.00479034,0.00675659,-0.00502594,-0.0036676,0.00289703,0.00401855,0.00375458,0.00735413,0.0055545,-0.00955933,0.00161713,0.00644226,0.00307526,8.54492e-05,-0.00862579,-0.0098407,-0.00922821,-0.00798462,0.000838318,6.7749e-05,0.0089566,-0.00970703,0.00282196,0.0027301,0.0029422,0.00398071,-0.00486237,0.00970886,0.00304108,0.00714111,0.000597839,-0.00243347,0.00456573,-0.00116333,0.00701508,0.0078656,0.00782867,0.00312988,0.00720184,0.00716858,-0.0018576,0.00908325,-0.00102936,0.00703796,0.0058194,-0.00924072,0.00513397,0.00403625,0.00617218,0.00722046,-0.00649567,-0.000274048,-0.000486755,0.0025293,-0.00310577,0.000669556,-0.00884491,0.00574829,-0.00688385,-0.00157043,-0.00858978,-0.00906006,0.0049826,0.00956848,-0.00440887,-0.00283325,0.000306091,-0.0043512,0.00401031,0.00849121,-0.00810089,0.00323303,0.00198029,-0.00602417,-0.00242584,0.00388367,-0.000186462,0.00768311,0.000143738,-0.00583679,-0.00717743,0.00867554,0.00742035,-0.00436584,0.00131989,0.00101563,-0.00778351,-0.00514099,-0.00938202,-0.00623413,-0.00765533,0.00340027,-0.00897064,0.00098877,-0.00938263,-0.00217957,-0.00213348,0.00174683,-0.00515289,-0.000317993,-0.00855804,0.000102539,-0.00215363,-0.00445251,-0.00293182,0.00511841,-0.00257233,-0.00302063,0.00505768,-0.00914307,-0.0035965,0.000540161,-0.00927704,-0.00361938,0.00258636,0.00779236,-0.00562347,0.00575195,0.00878876,0.00529846,0.00133087,0.00803345,-0.00717682,0.00462097,0.0018985,-0.0027124,-0.00249786,0.00232239,-0.00860809,-0.0074231,-0.00936188,-3.479e-05,-0.0098764,-0.00203613,0.00504364,0.00411194,0.00340607,0.00251099,-0.00146881,0.00632507,0.00155182,0.000280762,-0.00608673,0.00316711,-0.000126648,-0.00966431,-0.00099762,-0.00379944,-0.00131683,-0.00326172,0.00661102,-0.00801208,0.00329376,0.00855103,-0.0054483,0.00209167,0.00401764,-0.000163574,0.0056369,0.00307434,-0.0038327,0.00965698,0.00767914,-0.00350159,5.52368e-05,0.0020752,-0.00650909,0.00892639,0.000993958,0.00615356,0.000884705,-0.00807922,0.00929596,-0.00404541,-0.00732697,0.00204407,0.000273743,-0.00945923,-0.0033316,0.000858765,-0.00576019,-0.00602539,0.00568329,-0.00507263,-0.00349335,-0.0046814,-0.00246979,-0.00418762,-0.00261322,0.00863525,-0.00497833,7.62939e-05,-0.00780731,-0.00701294,0.00597015,0.00928162,0.00123688,-0.00756348,0.00318817,0.00999084,0.00983185,-0.00395386,0.00448822,-0.00623352,0.0082901,-0.00212158,-0.0073172,-0.00282898,-0.00807587,-0.00300415,-0.00441559,0.00176697,0.00104645,-0.00253906,0.00600555,-0.00588318,0.000969543,0.00833618,0.00175873,0.00578308,0.00200592,0.00368408,0.00565643,-0.00667175,-0.000531921,0.00256714,0.00551117,-0.00168518,-0.00633148,0.00904785,-0.00586456,0.0073053,0.00991974,-0.00781128,0.00934174,-0.00813782,-0.00146576,0.00605225,-0.00605743,0.00854797,-0.00517548,0.00970093,-0.00424957,-0.00107483,-0.000896912,0.00719727,0.00757782,0.00955627,-0.00331757,0.00760376,0.00723724,-0.00799622,-0.00212494,0.00498291,-0.0024588,0.0028302,-0.00200653,-0.00160278,0.00630219,0.00359802,-0.00264984,-0.00809082,0.0063327,0.000869751,0.00125763,-0.0054187,-0.00455475,0.00620789,2.83813e-05,0.000476074,-0.00354767,-0.00382507,0.00897491,0.00865601,-0.00283356,-0.00766663,0.00840973,0.00318359,-0.00959991,0.00124573,0.00364532,-0.00687866,-0.00603424,-0.00552551,0.0049942,-0.00746826,-0.00932404,0.00858215,0.00776886,0.000477295,0.0083432,0.00513123,-0.0077182,0.00102051,-0.000220032,-0.0093158,0.00384552,0.00322388,0.00279877,-0.00319641,-0.00722748,0.0011499,0.000212097,5.18799e-05,-0.00138054,-0.0155272,-0.00410395,-0.0102402,-0.00374128,-0.0065476,-0.00546133,0.0327308,-0.00873432,0.0139371,-0.00939536,-0.00328779,-0.00742057,0.0130144,0.00693858,-0.0267164,-0.00485568,0.0330882,0.00998504,0.00242228,-0.000791402,-0.00860688,-0.00232364,-0.0112139,-0.00459066,0.00197425,-0.0290329,0.00257892,-0.0248021,0.0315137,0.0270623,0.00618768,-0.00540453,0.00547418,-0.00707001,0.00233977,0.00241302,-0.0290301,-0.0350543,-0.0110826,0.0185719,0.0125771,-0.00640609,0.0139408,-0.019009,0.00948122,-0.018302,0.00414799,0.012074,-0.00746288,-0.00533381,0.0143316,-0.00585676,0.00354034,0.00767511,-0.000984687,0.0064138,0.0164727,-0.00258038,-0.0113586,-0.0397231,0.00184334,-0.000506321,0.0152335,-0.00107391,0.00302124,0.00891449,-0.00994202,0.00382965,0.00864258,0.00636688,-0.00618591,-0.007966,0.00717407,0.00165131,-0.000613403,-0.00614838,-0.00732178,-0.00241974,0.00333801,0.00459503,0.00421753,0.00196625,0.00723083,0.00457672,0.00585449,0.00762177,-0.00237244,-0.000890808,0.00665161,-0.00764069,0.0060907,-0.00149506,0.000671387,-0.00100861,0.00918274,-0.00192352,0.00697632,-0.00466949,0.00846619,-0.00186371,0.00962891,-0.00581085,-0.00949646,0.00399689,-0.00230835,-0.00662018,0.0068573,0.00597076,0.00522705,-0.00428497,-0.00591003,-0.000629578,-0.00870239,0.00900726,-0.00623596,0.00450836,-3.41797e-05,0.00606903,-0.00755798,0.00669708,0.000294189,0.00471283,0.0016864,-0.00375092,0.00634521,0.00775116,-0.00194031,0.00847687,-0.0028186,0.00299652,0.00312439,0.00369293,-0.00313477,0.00326141,0.00344299,0.00720978,-0.00554077,0.00635834,-0.009422,0.0093399,0.00402588,-0.00490021,0.00109192,0.00539581,0.00462769,-0.00270172,-0.00345276,-0.00431,0.000327148,0.0057663,0.00350647,0.00553497,0.000186768,-0.00168365,-0.0064679,0.00524323,-0.00173096,-0.00223907,0.00318665,-0.00987274,-0.00636353,-0.00808746,-0.00596741,0.000499573,-0.00964844,-0.00641632,-0.00736755,0.00167267,-0.00252319,0.000586853,-0.00945129,0.00395905,0.00907471,-0.00426544,0.00434387,0.0026712,0.00420776,0.00683929,-0.00441956,-0.00187836,0.00693848,0.00671356,-0.00917908,-0.00437714,0.00632935,-0.00683014,0.00162781,0.00548737,-0.00355713,0.00902069,0.0045636,0.00302765,-0.00365845,0.00207855,0.0011908,0.00855621,-0.00991211,0.00515594,-0.0019281,0.00738556,0.00674438,-0.00393463,0.00676941,0.00982819,0.000373535,-0.00238068,0.00384583,-0.00880341,-0.00996216,-0.00236969,-0.00913635,-0.00819672,-0.000200195,0.00891083,-0.00561462,-0.00303925,-0.00127808,0.00927338,0.00597351,-0.00301849,0.000866699,0.00153046,0.00219055,0.00717804,0.00529663,-0.00650543,0.004599,0.00786285,-0.00392578,-0.00202179,-0.000238647,0.00434845,0.00226196,-0.00720612,-0.000759888,0.00694733,-0.00207764,0.000754089,-0.000402222,-0.00902802,0.00211792,0.00967133,0.00239685,-0.00326508,-0.00108887,-0.00764191,-0.00580017,0.00954865,-0.0026355,0.00662689,0.00656921,-0.000274353,-0.00845947,-0.00470978,-0.0039325,0.00257843,0.000501709,0.00616058,0.0042572,-0.00158051,0.00831055,-0.00794952,-0.00229919,-0.00743866,0.00402954,-0.0092276,0.00796082,-0.00468353,0.00172119,0.00513885,-0.00840027,0.00199738,0.000447998,0.00296234,-0.00981995,-0.00708344,0.00427246,-0.00294464,-0.00973572,-0.00661346,0.00225708,0.00523041,0.00341492,-0.00628021,0.00846436,-0.00970001,0.00619446,0.00922882,0.00195679,7.65991e-05,0.000165405,0.000226135,0.00679687,0.00737274,-0.00810974,-0.00797577,-0.00795288,-0.00999908,-0.00706848,-0.00506439,-0.00822998,-0.00922638,-0.000148315,0.00427277,0.00502808,-0.00249664,-0.00578674,0.000348206,-0.00411621,0.00300262,0.00257874,0.00847443,-0.00660034,0.00508392,-0.00348938,-0.00103607,-0.00836182,0.00655975,-0.00742859,0.00712921,0.00966187,-0.00475739,-0.00767639,-0.00671722,-0.0084668,0.00394501,0.00232971,0.00273712,0.0063147,-0.00952057,-0.00584778,0.00580475,0.00806885,-0.00234161,0.00435364,-0.00220184,-0.00414185,-0.00670563,-0.00550354,-0.000970154,-0.00625488,-0.00980011,-0.00885681,-0.00518768,-0.00920776,0.00618744,0.00585632,-0.00454193,0.00106201,0.00406952,-0.00480164,-0.0037204,0.00361694,-0.00834137,0.000731812,-0.00241058,0.00251953,0.00176727,0.00901917,0.00470001,0.00683228,-0.00779205,-0.00837708,0.00792389,-0.00938232,0.00579315,0.00510559,0.00257355,-0.00706177,-0.00966461,-0.00897034,0.00896149,-0.00214355,-0.00135284,-0.00404236,-0.00759979,-0.00556519,0.00854095,-0.00854797,0.00320221,-0.00326416,0.00282928,-0.00592468,-0.00332001,0.00382202,0.00932465,0.00539001,-0.00685394,-0.000244141,0.000839539,-0.00804138,-0.0020871,-0.00640015,-0.00481354,0.00534363,0.00129303,-0.000583496,-0.00482208,0.00210754,-0.00140106,-0.00373169,0.0086264,0.00381287,-0.00985687,0.00821777,0.00834442,-0.00297791,0.0012381,0.00432739,-0.00785553,-0.00670227,0.00219635,-0.00134033,0.00283905,0.00920227,0.00833038,-0.0097229,0.00824066,0.00629822,-4.73022e-05,0.00324219,0.0011618,-0.00885193,0.00237579,0.00661743,-0.000585022,-0.00468567,0.00591217,-0.00553467,0.00581268,-0.0046405,0.00587433,0.00584839,0.00816742,-0.00715393,0.00257477,0.0048291,-0.000708313,-0.00566345,0.00132599,0.000469971,-0.00300201,-0.00860657,-0.00755951,0.0068335,0.00409882,0.000579224,-0.00876923,0.00298218,0.00840668,0.00345642,-0.00199066,-0.00702148,0.00273407,0.00658752,-0.00191132,0.00588501,0.00489349,0.00153503,0.00178131,-0.00423584,-0.00230255,0.00486145,0.00439972,0.00167847,0.00895844,-0.00187073,0.00625641,0.00769043,-0.00851105,0.007901,-0.00733612,0.00286255,0.0031015,0.00573914,-0.00606537,0.00125732,0.00660858,0.00820618,0.00538116,0.00193726,0.00982269,-0.00313538,0.00731598,0.00896484,0.00555634,-0.00172302,0.00505157,-0.00859741,-0.00837799,0.00400574,0.00890045,0.00331299,-0.00916779,-0.0093866,-0.00582489,0.00375854,-0.00900055,-0.000337524,0.00118805,-0.00319824,0.00493622,-0.00228455,-0.00474823,-0.00849487,-0.00954498,-0.00366516,0.00667877,0.00193115,-0.00963165,-0.00791687,-0.00921844,0.00714233,-0.00751129,0.00652283,0.00787262,-0.00879883,0.0096286,0.00621643,0.00326447,0.00317017,-0.000399475,0.00272644,0.00726959,-0.00288818,0.00521698,-0.00738464,-0.0047995,-0.00791138,-0.00570953,-0.00255432,0.00736969,-0.00783691,-0.000366516,0.00377991,0.00908966,0.00639771,-0.000941467,0.00318054,-0.00932709,0.00885498,-0.00462189,-0.00778992,0.00743195,-0.00140259,-0.00359528,-0.00756897,-0.00032074,-0.0003125,-0.00504913,-0.00959412,-0.00727264,0.00118774,0.00882904,-0.00230286,-0.00311127,-0.00283936,0.000851746,-0.00913269,0.00747589,0.0066687,-0.00116852,-0.00852112,0.00480133,-0.00622559,-0.00441925,0.00609436,-0.00582245,0.00754028,0.00891205,0.00627625,0.00591705,0.00202881,0.00163788,0.00858704,-0.00466766,-0.00369751,0.00157074,-0.00541077,0.0027359,-0.00557617,0.00152313,-0.00915466,-0.00655975,0.00545532,-0.000692444,0.00891785,-0.00224213,0.00345947,-0.00226349,0.00536926,-0.00899872,0.00749878,0.0046225,0.00176208,-0.00651703,0.00163574,-0.00722198,0.00465881,-0.00948456,-0.00506714,1.5564e-05,0.00562195,-0.00758881,0.00145264,0.00914764,0.00121399,-0.00551727,0.000257568,0.00798676,-0.00700256,-0.00295746,-0.00458984,0.0093454,0.00753479,0.00540314,-0.0040271,-0.00896393,-0.00361145,0.00987701,-0.0039917,-0.00412872,-0.00387878,0.00577667,-0.00542114,-0.00833649,0.00829529,-0.00658539,-0.00425293,-0.00877472,-0.000526733,-0.00189667,0.00857544,-0.00763092,0.00121765,-0.00984467,0.00712646,-0.00209259,-0.00990906,0.00488312,-0.00953735,-0.00434723,0.00765564,0.00259918,0.00264648,-0.00158234,0.000474243,0.00861603,-0.00725952,0.00401459,0.000109253,-0.00675385,-0.00519287,-0.00474396,0.00312317,-0.00819794,0.00790894,-4.54712e-05,-0.00892151,0.00459625,-0.0038916,-0.00907745,-0.00946228,-0.00305878,0.00846802,0.0059726,-0.00693665,-0.000850525,-0.000949707,0.00791718,-0.0047821,0.00653351,0.00691772,0.00456879,-0.00143616,-0.000594177,-0.00386719,0.00873993,0.0096637,0.00307892,-0.00424194,-0.0017569,7.99561e-05,0.0078653,-0.000144043,-0.00410919,0.00637512,0.00907745,0.00748901,0.00949554,-0.00988831,0.00702789,0.00271973,-0.00813019,-0.00214783,0.00702911,-0.0053894,0.000826111,0.00115906,-0.000606384,-0.00277588,-0.000823059,-0.00340515,-0.000566101,0.0096228,-0.0052652,0.00572205,0.00746246,-0.00413086,0.000312195,-0.00489685,0.00879181,0.00502563,-0.00627838,-0.00369934,-0.00626556,-0.00884521,-0.00222443,0.00587708,-0.00239716,-0.00668091,0.00028656,0.0053949,0.000709534,-0.00441895,-0.00593292,0.00141663,0.008367,0.00700317,-0.00307037,0.00550476,-0.00911224,0.00164795,-0.00831329,-0.0057782,0.00358429,-0.00142212,0.00615082,0.00913025,0.0067691,0.00185547,-0.00686554,-0.0032074,0.0057547,0.000543213,-0.00954987,0.00877136,-0.00914642,0.00870361,0.000910339,0.00162903,-0.00262177,0.00539917,-0.00767242,-0.0030719,0.00564117,-0.00530762,-0.00248566,0.00123108,0.000954895,0.00564575,-0.00571686,0.00610046,-0.0063681,-0.00767822,0.00544647,0.00809875,-0.00101532,-0.00621704,-0.00118317,0.00878845,-0.00267426,-0.0059082,0.00720673,-0.00526794,-0.00603241,0.00231079,0.00842865,-0.00250793,-0.000777283,-0.00749756,0.0052951,-0.00636902,0.00840363,0.00372925,0.00561859,0.0047113,0.00182281,5.37109e-05,0.00221161,-0.00270447,0.00479279,-0.00946167,-0.00711334,0.00294617,0.00762604,0.00924561,0.000456238,-0.00177429,0.00563507,-0.00476196,-0.00726715,0.00469666,-0.000867615,-0.00742188,0.00252899,0.00892151,-0.00656952,-0.00967163,0.00765717,0.00246277,-0.00115814,0.00255127,-0.00907013,0.00188293,-0.00932098,0.00830933,0.000159607,0.00874451,0.00925446,-0.00833496,0.00815887,0.00960999,-0.000119324,0.00168091,-0.00725983,-0.00395813,-0.00712982,-0.00758057,-0.003284,0.00460266,0.00353546,0.00294312,0.00789886,-0.00314514,-0.00781097,-0.00268555,-0.000898743,-0.000639038,0.00414337,0.00459595,0.00813568,0.00368347,0.009711,-0.0011499,-0.00218536,0.00638489,0.00420441,-0.000860596,-0.00404938,0.00902771,0.0079361,0.00952637,-0.00464386,-0.00182556,0.00621857,-0.000926514,-0.00615631,0.00538757,0.00936432,0.00184326,-0.00577423,0.00722961,-0.00731415,-0.00310181,0.00431488,0.00526306,-0.00350433,0.00830078,-0.00307648,0.00605042,0.00610626,0.00511353,0.0098642,0.00115417,-0.00816986,0.00139893,0.0059494,0.00713684,0.0089798,-0.00378052,-0.00700836,0.00556091,-0.00213226,-0.0063623,0.00380341,0.00298889,0.00380646,0.00271606,-0.0038028,-0.00901672,-0.00289154,-0.00248291,-0.00701447,0.00610657,-0.00691376,-0.00289673,0.0019809,0.00992126,-0.00794769,0.00553711,-0.00400421,0.00898987,-0.000680847,-0.0081189,-0.00715729,-0.00512512,0.00519928,-0.00980225,-0.00466583,0.00413879,0.00500519,-0.000450439,-0.00871735,-0.00165588,-0.000950623,0.00399902,-0.00649933,0.00405334,-0.00735565,-0.00739136,-0.00019928,-0.00717102,-0.0038974,-0.000559082,-0.0070047,0.00123352,0.00473663,0.00355835,0.000896912,-0.00917053,-0.00114105,0.00902344,-0.00368195,0.00817932,0.00378204,0.00489868,-0.00292877,0.00484558,0.00981842,0.00524658,0.00596893,-0.00260925,-0.00771942,0.00912964,-0.00917633,0.00737732,-0.00851898,0.000610352,0.00444794,0.0013678,-0.00726776,0.00875122,0.00465424,-0.00907532,0.00634674,0.00761475,-0.00574493,-0.00738953,0.00763702,-0.00373657,0.00106293,0.00798767,-0.00308441,-0.00124023,-0.00210968,0.00361877,-0.000505066,0.00416626,0.00254974,-0.00893372,0.00568756,0.00654541,-0.0021463,0.0068927,-0.00919403,0.00495972,-0.00838531,-0.00733948,-0.00483734,0.00347168,-0.0033548,-0.00506775,0.00407013,-0.0088562,-0.00924225,0.00527039,0.00784088,0.00203857,-0.00323517,0.000237427,0.00178741,-0.00478149,0.00247894,0.00139587,0.00622223,-0.00525391,0.000712585,-0.00469177,0.00645782,0.00968384,0.00927826,-0.00646301,-0.0071933,-0.00590576,-0.00901154,-0.00735535,0.00058136,0.00703979,-0.0063443,-0.00580627,-0.0099057,-0.00741699,-0.00990753,0.0047467,0.00665802,-0.000213623,-0.00188873,-0.00413391,0.000585022,0.0027124,0.000524597,0.00411438,0.00718781,0.000423584,0.00514496,-0.00894592,0.00677887,-0.00301758,0.00478485,0.00324768,0.00467072,0.00145142,-0.00274323,-0.00774231,-0.00882416,0.00789307,0.00537323,-0.00535339,0.00160675,-0.00463013,-0.00305328,-0.00802307,-0.00372406,0.00794434,0.00478973,-0.00918884,0.000495911,-0.00532104,0.00671478,0.00271179,0.00457916,0.00963623,0.00553436,0.00424133,0.0038382,-0.00812134,0.00906097,-0.00303772,-0.00141449,0.00546875,-0.00989288,0.00743713,-0.00586639,-0.000531006,0.00648529,0.00722839,0.000794983,0.00794189,0.001008,-0.00710144,-0.00611786,0.00994995,0.00148773,0.00601013,-0.00629242,0.00955566,0.000737,-0.00687439,0.0055838,-0.00417847,-0.0034317,0.0058075,-0.000176697,0.00281006,-0.00820587,0.000618286,-0.00826141,0.00958374,-0.00577301,-0.000879517,0.00164215,0.000205078,-0.00332062,0.00787659,-0.0051535,0.00373657,-0.00303619,-0.0015509,0.00166412,-0.00575928,-0.00210724,0.00740051,-0.00259247,-0.00921997,0.00727875,-0.00370667,0.00238922,-0.00258301,-0.00206573,-0.00830994,0.00192169,0.00321411,0.00767181,0.0051532,0.00631744,0.00223389,-0.000696106,-0.00675476,-0.00911102,-0.00646118,0.000643005,-0.00247131,-0.00405121,0.00119141,0.00450165,0.00456604,0.00680939,-0.00574585,0.00869232,0.0059198,-0.00621674,0.00678955,-0.00397247,-0.00184753,-0.00781708,-0.00213989,-0.00568024,0.00282654,0.00232086,-0.00847168,-0.00361847,0.00650452,0.00950958,-0.00314331,2.53296e-05,0.000748901,0.00406158,0.00790771,0.00806366,0.00212219,0.00128937,0.0037439,0.00830902,-0.00781311,0.00150543,0.00842773,-0.00642609,-0.00249451,-0.00997772,-0.00897827,0.00167084,0.0096405,-0.0028476,0.00558838,-0.00458771,0.00515442,-0.00179169,-0.00880981,0.00261078,0.00560974,-0.0064975,-0.00811035,-0.0039212,-0.00243103,0.00834747,-0.00325073,-0.00637115,-0.0074054,-0.00694427,-0.000168457,-0.00192657,0.00724915,0.00293976,0.000198975,-0.00277496,0.00309509,-0.00168793,0.00191406,0.00389618,0.00669495,0.00448517,-0.00596069,-0.00410065,0.00961121,-0.00822845,-0.00936279,-0.00395294,0.00840637,-0.0045163,-0.00922974,-0.00784821,0.00464294,-0.00406586,-0.00149902,-0.00297394,0.00488342,-0.00156464,0.00289185,0.00848236,0.000690308,-0.00670013,-0.00199463,0.00933319,0.0086261,-0.00415985,0.00290405,0.00739105,-0.0097467,0.00636871,0.00165039,-0.00453156,-0.0078656,-0.00980194,0.00330688,-0.00862213,0.00583191,-0.00235931,0.00193604,-0.00206818,0.00790833,0.00400909,-0.00339966,0.00294281,-7.38525e-05,0.00961578,-0.0086377,-0.000776672,0.00844788,-0.000226746,-0.00471558,0.00458588,0.00503601,0.00479401,0.0024292,0.00184296,0.00625305,-9.46045e-06,-0.00814087,-0.00119293,-0.0063385,0.00567535,0.00763672,0.00829071,-0.00617615,0.00716095,-0.00117554,0.00810638,-0.00169739,-0.00524017,-0.000515137,0.00106659,0.00366028,0.00378448,0.00868042,-0.00501617,-0.00854065,-0.00545258,-0.00952637,0.00267059,0.00826233,-0.00763885,-0.006073,0.00193939,0.00563171,0.00753815,-0.00689697,-0.00439728,0.000130005,-0.00460907,0.00706421,-0.00852692,-0.0066803,-0.00376801,-0.000126953,0.00236298,-0.00823669,-0.00462616,0.000592041,0.0060849,0.00702332,0.00312897,0.00328369,0.00545135,-0.00433777,-0.00519012,0.0070105,0.00827484,-0.000757446,-0.00927094,-0.00416504,0.00736786,0.00432678,-0.00380096,-0.00118042,0.000542908,0.00247742,0.00153229,-0.00997314,-0.00938751,-0.00974304,0.00204132,0.00851929,0.0053891,0.00922791,-0.00196136,-0.00164062,-0.00231476,0.00595276,-0.00516327,0.00860962,0.00531342,-0.00800598,0.00274811,-0.00666748,-0.00891388,0.00391418,-0.00291473,-0.00840942,0.00281586,0.00327576,-0.00183929,0.00744629,-0.00668488,-0.00335876,-0.00871307,0.00996216,0.000396423,-0.00442688,0.00677643,-0.00679932,0.00687225,-0.00336609,-5.82886e-05,-0.00377563,0.000555115,0.00138611,-0.00890472,0.0030957,-0.00574249,-0.00360779,0.00554962,0.0028772,0.00579193,-0.00678528,-0.00638275,0.00963135,-0.00202911,0.00841614,-0.00938934,0.00242065,-0.00139313,0.00355896,-0.00315765,0.00530762,0.00051239,0.00520569,-0.00237518,0.00735474,0.00149994,0.00491882,0.00327057,0.00262451,0.00438202,-0.000739136,0.0090921,-0.00982056,-0.00302887,0.00979431,-0.00459808,-0.00591797,-0.00792023,0.00308167,0.00751251,0.00339478,0.00752045,-0.00931458,-0.00426361,-0.00781982,0.00610565,0.00916809,-0.00461395,-0.000499268,-0.00435211,9.21631e-05,0.00677399,0.00941895,0.00895966,-0.00997986,-0.00478729,-0.00900269,0.00385345,-0.00948547,-0.00898529,-0.00170166,0.00314178,-0.00186218,0.00961651,-0.0518224,-0.058869,-0.0409059,-0.0896679,-0.100878,-0.00496234,0.136194,-0.0727541,0.028797,-0.0744313,0.0366383,-0.0362243,0.0514869,-0.00308573,-0.0928938,-0.10707,0.16229,0.101683,0.00740817,0.00150366,-0.0064851,0.0249159,-0.0792381,0.000278844,0.0204146,-0.0999037,-0.0138604,-0.120928,0.148212,0.111803,0.0103627,0.0110635,0.0134061,-0.07842,-0.023108,0.0123663,-0.137334,-0.238967,-0.0408165,0.203853,0.0302585,0.0227196,0.00800928,-0.0544351,0.0094777,-0.0914349,-0.0128217,0.0603804,-0.0677899,-0.0322667,0.115341,-0.0417189,0.0483002,0.109873,0.0504227,0.0223694,0.0859245,-0.00683886,-0.141733,-0.190839,0.00829766,0.0749004,0.11892,0.00404327,0.00954468,-0.00628082,-0.00748108,-0.00417816,0.00454102,-0.00695343,0.000650024,0.000901184,0.00244751,0.000205994,0.000597534,0.00959381,-0.00267334,-0.00199005,0.00892395,-0.00278778,0.00824097,-0.00572906,0.00719177,0.00406891,-0.00074707,0.00180145,0.0019635,-0.00452362,-0.000574951,-0.001586,0.00480164,0.00174713,0.00281982,0.00692108,-0.00773132,-0.00180634,0.00849976,-0.00486481,0.00592712,0.00512848,0.000527344,-0.00413116,-0.00766052,0.00786407,0.00796509,0.00693451,0.00306824,-0.00328705,0.00487549,-0.00885529,-0.0053241,0.00698761,-0.00967896,-0.00368805,0.00872498,-0.000999451,0.00836426,-0.00475128,-0.00822205,-0.00193573,0.00806763,0.00576752,-0.00460266,-0.00550873,0.00349365,-0.00931915,-0.00385437,0.00302928,-0.00599409,-0.000491083,-0.00421659,0.00727864,0.0062489,-0.000747533,-0.000178037,0.00660914,0.000884698,-0.00386182,0.00131581,-0.00497127,-0.00125895,0.00678323,-0.00417636,0.00941519,-0.00484828,-0.00151692,0.00624628,0.00425908,0.00232657,0.00862345,-0.000377817,-0.00848248,0.00364807,-0.00551022,0.00344609,-0.00205655,-0.0111914,-0.00372925,-0.00422624,0.00160873,0.00412251,0.00318715,0.000680999,-0.00267706,-0.00847641,0.00589015,0.00608755,-0.0063453,-7.89819e-05,0.00385828,-0.0025945,0.00473885,-0.000492626,0.000711258,-0.00434989,0.00159869,-0.00589391,0.00581501,-0.00127479,0.00289614,0.00316937,0.00611706,-0.00111354,-0.00179631,0.00455454,0.00457915,0.00842389,-0.00559765,0.00524028,0.000699714,-0.00803742,0.0084718,0.00153245,0.00645561,0.00286814,-0.00133369,0.00443924,-0.00842522,0.00773032,-0.00483866,0.00220039,-0.00625364,0.00827497,0.00522656,0.00597303,-0.00217942,0.00807902,0.00204101,-0.00360315,0.0119163,-0.00932664,-0.00826428,-0.00692018,0.00305772,-0.00229931,-0.00703889,-0.00766506,-0.00660079,0.00415165,-0.00159397,0.0055979,0.0110531,0.00574627,0.00707947,0.00759309,-0.00810051,0.00123361,-0.00466571,0.00433779,-0.00441779,0.00090149,0.0113473,-0.00655321,0.00644757,-0.00368626,-0.00327174,-0.00232351,-0.00530427,-0.000131367,-0.0008425,0.000157389,-0.00383281,-0.000216863,-0.00928466,0.00781185,0.00371589,-0.00600281,0.0018238,0.00674482,0.00730605,-0.00180423,-0.00568305,0.00814394,-0.000483988,-0.00408647,-0.00230438,-0.00297485,0.000965271,-0.00328186,0.000411682,-0.00579102,0.00873016,-0.00546326,-0.00857147,0.00930298,-0.000672913,-0.000828247,0.00105865,-0.00363037,-0.00443146,0.00718567,0.00461456,-0.00552856,0.00526703,0.000140991,0.00240875,0.0076709,0.00123505,0.00460022,-0.000246277,0.00503052,0.0012851,-0.00787415,0.00696198,0.000612793,0.00822968,-0.000719604,-0.000653992,-0.00651978,0.00988129,0.00762634,-0.00278168,0.00769531,-0.000947571,0.0037262,0.00589142,-0.00767944,-0.0064444,-0.000857544,-0.0043222,0.00141846,-0.00379669,-0.00956238,0.00188995,-0.00594849,-0.00519196,-0.000825806,0.00484039,-0.00571777,0.00218231,-0.00808533,0.00984161,-0.0088269,-0.00386139,0.000221558,0.00720612,-0.00121338,-0.000510559,0.000657349,-0.00772414,-0.00391102,-4.16961e-05,-0.00530864,0.00512848,0.00721424,-0.00928648,0.00939733,-0.00843531,0.00168085,0.00895927,-0.00460777,0.00143947,-0.00725913,-0.0019306,0.0097748,-0.00980412,0.00019738,0.00583724,-0.00552746,-0.00145307,0.00714107,0.00442324,-0.00463788,-0.00885005,0.00348817,-0.00798929,0.0044929,-0.00154672,0.00346795,-0.0078089,-0.00165576,-0.00359633,0.00519151,-0.00865402,-0.00184714,0.00456704,-0.00680283,0.00311733,-0.00929782,0.00888151,-0.00281255,0.00579737,0.00790045,-0.00141631,-0.00969343,0.0010693,0.00562647,-0.00975171,-0.00818004,-0.00248661,0.00620419,0.00347175,0.00634747,0.00800258,-0.00463354,0.00377226,0.00231813,0.00956498,0.00493046,0.00115443,-0.0061941,0.00592876,-0.00764057,-0.00820282,0.000345459,0.00412933,-0.00214905,-0.00486176,0.0056543,-0.00248077,0.00879456,-0.00321991,-0.00112671,0.00374115,-0.00344543,0.00703522,-0.00593506,0.0056076,-0.00230652,0.00121613,-0.00970825,-0.00906891,-0.0062262,-0.000364685,-0.00838379,-0.00747589,-0.00864197,0.00760529,0.00710083,0.00819916,0.00200867,-0.00456146,-0.00919189,0.000768738,0.00228821,-0.00155243,0.00180054,-0.00195465,-0.00624084,-0.00305511,0.00414063,-0.00715851,0.00298401,-0.00375702,0.00689087,0.00296967,0.00152527,0.00665436,0.00411377,-0.00875763,0.00594543,0.00349152,-0.00512817,0.00547211,-0.00219299,0.00706696,0.00322754,-0.00152863,0.00367249,0.00269318,-0.00175659,0.00805267,-0.00489563,0.000682678,-0.00601807,-0.0029715,0.00866516,-0.00318308,0.00979941,-0.00650356,0.00640486,-0.00944572,0.00936933,0.00959836,-0.00690601,0.00688341,0.000949854,0.00361294,0.0026184,-0.00282046,-0.000107766,-0.00226157,-0.00986595,-0.00333665,0.00587323,0.0015928,-0.00150273,0.00611524,0.00140413,0.0056555,-0.00763134,0.0092679,-0.00415138,0.00942653,0.00425399,-0.00287328,0.0027485,-0.0061313,-0.00920134,0.00525444,0.00285928,0.0102178,-0.00512891,-0.00531319,0.00053013,0.00770787,0.000451527,0.00877108,0.00177071,0.00525981,-5.99008e-05,-0.000531538,0.00266562,0.00629107,-0.00890615,0.00125367,0.00239293,-0.00214984,-0.00512238,-0.00383785,0.00544448,-0.00575759,-0.00269731,0.0068023,-0.000688604,-0.00831123,-0.00988952,0.00503615,-0.000932581,-0.00692854,-0.0101669,0.00478048,0.00427345,0.00653541,0.00212082,0.0113244,-0.00220862,0.00732165,0.000484015,0.00177886,0.00920869,0.00720185,-0.00513005,-0.00821703,-0.00876892,-0.00359023,0.00766858,0.00088362,0.00542577,-0.00417837,0.00913672,-0.00447311,-0.00480506,0.00501114,-0.00238244,-0.00478857,0.0117992,-0.00572702,-0.00469687,0.0041566,-0.00049796,-0.00728745,0.00442975,-0.00192961,-0.010372,0.00945209,0.00128394,-0.00272605,0.00116104,0.0067971,0.00308213,0.00715095,-0.00105271,-0.00629647,0.00398097,-0.00287112,0.0103644,0.00393126,0.00398985,0.00641171,-0.00344405,-0.00300099,-0.0048311,0.00482949,-0.00738179,-0.0040963,-0.00513301,-0.00276702,0.00363858,0.00130761,0.00783046,-0.00434164,0.0100678,-0.0062768,-0.00471086,0.00249351,-0.00373749,0.00730162,-0.00714702,-0.00295413,-0.0019764,0.0092351,-0.000636884,-0.00115065,0.00452092,-0.0039506,-0.00872673,-0.0156003,0.00706313,0.00537458,-0.0111133,0.0112569,-0.0141677,-0.00183037,-0.00287313,-0.00688273,-0.0101986,0.00440669,0.0148416,0.00563794,0.0122145,0.00111332,0.00592099,-0.00990974,0.00274426,0.00293494,0.00565512,-0.000366862,-0.000583419,0.0105637,-0.0127727,0.00650277,0.00431272,-0.00937841,0.0132473,0.00578353,0.0128689,0.00315441,-0.00575423,-0.00461622,-0.00119384,-0.0159868,-0.000940325,-0.00320572,-0.00944003,0.00317102,-0.000317742,0.0121139,0.00159539,-0.00157642,-0.00892779,0.00916463,0.00311853,-0.00535797,-0.00184277,0.00442058,0.00548902,-0.00496513,0.0094732,0.0016194,0.00728279,-0.00969958,-0.000366351,0.00402758,0.00834236,-0.00287572,-0.000993888,0.00815905,-0.00167094,-0.00784016,-0.00888151,-0.00291456,0.00817761,0.00523828,-0.00313288,-0.00784757,0.00382875,0.00466428,0.00233685,-0.00451431,0.000526769,-0.00515021,0.00482001,0.00275999,-0.0090572,0.000322717,0.000614643,-0.0100843,-0.00850127,0.00653637,0.00793775,-0.00341662,-0.00279257,-0.00461381,0.00680646,-0.0030598,-0.00367896,-0.00105281,0.000355735,-0.00113542,-0.00212003,0.00257315,0.00608176,0.00728104,0.00957815,-0.000523214,-0.00390307,0.0058237,-0.00536969,0.00430823,-0.00288325,-0.00694093,0.00259433,-0.00749237,0.00788652,0.00915158,-0.0071205,-0.00813346,0.00338713,0.00576649,0.0029426,-0.00706619,0.00556596,0.00475074,-0.0048693,-0.00139613,0.0074355,-0.00228698,-0.0101252,0.00691472,0.00450303,-0.00374628,0.00104085,-0.00906416,-0.00181515,0.00851142,-0.00309736,-0.001785,-0.0104132,-0.0116621,0.000459393,-0.00541088,0.00554934,0.000183097,0.00891983,0.00871761,0.00435369,0.00441039,0.000266771,0.000650585,0.00409799,-0.00831344,0.00694074,0.00202668,-0.00228788,0.00391949,0.000484333,0.00443675,0.00617001,-0.00582366,-0.0100254,-0.0108018,-0.00208329,0.0139565,-0.00852895,0.00446498,0.00531867,0.000466854,0.00880026,-0.00578229,0.00193111,0.00630766,0.003134,-0.000901182,-0.00584355,-0.000496108,0.00419592,0.00894073,0.00112908,-0.00718503,-0.00485004,-0.00462605,-0.00297768,-0.0123718,0.00941866,0.00973175,0.00851935,-0.00460598,-0.0140498,-0.0103299,-0.00316535,-0.00840465,-0.00966744,0.00620642,0.00314199,-0.0101709,0.0110764,-0.0073598,0.0108176,0.00057916,0.0099115,-0.00500756,0.000895132,-0.0183691,0.0122891,0.0176695,-0.0037813,-0.00745495,0.00365542,0.00842803,-0.0138904,-0.0102162,-0.00721146,-0.0015571,-0.0109055,-0.010365,0.0147114,0.00880023,-0.0059559,-0.00333895,0.00865545,-0.00363231,-0.00975389,-0.00365215,-0.017906,-0.027,-0.00462678,0.0243758,-0.00520205,-0.00655241,0.0106256,-0.00472509,-0.00581797,-0.011833,-0.00968753,0.0118205,-0.00909683,-0.00703067,0.00413737,-0.00687107,-0.00491559,0.0162501,0.00206961,0.0025651,0.00559249,0.00261956,-0.0117831,-0.0156124,-0.00273488,0.016794,0.00314854,0.00668338,0.0159156,0.00247912,-0.00613121,0.00838074,0.00328679,-0.00403976,-0.00256854,-0.00513024,0.00580884,0.00142943,0.000669978,0.0102846,0.0118404,-0.00732542,-0.00848234,0.0042988,0.00805689,0.00101925,0.00983979,0.0127805,-0.00654107,0.005816,0.00728506,0.00998714,-0.0150254,0.00162286,0.00961581,0.00442678,-0.0064494,-0.000855084,-0.00687539,-0.0184308,-0.00582129,0.00822234,0.0110767,-0.00457987,0.00176167,0.0107181,0.0172217,-0.00496615,-0.00608712,0.00649884,0.00706455,-0.00158381,0.00264098,0.00972097,0.000694643,-0.00823966,0.000380929,0.0108097,-0.0112258,-0.0106659,0.00382544,-0.00269053,-0.00486787,-0.00741302,-0.0064495,-0.0114233,0.00672224,0.00136757,0.00148634,-0.0160865,-0.00178854,0.00834559,-0.00266235,-0.00436266,0.00266733,-0.00492705,-0.00743295,-0.00610261,0.00541705,-0.00284804,-0.00305776,0.00202628,0.00688259,-0.00815602,0.00466124,0.00365349,-0.000907371,0.00936378,-0.00788085,-0.00646067,0.0115057,0.00579588,0.00632946,-0.00268033,-0.00203601,0.000350685,-0.00249531,-0.000660043,0.00245198,0.00920015,-0.0103555,-0.009242,-0.00481739,-0.00298811,-0.00830097,-0.0090229,-0.000678105,-0.00561839,0.0143055,0.0129813,-0.00161913,-0.00555375,0.00449019,0.00154848,-0.0095802,-0.00794164,-0.00558985,-0.00948048,0.00788529,0.011417,-0.000794009,0.00999559,-0.00744546,-0.00536265,-0.00195015,0.000809808,-0.00838694,-0.00454751,0.00594622,-0.00482169,-0.00440292,-0.00288995,-0.00514236,0.0073967,0.00235568,-0.00713829,0.00255385,0.00535471,-0.00953363,0.0092182,-0.00669186,0.004646,-0.00924283,0.00748793,-0.00124288,0.00139799,-0.00749424,0.000978082,-0.00902648,-0.00233709,-0.00791481,0.00237426,0.0109472,0.00532436,-0.00666534,-0.00502732,-0.00212364,-0.0084742,-0.000556619,0.000242038,0.00340641,-0.00472626,0.0035211,-0.0099435,0.00496394,0.00507962,0.00296769,0.00219167,-0.00260241,0.00199036,-0.00100761,-0.006989,0.00464525,0.000372669,-0.00252281,-0.00742882,0.00130793,0.00363679,0.0103117,0.00231112,-0.00650932,0.00592719,-0.00720428,0.00831055,0.00500341,-6.97269e-05,0.0102017,0.00479969,0.0010842,7.08688e-05,0.00450256,-0.00220123,0.00855111,-0.000552741,0.0088254,-0.00250985,-5.95567e-05,0.00465914,0.00397342,0.00248717,-0.00340033,0.000301299,0.00328916,0.00936746,0.00400144,0.0015894,0.00012536,0.00349005,0.00717029,0.00587982,0.00353351,-0.00363575,0.0024898,-0.0036524,-0.0099174,0.00504032,0.00838499,-0.00101713,0.00125509,0.00564651,-0.00939309,0.00859981,0.00578277,0.00670384,-0.00231067,0.0024829,-0.00839317,-0.00237543,0.00120874,0.00357532,-0.00268092,-0.00575193,0.00311627,-0.000693321,0.00418823,-0.004287,0.00647457,0.00252756,-0.000188848,0.00710069,0.000212732,-0.010182,-0.00641292,0.00123692,-0.00214519,0.00611115,0.00374075,-0.00816956,-0.00103897,-0.00058467,-0.00962594,-0.00123211,0.00757948,-0.000509435,0.00179587,0.00690916,-0.00582809,0.00775604,0.0104168,0.00838819,0.0102626,0.00405814,0.00863669,-0.00298671,-0.00503427,0.000593292,0.00197498,-0.00736077,-0.00299749,0.00243956,-0.00461563,0.00319708,0.00113112,-0.0069105,-0.00148008,-0.00531594,-0.00114192,0.00109762,-0.00637904,-0.00692725,-0.00796292,-0.000805068,-0.00563626,0.00209199,-0.0104061,-0.00691975,-0.00348285,-0.00254772,-0.00278901,-0.00703503,0.00586481,0.00924645,0.0022452,0.00755511,-0.00418375,-0.00814307,-0.00498558,0.00239171,-0.00717303,0.00245057,-0.0090489,0.00659393,0.00861589,-0.00891731,0.0070825,1.02903e-05,0.00182899,0.0029735,0.00749922,-0.00971233,0.000489821,0.000181404,-0.00423856,0.00306338,-0.00290756,-0.00115239,-0.000348358,0.0031689,0.00278746,1.04339e-05,0.00643993,0.00165151,-0.00309629,-0.00010585,0.00468736,-0.0112259,0.000436133,-0.00445649,0.000131538,0.00221004,0.00463487,0.00251762,-0.00578745,-0.010583,-0.00523853,0.00787708,-0.00352632,-0.0107245,0.00103899,0.00197168,0.000502147,0.00519052,0.000612545,-9.73862e-05,0.00574354,0.00450687,-0.0042177,0.00230155,-0.00457879,-0.000351702,-0.00807527,-0.00594976,-6.83024e-05,0.00876002,0.00155441,0.00536917,-0.0073916,-0.00425438,0.000611296,-0.00752117,-0.00797206,0.00619136,-0.00917218,-0.00521833,0.00275042,-0.00588044,-0.00126766,-0.00160939,-0.00529232,-0.00105631,-0.00384194,-0.00817732,0.00075432,0.000582796,-0.000673489,-0.0071475,8.19304e-06,0.00898043,0.0102893,-0.000198987,-0.00256254,-0.00398076,-0.00526904,-0.000594805,0.00133209,-0.000820757,0.00448272,0.000504251,0.0056097,0.00199999,-0.00251862,0.00101315,0.00937151,-0.00782231,-0.00727338,-0.00153734,-0.00231345,0.00226761,-0.00120026,-0.000889953,-0.0014319,0.0100459,0.00708813,-0.00667577,0.00648335,-0.00162923,-0.00638932,-0.00322033,0.000400691,-0.00487219,-0.000127492,0.00913504,0.00482917,-0.00671345,-0.00719541,-0.00385977,0.00805115,-0.00920384,0.00364283,0.00805678,0.00440742,0.00967431,0.00938462,0.00018808,-0.0067012,-0.00135354,-0.00885458,-0.00730364,-0.00124184,0.010136,-0.00437215,-0.00915956,0.00911487,0.00172081,-0.00559309,0.00550236,-0.000889481,-0.00339084,0.00431717,-0.00876094,0.007685,0.0022909,0.00634433,0.00915293,-0.00107591,-0.00832471,0.00755468,0.00371807,0.00166298,0.00307792,-0.00062619,0.00594369,-0.00976056,-0.00148188,-0.00179769,-0.0087028,0.00457068,0.00524026,0.00488293,-0.00248626,0.00522314,-0.00143309,0.00829097,-0.00595933,0.00584254,-0.00522812,-0.00153472,0.00921075,-0.00155111,-0.00332895,-0.00789343,-0.00154475,-8.56822e-05,-0.0103201,0.00845622,-0.000418072,-0.00129083,-0.00881238,-0.00149139,0.00257604,0.00180749,-0.00312033,-0.00838919,-0.00466652,0.00283688,0.00943642,0.00434181,-0.00893172,-0.000893399,-0.00563338,-0.00388659,-0.00548346,-0.00104154,0.00916331,-0.00232715,0.00879241,0.00915241,0.00924718,-0.00127274,0.00421176,0.00391613,-0.00256036,-0.00661412,-0.00618803,-0.000192634,-0.000476145,0.0077243,0.00227841,0.0056165,-0.00761244,0.00613157,-0.00714406,0.00810074,-0.00794644,5.8818e-06,-0.00411853,0.00128832,-0.0013253,0.00372707,0.0050589,0.0027478,0.0053598,0.00384705,0.00308746,-0.00100586,0.000937195,0.00322815,-0.00558319,-0.00184937,0.00434662,-0.00557434,0.00935944,-0.00572021,-0.00159943,-0.00599792,0.00322784,0.00644409,-0.00908844,0.0035199,-0.00366547,-0.00129395,-0.00530792,0.00954163,-0.006008,0.000128174,0.00755463,0.00362976,0.00651276,0.00477295,-0.00768829,0.0023468,0.00920929,-0.00829712,-0.00322418,0.00725525,0.0023941,0.00498047,-0.00624054,0.0049176,-0.0086203,-0.00633179,0.00107513,0.00689636,0.00647858,-0.00817139,0.00153534,0.00975403,0.00300323,-0.00147583,0.00295258,-0.0049469,0.00126617,-0.00218262,-0.00186066,0.00935608,0.0065799,-0.00122925,0.00490814,0.00422546,0.0092569,-0.00455322,0.00607147,-0.00377625,0.00460968,0.00690796,0.00944183,0.00691345,-0.00704926,-0.0027832,0.00783173,0.00285706,-0.00040741,-0.00456421,-0.00094635,-0.00438293,-0.00515228,-0.00437256,0.0059201,0.00175598,-0.00597137,-0.00314575,-0.00375641,0.0028363,-0.00255219,0.00317871,0.00283661,0.00542053,-0.00958221,0.00366333,0.00351166,0.00107117,0.00325104,-0.00762939,0.00108124,0.00635071,-0.00873993,0.00836304,0.00335785,0.00282166,-0.00524261,-0.00429688,0.00315399,-0.00295349,-0.000944519,0.00345337,-0.00171783,0.000587769,-0.00553314,0.00567627,-0.00844513,-0.00999207,-0.00369598,0.00143433,-0.00921539,0.00686951,0.00487946,-0.00520996,0.00878387,-0.00226501,0.00550568,-0.00519409,0.00336517,-0.00583313,0.00849518,-0.00445557,-0.002659,-0.00727234,0.00929807,-0.00407037,-0.00151749,-0.0049792,0.00808,0.000810509,2.41763e-05,0.00702387,0.00987219,-0.00230913,-0.000944889,0.00192955,0.00518957,0.00172311,-0.00153403,-0.00518335,0.0102452,-0.00833628,0.00625338,0.0071166,0.00362903,-0.00717127,-0.00431719,0.00635927,-0.00815641,-0.00780257,0.00487892,0.00325653,0.00505923,0.00452397,-0.00540783,-0.00453015,-0.00148073,-0.0101969,-0.00496849,0.0034503,-0.00779904,-0.00799433,-0.00203392,-0.00589177,-0.00875085,-0.00172374,0.00064883,-0.000999836,0.00745928,0.0044664,0.0068611,-0.00454811,-0.00580756,0.00930655,0.00363697,0.00348046,-0.00622557,-0.00310208,0.00396735,-0.0090072,0.00940439,-0.00425526,0.00704605,0.00920092,-0.00684908,0.000615732,-0.00643717,-0.00581102,-0.00128876,-0.00977173,-0.0073941,0.00804626,0.00767731,0.00866211,-0.00337921,-0.00288513,0.00494415,0.0050061,0.00346771,-0.00700012,0.00082428,-0.00667725,-0.00404083,-0.00773621,-0.00936981,-0.00732544,0.00190765,-0.00353088,-0.00532562,0.00712402,-0.00587433,-0.00782166,-0.00173065,0.00573364,-0.00957428,-0.00904602,-0.0082724,0.00256592,-0.0063797,0.00935852,-0.00963837,-0.00331665,-0.00847809,0.00895447,-0.00551605,-0.00785156,-0.00305695,-0.00369568,0.00940704,-0.00197632,0.00769623,0.00297058,0.00544342,0.00837158,0.00659393,0.00551575,-0.00209442,0.00225464,0.00144867,0.00550232,0.00710602,0.00373535,0.00507294,0.0094928,-0.00164276,0.00187622,-0.00472076,0.00904968,0.00197174,-0.00926025,-0.00511993,0.000735474,-0.00667408,0.00907376,-0.00821746,0.00581231,-0.00740774,0.00218335,-0.00157731,-0.00790532,0.00485835,-0.00245672,-0.00709511,0.00915987,0.000854935,0.00970779,-0.00112029,-0.00523149,-0.00331038,-0.00193329,0.00243945,-0.00951701,-0.00920308,0.00615229,-0.00276154,0.00334981,0.00963398,0.00448639,0.000946115,0.00359977,0.00313386,0.00529788,-0.00219107,0.00837792,0.00755744,0.00828292,-0.00677171,-0.000671006,0.00194958,-0.00250575,0.00117925,0.00370183,-0.00791979,0.00313068,-0.000259081,-0.00812868,0.00809969,-0.00258877,-0.00885816,0.000796662,0.00660456,1.23098e-05,0.00453956,-0.00781997,0.00584382,-0.00451934,-0.00925083,-0.00749308,-0.0077489,-0.00663167,0.0086496,-0.00584131,-0.00417396,0.00592943,0.000810516,-0.0076718,-0.00634979,-0.0105511,-0.00272191,0.00515009,0.00352721,0.00497526,0.00481885,-0.00511619,-0.0125577,-0.00170538,0.00495596,-0.0101554,0.000100345,-0.00892984,0.0116945,-0.000212371,0.0117994,0.00675772,0.0101535,-0.0141576,-0.00808009,-0.0147246,0.00500641,0.00379427,0.00517532,0.0106155,-0.00839597,0.0036558,-0.00370485,-0.00640276,0.011269,-0.00697531,0.011724,0.00406517,0.00201003,-0.00750792,-0.00445703,0.00466462,-0.00966837,-0.000422428,-0.00188887,-0.00270804,-0.00493699,0.00803772,-0.00754058,-0.00629039,-0.00477953,0.00157762,0.00434739,0.00117854,-0.00422702,0.00153192,0.0120638,-0.0105006,0.000831475,-0.00443989,-0.0095394,0.01482,0.00615597,0.00728735,-0.0088616,0.00702987,-0.0127063,0.00958123,-0.00229611,0.00202858,0.00499702,-0.00355617,-0.0028501,0.00397274,-0.00291546,-0.00305053,-0.000145049,-0.00265425,0.00678601,-0.00329744,-0.00369941,-0.00246301,-0.000665755,-0.00511464,0.00348991,0.00396537,-0.001533,-0.00619389,-0.00194139,-0.000448579,-0.00142573,0.000345364,0.00731676,-0.0030698,-0.00263994,0.00371094,0.0010704,0.00584021,0.00103379,0.00129199,-0.00303576,0.00648664,-0.00852244,-0.00481881,-0.0081956,0.00321918,0.00444538,-0.00661312,-0.00724605,0.00805404,-0.00107301,0.00442086,0.00870175,0.0102906,-0.00447711,0.00625338,-0.00126506,-0.00931083,0.00551179,0.000782651,-0.00191461,-0.00586204,-0.00263524,-0.00606789,-0.00484298,0.0109247,-0.00959303,-0.000990333,-0.00131629,-0.0086637,0.00808733,-0.00939208,0.0071309,-0.00303862,-0.00121976,-0.00984249,-0.00349638,-0.00824707,-0.00559936,0.00601366,-0.00457273,0.00410623,-0.00821813,0.00818944,-0.00724719,0.00884078,-0.00424898,-0.00719833,0.00386695,0.00496613,-0.00642596,0.00378978,0.00891865,-0.00523789,-0.00292217,0.00592969,-0.00598394,0.0094319,0.0036273,-0.00917847,0.0085896,0.00312545,-0.0011386,-0.00492543,0.00827096,-0.0063817,0.00794257,0.00100202,-0.00625493,0.00433076,0.00461476,-0.00527857,-0.00938367,0.00709593,0.00642453,0.00737659,0.00779032,-0.00615847,-0.00351223,-0.00382066,0.000968228,0.00404753,0.00300441,0.00305356,-0.00864743,0.00149031,-0.00181615,-0.00666526,0.00395572,-0.0039661,-0.00127369,-0.0017993,0.00884079,0.00123491,0.01014,-0.00305218,-0.00737045,-0.00391159,-0.00922392,0.0100883,-0.00507238,0.00772917,-0.010694,0.00215371,-0.0113106,-0.000371852,-0.0033987,0.00834337,-0.0117989,0.0102746,-0.00476381,0.000715203,0.00761351,0.0150501,-0.00860824,0.00491688,0.00374511,0.00109307,-0.000726312,0.00462858,0.00547193,0.00238542,-0.00442573,-0.00373841,0.00201176,-0.00224068,0.00487603,-0.0120055,0.00834995,-0.000863071,0.0122416,-0.0128774,0.00525364,-0.0141078,0.0133392,-0.00130232,-0.00195965,-0.0115063,0.00462992,-0.00671167,-0.0033406,0.0017257,0.00738811,-0.00942393,0.0186776,0.00149395,0.0150562,0.00997125,-0.019215,-0.00536701,-0.0043646,-0.00263988,-0.00883378,0.00987462,-0.012741,0.00712366,-0.00338673,-0.000459384,-0.00871134,0.0127504,0.00138071,0.000165606,0.00213281,-0.00893291,-0.00848248,0.00347938,0.00334155,0.000291198,0.000897019,-0.0062991,-0.00375463,0.00543748,-0.00136662,0.00634536,0.0060796,0.00322945,0.000836557,0.000489908,-0.000760892,-0.0027671,0.00620945,-0.00163704,0.00828736,-0.00724769,0.00174988,-0.00811317,-0.00945781,0.000949291,-0.0029579,-0.00662159,-0.0085473,-0.00180764,0.0074058,0.00190508,-0.00382797,0.00720402,-0.00653569,0.000871188,-0.00148527,-0.00575897,0.000628576,0.00188067,-0.00434508,-0.0101621,-0.00147058,-0.00332068,-0.00864399,-0.00821857,0.00249346,0.00486191,-0.00635496,0.00148988,-0.00616013,-0.00976778,-0.00557974,0.00488294,-0.00301385,0.00318494,-0.00928181,-0.00669296,0.00244409,-0.00364029,0.00750518,0.00475897,0.0055862,0.00935898,-0.00881762,-0.000497244,0.00670468,0.00624682,-0.00510282,0.00452326,-0.00883003,-0.00401126,-0.00360509,-0.00864217,0.00925088,-0.00724458,-0.00141147,-0.00347871,-0.00374196,-0.00444123,0.00923729,0.00167915,-0.00754576,0.00840795,0.00115488,-0.00666091,0.00324967,0.00047211,-0.00789423,0.00306575,-0.00109289,0.00575116,0.0050016,0.00736925,-0.00530604,0.00332124,0.00760171,0.00791821,-0.00898363,-0.00281386,-0.00727368,-0.00878258,-0.00685888,-0.00348767,-0.00187158,0.00878402,-0.00862205,-0.004687,0.00672561,-0.0027189,0.000991886,-0.00735443,0.00628577,-0.00178117,0.00239168,-0.00747328,0.00960909,-0.00183831,0.000843586,0.00411727,-0.0055338,0.00861564,0.00665906,0.00143225,0.0037689,0.00625402,-0.00488251,0.00350952,0.00526215,-0.00742249,0.00658356,-0.00555664,-0.00822296,-0.00585388,0.0063504,0.00328735,0.00112396,0.00253113,0.00473053,0.004104,-0.00388458,-0.00570496,-0.00296356,-0.00404419,0.0045639,-0.00899963,0.00358063,0.00290527,-0.000718079,-0.000790405,0.0096756,-0.00598511,-0.00191803,-0.00951477,0.00563385,0.00334717,0.00377655,0.00138977,0.00676788,0.0099646,0.00417816,-0.00651428,-0.0066098,-0.00207031,-0.0079007,-0.00666443,-0.00918671,-0.00369507,0.00535248,-0.00749817,0.00934967,-0.000847168,0.00675018,0.007547,0.00431183,0.00553589,0.00410492,3.35693e-05,-0.00398773,-0.000483398,-0.00977081,-0.00347595,0.00976349,-0.00984253,0.00293549,0.00858093,-0.00412201,-0.008479,0.00503632,-0.00723328,0.00992475,0.00257125,0.00484622,-0.00977969,-0.00854136,0.0075123,-0.00604689,0.00827061,0.00762836,-0.00408407,-0.00902394,-0.00104611,0.00609353,-0.00106371,-0.00190104,-0.00306766,0.00311712,0.000665864,0.00432138,0.00641106,0.00015693,0.00314626,0.00220343,-0.00989791,0.00125085,-0.00775723,0.00846426,0.0026469,-0.00323446,0.00564426,0.0072201,0.00118255,0.00398164,0.000970763,0.00671041,0.00420951,0.000413361,0.00400948,-0.00203968,-8.8177e-05,-0.00734614,0.00163949,-0.00178083,0.00103027,-0.00758983,0.00712901,-0.00743473,0.00294898,-0.00868279,0.00293926,0.00702065,0.00700017,-0.00518942,-0.00905053,-0.00425105,-0.00032308,0.00362092,0.000949173,-0.0039074,-0.00577161,-0.00911674,0.00631845,-0.00833372,0.00404843,0.00949905,0.00674697,0.0082633,-0.00617557,0.00160151,0.00648185,0.000249172,0.0083862,-0.00814602,-0.00753626,0.00580989,-0.000775544,-0.00894395,0.00121707,0.00664502,0.00507203,-0.00587008,-0.00868603,-0.0105729,0.00491642,0.000572608,0.00737639,-0.00961311,0.00645164,-0.00225156,-0.00444208,0.00582277,0.000203795,-0.00538566,-0.00705903,-0.00384761,0.00452044,0.00552822,-0.00183123,-0.00746883,-8.97446e-05,-0.0069181,-0.00469158,0.00672928,-0.00760098,0.000281795,-0.00928302,-0.00512301,-0.00557349,0.000954542,0.00163167,0.00285443,0.00313832,0.00518525,0.00684641,-0.00545438,-0.00127271,-0.00170902,0.00839064,0.00620474,0.00776472,0.0028484,-0.00340177,-0.00510133,0.00401323,0.0104286,0.00684512,0.00199101,0.000179674,-0.00722869,-0.00421603,-0.00267048,0.00134825,-0.00346923,0.0095849,-0.00761832,-0.00703026,0.00203787,-0.00650742,0.00651323,0.00525178,0.00216769,0.00709159,-0.00166159,-0.00212846,0.00999172,0.0069712,0.000946157,0.0094123,0.00547942,-0.00230352,0.00313226,0.00823391,-0.00176291,0.00585595,0.00529923,0.00502937,-0.00367963,0.00427735,-0.00997426,-0.008146,-0.0066204,-0.000942893,0.00513344,-0.000264033,-0.00815562,-0.0101808,9.36487e-05,0.0101244,-0.00628486,0.00619977,-0.00265678,-0.00615051,-0.00822738,0.00198641,-0.00399772,0.00950629,0.00392522,-0.00612785,0.0073967,-0.00463566,0.00739403,-0.009466,0.00221709,0.00184309,0.00683255,-0.00246848,-0.00190366,-0.00165758,-0.00646428,-0.00861156,-0.00177611,0.00264226,0.00277259,-0.00973238,-0.00756198,-0.00554441,-0.00326143,-0.00317662,0.00945799,0.00280261,-0.00340744,0.00222286,0.0106184,-0.00323751,-0.0031192,-0.00021794,-0.00400957,-0.00413276,-0.0102894,0.00676262,-0.00376279,-0.00238008,-0.002128,-0.00849271,0.00103095,-0.00684922,0.00613142,-0.00251107,-0.00735933,-0.0107146,0.00291507,0.0034155,0.00790417,0.00721628,0.00536668,0.00612299,0.00079528,0.00685257,-0.00776395,-0.00870412,-0.000229672,-0.0085365,-0.00867037,0.00468694,0.00423211,-0.00235102,-0.00926981,0.00462046,-0.00224207,-0.0016513,0.00760693,0.00632457,0.00521333,-0.00292478,-2.8651e-05,-0.00296891,0.00319541,-0.000439964,-0.00468523,0.00460122,0.00622761,-0.000830609,0.0026983,0.00140791,0.000423176,0.0076124,-0.00209398,0.00965584,-0.00634809,-0.00538583,0.0038049,-0.00703119,-0.00734258,-0.00324488,-0.000161316,-0.00577072,0.00112917,-0.00523367,-2.42198e-05,-0.00414166,0.000560786,0.000366681,0.0012406,-0.00834485,-0.00441971,-0.00532451,-0.00448942,-0.00720402,0.00612896,0.00846237,-0.00299968,-0.000962352,0.00770481,0.00392073,-0.00109459,0.00387849,-0.00518406,0.00777207,0.00411794,-0.000155428,0.00574647,0.000134588,0.00242266,0.00253921,0.0100023,0.00116201,-0.00633563,-0.00984911,-0.0019626,0.00668476,-0.000600762,-0.00495206,0.00669167,-0.00306148,-0.00252943,0.00999202,0.0121189,0.0060615,0.000718434,0.0131151,0.00967325,0.0050679,0.0111161,-0.00172985,0.00475577,0.0091106,0.00360179,-0.000482843,0.00818219,0.00125722,-0.00257782,-0.00652954,-0.00524567,-0.00402405,-0.00923676,0.0087793,-0.00185577,-0.00308044,0.00240509,-0.00800171,-0.00563385,-0.00532043,0.00266022,-0.00281006,0.0062326,0.00581848,0.00684113,0.00341675,0.00155609,-0.0081012,-0.00473969,-0.00525879,-0.00685089,-0.000516968,-0.00676971,0.00022583,-0.00117584,0.000133667,-0.00893646,-0.00606689,0.00139374,-0.00958679,0.00407257,-0.00507446,0.00867035,-0.00811584,-0.00743011,0.00726563,-0.00653351,-0.00889099,0.00186798,1.58691e-05,-0.00640533,-0.000349731,0.00227936,0.00723877,-0.00813263,-0.00592957,0.00911652,0.00799683,-0.00390289,-0.00406799,0.00269196,0.00635254,-0.000903625,-0.00820251,0.00831818,-0.00863159,-0.00132233,-0.00677063,-0.00369232,-0.00289307,-0.0023465,-0.00320984,0.00220581,0.00238141,0.00373386,0.00421393,0.00613985,-0.00796591,-0.009751,0.00103009,-0.00747034,-0.00575719,-0.00560798,0.00128431,-0.00696603,0.00364937,-0.00144226,-0.00137295,0.00284922,-0.00183867,-0.00834551,-0.00370269,0.00167997,0.00477366,0.0061548,-0.000105867,-0.0056351,0.0087233,8.61223e-05,0.00223452,-0.0072029,0.00633846,-0.00467899,-2.11812e-05,-0.00882238,-0.00392501,6.53874e-05,-0.00745402,0.0100778,0.00358822,0.00793479,0.00832173,-0.00601459,-0.00530523,-0.00405997,-0.00227171,-0.00496388,0.0060992,0.00713134,-0.000158242,0.00731888,-0.004611,0.00857189,-0.00753108,-0.00851245,0.00865206,-0.00559926,0.00527595,-0.00743575,-0.00725928,0.00213401,0.00767765,0.000459905,0.00209843,-0.00595167,-0.00133716,-0.00847626,-0.00320923,-0.0020816,-0.00289124,0.00548981,0.000224609,0.00693329,-0.00882263,0.00775665,0.0015686,-0.00121979,-0.00793762,0.00863678,-0.00511475,-0.00372833,-0.00367371,0.00344269,-0.000762939,0.00722015,0.00553162,-0.00751312,-0.00131348,0.00443817,0.00624084,0.00108185,0.00229614,0.00573822,-0.00998352,-0.0004599,0.00412842,-0.0060672,-0.00657898,0.00317413,0.00324585,-0.00316559,-0.00198303,-0.00770355,0.00371094,0.00725555,-0.00963318,-0.00778046,-0.00541382,0.00300873,0.00203308,-0.00674408,0.00993408,0.00690643,0.00957825,-0.00928192,0.00881714,0.00676117,-0.00543518,0.00491852,-0.00470215,-0.00461456,0.0035553,0.00116974,-0.00156128,-0.00940826,0.00811218,0.00978424,-0.00769775,-0.00480743,0.00479797,0.00553216,-0.00394294,-0.00299681,-0.00483683,-0.00859246,-0.00579086,0.00848043,0.00546922,0.00765191,-0.0056197,0.00863611,0.00807759,0.00981738,-0.00825736,-0.000779431,8.49819e-06,0.00950736,0.00427178,0.00702572,0.00014909,0.00925053,-0.000691996,0.00812924,-0.00218383,-0.007167,0.00125878,-0.00268802,0.00284434,-0.00758938,0.00722843,-0.00235214,-0.00664411,0.000395377,-0.00501207,-0.00130012,0.0089779,-0.000559802,0.0110113,-0.00701199,-0.00138638,-0.00604252,-0.000323102,-0.00487615,-0.0092577,-0.00366649,-4.52608e-05,-0.00686224,0.00593845,-0.000530233,0.0077222,0.00995614,0.00151416,0.00352535,0.00792613,0.00141376,0.00776919,-0.00421209,0.0100543,0.00415969,-0.00661158,0.00471955,0.00793817,0.00190544,-0.00404008,0.00562531,0.000111084,0.00108246,-0.00175842,0.00021637,-0.00833008,-0.00427765,0.00543518,-0.00689178,-0.00886108,0.00319427,0.00944519,-0.00538666,-0.00741943,0.00631073,0.00683411,4.42505e-05,-0.00494263,-0.00711578,-0.000835571,0.00971344,0.00263184,-0.00427277,-0.00700134,0.00893341,0.00436646,-0.00734772,-0.000100708,0.00801666,-0.00567627,0.00647186,-0.00357117,0.0022757,-0.00843384,0.00499847,0.00414978,-0.00797699,0.00015625,0.00104462,0.00962463,0.00257111,0.00915649,-0.00757721,0.00441589,0.00423248,-0.00737061,0.0019455,0.00508606,-0.00768036,0.00963745,-0.00257477,-0.00680237,0.00714508,0.00424316,-0.0083255,-0.00468689,-0.0059787,0.00550903,0.0025058,0.002995,0.0032608,0.00749756,-0.00726837,-0.00719421,-0.00782806,0.0133332,-0.0129569,0.00480899,-0.00521446,-0.00384866,0.00917943,-0.00823588,0.00747481,-0.0100612,0.00145681,-0.00550074,0.00548638,4.29944e-05,0.00185814,0.00405058,-0.00652129,-0.0126705,0.00235019,0.00402356,-0.00269206,-0.00524222,0.00500919,-0.00841398,-0.0113325,-0.00768416,-0.00531482,0.00440058,0.0135734,0.00193326,-0.00313952,0.00405538,0.00915485,-0.00643297,-0.00132218,0.00840105,0.00574084,-0.00587755,-0.00492838,0.00665787,-0.00541976,0.00578821,-0.00283644,-0.000679612,-0.00499744,-0.00992427,-0.00308034,-0.00880103,-0.00759014,0.00102613,-0.013122,-0.0133923,-0.00559961,0.00581695,0.00770616,0.0109381,0.00086968,0.00257771,0.00393376,-0.0023809,0.00874776,-0.0065396,0.0107014,-0.00305811,-0.00017944,0.00354153,0.00441493,-0.000481125,-0.00446253,0.00358867,0.00453662,-0.00123965,-0.00156874,0.000337194,0.0080431,0.00645373,0.000831811,-0.00978379,-0.00378728,-0.00208639,-0.00271066,-0.00995927,-0.00190735,-0.0072401,0.00719731,0.00686954,0.00717625,0.000455121,-0.00339572,0.00619781,-0.000166795,0.00966433,-0.00288036,0.00400911,-0.00128543,-0.000827719,0.00124603,3.87205e-05,-0.00660766,-0.00964355,-0.00832661,-0.00285951,-0.00404067,0.00937639,-0.00754919,0.00366323,0.00183726,0.00682853,-0.0050435,-0.00456043,-0.00245044,0.000486118,-0.00637435,-0.00932585,0.00820661,-0.00871477,0.00947379,-0.00671486,0.00740606,0.00690901,0.00677734,-0.00775191,-0.0054075,-0.00138872,-0.00269385,0.00274379,-0.00988926,0.000815628,-0.00632241,0.00328169,0.00340822,-0.00338512,0.000245705,-0.00273896,0.00622716,-0.00597698,-0.00107586,-0.00764502,-0.00199614,0.00280642,0.00117577,0.00678636,-0.00155879,-2.92389e-05,0.00361333,-0.00381764,-0.00184265,0.00775525,0.0028218,0.00611094,-0.0096788,-0.00871858,0.00798303,0.00491648,-0.00921155,0.00268744,0.00895062,0.00655361,0.00270015,-0.00150874,-0.00226226,-0.00875483,-0.00432108,0.00103315,-0.00155823,0.0030305,-0.000866057,-0.0039708,-0.00468351,0.0088213,-0.00640842,-0.00497756,-0.00165804,0.004598,0.00239958,-0.00450679,0.00220464,0.00843388,-0.0096966,-0.00115002,0.00866529,0.00500422,-0.00662012,-0.0092652,0.000306314,0.00414821,0.00790319,0.00333903,-0.00839743,-0.00268656,-0.00370262,-0.00683703,-0.00493676,0.00602328,0.00815384,0.000944956,0.00937226,-0.00560887,-0.00591785,-0.00851111,0.003914,-0.0103461,-0.00665832,0.00420812,0.00665893,0.00928766,0.00538072,0.00863299,-0.00593253,0.0054643,0.00313624,0.0073083,0.00486667,-0.00981944,-0.00237277,0.00807707,0.00325467,0.00863357,0.00701886,-0.00124604,0.00600285,-0.00561455,-0.00690316,0.00168082,0.0012744,0.00865288,0.0014796,-0.00378267,-0.00753531,-0.00772638,0.00977369,0.00814555,0.00375632,-0.00282889,-0.00853754,0.00922369,0.0060219,-0.00278013,-0.0069819,-0.00417062,-0.0048237,-0.00721331,-9.40113e-05,-0.00999793,-0.00841887,0.00335597,0.00260957,-0.000697404,-0.000116293,-0.00149544,0.00554121,-0.00574639,-0.0109766,-0.00259221,0.00711395,0.00941696,0.000296185,-0.00344282,-0.00448885,0.00837808,0.00614569,-0.000898975,0.00372505,-0.00315213,-0.00496424,-0.00893205,-0.00819211,-0.00899853,-0.00114462,-0.00638195,-0.0014762,0.00208967,0.011451,0.000644181,-0.00813235,-0.00735437,-0.00964375,0.000752343,-0.00974662,0.00982916,0.00628812,-0.00476668,0.00732763,0.00248008,0.00863944,0.00529618,0.00458378,-0.00744981,0.00590976,0.0088744,-0.00614338,-0.00140083,0.00817191,0.010259,0.00661351,0.00511905,-0.00651416,-0.00966056,-0.00539007,0.00730684,7.67482e-05,-0.00451965,0.0102523,0.00216956,-0.00754829,-0.00191253,-0.00826571,0.00697078,-0.000863627,0.00315488,-0.000224448,-0.00881117,0.00323083,0.00111471,0.0108175,0.00785314,-0.00426495,0.00391638,0.00283888,-0.0106832,0.00962783,-0.0101196,-0.0117645,0.00259483,0.00324172,0.00817803,0.000919502,0.00967449,0.00900227,-0.00281439,-0.00265121,-0.000292851,-0.0060706,0.00456598,-0.00107976,-0.00187439,0.0130427,0.00163343,0.00725189,0.000885973,-0.000128783,-0.00388844,0.00880148,-0.00370026,-0.00706077,-0.0112113,-0.00488826,0.0086369,-0.00387877,0.00381493,0.00574648,0.00487749,-0.00290073,-0.00301891,0.00778122,0.00413386,-0.00970853,0.0126196,0.00326741,0.00520183,-0.00685436,-0.00901865,0.00190707,-0.00939429,-0.000315645,4.00247e-05,0.00988538,-0.00816713,-0.00518645,-0.00666568,0.0083242,0.0103702,-0.00689601,-0.00673798,8.1344e-05,-0.0118301,-0.00657314,0.00504387,0.000496935,0.00807788,0.00643407,-0.00728759,0.00225537,-0.00356752,0.00243538,0.00926572,0.009684,-0.000273352,0.00926964,-0.000773429,0.00397377,0.00281928,0.00930709,-0.0078975,0.0061809,-0.00218577,-0.00695465,0.00202222,-0.00104734,0.00110764,-0.00436485,0.00790437,-0.00982275,-0.00565894,-0.00246096,-0.00603583,-0.00724582,0.00415879,0.00391464,0.00910233,0.00432829,0.00196322,0.00514499,0.00754502,0.00788874,0.00447927,-0.00335957,0.00818873,-0.00893701,-0.00689705,-0.00145615,-0.00481811,0.00676072,-0.00544303,-0.00367284,-0.00233224,-0.00711925,0.000250486,0.000140767,0.00954652,-0.00795215,0.00682505,0.0054677,-0.0099642,-0.00772778,-0.00407632,-0.00756261,0.00304475,0.00616797,-0.00605371,0.00646779,-0.00228849,-0.00825603,-0.00739272,-0.00205631,0.00818663,-0.00838556,0.00831767,0.00245867,-0.00439714,-0.00670775,0.0035462,-0.000417653,-0.00161277,-0.00817559,0.00181102,-0.00401506,0.00853786,0.00301203,-0.00238746,-0.00033594,0.00428216,0.00657156,0.0104948,0.00808693,-0.00655521,-0.00604671,-0.005471,-0.00120761,-0.000980378,0.000125164,0.00133899,0.000227151,-0.0073819,0.000627682,-0.00062462,0.00400622,-0.00839025,-0.00427663,0.00861839,-0.000797349,0.00540311,0.000649857,0.00891964,-0.0100863,0.00710621,-0.00117138,0.00698471,0.00203928,0.00751734,-0.00941083,-0.00547755,0.00758578,0.00267811,0.00319513,0.00627267,-0.00194017,-0.00499007,-0.00077482,0.00479076,-0.00304956,-0.000704871,-0.00375146,0.00216944,0.00543577,-0.00876007,-0.00957399,0.00407242,-0.000211509,0.0087098,0.00183001,0.00403207,0.00488072,0.00343258,0.00373464,-0.00948644,-0.00663256,0.00186442,0.00242868,0.00610746,0.00602103,-0.00825426,0.000661864,0.00330604,0.00973995,0.0101709,-0.00154127,0.000530193,0.00375268,-0.00725773,0.00558289,-0.000945264,0.00434199,0.00804144,-0.00750358,0.00195217,0.00177567,0.00101506,0.00317951,0.00261974,0.00361828,0.00561207,-0.00885105,-0.00251182,0.0052474,0.00457737,0.0104417,0.00973745,0.00831269,0.00359014,-0.0101023,0.00360985,-0.00540712,0.00237025,-0.00818674,-0.00813434,0.00258954,0.00436063,-0.00326376,-0.00813136,-0.00124665,0.000168906,-0.00760302,0.00238094,0.00534283,0.00161904,-0.00826233,-0.00421125,0.0101843,-0.00542985,-0.00786129,-0.00111445,0.000742801,-0.00744515,0.000314948,0.00676352,-0.000544496,-0.00195977,0.00163218,0.00995539,-0.00407139,0.00697977,-0.00197625,-0.00951834,-0.000742796,-0.00348041,0.00652006,-0.00496597,0.00457424,0.00112773,-0.0056682,3.89632e-05,0.00769112,-0.010824,-0.000117421,0.00830267,0.0010363,0.00419738,-0.00701402,0.0115268,0.0049606,-0.00736409,0.00888079,0.0045693,-0.0111931,0.00334808,0.00918196,-0.0103028,-0.00275088,-0.00523448,0.00607235,-0.00447975,-0.00931942,0.0051978,0.0155238,0.00855386,-0.00672622,0.0016022,0.00241069,-0.000218784,-0.00465123,0.00191054,-0.00140655,-0.000881909,-0.00287589,-0.00668345,-0.0069022,0.00270595,-0.0010966,0.00997523,-0.0112028,-0.00437663,0.000888104,-0.00211174,0.00288554,0.004413,-0.00556526,0.00364986,0.000867838,-0.00335972,-0.00973316,-0.00457313,-0.00274492,0.00230144,-0.000976648,0.0015248,0.000726299,-0.00793932,-7.74868e-05,-0.00901394,-0.00528343,-0.0070525,0.00532589,-0.00239989,-0.00155532,0.00147479,0.00897669,-0.000634775,0.00137967,0.000617124,-0.00747367,0.00227477,-0.00518383,-0.00278999,0.000769216,-0.00650848,-0.00161635,0.000885576,0.00124986,0.00840033,-0.00739681,-0.00994449,-0.00558126,0.00514566,0.00767711,0.00564546,-0.00278364,0.00913291,-0.00556162,-0.0071727,-0.00341624,0.00559758,-0.00793134,0.0053183,0.0015742,-0.0056666,0.00313273,-0.00210282,0.0086057,-0.00932992,-0.00572266,-0.00638518,-0.00351925,0.000390257,-0.00192158,-0.00227224,-0.00772726,-0.00818936,-0.0052929,0.00321337,0.00485125,-0.00176312,0.00627339,0.00462916,-0.00981279,7.37604e-05,-0.000121364,0.00473046,0.00895871,0.00051391,0.00851989,-0.00915446,0.00499848,0.00823311,0.010073,-0.006281,-0.00954023,-0.00132604,0.0063299,0.0102738,-7.3135e-06,0.00990418,0.00684892,0.000918862,-0.00722824,0.00668897,0.00368486,-0.00634602,-0.0038987,-0.00324445,-0.00613973,-0.000451224,-0.000715154,-0.00460615,0.00157226,-0.00558868,-0.00342899,0.00178865,-0.00565381,0.0010203,-0.00961266,-0.00109183,0.00376089,0.00543785,0.00477015,-0.00336186,0.0088597,-0.00139146,-0.0101769,0.00914295,-0.00746465,-0.00187402,0.00191344,-0.00540815,0.00109035,0.00519458,0.000832884,-0.00214126,0.00923405,0.00573347,-0.00927362,0.00814166,-0.00566485,-0.0075749,0.00427851,-0.00147875,-0.00242694,0.00102701,-0.00521454,0.00919312,0.00914886,-0.00689514,0.00343903,0.00356445,0.000351257,-0.00438904,-0.00460663,-0.00915405,0.00938568,-6.65283e-05,0.000960999,0.0051001,-0.000935364,0.00263489,-0.00454559,0.0053894,-0.00279938,0.00527771,-0.000813904,-0.00422363,-0.00339386,-0.00557556,-0.00253143,0.00532349,-0.00490631,0.00163757,0.000614319,0.00809326,-0.00452423,0.00347961,0.00393585,0.00314819,0.00556488,0.00151306,0.00774567,-0.00544922,-0.00182648,0.00230042,-0.00264374,-0.00863647,-0.0088858,-0.00259583,0.00308014,0.00764893,0.0071994,0.00338684,0.000229797,0.00246948,-0.00575836,0.00181091,0.00911774,-0.000112305,0.00505341,-0.000761108,-0.00494354,0.00896606,-0.0025528,0.00723328,0.00835846,0.00376709,-0.00576447,0.00235657,0.0040037,0.00411823,0.00351154,0.00591202,0.00413249,-0.00789583,-0.00308878,0.00587016,-0.00923781,-0.0022775,-0.00518932,-0.00877626,-0.00396845,-0.00297119,-0.0032668,1.36925e-05,-0.0030548,0.00574899,-0.00797128,-0.00479685,-0.00965346,-0.010262,-0.00473408,0.000380997,0.00342152,-0.000552243,0.0011297,0.0085411,0.00792728,0.0055119,-0.00639424,-0.00209453,-0.00408107,0.00918201,0.00260039,0.00703774,-0.0105578,-0.00420123,-0.00244821,0.00373173,-0.00473607,-0.00903595,-0.00242553,0.00138614,0.000917375,-0.0092084,0.00754866,-0.00658711,0.00277363,-0.00430443,-0.00813617,0.00433127,0.00298006,0.00652352,0.00634981,-0.00216103,0.00362341,-0.00436344,0.00613962,0.0069265,-0.0015719,-0.00601774,-0.00493852,0.00942596,-0.00119123,0.00216401,0.00257605,0.00421784,0.00788315,0.00532,-0.000857017,-0.000426827,-0.00894579,-0.00957043,0.00355018,0.00761791,-0.00304402,-0.00747173,-0.000531504,0.00321507,0.00184886,-0.00844149,-0.00703586,0.00873189,0.00680713,0.00981645,-0.00227946,-0.00837968,-0.00452562,-0.00271954,-0.00839174,0.0016751,-0.00102669,0.00784198,-0.00180199,-0.00362232,-0.00732858,0.00167395,0.00365269,-0.00267784,-0.00230892,0.000978882,0.00164303,-0.00821833,-0.00234666,-0.0043698,-0.00920942,0.00976883,0.00378812,0.000664582,-0.00775239,0.00862976,-0.00782803,-0.0066633,-0.00530835,-0.00921841,0.00141097,-0.00139499,-0.0083112,0.00111141,-0.00229572,0.00639894,-0.000502749,-0.00802272,-0.00770129,0.00907567,0.00162907,-8.07898e-05,-0.00156219,0.00667358,0.00639496,0.00730408,-0.00197113,0.00323242,0.00603485,-0.000502319,-0.00407928,0.00770142,-0.00149323,0.00850769,0.00242584,-0.00585693,0.00662323,-0.00910339,-0.00714325,0.00161987,-0.00180328,0.00822693,0.00752594,-0.00580566,0.00603973,0.00706116,-0.00825409,0.000928955,0.00796478,-0.00103821,-0.00417084,-0.00411377,0.00678436,0.000491333,-0.0049118,-0.00187134,-0.00968903,-0.00678772,0.00983551,-0.00828125,-0.00864288,0.00368713,0.00538361,0.00571899,0.00773529,0.00347839,-0.00795502,-0.00580811,0.002258,0.00914856,0.00513214,-0.00380005,0.00273773,0.00226013,0.00495758,-0.00419434,0.001987,0.00937561,-0.0031662,0.00207153,-0.0021817,0.0020575,-0.0089267,0.00906006,-0.00695587,-0.00313171,0.00338462,-0.0032263,-0.0040874,-0.00425996,-0.0070981,0.0081036,-0.00177563,0.00335322,0.00629146,0.00948295,-0.00225329,-0.00511489,-0.00631944,-2.06123e-06,-0.000849723,0.00386726,0.0103729,-0.00410843,0.00798543,-0.00785858,-0.00666153,0.00285523,-0.000401498,0.00843622,-0.00677097,0.0092639,0.00913759,0.00235833,-0.00113343,0.00727095,-0.000844339,0.00894745,0.0012467,0.000198482,0.00254214,-0.00616971,0.00690693,0.00789737,0.00880889,0.00132573,-0.00325378,2.57183e-05,0.00929536,0.000984536,0.00602012,-0.00706734,-0.00197388,-0.00552642,0.00228328,0.00532708,-0.00390628,-0.00162171,-0.0064553,-0.00296268,-0.00286963,0.00296136,0.000481042,0.00229517,0.00126857,-0.00254393,-0.00231207,-0.0057895,0.0089369,-0.00299371,-0.00746063,0.0099939,0.00955902,0.00843689,-0.00724457,-0.00532227,-0.00517609,-0.00624451,0.00127228,-0.00272827,0.00292084,0.0058905,0.0084024,-0.00816162,-0.00333771,0.00140442,0.00945831,-0.00255981,0.00386078,0.00185974,0.0047525,-0.00186035,-0.0026712,-0.00618103,-0.000402527,0.00299927,-0.00512115,0.0088446,0.00430573,0.00608154,-0.000676575,0.00349915,-0.00581024,0.00644897,-0.00152496,-0.000654907,0.00956207,0.00816406,0.00514618,0.00294495,-0.00426483,0.000289307,-0.00285065,0.00586121,0.00302155,-0.00311279,-0.00270294,0.00465637,0.0067337,-0.00297974,-0.00659821,0.000892944,0.00718414,0.00475098,-0.00172394,0.00113342,0.00968536,0.00914185,0.00973236,-0.00305969,0.00454987,0.00425537,-0.00941681,0.0048761,0.00730369,0.00904436,0.00862177,0.00698992,-0.00356024,0.00732144,-0.00291801,0.00850463,0.00130207,0.00979578,-0.00702161,0.00252862,0.00888992,0.00855317,-0.00122432,0.00293546,-0.00519329,0.00243885,0.00446486,-0.00354201,0.00107433,-0.00181655,0.000553564,0.00531954,-0.00847901,0.00122455,0.00462911,0.000712256,-0.0052772,0.0091081,0.00421365,0.00300166,-0.00769761,-0.00154446,0.000646268,0.00900635,-0.00324391,-0.00704536,0.00823727,-0.0107004,-0.000743239,0.00611582,0.00992757,-0.0047255,0.00612075,0.00552187,0.00103931,-0.000208376,-0.00536303,-0.00556309,-0.00409343,0.00840086,0.00599395,-0.00239793,0.00502972,0.0036692,0.00331599,9.35371e-05,0.00337827,0.000882457,-0.0019382,-0.000896305,-0.00245421,-0.00280814,0.00664093,-0.00668579,-0.00727692,0.0095697,0.00748199,0.00612305,0.00361298,0.00801331,0.00662384,0.00684204,0.0073349,0.00327332,-0.00562103,0.00953369,0.00670135,-0.00808777,0.00605988,-0.0067395,0.00952484,-0.00450745,0.00197906,0.00208496,0.00861786,0.000576782,0.00744904,0.00506958,0.00179291,-0.00127258,-0.00721771,-0.00372314,-0.00813751,0.00650696,-0.00670868,-0.00523071,0.0066391,0.00547791,0.00928864,0.00460937,-0.00106476,0.00220276,0.00608673,-0.00514038,0.00656342,0.00824402,-0.00600189,-0.00041748,-0.00766388,0.000164185,0.00833527,-0.00215942,0.00406586,-0.000474243,0.00941071,-0.00630371,-0.00543488,-0.00710876,0.00253693,-0.00378784,0.00164642,-0.00817688,-0.00197357,-0.000549316,0.00812225,-0.00711609,-0.0112393,0.00318504,0.00428439,-0.00145748,0.00308697,0.00913941,-0.00662828,-0.0126705,-0.00261888,0.0114379,0.010867,0.0119794,0.00796399,-0.00178051,-0.00150247,0.00798979,0.00654635,0.00341998,-0.00318648,0.00130656,0.00776109,-0.0059313,0.00304001,0.00214547,0.00639303,-0.00529183,0.00421551,0.00171205,-0.0019304,0.00772511,0.00650001,-0.00109575,0.000628164,-0.00426707,-0.000624143,0.00929998,0.00720973,0.00627208,-0.00154357,0.00407324,-0.00784321,0.00527791,0.0084674,0.00421029,0.00706639,0.000324542,0.00860281,0.00713592,0.0079311,0.00790716,-0.00201522,-0.00786525,-0.00124162,-0.00144634,-0.0117592,0.00532085,0.00843262,-0.00214324,0.00602688,0.0101812,0.00665192,0.00481202,0.00210591,-0.00862395,0.000742493,-0.00336548,-0.00411285,-0.00929749,0.00220856,-0.00243164,-0.00759796,0.00227112,-0.0080246,-0.00358765,-0.00825104,0.000656128,0.00035553,0.007229,-0.00325958,0.00242004,0.00266144,0.00908081,-0.0048111,0.00912537,-0.000794373,0.00603027,-9.30786e-05,0.00733459,-0.0046994,0.00713989,0.00870697,0.00861023,0.00125885,0.00647217,0.00440155,0.00951477,-0.00760712,0.0030896,-0.00519684,-0.00838928,0.0090152,0.00105469,-0.0072757,0.00146057,-0.00356171,0.00942993,-0.00402252,-0.00937317,0.00497467,0.00227783,0.00737518,-0.004328,0.00993683,-0.00133911,-0.00527008,-0.00184143,-0.00836273,0.0026416,-0.00914581,0.00464905,-0.00461151,0.00328247,-0.00643951,0.00670593,-0.00849701,-0.005354,0.00566132,0.000891724,-0.0108355,-0.00551999,-0.00979092,0.00963174,0.00816529,-0.0136067,-0.0151186,-0.0046588,-0.014923,0.0178022,0.0045004,0.00517739,0.00500176,0.0131922,0.00339235,0.00135116,0.00158229,-0.00756018,3.98462e-06,0.00242139,-0.00708965,0.00761138,0.00717915,-0.00870464,0.00729307,0.0169919,0.00339702,0.0146604,-0.0016777,0.0186485,0.000511146,0.00862107,0.00755458,-0.00962372,-0.0139106,0.00350071,-0.00363809,0.00458113,-0.0047715,0.0157048,0.006195,-0.00240516,0.0131929,0.00306237,0.0117349,-0.009184,-0.0166659,-0.00789087,0.00270193,0.00501084,-0.00241692,0.00784033,-0.013254,-0.00386547,0.000612844,0.0116326,0.0118675,0.0033729,0.0188115,-0.00955599,-0.00247112,0.00464763,-0.00693082,-0.00876224,-0.00544219,0.00163288,0.000796786,-0.00998213,-0.00237546,0.0107168,-0.000126927,-0.00703133,-0.00393496,0.00310614,0.000122851,4.58649e-05,0.00862402,0.00375205,0.00648093,-0.00483326,0.00212746,0.00289917,-9.6484e-05,0.00280344,-0.00433031,0.0121242,-0.00759462,-0.0062332,0.00135767,0.00810663,-0.00612581,0.00148306,0.0139393,-0.00376805,-0.00292965,-0.00684889,-0.00771173,-0.00837665,0.00410595,-0.00235063,0.00861904,-0.00183007,0.00751644,0.00273847,0.00443981,0.00395679,0.00515793,-0.0105195,-0.00405388,0.00701968,0.00411213,-0.00731167,-0.00756901,0.000637059,0.00656548,-0.00283367,-0.00425173,-0.00796462,0.00386691,-0.00679023,0.00566198,-0.0109219,0.0055998,0.0033605,0.00633108,0.0114708,0.00281802,0.0104466,-0.00222598,0.0126117,0.011483,0.00534802,-0.00718369,-0.00634,-0.010149,-0.00481457,0.0053446,0.00360413,-0.00201412,0.00308876,-0.00141411,-0.0122088,-0.00212681,0.00660726,0.00412641,-0.00630824,-0.00925322,0.00732495,0.00050328,0.00171451,0.00705638,-0.00187267,0.00357874,0.00210648,-0.00506548,0.00832543,-0.00385569,0.00724271,-0.00833721,0.00164562,0.000385565,-0.00836669,-0.0028445,-0.00302483,0.00881645,-0.00651227,-0.00215467,0.000793336,-0.00491708,-0.00298846,0.0061363,-0.0100299,0.00714428,0.0106879,-0.00433761,-0.000444309,0.0118582,0.00804711,0.00254002,-0.0103044,0.00466329,-0.00416871,0.00177435,0.00363515,-0.00848658,-0.0109988,0.0124531,0.000851446,0.0130545,-0.00581305,-0.00636233,-0.0089001,0.0086768,0.000802532,0.00540448,-0.00520243,-0.0108309,0.00129025,0.0127783,-0.010828,0.00118565,-0.00445143,-0.000743816,-0.00410317,-0.00822233,0.00485301,-0.00280633,0.000302669,-0.00317536,0.00290461,0.00755325,-0.000459008,-0.00495089,-0.00683551,0.00247709,0.00112941,-0.0109737,-0.00684017,0.00107741,0.00529375,-0.00339887,0.0071964,0.0130622,-0.003358,-0.0099486,0.00365529,-0.00895637,0.00271787,0.0120947,-0.00742379,-0.00601287,-0.0014798,0.000854144,-0.00192516,-0.00476429,-0.00515407,0.0085954,0.00753662,-0.00564661,0.00849363,-0.00576939,-0.00206788,-0.00260809,-0.00222746,-0.00608219,0.00323838,0.00376716,0.00588917,-0.000220679,-0.00212964,-0.00286244,-0.00523391,-0.00371757,0.00755554,0.00242465,-0.00398817,0.00107495,-0.00281738,0.000111904,-0.00720998,0.000574258,-0.0123871,-0.020074,-0.00204258,-0.00320798,0.0276173,-0.00977817,-0.00142897,-0.00621236,0.00395233,-0.00538411,0.00335713,0.00273449,0.00450284,0.0126394,-0.00836853,0.00523505,-0.0031384,0.016144,-0.0122196,-0.00118941,0.0230586,-0.000740779,0.0164579,0.0100933,0.016686,-0.00813278,-0.00263694,0.00662477,-0.0117039,-0.0175255,0.00124487,-0.000356728,-0.00391039,-0.000856867,0.0192947,0.00897295,-0.00486869,0.00811993,0.00684221,0.0101699,0.0042479,-0.00737053,0.00169234,0.00693983,0.00920879,0.00164248,0.00517703,-0.0096078,0.000681216,0.018185,-0.0134745,-0.00306333,0.0152816,0.00673378,-0.00717166,-0.0163951,-0.000365414,0.00684357,0.0113835,-0.000741125,0.0041929,0.000113144,-0.00735473,0.00190613,-0.0108411,-0.00494408,0.00864902,0.00226477,0.00709008,0.000685385,-0.00583592,-0.0058076,0.00306094,0.00503534,-0.00873013,-0.0129062,0.00093764,-0.00653195,-0.0105838,-0.0126511,-0.00106987,-0.00718859,0.00588927,-0.0039286,-0.00417627,0.00332365,0.00173607,0.00211417,0.00370988,0.00199937,-0.000291238,0.00561428,0.00992409,-0.00570628,-0.00907395,0.00757512,-0.0131739,-0.0160024,-7.34102e-05,0.012804,-0.00468489,0.00325387,-0.000329683,-0.00556878,-0.00703902,-0.0138333,0.00274103,-0.00536376,0.001027,0.00303837,-0.000254379,-0.00410664,0.0134318,0.0010372,0.00183762,-0.00805391,0.0104011,0.0107515,-0.0102058,-0.0167259,0.000157471,-0.00217954,0.0104625,0.00716417,-0.00457783,-0.00410932,0.00433101,-0.000639767,-0.00273136,-0.0102383,0.00811007,-0.00441303,0.00751588,0.00319615,0.000309239,0.00734688,0.00889359,0.00140014,0.00326967,0.00912115,-0.00886993,0.00317656,-0.00482826,-0.00274916,0.00589289,0.00765399,0.00906682,0.000932984,0.00663155,-0.0114807,0.00207699,0.00852251,0.010999,-0.00285812,0.00740756,-0.0027092,0.00987157,-0.00903918,-0.0106128,0.00778668,0.00479828,0.00447753,-0.00195111,0.00194993,0.00847015,0.00805152,-0.00356626,-0.00859781,0.00868804,0.00378952,0.00956204,-0.00586453,0.00812188,0.000783233,-0.00772747,0.00536351,-0.00668776,-0.0034158,-0.00845191,-0.00139969,0.00778155,-0.00567542,0.00653736,-0.00670253,0.00572294,-0.00617804,0.00502354,-0.00323365,0.0100074,0.00971966,-0.00239274,-6.20234e-05,0.00693563,0.00658302,-0.000844636,-0.00823933,-0.0065138,0.00694294,-0.0103108,0.0035805,-0.000365075,-0.000409079,0.00371354,0.0131975,-0.00923606,-0.000815282,0.00410674,0.00698873,-0.000143381,0.00607862,-0.00579495,0.00459164,-3.9037e-05,-0.00525502,0.00985399,-0.00414057,0.00706417,-0.00312176,0.00164444,0.00738747,-0.00146327,0.00659555,-0.00443461,0.0131873,0.00571536,0.00366154,-0.000502672,-0.00175018,0.00599862,-0.00676307,-0.00128564,0.00904944,-0.00479083,0.00507248,0.00129469,-0.00162847,0.00129547,-0.000573436,-0.00723611,-0.000641071,-0.000390738,-0.00500811,-0.0106648,0.00761463,-0.00786762,0.00146583,0.00735592,0.00301496,-0.00334846,-0.00441666,-0.00682683,-0.0132378,0.0158883,0.00713477,0.00065077,0.00922218,-0.00201382,0.000653147,-0.00400445,-0.0128974,0.0151255,-0.000848024,0.0110209,-0.00144188,-0.00193791,-0.000723126,0.0155495,-0.00343978,0.00254475,0.00470278,0.00441789,-0.00140173,0.0092166,0.0107263,0.00587357,-0.00468864,0.00355162,0.0062144,0.0174744,0.00847066,0.0146802,-0.00595792,0.00699472,0.00976956,0.00691896,0.00794706,0.0144772,-0.00850091,-0.00274394,-0.0109232,0.0143566,-6.45074e-05,-0.00383204,0.0081042,0.015611,-0.0119246,0.0165688,-0.010535,0.00196175,0.0116743,0.00852955,0.00383586,0.000942161,-0.00484312,-0.00771962,0.00695103,-0.000364814,0.0055421,0.00854138,-0.000687751,-0.0175803,-0.00134773,-0.0130817,0.000538198,-0.000664562,-0.00874969,-0.00676392,-0.00829254,-0.00363342,-0.00415863,-0.00520508,-0.00365265,-0.00643982,-0.00126678,0.00426392,-0.00618073,0.00757019,-0.00976166,-0.00429443,0.00693573,-0.00504089,0.00566925,0.00818237,0.00350922,-0.00271057,0.00533844,0.00575684,-0.00364777,0.00112366,-0.00544159,-0.00250854,0.00327728,-0.00197571,0.00364166,-0.00255127,0.00709686,0.00455383,0.0079007,0.00469116,-0.00437653,0.00227478,0.00764801,0.00328125,0.00166962,-0.00225037,0.00819611,0.00228149,0.00304779,0.00254089,-0.000142517,-0.00424561,0.0025705,-0.00678894,-0.00205536,0.00276245,0.00805023,-0.00867737,0.00277008,0.00736816,-0.0077005,0.00343811,-0.000353699,-0.00136597,-0.0068692,0.00112,-0.0011142,-0.00937744,-0.00664337,0.000930786,-0.00309777,0.00163252,0.00424011,0.00576371,-0.0112783,0.000992136,0.00965452,-0.00214539,0.00734791,0.0050819,-0.0104433,-0.00679342,-0.00252424,0.00562452,0.000192379,0.00534778,0.00303404,0.00428752,-0.00698448,0.00337085,-0.00920046,-0.00685656,0.011204,0.00200662,-0.0065376,0.00933048,0.00205145,-0.000808435,0.00671262,-0.00835627,0.00598799,-0.00465382,-0.00585098,0.0105493,0.00736054,0.00245043,0.00992636,-0.00388957,-0.0108168,-0.00525948,0.0014801,-0.00583935,0.0049302,-0.000279637,-0.00646345,-0.003664,-0.00555941,0.000202157,-0.00241028,-0.0109687,0.00331271,0.00928884,-0.0112257,0.0121331,0.00806826,-0.00566182,0.00536778,0.000951861,-0.00466996,-0.00309668,2.89104e-05,-0.000800629,0.0112581,0.00332222,0.00335764,-9.10335e-06,-0.00253458,0.000644178,-0.0147717,0.0115644,0.0053883,0.000372734,-0.000120897,-0.00508198,-0.000978467,0.00747954,-0.0046403,-0.00374777,0.00211313,0.00315488,0.0114052,0.000911113,0.00816728,-0.00586974,0.0021558,0.00902711,0.0103182,0.00692958,-0.000457281,0.00991203,-0.011615,0.0107018,-0.00792029,0.00500829,0.00480562,0.00701699,0.00847455,-0.00835706,0.00135289,0.00776957,0.0115201,-0.0012375,-0.00846238,-0.00011347,-0.000354151,-0.00684972,-0.00583401,0.00268313,-0.0121871,0.00051618,-0.00362226,0.0137601,0.00502296,0.0028407,0.00555381,0.0114883,0.00155338,0.000369865,0.00730244,-0.0120796,-0.00662779,0.00255157,0.00573302,0.000632145,-0.0106651,0.0100579,-0.0119505,0.00861301,0.00127805,-0.00461837,-0.0056902,-0.00428798,-0.00555062,0.00196351,0.00552959,0.00160904,-0.000836368,0.00555997,0.00294759,0.00315533,-0.0044179,0.0173749,-0.000498382,0.00575496,0.012395,0.0114605,0.0123375,0.00642501,-0.00537863,0.00695141,-0.00539451,-0.00419497,-0.00844087,0.00582048,-0.00185675,0.00270384,0.00420131,-0.00757589,0.00827748,0.00992978,0.00108769,0.00737063,0.00241435,-0.00144026,0.0024629,0.00261257,-0.00898111,0.0064436,0.00605267,-0.00281895,0.006195,-0.00905119,-0.0037673,0.0102027,-0.00412877,0.00786285,0.0126268,0.00239772,0.00389714,0.00197168,-0.00224592,0.011846,-0.00485923,-0.00626375,0.00669736,0.00232094,-0.000222608,-0.00249232,0.000257281,0.00381725,-0.00161073,0.00335976,0.00175786,-0.00267501,-0.00393525,0.0024451,0.00858213,-0.0063622,-0.00710209,0.00252198,0.00143819,0.00704213,-0.00166237,0.00197126,-0.00258522,-0.00431244,0.00857553,-0.00657298,0.00221564,0.00482054,0.00329533,0.00195311,-0.00184263,-0.00858649,0.00229638,-0.0123172,-0.0113614,0.00478247,-0.0102432,0.00846618,-0.00220981,0.00542425,-0.00454396,-0.00676615,0.00476096,0.00239879,-0.0105678,-0.00376457,0.0122545,-0.0133325,-0.00467109,-0.00492749,0.0225567,-0.0102723,0.00524457,0.00720683,-0.000273518,0.0081078,-0.0147096,0.00542712,0.00522151,0.00495295,0.00667573,0.00843442,0.00204148,0.00655875,0.0132771,0.00772023,0.00643561,-0.00210734,0.00542712,-0.0178988,-0.00179116,-0.000513393,0.0102578,0.00399285,-0.0033217,0.0115099,0.00583331,0.00912261,0.00306943,0.000295113,0.00256561,0.00279209,-0.00442498,0.00605232,0.00831211,0.015048,-0.00225459,-0.000314797,0.00430477,0.009271,-0.00331731,-0.0147082,0.000175038,0.00877269,0.00508808,0.00245589,-0.00761636,-0.00175791,-0.0052913,-0.00283154,-0.000156057,0.00502362,0.00785693,-0.0040094,-0.000512362,-0.00272522,-0.00553323,-0.000149018,0.000600858,-0.00585437,0.00172553,-0.00305624,0.00570305,-0.00490587,-0.00223433,0.00862675,0.00510879,0.00807919,-0.00253669,0.000234916,0.00397647,0.00785938,0.00198231,-0.00270975,0.00942252,0.00435457,-0.00603316,0.00656685,-0.00152925,0.000667756,0.010328,-0.00588301,0.0083612,0.0106275,-0.00798728,0.0026569,0.000292725,-0.00851503,-0.0119217,-0.00124003,0.00345342,-0.00348064,-0.00509471,0.0131083,-0.00220268,-0.00816009,-0.00880351,-0.00589174,0.00507135,0.00471527,0.00908851,0.020873,0.00386607,-0.000129357,-0.000753655,-0.00736824,-0.000847869,-0.00135793,-0.00738757,-0.00327707,-0.00409357,0.00106265,-0.00475985,0.0144447,-0.000987196,0.0155833,0.0189948,0.0150193,0.00666024,-0.00840136,-0.00192416,0.0120616,-0.00351232,-0.00249873,0.0142605,-0.0112595,-0.00914927,0.00324952,0.00591481,0.00582963,-0.00234372,0.0106639,-0.00216052,0.00558165,-0.00325865,0.00214074,0.0055544,0.0022055,0.00394562,0.0106602,0.00474296,0.00106051,0.00264615,-0.00923173,0.0001922,0.00814255,0.013417,0.0100449,-0.0144986,-0.0031761,0.000964913,0.00384237,0.00792546,0.00258693,0.000473577,-0.00201905,0.00508285,0.00253464,0.0045847,-0.00935204,-0.00501872,0.00507788,-0.00296996,-0.00404467,0.0087857,0.00506872,-0.000415944,0.00941058,0.00140604,0.000663257,0.000528336,-0.00763706,-0.0067601,-0.0028363,-0.00663541,-0.00755716,0.0095558,0.00215989,-0.00490138,4.24542e-05,0.000900196,-0.00952222,0.00836844,-0.00737304,0.00227561,0.00128373,0.00181218,-0.00876526,-0.00591358,-0.00151606,0.0077556,0.00281911,0.00162626,-0.00923231,0.00348822,-0.00166886,-0.00414741,-0.00740451,-0.00722005,-0.00512287,-0.00891167,0.00335216,0.00301323,-0.00613611,0.00812157,0.00604477,0.0065294,0.00195727,-0.00803477,-0.0094508,0.00246405,-0.00894089,-0.00599182,-0.00867725,-0.00790028,-0.00382585,-0.000608138,0.00843315,0.00546378,0.00471355,-0.00920031,0.0105389,-0.0116016,-0.0111098,-0.00899929,0.00155512,-0.0120382,-2.31796e-06,-0.0085681,0.0159797,0.0126054,-0.00343644,0.000644827,-0.00910753,0.00830053,-0.0038107,-0.0118314,0.00299071,0.00483369,0.0117215,0.000480231,0.0212191,-0.0159635,0.0104651,0.00494641,0.00360042,-0.000838299,-0.00167456,-0.000402845,0.00689902,0.00803778,0.0087516,0.0181454,0.0063636,-0.0188031,0.00365251,0.0110988,-0.000233954,0.00213368,-0.00585145,0.00530769,0.0162698,-0.00698089,0.00648607,0.00999665,0.00768899,-0.00437411,0.0105547,-0.0139988,0.00867235,-0.000411864,-0.0143425,-0.00639727,0.0166773,0.00342583,-0.000670886,-0.01608,-0.00966055,0.000294743,-0.0102673,-0.00578508,-0.00651689,-0.00173832,0.0121332,0.00758511,0.00606595,0.000965694,-0.00740521,-0.0133365,0.00892506,-0.0165,0.00424883,0.00087765,0.000402781,0.0023098,0.00323344,0.0147484,0.00598723,0.00110702,-0.00595359,0.000309672,-0.0128955,0.00105296,0.00643232,0.00275146,0.00414007,-0.0138596,0.00394796,-0.00418085,-0.00587874,0.000581127,0.0134815,-0.0101914,0.00264954,-0.00185255,0.00554476,0.0155981,-0.00341337,-0.0184795,-0.00482512,0.0073503,-0.0104368,0.0041804,-0.0122228,-0.000579808,0.0102176,-0.0148763,0.00455029,0.00916602,-0.00336341,0.00571293,0.00453392,-0.0044769,0.0102807,-0.00489957,-0.00612529,-0.00634858,0.0113089,0.00891917,-0.00751921,-0.00749395,-0.0010021,0.00257845,-0.00397481,-0.00211304,0.00961489,0.0132708,0.00677504,0.00502261,-0.00715148,0.000779202,0.00211943,-0.00104401,-0.0102155,-0.0039328,-0.00462197,-0.00179424,0.00779226,0.00101819,0.00207728,0.0120611,0.00396306,-0.0103356,0.00673895,-0.00703188,0.00390055,-0.0053252,-0.00153699,-0.00925126,0.0123342,-0.00566357,0.00810318,0.00420227,0.0130606,0.0187057,0.000870208,0.00283624,0.0105208,-0.00580993,-0.0118201,0.0111537,-0.000474466,-0.0211839,-0.00584656,0.00406546,-0.00517279,-0.010623,-0.00404489,-0.00566864,0.0114901,-0.0127242,-0.00804427,0.0110896,0.00442237,0.0077043,0.0070898,-0.00838106,-0.00368229,-0.00711766,-0.0012851,0.00386503,-0.00567218,-0.00361463,3.9491e-05,0.00353631,0.00619434,-0.0015881,-0.00194475,-0.00803032,0.00705997,0.00501528,0.00101117,-0.00516494,0.00623639,-0.000371453,-0.00302254,0.00286374,0.00483372,0.00795094,-0.0045751,0.00107487,0.00546947,0.00472852,-0.0115614,-0.00708303,-0.0106469,-0.0084342,0.00182596,0.00494139,0.00398417,-0.00284203,0.00357765,0.00644313,0.0134317,0.0103646,0.00472522,0.00418067,-0.00438703,-0.00926389,-0.00526238,0.000327433,-0.00203404,-0.00538583,0.00211568,-0.0059471,-0.00736476,-0.006944,0.00457505,0.00507846,0.00285375,0.00618637,0.00501389,0.000811993,-0.00330071,-0.00100641,0.00793065,-0.0041076,0.00423674,0.00610957,-0.008119,-0.0107287,0.00308135,-0.00048559,0.00670918,0.00116928,0.00818172,0.0101352,0.00410194,-0.00552757,0.000732508,0.00493853,-0.00959715,-0.00496654,-0.00638218,-0.00957865,0.00317968,0.0043488,0.00557885,0.0102321,-0.00312889,-0.00781963,1.77368e-05,0.00181085,-0.00853796,0.00669958,0.000840108,0.00738327,-0.00137493,0.00767601,0.000473791,-0.00380815,0.000295357,0.00776704,0.0107169,0.00417135,0.00339799,0.000710736,0.0104504,0.0040735,-0.00198055,-0.00452027,-0.00316544,0.00276994,0.0019446,0.00240182,-0.00472747,0.00662988,-0.00130511,0.00680914,0.00225302,0.00619363,-0.00635922,-0.011384,0.0102487,-0.00065329,-0.00311947,0.00588102,-0.00621932,-0.00671223,0.00771775,0.00648405,0.0079711,-0.00861276,0.00273628,-0.00473712,0.000881473,-0.0103689,-0.0075793,-0.00312909,0.000200368,0.00532065,-0.00840777,0.00192519,0.000923741,-0.00264294,0.00693598,1.60394e-05,0.00322706,4.16191e-05,-0.00800011,-0.00145624,0.00698522,7.62956e-05,0.00325316,0.000128381,0.00312648,-5.56053e-05,-0.00241975,-0.00328034,0.00770508,0.000169949,-0.00910966,0.00188923,-0.00229206,0.00815557,0.00317334,-0.0056595,-0.000721645,-0.00273616,0.00299415,0.00336558,-0.000536416,0.00580977,0.00147188,-0.00279388,-0.00846895,-0.00407571,-0.00824822,0.00976587,-0.0043305,-0.0041375,-0.00073043,0.00371724,-0.00259465,-0.00148303,-0.00954196,0.00234038,0.00435448,0.00149411,-0.00481884,-0.00150414,-0.00889984,0.00771019,-0.0077985,0.00609287,-0.00423383,0.00501124,-4.46503e-05,0.00516841,0.00312169,0.00567435,0.00742888,0.000843942,0.00272468,0.00912382,0.00637582,0.00469158,0.00599209,-0.00636616,-0.010234,0.0114024,-0.00194849,-0.00783441,0.00417908,-0.000964203,-0.00541542,-0.00141131,-0.00472453,-0.00663017,-0.00861658,0.00335342,0.0101044,-0.0076109,0.00250228,-0.00465976,0.00687577,0.00235411,-0.000574295,0.00478842,-0.00540762,0.00350008,-0.00828114,-0.00466426,0.00741206,0.0101208,-0.00529864,-0.00663497,0.00674751,0.00175374,0.00889106,-0.00376559,0.00767757,0.00331212,0.00095811,-0.00864478,0.00538524,0.00709585,-0.000711837,-0.00154965,-0.00892885,0.000588633,0.00263284,0.00981969,-0.000234439,-0.00167002,-0.00632437,0.00454709,0.0018051,0.010589,0.00942097,0.00475913,0.00403649,-0.00462928,0.0101054,0.00671209,0.00581487,0.0113488,0.0105379,-0.00427711,0.00277217,-0.00803575,-0.00206342,-0.0028807,-0.000396655,0.00608264,-0.00481588,-0.0086978,0.00179979,0.00216041,0.00683601,0.000867524,0.0103396,-0.00587639,0.00402458,-0.00600773,0.00603017,-0.00821151,-0.00197306,-0.00160567,-0.0106676,0.00635754,0.00668037,0.00560441,0.00810796,0.00161111,-0.00790023,-0.00125422,-0.00112003,0.000585057,-0.00847554,0.0022174,-0.00138648,-0.00761164,-0.00637905,0.00125745,0.00548958,-0.000217804,-0.00529492,-0.00767199,-0.00470646,-0.00632836,0.00211075,-0.000695421,-0.00134296,0.00683545,0.00898992,0.00157825,0.00909558,-0.000798541,0.00324068,-0.00961515,-0.00405737,-0.00147194,0.00611144,0.00643831,0.0113803,-0.00452683,0.00295482,-0.00676837,0.0100131,0.00502546,0.00137277,0.00901654,-0.0125095,0.00334999,-0.0080435,0.00431432,0.0113988,0.00433408,-0.000244896,-0.00228562,0.00571627,-0.00639903,0.00697904,0.00706015,0.00787981,0.00120072,0.000300211,0.00827403,0.00639951,-0.00255402,-0.00241264,0.00723548,-0.00148109,-0.0014339,-0.00514483,0.00860016,0.00657302,0.00305105,-0.00299703,0.00691025,-0.00488394,-0.00291321,-0.00543795,-0.00163152,-0.00312194,-0.00826419,-0.000736411,0.0082758,0.00900735,0.000805248,-0.00794093,0.00122228,-0.00854555,0.00635615,-0.00573739,-0.00914654,-0.00843238,-0.00913826,-0.00176117,-0.00184409,0.00117897,0.00772552,-0.0025701,0.00236466,-0.00245593,-0.00904994,0.00897671,-0.00632317,0.000560746,0.000221807,-0.000715153,0.00272783,-0.00277099,0.00280337,-0.00457306,0.00828805,0.000410306,0.00651828,-0.00704994,-0.00583642,0.00527489,0.00912281,0.00930675,0.00655367,-0.00659486,0.0088003,0.0105964,-0.000790845,-0.00830671,-0.00771075,0.0026082,0.00895639,-0.00694695,0.00861906,0.00326681,-0.000693563,-0.00813611,-0.00498999,-0.0102419,-0.0014192,-0.0093723,0.00873632,0.00633912,-9.73167e-05,-0.00320122,-0.00128274,0.00237135,-0.000469718,0.00020866,-0.00604644,-0.00895128,0.000318158,-0.00262978,0.00709883,-0.00652629,-0.00693685,-0.00771092,0.00241165,-0.00884423,0.00839207,0.00898688,0.00263712,-0.00692868,0.000103515,-0.000626748,0.00144294,-0.00395295,-0.00153654,0.00208996,0.00836802,-0.00216508,0.00672455,-0.00350681,0.00938358,6.03403e-05,-0.0015924,-0.0089546,0.00655288,-0.00445532,-0.00814541,-0.00472096,-0.00715817,-0.00261956,0.00991484,0.00563961,-0.00148251,0.00322923,0.000154733,0.00627556,0.00879557,-0.00196465,-0.00459058,0.00169415,0.00724358,-0.00938215,-0.00649814,0.00377449,0.0043445,-0.00484843,-0.00264331,0.00927226,-0.00530482,-0.00922986,-0.0054545,-0.000238211,-2.34638e-05,0.0014232,-0.00202796,0.0018058,0.004837,-0.0035806,0.00548501,0.00683051,-0.000501105,0.00946028,5.87675e-05,-0.00854897,-0.000535593,-0.000165422,0.00916645,-0.00267526,0.00484265,-0.00846339,0.00581267,-0.00904856,0.00101526,-0.00625316,0.00782523,0.00387827,-0.00171847,0.000372331,-0.00206911,-0.00731915,-0.00788011,-0.00955969,0.00419233,-0.00110134,0.0025068,0.00816889,-0.000993794,0.0091481,-0.00500162,0.00264924,0.000506592,-0.0049711,-0.000149373,0.00772406,-0.00869426,-0.00705155,-0.00746337,0.00249449,-0.000825268,0.00479866,-0.00677904,-0.00871349,-0.00237518,-0.00381274,0.00744013,0.00253127,0.00357804,2.73149e-06,0.00473768,-0.00900399,-0.000100116,-0.00771566,0.00114379,-0.00467635,-0.00541851,-0.00547916,-0.00355831,0.000929455,0.000929068,-0.00684816,-0.00345912,-0.00527052,-0.00349483,-0.000528289,-0.00832757,-0.00857908,0.00370824,-0.00945661,-0.00294417,-0.00890758,-0.00899108,0.00796781,-0.00737829,-0.002852,-0.00912279,-0.00198575,0.00356576,-0.00159731,-9.12592e-05,-0.00716007,0.00168691,0.00900214,0.00302925,0.00819145,0.000366225,0.0082716,0.00671716,0.00560522,0.00122481,-0.000296156,0.00451866,-0.00748503,0.00935934,-0.00702011,-0.00602741,0.000154375,-0.00498947,0.0022598,-0.00263313,0.00397815,-0.00773407,0.00643921,0.00334808,0.0076947,0.00310699,0.00924805,0.00423798,-0.00386169,-0.00775116,-3.2959e-05,-0.0020401,0.00139832,-0.00999603,-0.00734131,0.00732635,3.72314e-05,-0.00831512,0.0063855,0.000149841,-0.00638245,-0.00239594,0.00520996,0.00924286,0.00870178,-0.00692596,-0.00180542,-0.00758209,-0.00314758,0.00840729,-0.000598145,-0.00751251,-0.00536804,-0.00108368,0.00789429,-0.0027359,0.00360291,0.00491364,0.00773437,-0.000439758,-0.00967224,-0.00828827,0.00798462,-0.00281158,0.00636902,0.00962311,0.00270752,-0.00703888,0.00828918,-0.00603973,-0.00903442,-0.00530914,-0.00234924,0.00503571,-0.00317871,-0.00480988,0.00101624,0.00816193,0.00933716,-0.00772858,0.00994812,-0.00634857,0.00257568,0.00874725,0.00100891,-0.00318329,-0.00440063,-0.00756989,-0.00423889,-0.00202972,-0.0075293,-0.00386749,0.000767212,0.00242462,0.0022522,-0.00233307,0.00758972,0.000492249,-0.000993652,-0.000154114,-0.00720886,0.00748566,0.00179565,-0.00951813,-0.00206604,0.00371735,-0.00531738,0.00238739,0.00958069,-0.00550018,0.00672974,-0.00662506,-0.000706177,-0.00985443,-0.00800049,0.00625702,0.00363586,0.0059671,0.00955444,0.00884613,0.00416931,0.00227692,0.00345703,-0.00604523,0.00745667,0.00438751,0.00276978,-0.000604553,0.00506042,0.00261139,0.00155518,0.00798065,-0.00645691,-0.00773895,-0.00112427,0.00752289,-0.00553284,-0.00635101,-0.00120605,-0.00916534,-0.00560486,-0.00791229,-0.00962769,-0.00427155,0.00488953,-0.00211029,0.00767334,0.00501678,0.00251282,0.00636749,0.00975952,0.00651215,0.00882751,-0.00216644,0.000693359,-0.00697296,-0.00960388,-0.0023996,0.00953735,0.00237396,-0.00121887,-0.00401947,-0.009646,-0.00263458,-0.00945496,0.00828644,0.00220581,0.0058139,0.00725037,-0.00516937,0.00915527,0.000531921,-0.00454041,0.000925598,0.000264893,-0.00066803,0.00673523,-0.00311615,0.00959717,0.00502655,-0.00236023,-0.00198212,-0.0037854,0.00542816,0.00973572,0.0046402,0.00417969,-0.0066507,0.00958557,0.00206329,0.00255493,0.00660248,0.00875183,0.00059967,0.00540283,0.00800018,0.003797,-0.00443817,-0.00821411,0.00535492,-0.00371643,0.00726227,0.0057666,-0.00852081,-0.00722595,0.00101349,-0.00359253,0.00418549,0.00483093,0.00712799,-0.002229,0.00628632,0.00901672,0.000918274,0.00891968,0.00559418,0.00689392,0.00269684,-0.00608398,-0.00507843,0.00502502,-0.00222382,0.00182251,-0.00791901,-0.00502747,-0.00353119,0.00670166,-0.000115051,-0.00670105,-0.00591278,0.00761597,0.00614594,0.00156677,-0.00905609,0.00862793,0.00367645,0.0063385,-0.00764862,-0.00119995,-0.009711,-0.000823364,0.00862213,-0.00780518,0.00879608,-0.00335632,-0.00493134,0.00787476,0.00701019,0.000302124,-0.00799652,0.00990234,-0.00225616,-0.00328552,0.00473907,0.00734009,-0.00119049,-0.00255676,0.00358795,-0.00574951,-0.00698029,-0.000949097,0.00386261,0.00969604,0.00818695,0.00309998,0.00587555,-0.00226074,-0.00287628,-0.00384705,-0.00506073,0.00744263,-0.00235748,0.00977234,0.00136627,-0.00713135,-0.00744415,0.00052063,0.000469055,-0.00692017,0.00967621,0.00996033,-0.00743988,-0.00786133,0.0018161,0.00465393,0.00295197,-0.000892334,0.00678802,-0.00383606,0.00195709,0.00804932,0.00740448,0.00105286,0.004888,-0.00197388,-0.00852203,0.000883179,-0.00794281,-0.00689941,-0.00817902,0.00221741,0.00877716,0.00233521,0.00624603,-0.00338196,0.00536041,-0.00020752,-0.00243439,0.000647583,-0.00288055,0.00453491,-0.00640778,-0.00413147,0.00436676,0.000625,0.00713837,0.00884338,-0.00758514,-0.00287476,-0.00398346,-0.00886536,-0.00842377,0.00809814,0.00303925,-0.00069519,-0.00283661,-0.0073938,-0.00398102,-0.00508362,0.00948883,-0.00528809,0.00776825,0.00453186,-0.00613495,0.00347778,-0.00390045,-0.000286255,0.000604553,-0.00703369,0.00382538,-0.00297546,0.00501984,0.00223999,-0.00124176,-0.00197327,0.0074234,-0.00463867,-0.00628937,0.00928284,-0.00687225,0.00139282,0.00649506,0.00235535,-0.00755463,-0.00560303,-7.59888e-05,-0.00619324,0.000688782,-0.00656372,0.00181,0.00519958,-0.00182953,0.00257324,0.00496552,0.00309631,-0.00979706,-0.00912964,0.00720306,-0.000940552,0.00709869,-0.00760986,-0.00866486,0.00965149,0.00417023,0.00619507,0.00517426,-0.00356506,0.00173004,-0.00365234,0.0015329,0.00597229,0.00509064,-0.0080896,-0.00177643,0.00982605,0.00456451,0.0069458,-0.00194122,0.00455872,-0.00453583,0.000516357,0.00885101,-0.00826721,-0.00189789,-0.00331543,0.00341278,-0.00208923,-0.00220917,0.00451294,-0.00044342,-0.00534485,0.00484283,-0.00193604,9.49097e-05,-0.00147156,-0.00542938,-0.00359985,-0.00715973,-0.00890686,0.00728668,0.00358398,-0.00939484,-0.00108826,0.00830353,0.00867798,-0.00879791,-0.00645325,0.00793365,0.00574463,-0.00255646,-0.00843933,0.00148956,-0.00615356,-0.00285797,-0.00548401,0.00928375,-0.0029541,0.00311005,0.00897522,-0.00337128,0.00440552,-0.0068399,0.00650085,-0.00616302,0.00998779,-0.00989532,0.0036554,-0.00377899,-0.00714478,0.00175629,0.00200134,0.00409332,-0.00292969,0.000927429,0.0081012,0.00276642,-0.00830444,0.0054306,-0.00648254,0.0025528,-0.00920654,-0.00192169,-0.00518738,-0.00123505,-0.00657349,0.00668304,-0.00645081,-0.00828461,0.00365723,0.00405731,-0.00371033,0.00671661,-0.0094519,0.00801361,-0.00540344,-0.00591888,0.00816162,0.00136444,0.00503235,0.0091214,-0.0044397,-0.0080777,0.00915955,-0.00785004,-0.00319336,-0.00750031,-0.00645935,0.00847931,0.000963135,0.000909119,0.00973816,0.00842194,0.00209229,-3.69263e-05,-0.00568542,0.00729034,-0.000743408,-0.00252594,0.0088324,0.00539703,-0.00348145,0.00625458,-0.000145874,0.0080545,0.00294067,0.00411713,-0.00105774,0.00557526,-0.00741455,-0.00612579,0.0026593,-0.00672821,0.00451538,0.00333832,-0.00743225,-0.0085434,0.00279297,0.00532196,-0.0047699,0.0054422,-0.00351929,-0.00236237,0.00220886,0.00554108,-0.000358887,0.00309784,-0.00993347,0.00706573,-0.00866333,0.00951508,0.000365601,-0.00967133,-0.00437012,0.00970184,-0.000331421,0.000642395,0.00158325,0.00147064,-0.000462036,0.0083194,0.00325928,0.00763397,-0.00346375,0.00867218,-0.000279541,-0.00399567,-0.00777405,0.00201324,-0.0049707,-0.000605774,-0.00683044,-0.00634491,-0.00175171,-0.00438385,-0.00907043,-0.00608978,0.00343994,0.0074826,0.00206848,-0.00190887,0.00966675,0.00280609,0.0081488,0.00651031,0.000991211,-0.00560089,-0.00426697,0.00448029,0.00647583,7.41577e-05,-0.00361633,0.00231354,0.000183105,0.00264374,0.00666321,-0.00467743,0.00117554,0.00992035,0.00813416,0.00381989,-0.00648438,-0.00528351,0.00735901,-0.00688202,0.00626587,-0.00515533,-0.00409973,-0.00647064,-0.00651123,-0.00688263,-0.00967957,0.000366516,-0.00575317,-0.00265289,-0.00781799,-0.00605804,-0.00739746,0.000346375,0.00804749,-0.000431824,-0.00238159,-7.23267e-05,0.00947937,0.00755768,0.00335693,-0.0010965,-0.00695984,-0.00677704,0.00888062,0.00508636,0.000292358,-0.00312347,-0.00174805,-0.00871124,-0.00220154,0.00383087,0.000533447,-0.00467682,-0.00287903,0.0043985,0.0097876,2.13623e-06,-0.00517761,-0.00610809,0.0050769,-0.00686188,-0.00753479,-0.0073764,-0.00953613,0.00754364,-0.00338806,0.00590607,-0.00498901,0.00103119,-0.00117493,0.00405182,-0.00721924,-0.00358673,-0.00433289,0.00237335,0.00283569,0.00150238,0.00870056,0.00118317,0.00923828,0.00911102,0.00448792,0.00579376,0.00105103,-0.0029483,-0.00540833,0.00651764,-0.00766357,0.0081369,-0.00442566,-0.0013327,0.00215698,-0.00982086,0.00899841,0.00255524,-0.0054248,-0.00400909,0.00142639,0.00349396,-0.00134644,0.0033847,0.00442078,-0.00820404,0.00845459,-0.00482697,-0.00545593,0.00277374,0.00304077,-0.000831604,-0.00664124,-0.00326019,0.00647461,0.00818329,0.00742737,-0.000993347,0.0078186,3.02124e-05,0.00831238,-0.00011322,0.00113525,-0.00247833,-0.00742371,-0.00530731,0.00548706,0.00847015,0.00178162,0.00373688,0.00493652,0.00568817,0.00249084,-0.00766815,0.00854614,0.00698822,0.00626648,-0.0092099,-0.00962158,-0.0048172,0.00967102,-0.00557587,0.00949585,-0.00191559,-0.00573303,0.00354645,0.00996094,0.00850555,0.00661682,0.00346954,0.000836182,0.00425873,-0.00171692,0.00450592,-0.00381592,0.00815643,0.00582825,0.00196808,-0.00493286,0.00801117,-0.00918518,-0.00383148,0.00154785,-0.00336456,