64,4,1,256,256,64
0.00386749,-0.00274048,0.00401215,-0.00367249,-0.00466644,0.00819336,-0.00947296,-0.00210388,-0.0048996,-0.00296265,-0.000126038,0.00628113,-0.00651947,-0.002146,-0.00513458,-0.00195496,0.00578644,0.00970581,0.0033139,-0.00524963,-0.00766937,-0.00334473,-0.00196808,0.00295959,-0.0015744,0.00776489,-0.00316803,-0.00576477,-0.00561615,-0.00290283,0.00252655,0.00513977,-0.00448212,0.0037146,0.00292816,-0.00276428,0.0021402,-0.00832031,-0.0091507,-0.00291443,-0.000436707,-0.00994507,0.00410248,-0.00374817,-0.00190033,-0.00709717,0.00550018,-0.008703,-0.00693817,-0.000714111,0.00285492,0.00378357,0.00476227,-0.0067334,0.00897919,0.000274048,-0.00148651,0.00390747,0.00168549,-0.00766907,0.00462799,0.005271,0.00378632,-0.00348328,-0.00158173,-0.00358032,0.00309418,-0.00560608,0.000196838,0.00141602,-0.00757843,-0.00747498,-0.00472382,0.00932251,0.00958099,0.00247253,-0.00603119,-0.00579834,-0.00261505,0.00079895,-0.00841278,-0.00488403,0.00364594,0.00906677,0.00844391,-0.00387207,0.00117645,-0.0061615,0.00985138,0.00630005,0.007789,0.00667664,0.00612213,-0.000305176,0.00629608,0.00414368,-0.00743134,-0.00462524,0.00451019,0.00780212,0.00950348,-0.00259766,-0.00475616,0.00421448,0.00223907,-0.00515991,-0.00369049,0.00494324,0.00108795,0.00175049,-0.00948029,0.0065509,0.00136261,-0.00280396,0.00568695,-0.00940002,0.00337555,0.00523926,-0.00537628,0.00365295,-0.00756073,-0.00505737,-0.00485748,-0.00272766,-0.00113373,0.000368652,-0.00994415,0.00802063,-0.00203094,0.000579834,0.00717621,-0.00253967,-0.00993988,-0.000361328,-0.000683899,-0.00784607,0.000451965,0.00660767,0.00428802,0.00366394,-0.000542908,-0.00445068,0.00490448,0.00855286,0.002388,0.00552612,0.00897797,0.00838318,0.00955719,0.000600586,0.00932098,0.00971741,0.00627716,0.00983521,0.00374603,0.00411804,0.00286041,0.00729248,-0.00493439,0.00814758,-0.00538055,-0.00796509,-0.00890778,0.00336853,0.00186676,0.008125,0.00463837,-0.00365662,0.00991486,0.00462524,-0.00648346,-0.00136536,0.00907623,-0.00440186,0.000539246,0.00680481,-0.00533661,0.000106201,-0.00648102,0.00241638,0.00698883,0.00221191,0.00526825,-0.00796814,-0.00863495,-0.00902222,-0.00640045,0.00721375,-0.00189545,0.000466309,0.00132538,0.00452454,0.00253006,0.00969742,-0.00379437,0.00543328,0.00480161,0.00270282,-0.00861968,-0.00305597,-0.00926987,0.00895806,0.00402767,0.00986537,0.0098937,0.00184226,-0.00264413,0.00119208,-0.00197287,0.00113026,-0.000530852,-0.00719985,-0.00424816,-0.0098825,0.00247983,-0.00941999,0.00766292,-0.00172095,0.00456286,0.00642089,0.004413,4.13e-05,0.00895238,-0.00276198,0.00171604,-0.00627585,0.00263939,0.00390513,-0.000834764,0.00373844,-0.00113128,-0.00671003,0.00275592,-0.000467186,-0.00419763,-0.00262478,0.00206873,-0.00554067,-0.0044983,-0.00801272,-0.00710438,0.00788167,0.00619488,-0.000608376,-0.00428614,0.00426729,0.000977676,0.00545452,-0.0047185,-0.00800464,-0.00300282,0.00204132,0.00219369,0.00539862,-0.00224162,0.00616252,-0.00792938,0.00390015,-0.00965973,-0.00140686,0.00478668,-0.00891602,0.00810516,0.00641174,0.00580353,-0.00382202,0.00870209,0.00104675,0.00543365,-0.00675537,-0.00505646,-0.000939331,-0.00101044,0.00134644,-0.00535797,0.00201599,0.00678375,0.0045459,0.000610046,-0.00352478,-0.00587128,-0.00809448,-0.0093399,-0.00599915,-0.00866302,-0.00251221,0.00760468,-0.0088446,-0.00627899,0.000355225,-0.000743713,0.00950134,0.00159332,0.00457031,-0.00157257,-0.0043988,0.000266418,-0.000804443,0.0029306,0.00101746,5.27954e-05,-0.00170654,-0.00442169,0.00231262,-0.00373505,0.000926514,0.00418304,0.00104919,0.00921539,-0.00884277,0.00155731,0.00378967,0.00421661,-0.0019519,0.00551361,0.00209656,-0.00841888,-0.00433838,-0.00113556,-0.00746765,0.0066214,0.0030603,0.0094223,-0.00334045,0.00964996,0.00430664,0.00999969,0.00104065,0.00597931,0.00846313,-0.00159088,-0.00276184,0.00592194,0.00959229,-0.00253693,0.00181458,0.00479034,0.00675659,-0.00502594,-0.0036676,0.00289703,0.00401855,0.00375458,0.00735413,0.0055545,-0.00955933,0.00161713,0.00644226,0.00307526,8.54492e-05,-0.00862579,-0.0098407,-0.00922821,-0.00798462,0.000838318,6.7749e-05,0.0089566,-0.00970703,0.00282196,0.0027301,0.0029422,0.00398071,-0.00486237,0.00970886,0.00304108,0.00714111,0.000597839,-0.00243347,0.00456573,-0.00116333,0.00701508,0.0078656,0.00782867,0.00312988,0.00720184,0.00716858,-0.0018576,0.00908325,-0.00102936,0.00703796,0.0058194,-0.00924072,0.00513397,0.00403625,0.00617218,0.00722046,-0.00649567,-0.000274048,-0.000486755,0.0025293,-0.00310577,0.000669556,-0.00884491,0.00574829,-0.00688385,-0.00157043,-0.00858978,-0.00906006,0.0049826,0.00956848,-0.00440887,-0.00283325,0.000306091,-0.0043512,0.00401031,0.00849121,-0.00810089,0.00323303,0.00198029,-0.00602417,-0.00242584,0.00388367,-0.000186462,0.00768311,0.000143738,-0.00583679,-0.00717743,0.00867554,0.00742035,-0.00436584,0.00131989,0.00101563,-0.00778351,-0.00514099,-0.00938202,-0.00623413,-0.00765533,0.00340027,-0.00897064,0.00098877,-0.00938263,-0.00217957,-0.00213348,0.00174683,-0.00515289,-0.000317993,-0.00855804,0.000102539,-0.00215363,-0.00445251,-0.00293182,0.00511841,-0.00257233,-0.00302063,0.00505768,-0.00914307,-0.0035965,0.000540161,-0.00927704,-0.00361938,0.00258636,0.00779236,-0.00562347,0.00575195,0.00878876,0.00529846,0.00133087,0.00803345,-0.00717682,0.00462097,0.0018985,-0.0027124,-0.00249786,0.00232239,-0.00860809,-0.0074231,-0.00936188,-3.479e-05,-0.0098764,-0.00203613,0.00504364,0.00411194,0.00340607,0.00251099,-0.00146881,0.00632507,0.00155182,0.000280762,-0.00608673,0.00316711,-0.000126648,-0.00966431,-0.00099762,-0.00379944,-0.00131683,-0.00326172,0.00661102,-0.00801208,0.00329376,0.00855103,-0.0054483,0.00209167,0.00401764,-0.000163574,0.0056369,0.00307434,-0.0038327,0.00965698,0.00767914,-0.00350159,5.52368e-05,0.0020752,-0.00650909,0.00892639,0.000993958,0.00615356,0.000884705,-0.00807922,0.00929596,-0.00404541,-0.00732697,0.00204407,0.000273743,-0.00945923,-0.0033316,0.000858765,-0.00576019,-0.00602539,0.00568329,-0.00507263,-0.00349335,-0.0046814,-0.00246979,-0.00418762,-0.00261322,0.00863525,-0.00497833,7.62939e-05,-0.00780731,-0.00701294,0.00597015,0.00928162,0.00123688,-0.00756348,0.00318817,0.00999084,0.00983185,-0.00395386,0.00448822,-0.00623352,0.0082901,-0.00212158,-0.0073172,-0.00282898,-0.00807587,-0.00300415,-0.00441559,0.00176697,0.00104645,-0.00253906,0.00600555,-0.00588318,0.000969543,0.00833618,0.00175873,0.00578308,0.00200592,0.00368408,0.00565643,-0.00667175,-0.000531921,0.00256714,0.00551117,-0.00168518,-0.00633148,0.00904785,-0.00586456,0.0073053,0.00991974,-0.00781128,0.00934174,-0.00813782,-0.00146576,0.00605225,-0.00605743,0.00854797,-0.00517548,0.00970093,-0.00424957,-0.00107483,-0.000896912,0.00719727,0.00757782,0.00955627,-0.00331757,0.00760376,0.00723724,-0.00799622,-0.00212494,0.00498291,-0.0024588,0.0028302,-0.00200653,-0.00160278,0.00630219,0.00359802,-0.00264984,-0.00809082,0.0063327,0.000869751,0.00125763,-0.0054187,-0.00455475,0.00620789,2.83813e-05,0.000476074,-0.00354767,-0.00382507,0.00897491,0.00865601,-0.00283356,-0.00766663,0.00840973,0.00318359,-0.00959991,0.00124573,0.00364532,-0.00687866,-0.00603424,-0.00552551,0.0049942,-0.00746826,-0.00932404,0.00858215,0.00776886,0.000477295,0.0083432,0.00513123,-0.0077182,0.00102051,-0.000220032,-0.0093158,0.00384552,0.00322388,0.00279877,-0.00319641,-0.00722748,0.0011499,0.000212097,5.18799e-05,-0.00488475,-0.00703555,9.12598e-05,-0.000292155,0.00719677,0.00378263,-0.00449439,0.011924,0.00256672,0.00611196,0.00170391,-0.00647329,0.00261475,0.00569091,0.00446508,-0.0113274,0.00683486,0.0113336,-0.00635243,0.00342017,-2.36022e-05,-0.00385876,-0.00528877,-0.00366941,-0.00298645,-0.00293938,-0.0109537,0.00214267,-0.00579128,0.0099887,0.00749381,0.00138433,-0.00796836,0.00507388,0.00301803,0.00687974,2.58493e-05,-0.00843585,-0.00244958,-0.00776725,-0.00658043,0.00506327,-0.00797406,0.00888011,-0.00816908,0.006387,-0.000617491,0.00758003,0.000942226,0.00174681,-0.00486407,-0.00117407,-0.00259329,-0.00114869,-0.00842086,-0.00128298,0.00256768,-0.000114186,-2.29214e-05,0.00541766,-0.0103019,4.49357e-05,-0.00685612,-0.00127094,-0.00107391,0.00302124,0.00891449,-0.00994202,0.00382965,0.00864258,0.00636688,-0.00618591,-0.007966,0.00717407,0.00165131,-0.000613403,-0.00614838,-0.00732178,-0.00241974,0.00333801,0.00459503,0.00421753,0.00196625,0.00723083,0.00457672,0.00585449,0.00762177,-0.00237244,-0.000890808,0.00665161,-0.00764069,0.0060907,-0.00149506,0.000671387,-0.00100861,0.00918274,-0.00192352,0.00697632,-0.00466949,0.00846619,-0.00186371,0.00962891,-0.00581085,-0.00949646,0.00399689,-0.00230835,-0.00662018,0.0068573,0.00597076,0.00522705,-0.00428497,-0.00591003,-0.000629578,-0.00870239,0.00900726,-0.00623596,0.00450836,-3.41797e-05,0.00606903,-0.00755798,0.00669708,0.000294189,0.00471283,0.0016864,-0.00375092,0.00634521,0.00775116,-0.00194031,0.00847687,-0.0028186,0.00299652,0.00312439,0.00369293,-0.00313477,0.00326141,0.00344299,0.00720978,-0.00554077,0.00635834,-0.009422,0.0093399,0.00402588,-0.00490021,0.00109192,0.00539581,0.00462769,-0.00270172,-0.00345276,-0.00431,0.000327148,0.0057663,0.00350647,0.00553497,0.000186768,-0.00168365,-0.0064679,0.00524323,-0.00173096,-0.00223907,0.00318665,-0.00987274,-0.00636353,-0.00808746,-0.00596741,0.000499573,-0.00964844,-0.00641632,-0.00736755,0.00167267,-0.00252319,0.000586853,-0.00945129,0.00395905,0.00907471,-0.00426544,0.00434387,0.0026712,0.00420776,0.00683929,-0.00441956,-0.00187836,0.00693848,0.00671356,-0.00917908,-0.00437714,0.00632935,-0.00683014,0.00162781,0.00548737,-0.00355713,0.00902069,0.0045636,0.00302765,-0.00365845,0.00207855,0.0011908,0.00855621,-0.00991211,0.00515594,-0.0019281,0.00738556,0.00674438,-0.00393463,0.00676941,0.00982819,0.000373535,-0.00238068,0.00384583,-0.00880341,-0.00996216,-0.00236969,-0.00913635,-0.00819672,-0.000200195,0.00891083,-0.00561462,-0.00303925,-0.00127808,0.00927338,0.00597351,-0.00301849,0.000866699,0.00153046,0.00219055,0.00717804,0.00529663,-0.00650543,0.004599,0.00786285,-0.00392578,-0.00202179,-0.000238647,0.00434845,0.00226196,-0.00720612,-0.000759888,0.00694733,-0.00207764,0.000754089,-0.000402222,-0.00902802,0.00211792,0.00967133,0.00239685,-0.00326508,-0.00108887,-0.00764191,-0.00580017,0.00954865,-0.0026355,0.00662689,0.00656921,-0.000274353,-0.00845947,-0.00470978,-0.0039325,0.00257843,0.000501709,0.00616058,0.0042572,-0.00158051,0.00831055,-0.00794952,-0.00229919,-0.00743866,0.00402954,-0.0092276,0.00796082,-0.00468353,0.00172119,0.00513885,-0.00840027,0.00199738,0.000447998,0.00296234,-0.00981995,-0.00708344,0.00427246,-0.00294464,-0.00973572,-0.00661346,0.00225708,0.00523041,0.00341492,-0.00628021,0.00846436,-0.00970001,0.00619446,0.00922882,0.00195679,7.65991e-05,0.000165405,0.000226135,0.00679687,0.00737274,-0.00810974,-0.00797577,-0.00795288,-0.00999908,-0.00706848,-0.00506439,-0.00822998,-0.00922638,-0.000148315,0.00427277,0.00502808,-0.00249664,-0.00578674,0.000348206,-0.00411621,0.00300262,0.00257874,0.00847443,-0.00660034,0.00508392,-0.00348938,-0.00103607,-0.00836182,0.00655975,-0.00742859,0.00712921,0.00966187,-0.00475739,-0.00767639,-0.00671722,-0.0084668,0.00394501,0.00232971,0.00273712,0.0063147,-0.00952057,-0.00584778,0.00580475,0.00806885,-0.00234161,0.00435364,-0.00220184,-0.00414185,-0.00670563,-0.00550354,-0.000970154,-0.00625488,-0.00980011,-0.00885681,-0.00518768,-0.00920776,0.00618744,0.00585632,-0.00454193,0.00106201,0.00406952,-0.00480164,-0.0037204,0.00361694,-0.00834137,0.000731812,-0.00241058,0.00251953,0.00176727,0.00901917,0.00470001,0.00683228,-0.00779205,-0.00837708,0.00792389,-0.00938232,0.00579315,0.00510559,0.00257355,-0.00706177,-0.00966461,-0.00897034,0.00896149,-0.00214355,-0.00135284,-0.00404236,-0.00759979,-0.00556519,0.00854095,-0.00854797,0.00320221,-0.00326416,0.00282928,-0.00592468,-0.00332001,0.00382202,0.00932465,0.00539001,-0.00685394,-0.000244141,0.000839539,-0.00804138,-0.0020871,-0.00640015,-0.00481354,0.00534363,0.00129303,-0.000583496,-0.00482208,0.00210754,-0.00140106,-0.00373169,0.0086264,0.00381287,-0.00985687,0.00821777,0.00834442,-0.00297791,0.0012381,0.00432739,-0.00785553,-0.00670227,0.00219635,-0.00134033,0.00283905,0.00920227,0.00833038,-0.0097229,0.00824066,0.00629822,-4.73022e-05,0.00324219,0.0011618,-0.00885193,0.00237579,0.00661743,-0.000585022,-0.00468567,0.00591217,-0.00553467,0.00581268,-0.0046405,0.00587433,0.00584839,0.00816742,-0.00715393,0.00257477,0.0048291,-0.000708313,-0.00566345,0.00132599,0.000469971,-0.00300201,-0.00860657,-0.00755951,0.0068335,0.00409882,0.000579224,-0.00876923,0.00298218,0.00840668,0.00345642,-0.00199066,-0.00702148,0.00273407,0.00658752,-0.00191132,0.00588501,0.00489349,0.00153503,0.00178131,-0.00423584,-0.00230255,0.00486145,0.00439972,0.00167847,0.00895844,-0.00187073,0.00625641,0.00769043,-0.00851105,0.007901,-0.00733612,0.00286255,0.0031015,0.00573914,-0.00606537,0.00125732,0.00660858,0.00820618,0.00538116,0.00193726,0.00982269,-0.00313538,0.00731598,0.00896484,0.00555634,-0.00172302,0.00505157,-0.00859741,-0.00837799,0.00400574,0.00890045,0.00331299,-0.00916779,-0.0093866,-0.00582489,0.00375854,-0.00900055,-0.000337524,0.00118805,-0.00319824,0.00493622,-0.00228455,-0.00474823,-0.00849487,-0.00954498,-0.00366516,0.00667877,0.00193115,-0.00963165,-0.00791687,-0.00921844,0.00714233,-0.00751129,0.00652283,0.00787262,-0.00879883,0.0096286,0.00621643,0.00326447,0.00317017,-0.000399475,0.00272644,0.00726959,-0.00288818,0.00521698,-0.00738464,-0.0047995,-0.00791138,-0.00570953,-0.00255432,0.00736969,-0.00783691,-0.000366516,0.00377991,0.00908966,0.00639771,-0.000941467,0.00318054,-0.00932709,0.00885498,-0.00462189,-0.00778992,0.00743195,-0.00140259,-0.00359528,-0.00756897,-0.00032074,-0.0003125,-0.00504913,-0.00959412,-0.00727264,0.00118774,0.00882904,-0.00230286,-0.00311127,-0.00283936,0.000851746,-0.00913269,0.00747589,0.0066687,-0.00116852,-0.00852112,0.00480133,-0.00622559,-0.00441925,0.00609436,-0.00582245,0.00754028,0.00891205,0.00627625,0.00591705,0.00202881,0.00163788,0.00858704,-0.00466766,-0.00369751,0.00157074,-0.00541077,0.0027359,-0.00557617,0.00152313,-0.00915466,-0.00655975,0.00545532,-0.000692444,0.00891785,-0.00224213,0.00345947,-0.00226349,0.00536926,-0.00899872,0.00749878,0.0046225,0.00176208,-0.00651703,0.00163574,-0.00722198,0.00465881,-0.00948456,-0.00506714,1.5564e-05,0.00562195,-0.00758881,0.00145264,0.00914764,0.00121399,-0.00551727,0.000257568,0.00798676,-0.00700256,-0.00295746,-0.00458984,0.0093454,0.00753479,0.00540314,-0.0040271,-0.00896393,-0.00361145,0.00987701,-0.0039917,-0.00412872,-0.00387878,0.00577667,-0.00542114,-0.00833649,0.00829529,-0.00658539,-0.00425293,-0.00877472,-0.000526733,-0.00189667,0.00857544,-0.00763092,0.00121765,-0.00984467,0.00712646,-0.00209259,-0.00990906,0.00488312,-0.00953735,-0.00434723,0.00765564,0.00259918,0.00264648,-0.00158234,0.000474243,0.00861603,-0.00725952,0.00401459,0.000109253,-0.00675385,-0.00519287,-0.00474396,0.00312317,-0.00819794,0.00790894,-4.54712e-05,-0.00892151,0.00459625,-0.0038916,-0.00907745,-0.00946228,-0.00305878,0.00846802,0.0059726,-0.00693665,-0.000850525,-0.000949707,0.00791718,-0.0047821,0.00653351,0.00691772,0.00456879,-0.00143616,-0.000594177,-0.00386719,0.00873993,0.0096637,0.00307892,-0.00424194,-0.0017569,7.99561e-05,0.0078653,-0.000144043,-0.00410919,0.00637512,0.00907745,0.00748901,0.00949554,-0.00988831,0.00702789,0.00271973,-0.00813019,-0.00214783,0.00702911,-0.0053894,0.000826111,0.00115906,-0.000606384,-0.00277588,-0.000823059,-0.00340515,-0.000566101,0.0096228,-0.0052652,0.00572205,0.00746246,-0.00413086,0.000312195,-0.00489685,0.00879181,0.00502563,-0.00627838,-0.00369934,-0.00626556,-0.00884521,-0.00222443,0.00587708,-0.00239716,-0.00668091,0.00028656,0.0053949,0.000709534,-0.00441895,-0.00593292,0.00141663,0.008367,0.00700317,-0.00307037,0.00550476,-0.00911224,0.00164795,-0.00831329,-0.0057782,0.00358429,-0.00142212,0.00615082,0.00913025,0.0067691,0.00185547,-0.00686554,-0.0032074,0.0057547,0.000543213,-0.00954987,0.00877136,-0.00914642,0.00870361,0.000910339,0.00162903,-0.00262177,0.00539917,-0.00767242,-0.0030719,0.00564117,-0.00530762,-0.00248566,0.00123108,0.000954895,0.00564575,-0.00571686,0.00610046,-0.0063681,-0.00767822,0.00544647,0.00809875,-0.00101532,-0.00621704,-0.00118317,0.00878845,-0.00267426,-0.0059082,0.00720673,-0.00526794,-0.00603241,0.00231079,0.00842865,-0.00250793,-0.000777283,-0.00749756,0.0052951,-0.00636902,0.00840363,0.00372925,0.00561859,0.0047113,0.00182281,5.37109e-05,0.00221161,-0.00270447,0.00479279,-0.00946167,-0.00711334,0.00294617,0.00762604,0.00924561,0.000456238,-0.00177429,0.00563507,-0.00476196,-0.00726715,0.00469666,-0.000867615,-0.00742188,0.00252899,0.00892151,-0.00656952,-0.00967163,0.00765717,0.00246277,-0.00115814,0.00255127,-0.00907013,0.00188293,-0.00932098,0.00830933,0.000159607,0.00874451,0.00925446,-0.00833496,0.00815887,0.00960999,-0.000119324,0.00168091,-0.00725983,-0.00395813,-0.00712982,-0.00758057,-0.003284,0.00460266,0.00353546,0.00294312,0.00789886,-0.00314514,-0.00781097,-0.00268555,-0.000898743,-0.000639038,0.00414337,0.00459595,0.00813568,0.00368347,0.009711,-0.0011499,-0.00218536,0.00638489,0.00420441,-0.000860596,-0.00404938,0.00902771,0.0079361,0.00952637,-0.00464386,-0.00182556,0.00621857,-0.000926514,-0.00615631,0.00538757,0.00936432,0.00184326,-0.00577423,0.00722961,-0.00731415,-0.00310181,0.00431488,0.00526306,-0.00350433,0.00830078,-0.00307648,0.00605042,0.00610626,0.00511353,0.0098642,0.00115417,-0.00816986,0.00139893,0.0059494,0.00713684,0.0089798,-0.00378052,-0.00700836,0.00556091,-0.00213226,-0.0063623,0.00380341,0.00298889,0.00380646,0.00271606,-0.0038028,-0.00901672,-0.00289154,-0.00248291,-0.00701447,0.00610657,-0.00691376,-0.00289673,0.0019809,0.00992126,-0.00794769,0.00553711,-0.00400421,0.00898987,-0.000680847,-0.0081189,-0.00715729,-0.00512512,0.00519928,-0.00980225,-0.00466583,0.00413879,0.00500519,-0.000450439,-0.00871735,-0.00165588,-0.000950623,0.00399902,-0.00649933,0.00405334,-0.00735565,-0.00739136,-0.00019928,-0.00717102,-0.0038974,-0.000559082,-0.0070047,0.00123352,0.00473663,0.00355835,0.000896912,-0.00917053,-0.00114105,0.00902344,-0.00368195,0.00817932,0.00378204,0.00489868,-0.00292877,0.00484558,0.00981842,0.00524658,0.00596893,-0.00260925,-0.00771942,0.00912964,-0.00917633,0.00737732,-0.00851898,0.000610352,0.00444794,0.0013678,-0.00726776,0.00875122,0.00465424,-0.00907532,0.00634674,0.00761475,-0.00574493,-0.00738953,0.00763702,-0.00373657,0.00106293,0.00798767,-0.00308441,-0.00124023,-0.00210968,0.00361877,-0.000505066,0.00416626,0.00254974,-0.00893372,0.00568756,0.00654541,-0.0021463,0.0068927,-0.00919403,0.00495972,-0.00838531,-0.00733948,-0.00483734,0.00347168,-0.0033548,-0.00506775,0.00407013,-0.0088562,-0.00924225,0.00527039,0.00784088,0.00203857,-0.00323517,0.000237427,0.00178741,-0.00478149,0.00247894,0.00139587,0.00622223,-0.00525391,0.000712585,-0.00469177,0.00645782,0.00968384,0.00927826,-0.00646301,-0.0071933,-0.00590576,-0.00901154,-0.00735535,0.00058136,0.00703979,-0.0063443,-0.00580627,-0.0099057,-0.00741699,-0.00990753,0.0047467,0.00665802,-0.000213623,-0.00188873,-0.00413391,0.000585022,0.0027124,0.000524597,0.00411438,0.00718781,0.000423584,0.00514496,-0.00894592,0.00677887,-0.00301758,0.00478485,0.00324768,0.00467072,0.00145142,-0.00274323,-0.00774231,-0.00882416,0.00789307,0.00537323,-0.00535339,0.00160675,-0.00463013,-0.00305328,-0.00802307,-0.00372406,0.00794434,0.00478973,-0.00918884,0.000495911,-0.00532104,0.00671478,0.00271179,0.00457916,0.00963623,0.00553436,0.00424133,0.0038382,-0.00812134,0.00906097,-0.00303772,-0.00141449,0.00546875,-0.00989288,0.00743713,-0.00586639,-0.000531006,0.00648529,0.00722839,0.000794983,0.00794189,0.001008,-0.00710144,-0.00611786,0.00994995,0.00148773,0.00601013,-0.00629242,0.00955566,0.000737,-0.00687439,0.0055838,-0.00417847,-0.0034317,0.0058075,-0.000176697,0.00281006,-0.00820587,0.000618286,-0.00826141,0.00958374,-0.00577301,-0.000879517,0.00164215,0.000205078,-0.00332062,0.00787659,-0.0051535,0.00373657,-0.00303619,-0.0015509,0.00166412,-0.00575928,-0.00210724,0.00740051,-0.00259247,-0.00921997,0.00727875,-0.00370667,0.00238922,-0.00258301,-0.00206573,-0.00830994,0.00192169,0.00321411,0.00767181,0.0051532,0.00631744,0.00223389,-0.000696106,-0.00675476,-0.00911102,-0.00646118,0.000643005,-0.00247131,-0.00405121,0.00119141,0.00450165,0.00456604,0.00680939,-0.00574585,0.00869232,0.0059198,-0.00621674,0.00678955,-0.00397247,-0.00184753,-0.00781708,-0.00213989,-0.00568024,0.00282654,0.00232086,-0.00847168,-0.00361847,0.00650452,0.00950958,-0.00314331,2.53296e-05,0.000748901,0.00406158,0.00790771,0.00806366,0.00212219,0.00128937,0.0037439,0.00830902,-0.00781311,0.00150543,0.00842773,-0.00642609,-0.00249451,-0.00997772,-0.00897827,0.00167084,0.0096405,-0.0028476,0.00558838,-0.00458771,0.00515442,-0.00179169,-0.00880981,0.00261078,0.00560974,-0.0064975,-0.00811035,-0.0039212,-0.00243103,0.00834747,-0.00325073,-0.00637115,-0.0074054,-0.00694427,-0.000168457,-0.00192657,0.00724915,0.00293976,0.000198975,-0.00277496,0.00309509,-0.00168793,0.00191406,0.00389618,0.00669495,0.00448517,-0.00596069,-0.00410065,0.00961121,-0.00822845,-0.00936279,-0.00395294,0.00840637,-0.0045163,-0.00922974,-0.00784821,0.00464294,-0.00406586,-0.00149902,-0.00297394,0.00488342,-0.00156464,0.00289185,0.00848236,0.000690308,-0.00670013,-0.00199463,0.00933319,0.0086261,-0.00415985,0.00290405,0.00739105,-0.0097467,0.00636871,0.00165039,-0.00453156,-0.0078656,-0.00980194,0.00330688,-0.00862213,0.00583191,-0.00235931,0.00193604,-0.00206818,0.00790833,0.00400909,-0.00339966,0.00294281,-7.38525e-05,0.00961578,-0.0086377,-0.000776672,0.00844788,-0.000226746,-0.00471558,0.00458588,0.00503601,0.00479401,0.0024292,0.00184296,0.00625305,-9.46045e-06,-0.00814087,-0.00119293,-0.0063385,0.00567535,0.00763672,0.00829071,-0.00617615,0.00716095,-0.00117554,0.00810638,-0.00169739,-0.00524017,-0.000515137,0.00106659,0.00366028,0.00378448,0.00868042,-0.00501617,-0.00854065,-0.00545258,-0.00952637,0.00267059,0.00826233,-0.00763885,-0.006073,0.00193939,0.00563171,0.00753815,-0.00689697,-0.00439728,0.000130005,-0.00460907,0.00706421,-0.00852692,-0.0066803,-0.00376801,-0.000126953,0.00236298,-0.00823669,-0.00462616,0.000592041,0.0060849,0.00702332,0.00312897,0.00328369,0.00545135,-0.00433777,-0.00519012,0.0070105,0.00827484,-0.000757446,-0.00927094,-0.00416504,0.00736786,0.00432678,-0.00380096,-0.00118042,0.000542908,0.00247742,0.00153229,-0.00997314,-0.00938751,-0.00974304,0.00204132,0.00851929,0.0053891,0.00922791,-0.00196136,-0.00164062,-0.00231476,0.00595276,-0.00516327,0.00860962,0.00531342,-0.00800598,0.00274811,-0.00666748,-0.00891388,0.00391418,-0.00291473,-0.00840942,0.00281586,0.00327576,-0.00183929,0.00744629,-0.00668488,-0.00335876,-0.00871307,0.00996216,0.000396423,-0.00442688,0.00677643,-0.00679932,0.00687225,-0.00336609,-5.82886e-05,-0.00377563,0.000555115,0.00138611,-0.00890472,0.0030957,-0.00574249,-0.00360779,0.00554962,0.0028772,0.00579193,-0.00678528,-0.00638275,0.00963135,-0.00202911,0.00841614,-0.00938934,0.00242065,-0.00139313,0.00355896,-0.00315765,0.00530762,0.00051239,0.00520569,-0.00237518,0.00735474,0.00149994,0.00491882,0.00327057,0.00262451,0.00438202,-0.000739136,0.0090921,-0.00982056,-0.00302887,0.00979431,-0.00459808,-0.00591797,-0.00792023,0.00308167,0.00751251,0.00339478,0.00752045,-0.00931458,-0.00426361,-0.00781982,0.00610565,0.00916809,-0.00461395,-0.000499268,-0.00435211,9.21631e-05,0.00677399,0.00941895,0.00895966,-0.00997986,-0.00478729,-0.00900269,0.00385345,-0.00948547,-0.00898529,-0.00170166,0.00314178,-0.00186218,0.00924525,-0.0110523,-0.00915384,-0.00917419,-0.0148231,-0.0151504,-0.00293546,0.0164917,0.00194531,-0.00734412,-0.0110651,0.00460419,0.00709494,0.000411215,-0.00754167,-0.00178122,-0.0171056,0.013882,0.000809951,-0.0025562,0.00981461,-3.50518e-05,-0.00178461,-0.011061,0.00304525,-0.00268691,0.00172969,-0.0134974,-0.0194189,0.00755633,0.0101497,-0.00399087,0.00350771,-0.00185143,-0.00861713,-0.00594961,-0.00365788,-0.0117238,-0.018066,-0.00439033,0.0145428,0.00718429,-0.00187806,-0.00457638,-0.00628005,-0.00416874,0.00253061,-0.00367242,-0.00201012,-0.0135159,-0.0120739,0.00935409,0.00154728,0.000816772,0.0135021,0.0127836,0.00382513,-0.000984828,-0.00984833,-0.0160826,-0.00845528,0.00333164,0.0131688,0.0129923,0.00404327,0.00954468,-0.00628082,-0.00748108,-0.00417816,0.00454102,-0.00695343,0.000650024,0.000901184,0.00244751,0.000205994,0.000597534,0.00959381,-0.00267334,-0.00199005,0.00892395,-0.00278778,0.00824097,-0.00572906,0.00719177,0.00406891,-0.00074707,0.00180145,0.0019635,-0.00452362,-0.000574951,-0.001586,0.00480164,0.00174713,0.00281982,0.00692108,-0.00773132,-0.00180634,0.00849976,-0.00486481,0.00592712,0.00512848,0.000527344,-0.00413116,-0.00766052,0.00786407,0.00796509,0.00693451,0.00306824,-0.00328705,0.00487549,-0.00885529,-0.0053241,0.00698761,-0.00967896,-0.00368805,0.00872498,-0.000999451,0.00836426,-0.00475128,-0.00822205,-0.00193573,0.00806763,0.00576752,-0.00460266,-0.00550873,0.00349365,-0.00931915,-0.00385437,0.00349494,-0.00610078,-0.00164464,-0.00446584,0.00595634,0.00332638,-0.000157531,0.00048933,0.00650996,0.000485756,-0.00492364,0.0017641,-0.00429138,-0.00124664,0.00516953,-0.00391211,0.00770486,-0.0018311,-0.000949041,0.00662109,0.00469306,0.00346962,0.00956433,-0.0022169,-0.00829342,0.00266182,-0.00530128,0.00198372,-0.00196657,-0.00975423,-0.00414898,-0.00377283,9.10954e-05,0.00482997,0.00162727,0.00134752,-0.00244092,-0.00837149,0.00497845,0.00444444,-0.00459064,-0.00207344,0.00410464,-0.00341053,0.00526697,-0.00122655,0.0013289,-0.0049724,0.000311908,-0.0065512,0.00426227,0.000882728,0.00278653,0.00534401,0.00617567,0.000363122,-0.00259539,0.00436207,0.0044182,0.00575845,-0.00600225,0.00407775,0.00230982,-0.00714515,0.00815488,0.00282078,0.00693301,0.00364564,0.000489349,0.00601624,-0.00819462,0.00496729,-0.0037463,0.00196463,-0.00534393,0.00795635,0.00563222,0.00503047,-0.00199006,0.00947479,0.00380283,-0.00600655,0.00995941,-0.00920748,-0.00865007,-0.00680577,0.0030317,-0.00124581,-0.00669384,-0.00843409,-0.00466328,0.00463756,0.000263599,0.00299756,0.00939023,0.00529239,0.00725712,0.00687076,-0.00670766,0.00200313,-0.00511812,0.00694548,-0.000283863,0.0015964,0.00816164,-0.0074266,0.00632645,-0.00448037,-0.00229652,-0.00246622,-0.00377527,0.00017406,-0.00147159,0.00116399,-0.00305365,-0.00258711,-0.00877429,0.00725136,0.00156735,-0.00648365,0.000979407,0.00514519,0.00763915,0.000323878,-0.00204546,0.00861558,-0.00176211,-0.00588509,-0.00230438,-0.00297485,0.000965271,-0.00328186,0.000411682,-0.00579102,0.00873016,-0.00546326,-0.00857147,0.00930298,-0.000672913,-0.000828247,0.00105865,-0.00363037,-0.00443146,0.00718567,0.00461456,-0.00552856,0.00526703,0.000140991,0.00240875,0.0076709,0.00123505,0.00460022,-0.000246277,0.00503052,0.0012851,-0.00787415,0.00696198,0.000612793,0.00822968,-0.000719604,-0.000653992,-0.00651978,0.00988129,0.00762634,-0.00278168,0.00769531,-0.000947571,0.0037262,0.00589142,-0.00767944,-0.0064444,-0.000857544,-0.0043222,0.00141846,-0.00379669,-0.00956238,0.00188995,-0.00594849,-0.00519196,-0.000825806,0.00484039,-0.00571777,0.00218231,-0.00808533,0.00984161,-0.0088269,-0.00386139,0.000221558,0.00720612,-0.00121338,-0.000510559,0.000657349,-0.00775336,-0.0038153,4.65939e-05,-0.00521652,0.00527353,0.00742966,-0.00937357,0.00916761,-0.00839476,0.00158886,0.00903429,-0.00463667,0.00154628,-0.00728319,-0.00191263,0.00993822,-0.00958669,-0.000115973,0.00560091,-0.00554171,-0.00147707,0.0071439,0.00437978,-0.00452133,-0.0088209,0.00356453,-0.00775961,0.00456569,-0.00130193,0.00321225,-0.00799935,-0.00171488,-0.00360275,0.00514073,-0.00853725,-0.00180768,0.00458092,-0.00658345,0.00344487,-0.00914684,0.00856935,-0.002893,0.00576338,0.00783442,-0.00133405,-0.00973372,0.00122213,0.00569068,-0.0098098,-0.00803988,-0.00236166,0.00599248,0.00345476,0.0062558,0.00782781,-0.00470581,0.00376731,0.00220822,0.00959489,0.00516145,0.00144251,-0.0061174,0.0057609,-0.00783703,-0.00820282,0.000345459,0.00412933,-0.00214905,-0.00486176,0.0056543,-0.00248077,0.00879456,-0.00321991,-0.00112671,0.00374115,-0.00344543,0.00703522,-0.00593506,0.0056076,-0.00230652,0.00121613,-0.00970825,-0.00906891,-0.0062262,-0.000364685,-0.00838379,-0.00747589,-0.00864197,0.00760529,0.00710083,0.00819916,0.00200867,-0.00456146,-0.00919189,0.000768738,0.00228821,-0.00155243,0.00180054,-0.00195465,-0.00624084,-0.00305511,0.00414063,-0.00715851,0.00298401,-0.00375702,0.00689087,0.00296967,0.00152527,0.00665436,0.00411377,-0.00875763,0.00594543,0.00349152,-0.00512817,0.00547211,-0.00219299,0.00706696,0.00322754,-0.00152863,0.00367249,0.00269318,-0.00175659,0.00805267,-0.00489563,0.000682678,-0.00601807,-0.0029715,0.00866516,-0.00356866,0.00957758,-0.00672012,0.00597335,-0.00994896,0.00891288,0.00943185,-0.00656586,0.00695024,0.00114507,0.003423,0.00270473,-0.002533,0.000347251,-0.00193896,-0.00963626,-0.00307761,0.00578862,0.00134728,-0.00184065,0.005803,0.00113021,0.00570033,-0.00773837,0.0090435,-0.00435717,0.00914247,0.00442582,-0.00285996,0.00335431,-0.00551936,-0.00878004,0.00541566,0.00336715,0.00971329,-0.00558956,-0.0056243,-7.5828e-05,0.00727824,0.000138915,0.00893844,0.0016866,0.00517206,0.000200387,-0.000382034,0.00293272,0.00620666,-0.00885927,0.00172678,0.00269894,-0.00178565,-0.00528612,-0.0042406,0.00526547,-0.00583009,-0.00289925,0.00664904,-0.000701604,-0.00847357,-0.00995271,0.00490863,-0.00094839,-0.00673858,-0.00987934,0.00571075,0.00356351,0.00721344,-0.000694196,0.00989706,-0.00286174,0.00646647,0.00285498,0.00190303,0.00836798,0.00805307,-0.00575655,-0.00708577,-0.00830007,-0.00421878,0.00798121,-0.00197261,0.00632464,-0.00354665,0.00767305,-0.00316955,-0.00476775,0.00390789,-0.00207305,-0.00437373,0.00936957,-0.00503998,-0.00810636,0.00387973,0.00103096,-0.00662913,0.00502022,-0.0022811,-0.00973268,0.00646189,-0.000151457,-0.00342042,0.000640911,0.00636078,0.00223918,0.00676564,0.00124954,-0.00741506,0.00382697,-0.00246467,0.00690466,0.0062102,0.0018314,0.00523765,-0.00450976,-0.00360902,-0.00361229,0.00883228,-0.0078465,-0.0052612,-0.00442891,-0.00435172,0.00511168,-0.000124454,0.0098484,-0.00583454,0.00943672,-0.00545395,-0.00328585,0.000942196,0.00188134,0.00649912,-0.00381753,-0.00511658,-0.00859757,0.00820215,-0.00175892,0.00174097,0.00122784,-0.0027028,-0.00957049,-0.0077652,0.00794965,-0.000845987,-0.00931719,0.00443486,-0.0091148,-0.00272678,0.000947137,-0.00684674,-0.00588892,0.00663226,0.0096976,0.00660565,0.00838065,0.00553343,0.00446612,-0.0052879,0.0036087,-0.00187743,0.00429439,-0.00449147,0.0012963,0.00814161,-0.0100639,0.00439023,0.00568574,-0.00922032,0.0101086,0.00907138,0.00704606,0.00427971,-0.00717063,-0.000172245,-0.00402129,-0.00969173,-0.00313721,-0.00584744,-0.00683691,-0.000365696,0.00280055,0.00840068,0.00362752,0.000340467,-0.00216946,0.00938181,-0.00269205,-0.00660588,-0.00467375,0.00770205,0.00458194,9.40747e-05,0.00848167,0.000198169,0.00681075,-0.00955841,-0.000210183,0.00440974,0.00848188,-0.0045816,-0.00223185,0.00757599,-0.00178609,-0.00752571,-0.0086316,-0.0013855,0.0092745,0.00571489,-0.00160327,-0.00583233,0.00222542,0.00270675,0.00112556,-0.0056668,-0.000566495,-0.00490551,0.00499361,0.00316686,-0.00877852,0.0016426,0.0015546,-0.00815283,-0.00856252,0.00622453,0.00836822,-0.00314331,-0.00166772,-0.00552295,0.00592962,-0.003624,-0.00330281,0.000111386,0.00133541,-0.00275356,-0.00356011,0.00187186,0.00641082,0.00842139,0.00955649,0.000952817,-0.00320867,0.00670056,-0.00385091,0.00655052,-0.00466395,-0.00812408,0.00118918,-0.00875488,0.00711787,0.00839242,-0.00747318,-0.00825754,0.00474278,0.00721185,0.00409667,-0.00774915,0.00494978,0.00455647,-0.00386845,-0.000477988,0.00815534,-0.000581134,-0.00828099,0.00703484,0.0019877,-0.00231704,0.00031726,-0.00771817,-0.00248425,0.0094601,-0.00420894,-0.00181248,-0.0085702,-0.00983054,-0.00259705,-0.00736171,0.00537784,0.000223689,0.00898828,0.00825204,0.00574134,0.00472355,-0.000251634,0.00294115,0.00417665,-0.00592405,0.00384125,-0.000348099,-0.00267184,0.00371306,0.000110339,0.00594098,0.00657991,-0.00625549,-0.00728076,-0.00523743,-0.00142051,0.00967509,-0.00915086,0.00402354,0.00499646,0.00159278,0.00835547,-0.00367745,0.00219389,0.00498087,0.00438378,-0.000411245,-0.00806348,0.000160743,0.00311337,0.00671795,0.000581539,-0.00767991,-0.00658143,-0.00468032,-0.000225539,-0.00817207,0.00942682,0.00842399,0.00622658,-0.00582335,-0.0098984,-0.00665805,0.000762641,-0.00131892,-0.000847742,0.00474029,-0.00758506,-0.00665094,0.00793086,-0.00284973,0.00876044,0.00468707,0.00686938,-0.00462334,0.00861725,-0.0098222,-0.00122218,0.00875193,-0.00483158,-0.00825185,0.00365412,0.00647547,-0.00847614,-0.00902937,-0.0071523,0.00818919,-0.00904522,-8.13293e-05,0.00219003,-0.00098927,-0.00825064,-0.00399786,0.00689635,0.00233728,-0.00800383,-0.00420533,-0.00708923,-0.00664613,-0.000189291,0.00817835,-0.00875976,-0.00838093,0.00891108,-0.00040048,-0.00773216,-0.00393839,-0.00790321,0.00793914,-0.00335964,-0.00333736,-0.00544717,-0.0056795,-0.00949266,0.00769966,-0.000821622,0.00119181,-0.000629287,0.00346481,-0.000855184,0.0003266,-0.00127611,0.0104966,-0.00657682,0.0086307,0.00980954,-0.00658855,-0.00140995,0.00439126,-0.00624475,0.00498505,0.00579017,-0.00667256,0.000575391,0.00598218,0.00446548,0.00583929,0.00429807,-0.00232574,-0.00837576,-0.00316457,0.00422931,0.00795329,0.00898085,0.00768015,0.00222668,0.00921574,0.00256444,0.00300508,-0.00859246,-0.000295451,0.00424785,-0.00696687,0.00369195,0.00224983,-0.00933498,-0.00823318,-0.00176532,0.00418834,0.00327276,0.00253444,-0.000877231,-0.00120907,0.0083206,0.00923582,-0.00446658,0.00382532,-0.00183093,0.00193522,0.00135592,0.00182776,0.00684625,-0.00384488,-0.00442993,0.00102644,-8.66604e-05,-0.00800286,0.00255288,-0.00616176,0.0018544,-0.00506101,-0.00884723,-0.00346497,0.00424933,-0.00480007,-0.0046437,-0.00462622,0.00399723,0.00898335,-0.00570694,-0.00383355,0.00162361,-0.00593548,-0.00869202,-0.00678653,0.0067843,-0.0024501,-0.0030675,0.00147295,0.006399,-0.00859019,0.00534787,0.00457573,-0.000865289,0.00731114,-0.00595971,-0.00555226,0.00895883,0.00777135,0.00730959,-0.00213077,-0.00193609,-0.000914051,-0.0041928,-0.00360769,0.00117504,0.00880574,-0.00820762,-0.0085092,-0.00487525,-0.004419,-0.0056225,-0.00983163,-0.0017501,-0.00439369,0.00999063,0.0082561,-0.000703125,-0.00222174,0.00518934,0.000875107,-0.00884834,-0.00904072,-0.00596601,-0.00940888,0.00758939,0.0100127,-0.00162555,0.00832321,-0.00637169,-0.00423664,-0.00088146,0.00321199,-0.00930349,-0.00570815,0.00744734,-0.00464611,-0.00601395,-0.00575709,-0.00529459,0.00788747,0.0017304,-0.00717666,0.00279853,0.00587193,-0.00958642,0.00892807,-0.00559665,0.00465644,-0.00946814,0.00835879,-0.000593768,0.00112844,-0.0077295,0.00134018,-0.00890367,-0.00181274,-0.00757918,0.00330431,0.00923281,0.00414208,-0.00721821,-0.00521134,-0.00295378,-0.00903096,-0.000622342,0.000288883,0.00372094,-0.00346535,0.0037971,-0.00914995,0.00430131,0.0047718,0.00335834,0.00190666,-0.00319276,0.00227597,-0.00114084,-0.00682825,0.00555354,0.00222648,-0.00295818,-0.00938534,0.000194324,0.0030107,0.00987578,0.00340835,-0.0062888,0.00628408,-0.00691298,0.00805942,0.00584339,0.000717184,0.00934021,0.00471908,0.00107735,-0.000658904,0.00413022,-0.00200011,0.00761505,-0.000803405,0.00952598,-0.00125612,-0.000262471,0.00369722,0.00249782,0.00237513,-0.00320088,8.83473e-07,0.00334335,0.00879188,0.00307435,0.0014137,0.000230654,0.00343108,0.00682586,0.00566701,0.00348507,-0.00330348,0.00253039,-0.00399166,-0.00984233,0.00436156,0.00930027,-0.000661289,0.00177281,0.00578521,-0.0088842,0.00894346,0.00531933,0.00681151,-0.00242131,0.00262561,-0.00849497,-0.00234356,0.00179616,0.00366978,-0.0026957,-0.00589913,0.00333694,-0.00104426,0.00430713,-0.00436835,0.00619543,0.00177406,-0.000548941,0.00795679,-0.000107253,-0.0100589,-0.00646685,0.00139424,-0.00234026,0.00621749,0.00348688,-0.00829576,-0.00108817,-0.00106003,-0.00913209,-0.00172231,0.00779639,-6.8593e-05,0.00226549,0.00692645,-0.00622606,0.00756728,0.00963739,0.00793577,0.0100216,0.00454682,0.00872646,-0.00303049,-0.00413759,-0.000855271,0.00132235,-0.0063613,-0.00358918,0.00326318,-0.0050334,0.00355094,-0.000788746,-0.00476458,-0.000340446,-0.00298993,-0.00113258,-0.00132237,-0.00711317,-0.00969883,-0.0053853,-0.000284781,-0.00402002,0.00192431,-0.00954385,-0.00788457,-0.00371343,-0.00181534,-0.00380103,-0.00650009,0.00401377,0.0093076,0.00436038,0.00755819,-0.00372225,-0.00874584,-0.0050323,0.000632704,-0.00524421,0.00299837,-0.00820713,0.00615724,0.00671068,-0.00936303,0.0048203,0.0020435,0.0022659,0.00427876,0.00656207,-0.00888323,-0.00122195,0.000107376,-0.0032439,0.00186579,-0.00238339,-0.00303702,-0.000300039,0.00554539,0.00548399,0.000828102,0.00492989,0.00100918,-0.00530079,0.00204915,0.00513333,-0.00931189,0.000247072,-0.00384462,0.000268802,0.00288835,0.00466757,0.00328409,-0.00563757,-0.00996638,-0.00563031,0.00866465,-0.00367449,-0.0099856,0.000875857,0.00266307,0.000260404,0.00564907,0.000778362,0.000622999,0.00525243,0.00472876,-0.00437512,0.00279808,-0.00466807,6.37286e-05,-0.00803277,-0.0054628,-0.00039682,0.00950048,0.00137102,0.00611445,-0.00795932,-0.00416703,0.000400728,-0.00710984,-0.00820057,0.00685296,-0.00934883,-0.0048618,0.00290125,-0.00459101,-0.00139896,-0.00180689,-0.00559493,-0.000707552,-0.00408967,-0.00763185,0.000400355,0.00131153,-0.000909289,-0.0070235,-0.000103367,0.0093277,0.00970871,0.000286753,-0.00299366,-0.0039312,-0.00565216,-0.000331967,0.000778986,-0.000570153,0.00452554,0.00142517,0.00526958,0.0021448,-0.00316112,0.000957336,0.00942749,-0.00780426,-0.00728577,-0.0016391,-0.00245117,0.00214813,-0.00102966,-0.000934753,-0.00141968,0.00993256,0.00704285,-0.00661713,0.00658447,-0.00163849,-0.00650574,-0.00337372,0.000623779,-0.0047525,-0.000112915,0.00910797,0.00476074,-0.00659698,-0.00721619,-0.00385956,0.00805786,-0.00935944,0.00374695,0.00803619,0.00457764,0.00977264,0.00933899,0.000107727,-0.00661743,-0.00138824,-0.00887756,-0.00733246,-0.00146484,0.0099704,-0.00434021,-0.00897186,0.0090979,0.00166107,-0.00548645,0.00550201,-0.000866699,-0.00350372,0.00424622,-0.00859833,0.00770386,0.00228851,0.00642029,0.00903961,-0.00112793,-0.00814972,0.00759827,0.00372833,0.00170044,0.00299408,-0.000657349,0.00578033,-0.00974854,-0.00146759,-0.00178406,-0.00930083,0.00381892,0.00602784,0.00556397,-0.00194529,0.00563702,-0.00107056,0.008524,-0.00580556,0.00585965,-0.00532852,-0.00170955,0.00894819,-0.00194343,-0.00392945,-0.00854432,-0.00232902,0.000770253,-0.00962786,0.00902186,6.91487e-05,-0.000891022,-0.00853407,-0.00137524,0.00256787,0.00164477,-0.00333573,-0.00870724,-0.00509299,0.00233542,0.00875327,0.00357906,-0.00809703,-0.000179868,-0.00500231,-0.00344666,-0.00508858,-0.000815226,0.00930951,-0.00223866,0.00872468,0.00894386,0.00895524,-0.0016698,0.00365974,0.00320311,-0.00326585,-0.00576302,-0.005506,0.000421273,-2.25426e-05,0.00811421,0.0025622,0.00578836,-0.00752537,0.00601227,-0.00729473,0.00782074,-0.00840203,-0.000547583,-0.00477759,0.000572461,-0.000464559,0.00448319,0.0050589,0.0027478,0.0053598,0.00384705,0.00308746,-0.00100586,0.000937195,0.00322815,-0.00558319,-0.00184937,0.00434662,-0.00557434,0.00935944,-0.00572021,-0.00159943,-0.00599792,0.00322784,0.00644409,-0.00908844,0.0035199,-0.00366547,-0.00129395,-0.00530792,0.00954163,-0.006008,0.000128174,0.00755463,0.00362976,0.00651276,0.00477295,-0.00768829,0.0023468,0.00920929,-0.00829712,-0.00322418,0.00725525,0.0023941,0.00498047,-0.00624054,0.0049176,-0.0086203,-0.00633179,0.00107513,0.00689636,0.00647858,-0.00817139,0.00153534,0.00975403,0.00300323,-0.00147583,0.00295258,-0.0049469,0.00126617,-0.00218262,-0.00186066,0.00935608,0.0065799,-0.00122925,0.00490814,0.00422546,0.0092569,-0.00455322,0.00607147,-0.00377625,0.00460968,0.00690796,0.00944183,0.00691345,-0.00704926,-0.0027832,0.00783173,0.00285706,-0.00040741,-0.00456421,-0.00094635,-0.00438293,-0.00515228,-0.00437256,0.0059201,0.00175598,-0.00597137,-0.00314575,-0.00375641,0.0028363,-0.00255219,0.00317871,0.00283661,0.00542053,-0.00958221,0.00366333,0.00351166,0.00107117,0.00325104,-0.00762939,0.00108124,0.00635071,-0.00873993,0.00836304,0.00335785,0.00282166,-0.00524261,-0.00429688,0.00315399,-0.00295349,-0.000944519,0.00345337,-0.00171783,0.000587769,-0.00553314,0.00567627,-0.00844513,-0.00999207,-0.00369598,0.00143433,-0.00921539,0.00686951,0.00487946,-0.00520996,0.00878387,-0.00226501,0.00550568,-0.00519409,0.00336517,-0.00583313,0.00849518,-0.00445557,-0.002659,-0.00727234,0.00916046,-0.00393188,-0.00147614,-0.00502014,0.00781403,0.000439453,-0.000273743,0.00748596,0.00976837,-0.00227905,-0.00123932,0.00180847,0.005336,0.0019751,-0.00156036,-0.00549011,0.00982941,-0.0077356,0.00657562,0.00715271,0.0035611,-0.00734863,-0.00401886,0.00629944,-0.00815643,-0.00780151,0.00446869,0.00351257,0.00498932,0.00496826,-0.00514923,-0.00464539,-0.00168915,-0.00997681,-0.00506012,0.00338806,-0.00787933,-0.00857422,-0.00245148,-0.00582458,-0.00826874,-0.00176147,0.000489197,-0.000720825,0.00745514,0.00452393,0.0065744,-0.00473816,-0.0053952,0.00934448,0.00361664,0.00368591,-0.00650726,-0.0032373,0.00442841,-0.00888611,0.00943146,-0.00415894,0.0068222,0.00910828,-0.00726654,0.00064209,-0.00638947,-0.00576843,-0.00128876,-0.00977173,-0.0073941,0.00804626,0.00767731,0.00866211,-0.00337921,-0.00288513,0.00494415,0.0050061,0.00346771,-0.00700012,0.00082428,-0.00667725,-0.00404083,-0.00773621,-0.00936981,-0.00732544,0.00190765,-0.00353088,-0.00532562,0.00712402,-0.00587433,-0.00782166,-0.00173065,0.00573364,-0.00957428,-0.00904602,-0.0082724,0.00256592,-0.0063797,0.00935852,-0.00963837,-0.00331665,-0.00847809,0.00895447,-0.00551605,-0.00785156,-0.00305695,-0.00369568,0.00940704,-0.00197632,0.00769623,0.00297058,0.00544342,0.00837158,0.00659393,0.00551575,-0.00209442,0.00225464,0.00144867,0.00550232,0.00710602,0.00373535,0.00507294,0.0094928,-0.00164276,0.00187622,-0.00472076,0.00904968,0.00197174,-0.00926025,-0.00511993,0.000735474,-0.00666175,0.00923964,-0.0082527,0.00593689,-0.00743498,0.0020821,-0.00153153,-0.00810462,0.00501288,-0.00260842,-0.00696879,0.00920666,0.00108866,0.00965867,-0.00132183,-0.00505694,-0.00343273,-0.0020096,0.00232579,-0.00937108,-0.00918811,0.00636882,-0.00275444,0.00323313,0.00964267,0.00439591,0.001241,0.00347478,0.00329812,0.00517691,-0.00240082,0.00833549,0.00754945,0.00827277,-0.00679879,-0.000594567,0.0019004,-0.00230268,0.00132699,0.00360921,-0.00796,0.00295927,-0.000193531,-0.00824184,0.00828242,-0.00271007,-0.00860006,0.000767782,0.0064067,0.000101073,0.00442693,-0.00778775,0.00579212,-0.00444644,-0.00926523,-0.00732383,-0.00773612,-0.00690752,0.00868079,-0.00588438,-0.00391422,0.00589598,0.000973763,-0.00773827,-0.00694779,-0.0069157,-0.00413785,0.00856232,0.00230678,0.000457487,0.00546785,-0.00799927,-0.00988315,-0.00505634,0.00749299,-0.00954447,0.00608391,-0.00905367,0.00648458,0.00240377,0.00739841,0.00847309,0.00801798,-0.0102476,-0.00794109,-0.00952277,0.00536945,-0.000603074,0.00592744,0.00804311,-0.00324447,0.000900333,-0.000495381,-0.00699364,0.00689562,-0.0076009,0.00991101,0.00484308,-9.64175e-05,-0.00528381,-0.00570691,0.00795671,-0.00950486,-0.0041324,-0.000144556,-0.00683056,-0.0030803,0.00567336,-0.00398885,-0.00872062,0.000935529,0.00092905,1.31326e-05,0.00273466,-0.00764539,0.00402822,0.00966226,-0.00765416,0.00150123,0.000749024,-0.00885623,0.0094383,0.00695659,0.00412094,-0.00509516,0.00592645,-0.00786836,0.00898457,-0.00256413,0.00258677,0.00490095,-0.00290826,-0.00271693,0.00350019,-0.00273756,-0.00387048,0.0003885,-0.00305597,0.0074636,-0.00340618,-0.00289736,-0.00264131,-0.00131556,-0.00453281,0.00314476,0.00381527,-0.00202141,-0.00571025,-0.00196247,0.00035619,-0.00146044,-3.93895e-05,0.00749511,-0.00354679,-0.00180919,0.0033416,0.00179691,0.00537049,0.000108251,0.00134324,-0.00335707,0.00659721,-0.00864646,-0.00444463,-0.00837998,0.00416615,0.00512336,-0.00715295,-0.00760489,0.00750501,-0.000766874,0.00412421,0.00928696,0.00996735,-0.00352497,0.00627308,-0.00202178,-0.00906147,0.00506529,0.00085915,-0.00199247,-0.00548036,-0.00297622,-0.00553619,-0.00488039,0.0101212,-0.00939707,-0.0010189,-0.000413392,-0.00891278,0.00854114,-0.00973355,0.00693568,-0.00309362,-0.00100542,-0.00961118,-0.00295285,-0.00851544,-0.00583954,0.00561142,-0.00436233,0.0041564,-0.00767907,0.0078035,-0.00717457,0.00878136,-0.00404645,-0.00679536,0.00377271,0.00429161,-0.00676618,0.00374209,0.00914993,-0.00495012,-0.00324217,0.00576491,-0.00593648,0.00980327,0.00419044,-0.00932332,0.00864871,0.00295929,-0.00127801,-0.00459102,0.00861732,-0.00660575,0.00792869,0.00114694,-0.00612571,0.00499278,0.00448335,-0.00520214,-0.00986928,0.00719838,0.00657027,0.00779909,0.00747641,-0.00631106,-0.00340176,-0.00351891,0.00108357,0.00387537,0.00277884,0.00279993,-0.0083957,0.001687,-0.0022707,-0.00706954,0.00398881,-0.00403514,-0.000923168,-0.00120661,0.00891784,0.00113757,0.0100032,-0.003188,0.00105603,-0.00407273,-0.00248725,0.0082419,0.00139626,0.00452756,-0.00390054,0.000750152,-0.00428443,-0.00326599,0.00179414,0.00416678,-0.00710212,0.00517163,-0.0017409,-0.00395128,0.00910547,0.0104495,-0.00618294,-0.00143133,0.0053189,-0.00508794,-0.00017031,-0.00309559,0.00531733,0.00780792,-0.00507403,0.00247196,6.48742e-05,0.00550387,0.00282207,-0.00580252,0.0058293,0.00475174,0.00946623,-0.00852448,0.00135207,-0.00970312,0.00874494,0.00135277,-0.00657659,-0.0079609,-0.000847503,-0.00361192,-0.0093036,0.00256742,0.00188247,-0.00843141,0.00970278,0.00148428,0.00572266,0.00993031,-0.0100314,-0.006198,0.00308021,-0.00340964,-0.00238404,0.00712985,-0.00784811,0.00363145,0.00255328,-0.00393879,-0.00365415,0.00875754,0.0010121,0.000153474,0.00204279,-0.00864333,-0.00825997,0.00285109,0.00316882,4.04136e-05,0.00110903,-0.0062018,-0.00324174,0.00515636,-0.00128322,0.00634299,0.00599962,0.00366597,0.000281689,0.0003183,-0.000935819,-0.00251167,0.0064381,-0.000992203,0.00801084,-0.00755663,0.00178258,-0.00812102,-0.0089482,0.000457053,-0.00302987,-0.00669492,-0.00863445,-0.00152928,0.0077252,0.00166551,-0.00400253,0.00732018,-0.00641342,0.00137837,-0.00184315,-0.0061135,0.000620097,0.00186075,-0.00397564,-0.0098229,-0.00160124,-0.00353648,-0.00834433,-0.00803314,0.00261385,0.00457235,-0.00672497,0.00156687,-0.00608494,-0.00933559,-0.00599845,0.00480309,-0.00309751,0.00304752,-0.00903416,-0.00640365,0.00226274,-0.00385158,0.00766011,0.00489236,0.00556671,0.00934937,-0.00881989,-0.000488892,0.00672028,0.0062207,-0.00511749,0.00451721,-0.00882538,-0.0039978,-0.00358307,-0.00866028,0.00924225,-0.00724365,-0.00140411,-0.00345886,-0.00376434,-0.00445435,0.00923187,0.00168396,-0.00753265,0.00843262,0.00113739,-0.00666931,0.00324982,0.000479736,-0.00787506,0.00304382,-0.00110443,0.00574951,0.00500702,0.00738586,-0.0052829,0.00330444,0.00759613,0.00791931,-0.00897308,-0.00279297,-0.00729523,-0.00879333,-0.00686249,-0.00348022,-0.00185455,0.00881042,-0.00863861,-0.00469482,0.00673065,-0.00270691,0.00101105,-0.00737427,0.00627289,-0.00178284,0.00239899,-0.00745605,0.00958466,-0.00185486,0.000837708,0.00412231,-0.00552155,0.00863953,0.00663971,0.00142334,0.00376678,0.00626282,-0.00488251,0.00350952,0.00526215,-0.00742249,0.00658356,-0.00555664,-0.00822296,-0.00585388,0.0063504,0.00328735,0.00112396,0.00253113,0.00473053,0.004104,-0.00388458,-0.00570496,-0.00296356,-0.00404419,0.0045639,-0.00899963,0.00358063,0.00290527,-0.000718079,-0.000790405,0.0096756,-0.00598511,-0.00191803,-0.00951477,0.00563385,0.00334717,0.00377655,0.00138977,0.00676788,0.0099646,0.00417816,-0.00651428,-0.0066098,-0.00207031,-0.0079007,-0.00666443,-0.00918671,-0.00369507,0.00535248,-0.00749817,0.00934967,-0.000847168,0.00675018,0.007547,0.00431183,0.00553589,0.00410492,3.35693e-05,-0.00398773,-0.000483398,-0.00977081,-0.00347595,0.00976349,-0.00984253,0.00293549,0.00858093,-0.00412201,-0.008479,0.00503632,-0.00723328,0.0098294,0.00266609,0.00423278,-0.00962508,-0.0085205,0.00753663,-0.00623929,0.00873026,0.0067425,-0.00435088,-0.00924033,-0.00105545,0.00525441,0.00035762,-0.00155582,-0.00287291,0.00276304,0.0015211,0.00491132,0.0055992,-0.000162664,0.00236119,0.00226846,-0.00976482,0.00110995,-0.00759477,0.00870275,0.00292525,-0.00279084,0.00599618,0.00745957,0.000590003,0.00387494,0.00153414,0.00591855,0.0041254,0.000665232,0.00341654,-0.00348322,0.000336676,-0.006386,0.00105921,-0.00219851,0.00128282,-0.00772006,0.00783884,-0.00815292,0.00275791,-0.00753317,0.00310749,0.00690968,0.0070256,-0.0053618,-0.00863913,-0.00396141,-6.13766e-05,0.00354029,0.00137081,-0.00356066,-0.00661352,-0.0101761,0.00661912,-0.00845616,0.00435001,0.00923909,0.00686112,0.00839844,-0.00630681,0.00130454,0.00589343,0.000579345,0.00842793,-0.00826441,-0.00716909,0.00552111,-9.37826e-05,-0.00929194,0.00181171,0.00618118,0.00483759,-0.00638841,-0.00824051,-0.0097755,0.00463865,0.000822211,0.00687483,-0.00946508,0.00594227,-0.00248672,-0.00391634,0.00500191,0.000384525,-0.00586345,-0.00649378,-0.00370842,0.00438235,0.0058658,-0.00170844,-0.00764203,-0.000352136,-0.00691782,-0.00564792,0.00587348,-0.00741185,0.00117177,-0.00910674,-0.00520646,-0.00514968,0.000303372,0.00183784,0.00178383,0.00306248,0.00593394,0.00638451,-0.00526206,-0.00135618,-0.00177387,0.0084593,0.00652574,0.00830265,0.00264361,-0.00280507,-0.00516975,0.00345278,0.00935381,0.0067241,0.00259506,0.000804023,-0.00641252,-0.00396342,-0.00260979,0.00186866,-0.0039107,0.00924896,-0.00758885,-0.0067861,0.00186753,-0.00504278,0.00527821,0.00595598,0.00124938,0.00802806,-0.00120096,-0.0025055,0.00958581,0.00715883,0.000762293,0.00896944,0.00675843,-0.00362504,0.00359149,0.00694515,-0.00111864,0.00477091,0.00590704,0.00299279,-0.00415737,0.00596172,-0.00987493,-0.00673975,-0.00699487,-0.000154254,0.00403436,0.000138198,-0.00935286,-0.00992106,7.70174e-05,0.00972959,-0.00631492,0.00572503,-0.0031482,-0.0063264,-0.006761,0.000855661,-0.00324237,0.00848945,0.00424158,-0.00590425,0.00765433,-0.00465266,0.00693803,-0.00966868,0.00228802,0.00162023,0.00669625,-0.00175521,-0.00186367,-0.00156768,-0.0065544,-0.00812926,-0.00126732,0.00238289,0.00303121,-0.0098222,-0.00803821,-0.0053277,-0.00381172,-0.00305763,0.00924797,0.00287235,-0.00329289,0.00239662,0.0102336,-0.00298047,-0.00329486,-0.000163668,-0.00396442,-0.00456331,-0.0101727,0.00748207,-0.00388069,-0.00206469,-0.00199935,-0.00893305,0.00159132,-0.007219,0.00575681,-0.00199703,-0.0079573,-0.0101652,0.00247323,0.00392818,0.00851709,0.0073587,0.0052526,0.00634376,0.000540951,0.00613482,-0.00735092,-0.00903817,-0.000764943,-0.00829194,-0.00829126,0.00510658,0.00412486,-0.00246596,-0.00896298,0.00460961,-0.00284771,-0.0016324,0.007667,0.00673728,0.00533012,-0.00251182,0.000102044,-0.00264273,0.00306811,-0.000214845,-0.00451271,0.00463082,0.00658836,-0.00153361,0.0024067,0.0017748,0.000305645,0.00842269,-0.00196785,0.00923044,-0.00883347,-0.00696396,0.00160819,-0.0095034,-0.0084197,-0.00271522,-0.00229527,-0.00513655,-0.000112441,-0.00588559,-0.00261176,-0.00339775,-0.00066413,-0.00139963,-0.00370598,-0.00629174,-0.00329938,-0.00646679,-0.0057411,-0.00921107,0.00523741,0.00443971,-0.00315571,-0.00268646,0.0030394,0.00337131,-0.00457877,0.00661716,-0.00646848,0.00690589,0.00305951,-0.00109263,0.00278236,-0.0031882,0.00105932,-0.00283883,0.00506271,-0.000902362,-0.00511977,-0.00935703,-0.00277673,0.00645493,-0.00504822,-0.00620475,0.00247028,-0.00494792,-0.0035402,0.00609978,0.00901146,0.00523227,-0.000153446,0.0102427,0.00891115,0.00456119,0.0100247,-0.00355425,0.000712387,0.00422727,-0.0023854,-0.00205676,0.00709687,0.00101475,-0.00257782,-0.00652954,-0.00524567,-0.00402405,-0.00923676,0.0087793,-0.00185577,-0.00308044,0.00240509,-0.00800171,-0.00563385,-0.00532043,0.00266022,-0.00281006,0.0062326,0.00581848,0.00684113,0.00341675,0.00155609,-0.0081012,-0.00473969,-0.00525879,-0.00685089,-0.000516968,-0.00676971,0.00022583,-0.00117584,0.000133667,-0.00893646,-0.00606689,0.00139374,-0.00958679,0.00407257,-0.00507446,0.00867035,-0.00811584,-0.00743011,0.00726563,-0.00653351,-0.00889099,0.00186798,1.58691e-05,-0.00640533,-0.000349731,0.00227936,0.00723877,-0.00813263,-0.00592957,0.00911652,0.00799683,-0.00390289,-0.00406799,0.00269196,0.00635254,-0.000903625,-0.00820251,0.00831818,-0.00863159,-0.00132233,-0.00677063,-0.00369232,-0.00289307,-0.0023465,-0.00320984,0.00197061,0.00263241,0.00384326,0.00405301,0.00564175,-0.00801282,-0.00997304,0.00154049,-0.00742363,-0.00571682,-0.00592317,0.000877696,-0.00684171,0.00355166,-0.00126206,-0.00143909,0.00263446,-0.00117704,-0.00811062,-0.0037802,0.00138143,0.00422508,0.00630898,0.000347815,-0.00535396,0.00875559,-0.000221532,0.00257619,-0.00719351,0.00653863,-0.00482383,-0.000566875,-0.00889008,-0.00342415,0.000245675,-0.00755055,0.00993446,0.00299426,0.00786975,0.00824977,-0.00547345,-0.00521199,-0.00420817,-0.00166424,-0.00473376,0.00608974,0.00689157,-0.000665821,0.00743207,-0.00410948,0.00891732,-0.0072604,-0.00869982,0.00832369,-0.00525668,0.00518389,-0.00774592,-0.00758243,0.00212003,0.00815902,0.000538137,0.00219956,-0.00607734,-0.00170287,-0.00847626,-0.00320923,-0.0020816,-0.00289124,0.00548981,0.000224609,0.00693329,-0.00882263,0.00775665,0.0015686,-0.00121979,-0.00793762,0.00863678,-0.00511475,-0.00372833,-0.00367371,0.00344269,-0.000762939,0.00722015,0.00553162,-0.00751312,-0.00131348,0.00443817,0.00624084,0.00108185,0.00229614,0.00573822,-0.00998352,-0.0004599,0.00412842,-0.0060672,-0.00657898,0.00317413,0.00324585,-0.00316559,-0.00198303,-0.00770355,0.00371094,0.00725555,-0.00963318,-0.00778046,-0.00541382,0.00300873,0.00203308,-0.00674408,0.00993408,0.00690643,0.00957825,-0.00928192,0.00881714,0.00676117,-0.00543518,0.00491852,-0.00470215,-0.00461456,0.0035553,0.00116974,-0.00156128,-0.00940826,0.00811218,0.00978424,-0.00769775,-0.00480743,0.00479797,0.00606808,-0.00400965,-0.00298793,-0.0047795,-0.00962977,-0.00650154,0.00883732,0.00585682,0.00793872,-0.00609001,0.00850103,0.00830034,0.00912731,-0.00871891,-0.00118227,-0.000862746,0.00926247,0.00470355,0.00758189,-8.97716e-05,0.00862628,-0.00178209,0.00761019,-0.00281257,-0.00745754,0.000909431,-0.00327356,0.00252915,-0.00868669,0.00679516,-0.00226145,-0.00750392,0.000265805,-0.00501853,-0.00154885,0.00866764,-0.000303036,0.00951377,-0.00831242,-0.0024276,-0.00505975,-0.000546306,-0.00473742,-0.00918953,-0.00370609,-0.00112354,-0.0080345,0.00491815,-0.000918279,0.00681557,0.00965345,0.00147296,0.00358145,0.00735853,0.0010858,0.007034,-0.00484687,0.00957145,0.00411759,-0.00692014,0.00408481,0.00742104,0.00152763,-0.00366891,0.00562531,0.000111084,0.00108246,-0.00175842,0.00021637,-0.00833008,-0.00427765,0.00543518,-0.00689178,-0.00886108,0.00319427,0.00944519,-0.00538666,-0.00741943,0.00631073,0.00683411,4.42505e-05,-0.00494263,-0.00711578,-0.000835571,0.00971344,0.00263184,-0.00427277,-0.00700134,0.00893341,0.00436646,-0.00734772,-0.000100708,0.00801666,-0.00567627,0.00647186,-0.00357117,0.0022757,-0.00843384,0.00499847,0.00414978,-0.00797699,0.00015625,0.00104462,0.00962463,0.00257111,0.00915649,-0.00757721,0.00441589,0.00423248,-0.00737061,0.0019455,0.00508606,-0.00768036,0.00963745,-0.00257477,-0.00680237,0.00714508,0.00424316,-0.0083255,-0.00468689,-0.0059787,0.00550903,0.0025058,0.002995,0.0032608,0.00749756,-0.00726837,-0.00719421,-0.00922309,0.0102284,-0.010685,0.005799,-0.00509926,-0.00495988,0.00802528,-0.00921134,0.00428666,-0.00740605,0.00240723,-0.00459844,0.00511548,-0.000705314,-0.000357458,0.000630971,-0.00495167,-0.0100447,0.00312137,0.00363657,-0.00373224,-0.00717117,0.00780672,-0.00686354,-0.0100753,-0.00718363,-0.00624699,0.00284526,0.010541,0.00583547,-0.000479171,0.00502286,0.00924508,-0.00659068,-0.00295892,0.00562464,0.00836869,-0.00480572,-0.00502169,0.00660437,-0.00455842,0.00448242,-0.00460068,0.00208197,-0.0034719,-0.00884201,-0.00319645,-0.00942756,-0.00876764,-0.00160269,-0.0106971,-0.0106632,-0.00463235,0.00616101,0.00757184,0.00932371,-0.00121303,0.0055827,0.00539155,-0.002389,0.00748554,-0.00716288,0.00959486,-0.00478873,-0.000273132,0.0034314,0.00424652,-0.00062561,-0.00505707,0.00311523,0.00451141,-0.000307007,-0.00154022,0.000709229,0.00760834,0.006828,0.000589905,-0.00972412,-0.00365021,-0.00265808,-0.00335419,-0.00912231,-0.00145172,-0.00720276,0.00694,0.00657715,0.0070163,-0.00024353,-0.00321503,0.00643677,-0.000433655,0.0097821,-0.00350677,0.00451904,-0.000989075,-0.000563354,0.00137726,-0.000113525,-0.00683746,-0.00971741,-0.00825043,-0.00339844,-0.00516632,0.00888245,-0.00707733,0.00372681,0.00183685,0.00679871,-0.00479095,-0.00467529,-0.00301544,0.000593872,-0.0060788,-0.00954224,0.00808929,-0.00816956,0.00937164,-0.00681152,0.00796356,0.00707092,0.00687286,-0.00742065,-0.00558014,-0.00212219,-0.00326263,0.00269287,-0.00972931,0.000813599,-0.00581964,0.00272038,0.00327293,-0.00284047,0.000170894,-0.00350747,0.00631711,-0.00554484,-0.00146339,-0.00730444,-0.00235698,0.00311197,0.000934472,0.00670507,-0.00121199,0.000181182,0.00274919,-0.00362933,-0.00122588,0.00721116,0.00292039,0.00610709,-0.00955581,-0.00928514,0.00808157,0.00507263,-0.00962464,0.00228154,0.00848913,0.00715093,0.00261664,-0.00152362,-0.00173937,-0.0084213,-0.00502067,0.00090176,-0.00107248,0.00236017,-0.00096968,-0.00400176,-0.00417948,0.00852084,-0.00617035,-0.00451604,-0.00200691,0.00419288,0.00217595,-0.00416853,0.00202198,0.00834968,-0.0092836,-0.000959916,0.00815445,0.00511253,-0.0062207,-0.00956276,0.000536834,0.00397611,0.00806966,0.00277092,-0.00885056,-0.00228286,-0.00373237,-0.00733295,-0.00580992,0.00652191,0.00746976,0.000822105,0.00939631,-0.00545168,-0.00647768,-0.00642311,0.00368306,-0.00957523,-0.00757581,0.00399039,0.00658266,0.00826641,0.00612787,0.00781819,-0.00652001,0.00631799,0.00412357,0.00658537,0.00457392,-0.00969007,-0.00163559,0.00684392,0.00437118,0.00852423,0.00672065,-0.000694526,0.00486192,-0.00514519,-0.00802758,0.00224705,0.000557387,0.00853734,0.00103621,-0.00357562,-0.00828519,-0.00729857,0.00851083,0.00827397,0.00368968,-0.0018833,-0.00868505,0.00950613,0.00592228,-0.00196018,-0.00775783,-0.00425384,-0.00454013,-0.00855934,-0.000799302,-0.00971709,-0.00832954,0.002466,0.00397757,-0.00115502,-3.23403e-05,-0.000706705,0.00627347,-0.00706067,-0.0102133,-0.00230461,0.00789548,0.00916178,-0.000826767,-0.00399846,-0.00406706,0.00815314,0.00475883,-0.00184455,0.00478301,-0.001679,-0.0057013,-0.00781896,-0.00851138,-0.00927466,-0.0025336,-0.00595502,-0.00110165,0.00111762,0.00972414,0.0020427,-0.00617174,-0.00853337,-0.00974823,7.17516e-05,-0.0091746,0.00827778,0.00625075,-0.00345517,0.00701166,0.00229218,0.00700575,0.00686521,0.00508234,-0.00824137,0.00715878,0.00962867,-0.00676456,-0.00244856,0.00860993,0.0087312,0.00351402,0.0050093,-0.00412441,-0.00768825,-0.00588319,0.00782001,-0.000707276,-0.0036689,0.00782435,0.00149073,-0.00668929,-0.00125647,-0.00820427,0.00757512,-0.000233403,0.00380584,0.000186523,-0.00813182,0.00336679,0.00101186,0.0103603,0.00749228,-0.0056188,0.00346208,0.00387337,-0.00976188,0.00792999,-0.00992798,-0.00942535,0.00164001,0.00439606,0.00600586,0.00208954,0.00820862,0.0091629,-0.000150146,-0.00356354,0.00159363,-0.00745697,0.0056665,-0.00357208,-0.00164246,0.00984894,0.00251831,0.0098764,6.28662e-05,0.00139313,-0.00553223,0.00959442,-0.00672791,-0.0075119,-0.00942261,-0.00660553,0.00954773,-0.00655365,0.00490967,0.00408905,0.00545227,-0.000419617,-0.0034729,0.00949066,0.00254822,-0.0087973,0.00949219,0.0024118,0.00739807,-0.00637421,-0.00713257,0.000664978,-0.00843567,-0.00283783,0.000715332,0.00706268,-0.0083905,-0.00287567,-0.00790161,0.00941742,0.00909607,-0.00617523,-0.0089209,0.000541687,-0.00941345,-0.00742401,0.00671997,-0.00175201,0.00764343,0.00369049,-0.0069165,0.00534882,-0.00317078,0.00248077,0.00923218,0.00965668,-0.000293579,0.00925934,-0.000771484,0.00398407,0.00283752,0.00933868,-0.00786499,0.00614349,-0.00221497,-0.00696869,0.00201416,-0.00105255,0.00111145,-0.00435028,0.00792847,-0.00979156,-0.00562073,-0.00249359,-0.00605957,-0.00726105,0.004151,0.00391388,0.00911255,0.0043515,0.00198914,0.00518463,0.00750732,0.00785858,0.00445618,-0.00336884,0.00818726,-0.00892731,-0.00688538,-0.00143402,-0.00478516,0.00680634,-0.00547302,-0.00369843,-0.00234741,-0.00712799,0.000255737,0.000150452,0.00956299,-0.00791779,0.0068634,0.00542511,-0.00999146,-0.00775055,-0.00408752,-0.00756195,0.00305176,0.00618622,-0.00603455,0.00650177,-0.00224487,-0.00829498,-0.00741516,-0.00207123,0.00818115,-0.00838165,0.00833313,0.00222089,-0.00655835,-0.00637418,0.00249922,-0.000891802,-0.00232367,-0.00907962,0.00275541,-0.00538646,0.00934749,0.000607762,-0.00105436,-0.00169814,0.00342282,0.00682782,0.00899074,0.00642169,-0.00185594,-0.00438718,-0.00643254,-0.00127299,-0.001671,0.000646659,5.30491e-05,0.000199365,-0.00723674,0.000193731,-0.000387569,0.00191339,-0.0050945,-0.00330807,0.00834836,-0.0011875,0.00481431,-0.00216271,0.00874127,-0.00921327,0.00562308,-0.0038991,0.00679855,0.00397072,0.00769133,-0.00985825,-0.00615743,0.00784989,0.00340964,0.0018458,0.00715726,-0.000948427,-0.0069684,3.76905e-05,0.0074809,-0.00394466,-0.000143098,-0.00309807,0.00227714,0.00556893,-0.00621682,-0.00999693,0.00257882,-0.00295764,0.00838264,0.00283011,0.00503508,0.00639691,0.00258174,0.00298227,-0.00913024,-0.00631239,0.000976327,0.00270859,0.00694021,0.00499101,-0.00830576,0.000301255,0.00496668,0.00907343,0.00990612,-0.00098735,0.00125333,0.0026188,-0.00621659,0.00581086,-0.00168022,0.00467156,0.00770171,-0.00606144,0.00101648,0.00153971,0.00130671,0.00138077,0.00191866,0.00364413,0.00734347,-0.00920344,-0.00250249,0.0055425,0.00639479,0.0093923,0.00911323,0.00846206,0.00176927,-0.00968899,0.00381999,-0.0036038,0.00213155,-0.00773807,-0.00749522,0.00149481,0.00258805,-0.00313616,-0.00751743,-0.00270884,0.000677011,-0.00701349,0.00423942,0.00464119,0.00205186,-0.00757211,-0.00434297,0.00956213,-0.00528804,-0.00678932,-0.00239257,0.00120336,-0.00652481,-0.000653612,0.00641836,-0.00320612,-0.00253114,-0.00206451,0.0050063,-0.00530394,0.00770755,-0.001263,-0.00410503,-0.000935904,-0.0016144,0.00475424,-0.00413757,0.00409968,0.000813778,-0.003516,-0.000684617,0.00318286,-0.00546503,0.00176595,0.00798761,-0.00345704,0.00310692,-0.00698253,0.00786742,0.00726668,-0.00610609,0.00647911,0.00869671,-0.0102226,0.00493981,0.00905341,-0.00866059,-0.00221401,-0.00705552,0.00563202,-0.00518198,-0.00927026,0.00261857,0.0102236,0.00619028,-0.00500736,0.00278243,0.000286317,-0.00269092,-0.00192534,0.00526048,-0.00384523,0.0019166,-0.000168664,-0.0068161,-0.00957599,0.00624835,-0.00180626,0.00908214,-0.00671495,-0.00555383,-0.00140384,0.00139804,0.00278124,-0.00188757,-0.00851478,0.00398478,0.0012295,-0.00630341,-0.00952198,-0.00436802,-0.00338735,0.00212123,-0.00115643,0.00177766,0.001142,-0.00823629,-4.29704e-05,-0.00883338,-0.00517808,-0.00723274,0.00512165,-0.00247673,-0.0012588,0.00175619,0.00887346,-0.000459136,0.00151112,0.00112727,-0.00775375,0.0020519,-0.00491523,-0.00259101,0.000190842,-0.00661297,-0.00177825,0.00132366,0.00164712,0.00821531,-0.0071802,-0.00971586,-0.00537594,0.00500043,0.00750522,0.00550161,-0.00237336,0.00855734,-0.00567498,-0.00707913,-0.00312493,0.0062003,-0.0080973,0.00518421,0.00181461,-0.00533999,0.00259277,-0.00211547,0.00863924,-0.00885874,-0.00607419,-0.00655022,-0.00332078,0.000683864,-0.00153777,-0.00238183,-0.00774968,-0.00809881,-0.00487656,0.00272288,0.00478573,-0.00160405,0.00650355,0.00453317,-0.00976631,2.8198e-05,5.80718e-05,0.00502352,0.00858648,0.00034812,0.00845716,-0.00902265,0.00520684,0.00854599,0.00968899,-0.00625354,-0.00952874,-0.0012528,0.00653647,0.0098955,-0.000336667,0.00998393,0.0068692,0.000956472,-0.0069376,0.00631877,0.00347068,-0.0064497,-0.00395643,-0.00321557,-0.0058749,-0.000788648,-0.0011141,-0.00449985,0.00170553,-0.0055303,-0.00312572,0.00150214,-0.00600814,0.000951648,-0.00961767,-0.00117758,0.00376756,0.00518441,0.0046897,-0.00341676,0.00890571,-0.00129438,-0.00991931,0.00881656,-0.00781236,-0.0018639,0.00192949,-0.00544631,0.0013985,0.00500787,0.000512723,-0.00208195,0.00940645,0.00585321,-0.00888172,0.00794399,-0.00599937,-0.00770468,0.0041181,-0.00133846,-0.0020463,0.000865588,-0.00521454,0.00919312,0.00914886,-0.00689514,0.00343903,0.00356445,0.000351257,-0.00438904,-0.00460663,-0.00915405,0.00938568,-6.65283e-05,0.000960999,0.0051001,-0.000935364,0.00263489,-0.00454559,0.0053894,-0.00279938,0.00527771,-0.000813904,-0.00422363,-0.00339386,-0.00557556,-0.00253143,0.00532349,-0.00490631,0.00163757,0.000614319,0.00809326,-0.00452423,0.00347961,0.00393585,0.00314819,0.00556488,0.00151306,0.00774567,-0.00544922,-0.00182648,0.00230042,-0.00264374,-0.00863647,-0.0088858,-0.00259583,0.00308014,0.00764893,0.0071994,0.00338684,0.000229797,0.00246948,-0.00575836,0.00181091,0.00911774,-0.000112305,0.00505341,-0.000761108,-0.00494354,0.00896606,-0.0025528,0.00723328,0.00835846,0.00376709,-0.00576447,0.00235657,0.00432781,0.00337171,0.00323714,0.00616387,0.00332205,-0.00820645,-0.00276269,0.00525783,-0.00942672,-0.001878,-0.00588991,-0.00887209,-0.00356226,-0.00353682,-0.00341178,0.000377859,-0.0037291,0.0058011,-0.00747783,-0.00539041,-0.00969933,-0.00976392,-0.00523546,0.000304266,0.00388191,-0.00112631,0.00105069,0.00906516,0.00736475,0.005689,-0.0057689,-0.00250518,-0.00401482,0.00979282,0.00215718,0.00707791,-0.00990738,-0.00471566,-0.00243586,0.00441095,-0.00495891,-0.00885538,-0.0016972,0.00110356,0.00106368,-0.00852063,0.00722511,-0.00636509,0.00351241,-0.00461344,-0.00793191,0.0036469,0.00273672,0.00685239,0.00571616,-0.00237579,0.00397337,-0.0049811,0.00590999,0.00716583,-0.00238549,-0.00613219,-0.00450474,0.00887645,-0.00115422,0.00233791,0.00244315,0.00422625,0.00802247,0.00515913,-0.000861784,-0.000271953,-0.00910872,-0.00957099,0.00367155,0.00746815,-0.00305858,-0.00733195,-0.000710869,0.00317454,0.00195032,-0.00861084,-0.00707847,0.00882,0.00660688,0.00976956,-0.00218906,-0.00860288,-0.00460292,-0.00265731,-0.0081975,0.00160388,-0.000969972,0.0080796,-0.00188905,-0.00356425,-0.00714522,0.00157194,0.0036862,-0.00251573,-0.0024149,0.000979621,0.00179327,-0.00832793,-0.00230815,-0.00421642,-0.00933862,0.00978002,0.0039182,0.00050808,-0.00776627,0.0087633,-0.00799186,-0.00668718,-0.00519968,-0.00938304,0.00137412,-0.00127777,-0.00847914,0.00105346,-0.00219155,0.00622579,-0.000567373,-0.00796054,-0.00794988,0.00901982,0.00170222,0.00014779,-0.00156219,0.00667358,0.00639496,0.00730408,-0.00197113,0.00323242,0.00603485,-0.000502319,-0.00407928,0.00770142,-0.00149323,0.00850769,0.00242584,-0.00585693,0.00662323,-0.00910339,-0.00714325,0.00161987,-0.00180328,0.00822693,0.00752594,-0.00580566,0.00603973,0.00706116,-0.00825409,0.000928955,0.00796478,-0.00103821,-0.00417084,-0.00411377,0.00678436,0.000491333,-0.0049118,-0.00187134,-0.00968903,-0.00678772,0.00983551,-0.00828125,-0.00864288,0.00368713,0.00538361,0.00571899,0.00773529,0.00347839,-0.00795502,-0.00580811,0.002258,0.00914856,0.00513214,-0.00380005,0.00273773,0.00226013,0.00495758,-0.00419434,0.001987,0.00937561,-0.0031662,0.00207153,-0.0021817,0.0020575,-0.0089267,0.00906006,-0.00695587,-0.00313171,0.00314906,-0.00408222,-0.00450479,-0.00469491,-0.0072443,0.00667734,-0.0019426,0.00417661,0.00605585,0.00987129,-0.00197774,-0.00514251,-0.00701744,0.000482988,-0.000921825,0.00348816,0.00885506,-0.00285421,0.00857692,-0.00749312,-0.00647991,0.00345568,-0.000661819,0.00801749,-0.00682491,0.00939594,0.00875463,0.00159843,-0.002324,0.00850327,0.000508446,0.00935651,0.00193074,-6.23486e-05,0.00195009,-0.00622305,0.00710067,0.00726915,0.00592968,0.000906073,-0.00191838,0.000445984,0.00979338,0.00194285,0.00517288,-0.00688718,-0.00276179,-0.00570101,0.00326499,0.00428219,-0.00432246,-0.000911565,-0.00649903,-0.00237462,-0.0021619,0.00289552,0.000804134,0.00306832,0.00117429,-0.00319434,-0.00451938,-0.0057652,0.00931883,-0.00170764,-0.00746063,0.0099939,0.00955902,0.00843689,-0.00724457,-0.00532227,-0.00517609,-0.00624451,0.00127228,-0.00272827,0.00292084,0.0058905,0.0084024,-0.00816162,-0.00333771,0.00140442,0.00945831,-0.00255981,0.00386078,0.00185974,0.0047525,-0.00186035,-0.0026712,-0.00618103,-0.000402527,0.00299927,-0.00512115,0.0088446,0.00430573,0.00608154,-0.000676575,0.00349915,-0.00581024,0.00644897,-0.00152496,-0.000654907,0.00956207,0.00816406,0.00514618,0.00294495,-0.00426483,0.000289307,-0.00285065,0.00586121,0.00302155,-0.00311279,-0.00270294,0.00465637,0.0067337,-0.00297974,-0.00659821,0.000892944,0.00718414,0.00475098,-0.00172394,0.00113342,0.00968536,0.00914185,0.00973236,-0.00305969,0.00454987,0.00425537,-0.00941681,0.0048761,0.00714442,0.00923814,0.00878427,0.00668484,-0.00258482,0.00773437,-0.0033666,0.00833529,0.00141956,0.00957895,-0.00730603,0.00218157,0.00899958,0.00835433,-0.00102388,0.00397546,-0.00488606,0.00278965,0.00418405,-0.00380342,0.00092453,-0.00229875,0.000596032,0.00486931,-0.0087567,0.00136362,0.00568322,0.00117233,-0.00403321,0.00868555,0.00315357,0.00259019,-0.00862002,-0.00172217,0.000248572,0.00973163,-0.00322478,-0.00622158,0.00944072,-0.00998468,-0.00153814,0.00516483,0.00947196,-0.00529374,0.00620012,0.00555479,0.00213774,-0.000210936,-0.00502936,-0.00511946,-0.00376094,0.00779191,0.00591062,-0.00312039,0.00410609,0.0043172,0.00343669,5.256e-05,0.00312129,0.00182288,-0.0012328,-0.000633054,-0.0030281,-0.00346381,0.00664093,-0.00668579,-0.00727692,0.0095697,0.00748199,0.00612305,0.00361298,0.00801331,0.00662384,0.00684204,0.0073349,0.00327332,-0.00562103,0.00953369,0.00670135,-0.00808777,0.00605988,-0.0067395,0.00952484,-0.00450745,0.00197906,0.00208496,0.00861786,0.000576782,0.00744904,0.00506958,0.00179291,-0.00127258,-0.00721771,-0.00372314,-0.00813751,0.00650696,-0.00670868,-0.00523071,0.0066391,0.00547791,0.00928864,0.00460937,-0.00106476,0.00220276,0.00608673,-0.00514038,0.00656342,0.00824402,-0.00600189,-0.00041748,-0.00766388,0.000164185,0.00833527,-0.00215942,0.00406586,-0.000474243,0.00941071,-0.00630371,-0.00543488,-0.00710876,0.00253693,-0.00378784,0.00164642,-0.00817688,-0.00197357,-0.000549316,0.00812225,-0.00711609,-0.00941617,0.00180132,0.00121191,-0.00306739,0.00164235,0.00807664,-0.00425219,-0.00717575,-0.00275647,0.00953323,0.00779809,0.0100617,0.00568697,-0.00330171,-0.000720171,0.00451459,0.00206019,0.008749,-0.000436637,0.000214445,0.00795373,-0.00831886,0.00143904,0.00107992,0.00801042,-0.00724767,0.00207428,0.000427131,-0.00592201,0.00956749,0.00722302,-0.00351845,0.000414355,-0.00361044,-0.00155887,0.00638957,0.00676875,0.000862107,-0.0063696,-0.000931174,-0.00193428,0.00887921,0.00828177,0.00595151,0.00683644,-0.00170856,0.00727303,0.00539603,0.00668378,0.00509799,-0.00417081,-0.00448844,-0.00124381,-0.00324315,-0.00923476,0.00734404,0.00729044,-0.00201171,0.00505144,0.00694715,0.00234644,0.00444202,0.00428616,-0.00540304,0.000742493,-0.00336548,-0.00411285,-0.00929749,0.00220856,-0.00243164,-0.00759796,0.00227112,-0.0080246,-0.00358765,-0.00825104,0.000656128,0.00035553,0.007229,-0.00325958,0.00242004,0.00266144,0.00908081,-0.0048111,0.00912537,-0.000794373,0.00603027,-9.30786e-05,0.00733459,-0.0046994,0.00713989,0.00870697,0.00861023,0.00125885,0.00647217,0.00440155,0.00951477,-0.00760712,0.0030896,-0.00519684,-0.00838928,0.0090152,0.00105469,-0.0072757,0.00146057,-0.00356171,0.00942993,-0.00402252,-0.00937317,0.00497467,0.00227783,0.00737518,-0.004328,0.00993683,-0.00133911,-0.00527008,-0.00184143,-0.00836273,0.0026416,-0.00914581,0.00464905,-0.00461151,0.00328247,-0.00643951,0.00670593,-0.00849701,-0.005354,0.00566132,0.000891724,-0.00490977,-0.00475993,-0.00610759,0.00872537,0.00705452,-0.0103251,-0.00708828,-0.00273923,-0.00877076,0.0102696,0.00134717,-0.001925,0.00214622,0.00507627,-0.00130449,0.0036926,0.00732522,-0.00482838,-0.00314625,0.00291094,-0.00488984,0.00584149,0.00398867,-0.00341591,0.00646785,0.00705373,0.000339674,0.00287781,-0.00786133,0.0100757,0.00765828,0.00937801,0.00865637,-0.00628007,-0.00518909,0.00256749,-0.00304857,0.00573492,-0.00369031,0.0092007,0.000636774,-0.00602653,0.00837898,-0.000680587,0.00837104,-0.0086424,-0.00937739,-0.00900194,-0.000943514,-0.00161834,-0.00296406,0.00573161,-0.0100863,-0.00419936,-0.00255032,0.00825774,0.00900637,-0.00434168,0.00880357,-0.00965129,0.0045887,0.00902774,-0.0069265,-0.00673012,-0.00509879,-9.25522e-05,-0.000994302,-0.00855614,-0.00297258,0.00904037,0.00105354,-0.00372453,-0.00301828,0.00553421,-0.00332486,-0.00154466,0.00657352,0.00474773,0.00655127,-0.0068866,-0.000604961,0.00508285,0.000957624,0.00278409,-0.00369001,0.0102911,-0.00852512,-0.00614907,0.00299938,0.00903633,-0.0047568,-0.0011083,0.0100558,-0.00314536,-0.00289441,-0.00747028,-0.00840351,-0.00837583,0.00301525,-0.00226348,0.00862663,-0.00271192,0.00610993,0.0010338,0.00701335,0.00410577,0.0054091,-0.00750515,-0.00428824,0.00523519,0.00262848,-0.0086056,-0.00830514,-0.000561767,0.00532993,-0.00284842,-0.00592237,-0.00825557,0.00694871,-0.00385863,0.00786183,-0.00955006,0.00550912,0.0015186,0.00477395,0.010036,0.00329412,0.00943931,-0.000795119,0.0089412,0.00787866,0.000115627,-0.00822306,-0.00776227,-0.00737461,0.00160583,0.00746562,0.00718505,-0.00406294,0.00388871,-0.00286355,-0.00926358,-0.000955553,0.00525879,-0.00409006,0.000402132,-0.00774029,0.00691311,0.0019938,-5.5004e-06,0.00462513,-0.00494712,0.00399023,-0.00149631,-0.00408548,0.00198884,-0.00865392,0.00910755,-0.0084947,0.00151423,-0.00138712,-0.00707851,-0.00534015,-0.00203037,0.00689285,-0.00750522,-0.00118098,-0.00188425,-0.000406005,-0.00107291,0.00689177,-0.00846489,0.00851112,0.00522997,-0.00313712,-0.00310548,0.0102047,0.00678621,-0.00178831,-0.00653265,0.00306998,-0.00613829,0.00361576,0.00880481,-0.0077146,-0.00841792,0.00898473,-0.00362736,0.00831932,-0.00514146,-0.000844247,-0.00873711,0.00899435,0.00248402,0.00239638,-0.00704743,-0.00924449,0.000339606,0.0107321,-0.00925701,0.00321777,-0.00433467,0.000171304,-0.00419588,-0.00799037,0.00296486,-0.00319052,0.00277132,-0.00445634,0.00182089,0.00711309,-0.00276145,-0.00592452,-0.00620559,0.00276446,0.000681192,-0.0096428,-0.00852447,0.00190251,0.00708351,-0.0023115,0.00726911,0.0103092,-0.00417876,-0.00922867,0.000370854,-0.00892703,0.00353232,0.00851645,-0.00658919,-0.000999915,-0.000403457,-0.00210133,-0.00126196,-0.00474536,-0.00467352,0.00763193,0.00777025,-0.00293418,0.00682678,-0.00684941,-0.000462207,-0.00421524,-0.0040001,-0.00401325,0.000878491,0.00366607,0.0079615,0.00116849,-0.00282491,-0.00331394,-0.00401702,-0.00258776,0.00523944,0.00150457,-0.00281258,0.00363476,0.00173551,0.000943999,-0.0094285,-0.0050235,-0.00720367,-0.00889056,0.00531493,0.00275109,0.0102997,-0.00982345,-0.00611005,-0.00686054,-8.48674e-05,-0.00100834,0.00423977,0.00104461,0.0075924,0.00769319,-0.00812122,0.00950971,-0.00619659,0.00742273,-0.00938027,0.00145501,0.0117815,-0.00711676,0.0023996,0.00885233,0.0110791,-0.00577339,-0.00487042,0.00759167,-0.00932913,-0.00914071,-0.00531408,-0.00450725,-0.00130916,0.00315817,0.00801644,0.00173756,0.00355289,0.0072948,0.0040597,0.00925078,-0.00220396,0.00110599,0.0019233,0.0022916,-0.000957291,-0.000642667,0.00373059,-0.00549144,-0.00513591,0.0104397,-0.00877454,-0.00461009,0.00912942,-0.00810961,0.000193988,-0.00939093,-0.000300475,0.00773623,0.00864904,0.00290962,0.00591972,0.00438007,-0.00669567,0.00549916,-0.00936387,-0.000877868,0.00632804,0.00805153,0.0054946,0.00464908,-0.00706872,-0.00248949,0.00020706,0.00585402,-0.00675963,-0.00898718,-0.00167922,-0.00699587,-0.00965192,-0.00914307,-0.00164745,-0.00625363,0.00719512,-0.00178681,-0.00722178,0.00797268,-0.00212195,0.00504213,-0.00174477,0.00263382,-0.000875749,0.00927818,0.00856401,-0.0012856,-0.00993607,0.00772735,-0.0106107,-0.00776758,-0.00149067,0.00875582,-0.00606656,0.00416382,-0.00186227,-0.00266407,-0.00890434,-0.00825999,0.00191137,-0.00566258,0.000448403,0.0051557,-0.00454263,-0.00128252,0.0103323,0.000244196,0.000310046,-0.00656833,0.00501833,0.00899529,-0.00950432,-0.00959478,-0.000578779,-0.000940082,0.00657591,0.00773435,-0.00399814,-0.00536567,0.00242162,0.000926545,-0.00489018,-0.00930832,0.00990437,-0.00187736,0.00756683,0.00452585,-0.000927584,0.00885992,0.00666592,-0.000684367,0.00608113,0.007954,-0.00793678,0.00290718,-0.00557247,-0.00271406,0.00724809,0.00711926,0.00852699,0.000416862,0.00196661,-0.00995006,0.00058541,0.00799815,0.00986625,-0.00420863,0.00758852,-0.00337693,0.00970981,-0.00900754,-0.00951639,0.00568251,0.00591268,0.00843645,-0.00386171,0.000528359,0.00809895,0.00670854,-0.00345813,-0.00886077,0.00880441,0.00703089,0.00734004,-0.00720205,0.00878877,-0.000779175,-0.00862548,0.00717514,-0.00813313,-0.00444299,-0.0067447,-0.00238509,0.0055047,-0.00708175,0.00622177,-0.00393693,0.0050186,-0.00518823,0.00644745,-0.00295015,0.00985151,0.00844458,-0.00471335,0.00110216,0.0035965,0.00747211,-0.00060706,-0.00664096,-0.00560407,0.00934376,-0.00981653,0.00424685,-0.00204334,-0.00295316,0.00448945,0.00935693,-0.00764272,-0.00198205,0.00373074,0.00788586,0.00181855,0.00513563,-0.00564691,0.00653422,-0.00433963,-0.00376535,0.00829309,-0.00477592,0.00714568,-0.00528441,0.00139623,0.00866904,-0.0034604,0.00748106,-0.00394219,0.00819206,0.0067991,0.00750728,-0.00140587,-0.0021769,0.0076957,-0.00646214,7.22803e-05,0.00886559,-0.00664774,0.00743698,-0.00195932,-0.00357124,0.00168309,-0.0026068,-0.00725857,0.000592424,-0.00159614,-0.00399327,-0.00844739,0.00685955,-0.00840942,0.00112027,0.00633453,0.00521714,-0.00453625,-0.00429268,-0.00694487,-0.00914525,0.0090542,0.00650649,-0.00535001,0.00612116,-0.00297007,0.00772786,-0.00448724,-0.00755615,0.00773399,-0.00112447,0.00732434,0.00384233,-0.00432575,-0.00134453,0.00797619,-0.00589358,-0.000344072,-4.93805e-05,-0.000827936,0.00302362,0.00282262,0.00791572,0.0056925,-0.00229495,-0.00416601,0.00714943,0.00309978,0.00585871,0.0108143,-0.00201189,0.00190349,0.00594107,0.00866813,0.00883494,0.00816827,-0.00490422,-0.00699465,-0.00984496,0.00700268,0.00118328,-0.00628514,0.00553287,0.00997264,-0.0089739,0.00480628,-0.00810192,-0.00516838,0.00568726,0.00151821,0.00033605,0.000478181,-0.00143852,-0.00837029,0.00289567,-0.00355859,0.00139203,0.00435481,-0.00473941,-0.0114404,-0.00175488,-0.0102384,0.0027059,0.00373838,-0.00874969,-0.00676392,-0.00829254,-0.00363342,-0.00415863,-0.00520508,-0.00365265,-0.00643982,-0.00126678,0.00426392,-0.00618073,0.00757019,-0.00976166,-0.00429443,0.00693573,-0.00504089,0.00566925,0.00818237,0.00350922,-0.00271057,0.00533844,0.00575684,-0.00364777,0.00112366,-0.00544159,-0.00250854,0.00327728,-0.00197571,0.00364166,-0.00255127,0.00709686,0.00455383,0.0079007,0.00469116,-0.00437653,0.00227478,0.00764801,0.00328125,0.00166962,-0.00225037,0.00819611,0.00228149,0.00304779,0.00254089,-0.000142517,-0.00424561,0.0025705,-0.00678894,-0.00205536,0.00276245,0.00805023,-0.00867737,0.00277008,0.00736816,-0.0077005,0.00343811,-0.000353699,-0.00136597,-0.0068692,0.00112,-0.0011142,-0.00937744,-0.00664337,0.000930786,-0.00394033,0.00236701,0.00144491,0.00475194,-0.00924853,-0.00130243,0.00860082,-0.00170789,0.00870107,0.00604924,-0.00722852,-0.00641532,0.000215825,0.00225168,-0.000588554,0.00731407,0.00165238,0.00353032,-0.00647376,0.00184096,-0.00860442,-0.00512467,0.00972298,0.00198892,-0.00429361,0.00641024,0.00420327,0.000197766,0.00570806,-0.00991122,0.00156207,-0.00609953,-0.00496617,0.0070632,0.00755358,0.00298099,0.00575912,-0.00141269,-0.00474999,-0.00528781,0.000504077,-0.00359449,0.00510742,0.000810769,-0.00695165,-0.00535298,-0.00280957,-0.00128339,-0.00367397,-0.0096363,0.00120364,0.00817298,-0.00892756,0.00963994,0.00795295,-0.00341695,0.00390202,-0.000258691,-0.00358986,-0.00358171,0.00318077,-0.00359937,0.0100404,0.00257352,0.00514054,-0.00329153,-0.0055619,-0.00256113,-0.0105855,0.00624591,0.00550461,0.00858726,0.00398228,-0.00574619,-0.00232112,0.00491075,-0.00374459,-0.00662522,-0.00203317,0.00463823,0.00263556,0.00454985,0.0101032,-0.00857135,0.00271366,0.0092436,0.00745543,0.00754955,0.0019424,0.000374087,-0.0105129,0.0081333,-0.00888078,0.00753391,0.000381316,0.00743715,0.00687949,-0.00696189,0.00351535,0.00813495,0.00767443,-0.0010479,-0.00540287,-0.0038878,-0.000837287,-0.00312036,-0.00745541,0.00485957,-0.00948094,-0.00139288,-0.00290095,0.0095232,-9.16193e-05,0.00287858,-0.00148293,0.0105729,0.00494551,-0.00315272,0.00908038,-0.00488717,-0.00742171,0.0055066,0.00468884,-0.00414607,-0.0081958,0.00561905,-0.00876875,0.00920887,0.000291435,-0.00428607,-0.00623812,-0.00441395,-0.00442521,-0.000401389,0.00692424,0.00261692,0.00406667,0.00598783,0.00747489,0.0013038,-0.00319753,0.0101405,-0.000704997,0.00802692,0.00830148,0.00945762,0.00983233,0.00536309,-0.00172498,0.00882797,-0.0088867,-0.00169995,-0.00635306,-0.00141479,0.00134168,0.000329578,0.00362991,-0.00974152,0.00369631,0.00681814,0.00374355,0.0047464,0.00497422,-0.00107672,-0.0047061,0.00540641,-0.000254539,0.00401773,0.00139987,0.00120447,0.00463803,-0.00660164,-0.00572033,0.00739485,0.00215136,0.00421559,0.00802255,0.00157449,0.00151848,-0.00280043,0.00327487,0.00838603,-0.00582809,-0.00160111,0.00640265,-0.00298793,-0.00142092,0.000731662,0.0064178,0.000946254,-0.00256485,0.000801203,0.000430871,-0.000902012,-0.00254323,-0.0016101,0.00548698,-0.00365821,-0.0052412,0.00316974,0.00922086,0.00393822,0.00197138,0.00218494,0.000878141,-0.00833467,0.00714331,-0.0048408,-0.00139697,0.00176203,-0.00334999,0.00455503,-0.000168091,-0.00652369,-0.000880773,-0.00664036,-0.0103593,0.00087162,-0.00467395,-0.00128233,-0.000688583,-0.000555393,-0.00642747,-0.00885287,0.00623826,0.00117341,-0.00817675,-0.00560753,0.00694738,-0.00563922,0.00660918,-0.00517852,0.0116462,-0.00746537,0.00274229,0.00788548,0.00172403,0.00235398,-0.0085553,0.00390831,0.00100089,0.00320262,0.00761969,0.00875667,0.00706642,0.00519846,0.00672487,0.00758517,0.00557473,-0.00643193,-0.00228008,-0.0106537,0.00407439,-0.000173371,0.00897212,-0.00126892,0.00280794,0.00890185,0.00655832,0.00649682,-0.00013684,0.00082395,0.00561243,0.00705674,-0.000756234,0.00552206,0.00289786,0.00916559,-0.00670989,-0.00169207,0.000192984,0.00781989,-0.00618239,-0.00539714,0.00471645,0.00849163,0.00569797,0.00313428,-0.00804134,-0.00416561,-0.00803682,-0.00904615,-0.00171042,0.000618674,0.00248363,-0.00835335,0.00550264,-0.000749339,-0.00701959,0.00256088,0.00288351,-0.00510702,0.00423974,-0.00818058,0.00314916,-0.00629366,0.00200046,0.0069727,0.00451132,0.00686262,-0.00449156,-0.0007288,0.00648079,0.00869567,-0.000536219,-0.00764948,0.00238982,0.00567451,-0.00436095,0.00727232,0.00071185,0.00065146,0.00951126,-0.00564386,0.00123635,0.00634174,-0.0108234,0.00529401,0.00429089,-0.00208167,-0.00675119,0.00296516,0.00155692,-0.000570583,-0.000775872,0.00978573,0.00220279,-0.00395268,-0.0052559,-0.00725954,0.00655931,0.000285435,0.008714,0.00995766,-0.00272117,0.00540457,-0.00399094,-0.00445686,0.000272112,-0.00143486,-0.00336383,-0.00293751,-0.00914461,0.00142992,-0.00206716,0.0043698,0.00374,0.00772649,0.00976704,0.0080012,0.00509934,-0.00642191,0.004536,0.00982859,-5.45855e-06,6.30879e-05,0.00724487,-0.0076234,0.00227285,-0.00393829,-0.000732752,0.00571097,-0.00794272,0.00983282,-0.00621461,0.00355956,0.00656774,-2.38391e-05,0.00263203,0.00456945,0.00062885,0.00750644,0.00900378,-0.00505075,0.00129295,-0.00220307,-0.00166045,0.000254387,0.00837677,0.00619556,-0.00146327,-0.00343149,0.00568862,0.00496497,0.00810577,0.00235718,0.000281677,-0.00216858,0.00488434,0.00235352,0.00460907,-0.00903748,-0.00503632,0.00526001,-0.00323151,-0.00408997,0.00865631,0.00513916,-0.000427551,0.00923645,0.00127472,0.00105347,0.000833435,-0.00749573,-0.00686859,-0.00293457,-0.00663605,-0.007724,0.00953888,0.00223755,-0.0050235,0.000114136,0.000809631,-0.00936768,0.00848358,-0.00741882,0.00225616,0.00131226,0.00169769,-0.00876038,-0.00580902,-0.00166016,0.00743134,0.00265198,0.00192657,-0.00922241,0.00349701,-0.00161926,-0.00422455,-0.00731201,-0.00729279,-0.0050116,-0.00894989,0.00313354,0.00287445,-0.00596252,0.00806305,0.00617676,0.00681122,0.00209045,-0.00787323,-0.00911987,0.00233002,-0.00929016,-0.00644623,-0.00869385,-0.00775665,-0.00354187,0.00656342,0.00646798,0.00367523,0.0010609,-0.006362,0.00139744,-0.00871681,-0.0085203,-0.000212408,0.00257233,-0.00894111,-0.0023145,-0.0058477,0.00712358,0.0077092,-0.00340829,-0.00764281,-0.00777846,0.0067713,-0.00742279,-0.00619722,0.00171085,0.00162234,0.00846686,0.00530291,0.00716266,-0.00995635,-0.00163633,-0.00262074,-0.000939231,-0.00251727,-0.00323447,0.0036732,-0.0011103,0.00794283,0.00684414,0.00721925,0.00893999,-0.00474349,-0.00476369,0.00996049,0.0010708,0.000990683,-0.00742421,0.00405009,0.00743783,0.00194317,-0.00326641,0.00433676,0.00565463,-0.00944503,0.00697741,-0.00836632,0.00413113,-0.00229254,-0.00915804,-0.00871183,0.00781073,0.000578582,0.00015566,-0.00830085,-0.00952927,0.00363576,-0.00735909,-0.00714728,-0.00481303,-0.00603111,0.00898183,0.00858371,0.00420542,0.00367538,-0.00445177,-0.00952648,0.0052858,-0.0102894,0.0037259,0.00412012,-0.00603452,1.88527e-05,0.00807908,0.008634,0.00706059,-0.00267488,-0.00362942,0.000638419,-0.0100768,-0.00455693,0.00841085,0.00615431,-0.00441169,-0.00911624,-0.000808627,-0.00235,-0.0086397,-0.0068498,0.00683555,-0.00879519,-3.26823e-05,-0.000674286,0.0064455,0.00539914,0.00346214,-0.0102904,-0.00837548,0.00324319,-0.00525782,0.00338925,-0.00953367,-0.00233026,0.00577075,-0.00432795,0.00124672,0.00319962,-0.00630681,0.00358934,0.00350041,-0.000477625,0.00608467,-0.00666831,0.00245457,-0.00514781,0.00810688,0.00419555,-0.00500909,-0.00391515,-0.00347277,0.000860971,-0.00527124,0.00106496,0.00945994,0.00842721,0.00233774,0.00865731,-0.00812796,0.00091519,0.00427505,0.00525939,-0.0081564,-0.00410936,-0.00449624,-0.000139318,0.00486413,-0.00242947,0.00625883,0.00885004,0.00772066,-0.00902816,0.00583418,-0.00781823,0.00511925,-0.0064359,-0.00486006,-0.00681786,0.00791974,-0.00303939,0.00623259,0.00535707,0.00916231,0.0112744,-4.57082e-05,0.00327839,0.00705139,-0.0035835,-0.00814201,0.00612831,0.00470616,-0.0113862,-0.00593478,0.00112916,-0.00515015,-0.00923495,-0.00546997,-0.00457571,0.00933517,-0.00405611,-0.00936441,0.00649453,0.0060483,0.002213,0.00529197,-0.006871,-0.00715686,-0.00643744,0.00166523,0.00376775,-0.00659978,-0.00745027,-0.00423397,0.00583066,0.00668294,0.00133479,0.000301558,-0.00449613,0.00819485,0.00582917,0.000413886,-0.00555766,0.00515766,0.00205397,-0.000481445,0.00544111,0.00426338,0.00582836,-0.00843529,0.000532232,0.00110092,0.000421106,-0.0102485,-0.00624218,-0.00723071,-0.00797487,0.000243855,0.00717386,0.00461465,-0.00406393,0.00538531,0.00563679,0.00721794,0.00905945,0.000405879,-0.0018219,-0.00810829,-0.0068387,-0.00234058,0.000359769,-0.00183984,-0.00234865,0.00339911,-0.00662389,-0.00856194,-0.00574949,0.0014526,0.00329367,0.00063786,0.00278047,0.00367114,-0.00179899,-0.00205838,0.00220019,0.0062626,-0.00563975,0.00426978,0.00410033,-0.00870159,-0.00797197,0.00380392,-0.00031036,0.00646259,-0.00151933,0.00534466,0.00663068,0.00070637,-0.000575873,0.00120163,0.00698127,-0.00777478,-0.00411079,-0.00701277,-0.00925087,0.00298819,0.00423133,0.00369371,0.00907717,-0.00110055,-0.00918231,0.00145378,0.000262558,-0.00799227,0.00599482,0.00200067,0.00712027,-0.00188281,0.00558591,0.00319705,-0.00260139,-0.000823122,0.00855864,0.00947652,0.00432792,0.00171193,0.00151149,0.00996774,0.00455506,-0.00267111,-0.00530094,-0.00140745,0.0025162,0.00255797,0.00226332,-0.00503413,0.00473061,-0.000982881,0.00612751,0.0018726,0.0040774,-0.00643451,-0.00961004,0.00957194,-0.00041751,-0.00333298,0.00575705,-0.00779994,-0.00720229,0.00646477,0.00759264,0.00747631,-0.007958,0.00329006,-0.0039183,0.00118713,-0.0100305,-0.00626861,-0.00332539,0.0011634,0.00455114,-0.00947427,-0.000362172,0.00185999,-0.00154319,0.00902566,0.00020945,0.00237465,-0.000345687,-0.00867342,-0.00103238,0.00683323,0.000922226,0.00393355,0.00100538,0.0037732,5.02023e-05,-0.00209453,-0.00336088,0.00809424,-0.000174716,-0.00930437,0.00123564,-0.00151099,0.00804469,0.00342881,-0.00535495,-0.00103896,-0.00289497,0.00265578,0.00301734,-0.00139462,0.00566152,-3.21952e-05,-0.0037696,-0.00895839,-0.00386502,-0.00854432,0.00965022,-0.00383176,-0.00368593,-0.000409583,0.00355393,-0.00235539,-0.00142844,-0.00955799,0.00281492,0.00455885,0.00160844,-0.00436562,-0.00138238,-0.00904808,0.00776119,-0.00829116,0.00589332,-0.00458713,0.00492659,-0.000211625,0.00483943,0.00289673,0.00581611,0.00731745,0.000850793,0.00206992,0.00788931,0.00537943,0.00381704,0.00694238,-0.00526135,-0.00940103,0.0100233,-0.00343799,-0.00629529,0.00416049,-0.00119962,-0.00521082,-0.00186519,-0.00635663,-0.00381161,-0.00872205,0.00473976,0.00928233,-0.00791332,-0.000400363,-0.00297227,0.00831207,0.00169231,-0.00087545,0.00337978,-0.0070554,0.00588713,-0.0066716,-0.00464571,0.00840825,0.00952984,-0.007993,-0.00832804,0.00696238,0.00272192,0.00896396,-0.00495941,0.0057634,0.00179803,0.00285142,-0.00730616,0.00516016,0.00566689,-0.00164139,-0.00186999,-0.00776995,0.000753349,0.00437397,0.00904618,-0.00067187,-0.00319547,-0.0054864,0.00768794,0.00165357,0.0090696,0.00838997,0.00261881,0.00205208,-0.00161903,0.0100238,0.00636864,0.0058317,0.00966808,0.00818908,-0.00362025,0.00512237,-0.00693281,-0.00317287,-0.00363866,-0.00276453,0.00481609,-0.00473826,-0.00726935,0.00221381,0.00375757,0.00788012,8.72303e-05,0.00815151,-0.00354428,0.00372254,-0.00557326,0.00556457,-0.00771082,-0.0041736,-0.000484475,-0.00896076,0.00749246,0.00490365,0.00363725,0.00694226,0.00210041,-0.00705596,-0.00127433,-0.000693214,0.000694622,-0.00967934,0.00245317,-0.000378573,-0.00551752,-0.00858519,-0.00124843,0.00471919,-0.00136295,-0.00529489,-0.00558253,-0.00440316,-0.00696453,0.00379991,0.00228382,-0.00042645,0.00389797,0.00895745,0.00107825,0.00795921,-0.000251283,0.00375591,-0.00754092,-0.00323981,-0.00260043,0.0063026,0.00531061,0.00891496,-0.0031078,0.00202075,-0.00781555,0.00918674,0.00360204,-0.000605049,0.0098309,-0.0101704,0.00711646,-0.00804741,0.00283262,0.00861692,0.00408486,-0.000185688,-0.00294279,0.00546162,-0.00631537,0.00640388,0.00669977,0.00766313,0.00150212,0.000778321,0.00908015,0.00659811,-0.00198962,-0.00275483,0.00722647,-0.00100615,-0.00153223,-0.00527036,0.00880413,0.00634863,0.00314563,-0.00269277,0.00666941,-0.00481193,-0.00262738,-0.00592613,-0.00139791,-0.00290651,-0.0085241,-0.000970871,0.00744723,0.00864615,0.000742945,-0.00870071,0.000973936,-0.00862211,0.00551363,-0.00520186,-0.008072,-0.00822402,-0.00902777,-0.00119614,-0.00166744,0.00157191,0.00765597,-0.00269586,0.00285956,-0.0027304,-0.00924557,0.00931146,-0.00663015,0.000386668,0.000578601,-0.00105717,0.00262237,-0.0024883,0.00248058,-0.00478561,0.00846042,0.000212679,0.00672593,-0.00777076,-0.00628932,0.00503004,0.00870587,0.00900629,0.00611095,-0.00654254,0.00843512,0.00971131,-0.00136936,-0.0077179,-0.00829969,0.00304529,0.00872348,-0.007082,0.00857761,0.00361075,-0.00026945,-0.00831808,-0.00559715,-0.00977576,-0.000816112,-0.00935207,0.00919085,0.00666764,-9.92515e-05,-0.00388615,-0.00120158,0.00254995,-0.000550108,-0.000355944,-0.0067419,-0.00837658,0.00115197,-0.00245915,0.00764011,-0.00699748,-0.00744549,-0.00809575,0.00276593,-0.00953225,0.0064811,0.00899237,0.00369538,-0.00640464,0.000480683,0.000161451,0.000742084,-0.00379162,-0.00212049,0.00246573,0.00895636,-0.00266241,0.00625537,-0.00279143,0.00915248,0.00081271,-0.00162242,-0.00903646,0.00640957,-0.00379045,-0.00815738,-0.00498855,-0.00896246,-0.00267269,0.00993893,0.00644753,-0.00165804,0.00319493,0.000162863,0.0064326,0.00858918,-0.00209757,-0.00456592,0.0017611,0.00709293,-0.00950332,-0.0064601,0.00389215,0.00421999,-0.00494134,-0.002703,0.00941288,-0.00513512,-0.00932537,-0.00549532,-0.000111597,0.000168332,0.00137596,-0.00203486,0.00185131,0.00502594,-0.0037352,0.00552138,0.00688308,-0.000270861,0.00932956,-2.13786e-05,-0.00846399,-0.000374902,-0.000286862,0.00912342,-0.0025928,0.00500141,-0.00855856,0.00579964,-0.00900987,0.00118408,-0.0064335,0.00781083,0.00391682,-0.00152096,0.000186229,-0.00204353,-0.00727298,-0.00778947,-0.00969105,0.0040939,-0.00103248,0.00264464,0.00804232,-0.00104343,0.00922516,-0.00484741,0.00243642,0.000440832,-0.00496734,3.17821e-05,0.0075519,-0.00871593,-0.00703033,-0.00728485,0.00227905,-0.000733948,0.0046283,-0.00675629,-0.00897461,-0.00265656,-0.0034906,0.00707306,0.00268188,0.00325287,0.000206909,0.00451569,-0.00868896,-0.000193176,-0.00771667,0.000884094,-0.00402466,-0.00518219,-0.00569885,-0.00350922,0.000737305,0.00109833,-0.00717712,-0.00335175,-0.00534058,-0.00353912,-0.000588989,-0.00833099,-0.0081958,0.00371796,-0.00937195,-0.00313446,-0.00876587,-0.00931793,0.0080365,-0.00744965,-0.00298828,-0.00983429,-0.00180115,0.00403595,-0.00180054,-1.86157e-05,-0.00732239,0.00163483,0.00885986,0.00294159,0.00803528,0.000659485,0.00805542,0.00685883,0.00583435,0.00142242,-0.000151367,0.00454559,-0.00736267,0.00923615,-0.006698,-0.00618561,6.71387e-06,-0.00558685,0.00247803,-0.00252228,0.004505,-0.00773407,0.00643921,0.00334808,0.0076947,0.00310699,0.00924805,0.00423798,-0.00386169,-0.00775116,-3.2959e-05,-0.0020401,0.00139832,-0.00999603,-0.00734131,0.00732635,3.72314e-05,-0.00831512,0.0063855,0.000149841,-0.00638245,-0.00239594,0.00520996,0.00924286,0.00870178,-0.00692596,-0.00180542,-0.00758209,-0.00314758,0.00840729,-0.000598145,-0.00751251,-0.00536804,-0.00108368,0.00789429,-0.0027359,0.00360291,0.00491364,0.00773437,-0.000439758,-0.00967224,-0.00828827,0.00798462,-0.00281158,0.00636902,0.00962311,0.00270752,-0.00703888,0.00828918,-0.00603973,-0.00903442,-0.00530914,-0.00234924,0.00503571,-0.00317871,-0.00480988,0.00101624,0.00816193,0.00933716,-0.00772858,0.00994812,-0.00634857,0.00257568,0.00874725,0.00100891,-0.00318329,-0.00440063,-0.00756989,-0.00423889,-0.00202972,-0.0075293,-0.00386749,0.000767212,0.00242462,0.0022522,-0.00233307,0.00758972,0.000492249,-0.000993652,-0.000154114,-0.00720886,0.00748566,0.00179565,-0.00951813,-0.00206604,0.00371735,-0.00531738,0.00238739,0.00958069,-0.00550018,0.00672974,-0.00662506,-0.000706177,-0.00985443,-0.00800049,0.00625702,0.00363586,0.0059671,0.00955444,0.00884613,0.00416931,0.00227692,0.00345703,-0.00604523,0.00745667,0.00438751,0.00276978,-0.000604553,0.00506042,0.00261139,0.00155518,0.00798065,-0.00645691,-0.00773895,-0.00112427,0.00752289,-0.00553284,-0.00635101,-0.00120605,-0.00916534,-0.00560486,-0.00791229,-0.00962769,-0.00427155,0.00488953,-0.00211029,0.00767334,0.00501678,0.00251282,0.00636749,0.00975952,0.00651215,0.00882751,-0.00216644,0.000693359,-0.00697296,-0.00960388,-0.0023996,0.00953735,0.00237396,-0.00121887,-0.00401947,-0.009646,-0.00263458,-0.00945496,0.00828644,0.00220581,0.0058139,0.00725037,-0.00516937,0.00915527,0.000531921,-0.00454041,0.000925598,0.000264893,-0.00066803,0.00673523,-0.00311615,0.00959717,0.00502655,-0.00236023,-0.00198212,-0.0037854,0.00542816,0.00973572,0.0046402,0.00417969,-0.0066507,0.00958557,0.00206329,0.00255493,0.00660248,0.00875183,0.00059967,0.00540283,0.00800018,0.003797,-0.00443817,-0.00821411,0.00535492,-0.00371643,0.00726227,0.0057666,-0.00852081,-0.00722595,0.00101349,-0.00359253,0.00418549,0.00483093,0.00712799,-0.002229,0.00628632,0.00901672,0.000918274,0.00891968,0.00559418,0.00689392,0.00269684,-0.00608398,-0.00507843,0.00502502,-0.00222382,0.00182251,-0.00791901,-0.00502747,-0.00353119,0.00670166,-0.000115051,-0.00670105,-0.00591278,0.00761597,0.00614594,0.00156677,-0.00905609,0.00862793,0.00367645,0.0063385,-0.00764862,-0.00119995,-0.009711,-0.000823364,0.00862213,-0.00780518,0.00879608,-0.00335632,-0.00493134,0.00787476,0.00701019,0.000302124,-0.00799652,0.00990234,-0.00225616,-0.00328552,0.00473907,0.00734009,-0.00119049,-0.00255676,0.00358795,-0.00574951,-0.00698029,-0.000949097,0.00386261,0.00969604,0.00818695,0.00309998,0.00587555,-0.00226074,-0.00287628,-0.00384705,-0.00506073,0.00744263,-0.00235748,0.00977234,0.00136627,-0.00713135,-0.00744415,0.00052063,0.000469055,-0.00692017,0.00967621,0.00996033,-0.00743988,-0.00786133,0.0018161,0.00465393,0.00295197,-0.000892334,0.00678802,-0.00383606,0.00195709,0.00804932,0.00740448,0.00105286,0.004888,-0.00197388,-0.00852203,0.000883179,-0.00794281,-0.00689941,-0.00817902,0.00221741,0.00877716,0.00233521,0.00624603,-0.00338196,0.00536041,-0.00020752,-0.00243439,0.000647583,-0.00288055,0.00453491,-0.00640778,-0.00413147,0.00436676,0.000625,0.00713837,0.00884338,-0.00758514,-0.00287476,-0.00398346,-0.00886536,-0.00842377,0.00809814,0.00303925,-0.00069519,-0.00283661,-0.0073938,-0.00398102,-0.00508362,0.00948883,-0.00528809,0.00776825,0.00453186,-0.00613495,0.00347778,-0.00390045,-0.000286255,0.000604553,-0.00703369,0.00382538,-0.00297546,0.00501984,0.00223999,-0.00124176,-0.00197327,0.0074234,-0.00463867,-0.00628937,0.00928284,-0.00687225,0.00139282,0.00649506,0.00235535,-0.00755463,-0.00560303,-7.59888e-05,-0.00619324,0.000688782,-0.00656372,0.00181,0.00519958,-0.00182953,0.00257324,0.00496552,0.00309631,-0.00979706,-0.00912964,0.00720306,-0.000940552,0.00709869,-0.00760986,-0.00866486,0.00965149,0.00417023,0.00619507,0.00517426,-0.00356506,0.00173004,-0.00365234,0.0015329,0.00597229,0.00509064,-0.0080896,-0.00177643,0.00982605,0.00456451,0.0069458,-0.00194122,0.00455872,-0.00453583,0.000516357,0.00885101,-0.00826721,-0.00189789,-0.00331543,0.00341278,-0.00208923,-0.00220917,0.00451294,-0.00044342,-0.00534485,0.00484283,-0.00193604,9.49097e-05,-0.00147156,-0.00542938,-0.00359985,-0.00715973,-0.00890686,0.00728668,0.00358398,-0.00939484,-0.00108826,0.00830353,0.00867798,-0.00879791,-0.00645325,0.00793365,0.00574463,-0.00255646,-0.00843933,0.00148956,-0.00615356,-0.00285797,-0.00548401,0.00928375,-0.0029541,0.00311005,0.00897522,-0.00337128,0.00440552,-0.0068399,0.00650085,-0.00616302,0.00998779,-0.00989532,0.0036554,-0.00377899,-0.00714478,0.00175629,0.00200134,0.00409332,-0.00292969,0.000927429,0.0081012,0.00276642,-0.00830444,0.0054306,-0.00648254,0.0025528,-0.00920654,-0.00192169,-0.00518738,-0.00123505,-0.00657349,0.00668304,-0.00645081,-0.00828461,0.00365723,0.00405731,-0.00371033,0.00671661,-0.0094519,0.00801361,-0.00540344,-0.00591888,0.00816162,0.00136444,0.00503235,0.0091214,-0.0044397,-0.0080777,0.00915955,-0.00785004,-0.00319336,-0.00750031,-0.00645935,0.00847931,0.000963135,0.000909119,0.00973816,0.00842194,0.00209229,-3.69263e-05,-0.00568542,0.00729034,-0.000743408,-0.00252594,0.0088324,0.00539703,-0.00348145,0.00625458,-0.000145874,0.0080545,0.00294067,0.00411713,-0.00105774,0.00557526,-0.00741455,-0.00612579,0.0026593,-0.00672821,0.00451538,0.00333832,-0.00743225,-0.0085434,0.00279297,0.00532196,-0.0047699,0.0054422,-0.00351929,-0.00236237,0.00220886,0.00554108,-0.000358887,0.00309784,-0.00993347,0.00706573,-0.00866333,0.00951508,0.000365601,-0.00967133,-0.00437012,0.00970184,-0.000331421,0.000642395,0.00158325,0.00147064,-0.000462036,0.0083194,0.00325928,0.00763397,-0.00346375,0.00867218,-0.000279541,-0.00399567,-0.00777405,0.00201324,-0.0049707,-0.000605774,-0.00683044,-0.00634491,-0.00175171,-0.00438385,-0.00907043,-0.00608978,0.00343994,0.0074826,0.00206848,-0.00190887,0.00966675,0.00280609,0.0081488,0.00651031,0.000991211,-0.00560089,-0.00426697,0.00448029,0.00647583,7.41577e-05,-0.00361633,0.00231354,0.000183105,0.00264374,0.00666321,-0.00467743,0.00117554,0.00992035,0.00813416,0.00381989,-0.00648438,-0.00528351,0.00735901,-0.00688202,0.00626587,-0.00515533,-0.00409973,-0.00647064,-0.00651123,-0.00688263,-0.00967957,0.000366516,-0.00575317,-0.00265289,-0.00781799,-0.00605804,-0.00739746,0.000346375,0.00804749,-0.000431824,-0.00238159,-7.23267e-05,0.00947937,0.00755768,0.00335693,-0.0010965,-0.00695984,-0.00677704,0.00888062,0.00508636,0.000292358,-0.00312347,-0.00174805,-0.00871124,-0.00220154,0.00383087,0.000533447,-0.00467682,-0.00287903,0.0043985,0.0097876,2.13623e-06,-0.00517761,-0.00610809,0.0050769,-0.00686188,-0.00753479,-0.0073764,-0.00953613,0.00754364,-0.00338806,0.00590607,-0.00498901,0.00103119,-0.00117493,0.00405182,-0.00721924,-0.00358673,-0.00433289,0.00237335,0.00283569,0.00150238,0.00870056,0.00118317,0.00923828,0.00911102,0.00448792,0.00579376,0.00105103,-0.0029483,-0.00540833,0.00651764,-0.00766357,0.0081369,-0.00442566,-0.0013327,0.00215698,-0.00982086,0.00899841,0.00255524,-0.0054248,-0.00400909,0.00142639,0.00349396,-0.00134644,0.0033847,0.00442078,-0.00820404,0.00845459,-0.00482697,-0.00545593,0.00277374,0.00304077,-0.000831604,-0.00664124,-0.00326019,0.00647461,0.00818329,0.00742737,-0.000993347,0.0078186,3.02124e-05,0.00831238,-0.00011322,0.00113525,