64,4,1,256,256,64
0.00386749,-0.00274048,0.00401215,-0.00367249,-0.00466644,0.00819336,-0.00947296,-0.00210388,-0.0048996,-0.00296265,-0.000126038,0.00628113,-0.00651947,-0.002146,-0.00513458,-0.00195496,0.00578644,0.00970581,0.0033139,-0.00524963,-0.00766937,-0.00334473,-0.00196808,0.00295959,-0.0015744,0.00776489,-0.00316803,-0.00576477,-0.00561615,-0.00290283,0.00252655,0.00513977,-0.00448212,0.0037146,0.00292816,-0.00276428,0.0021402,-0.00832031,-0.0091507,-0.00291443,-0.000436707,-0.00994507,0.00410248,-0.00374817,-0.00190033,-0.00709717,0.00550018,-0.008703,-0.00693817,-0.000714111,0.00285492,0.00378357,0.00476227,-0.0067334,0.00897919,0.000274048,-0.00148651,0.00390747,0.00168549,-0.00766907,0.00462799,0.005271,0.00378632,-0.00348328,-0.00158173,-0.00358032,0.00309418,-0.00560608,0.000196838,0.00141602,-0.00757843,-0.00747498,-0.00472382,0.00932251,0.00958099,0.00247253,-0.00603119,-0.00579834,-0.00261505,0.00079895,-0.00841278,-0.00488403,0.00364594,0.00906677,0.00844391,-0.00387207,0.00117645,-0.0061615,0.00985138,0.00630005,0.007789,0.00667664,0.00612213,-0.000305176,0.00629608,0.00414368,-0.00743134,-0.00462524,0.00451019,0.00780212,0.00950348,-0.00259766,-0.00475616,0.00421448,0.00223907,-0.00515991,-0.00369049,0.00494324,0.00108795,0.00175049,-0.00948029,0.0065509,0.00136261,-0.00280396,0.00568695,-0.00940002,0.00337555,0.00523926,-0.00537628,0.00365295,-0.00756073,-0.00505737,-0.00485748,-0.00272766,-0.00113373,0.000368652,-0.00994415,0.00802063,-0.00203094,0.000579834,0.00717621,-0.00253967,-0.00993988,-0.000361328,-0.000683899,-0.00784607,0.000451965,0.00660767,0.00428802,0.00366394,-0.000542908,-0.00445068,0.00490448,0.00855286,0.002388,0.00552612,0.00897797,0.00838318,0.00955719,0.000600586,0.00932098,0.00971741,0.00627716,0.00983521,0.00374603,0.00411804,0.00286041,0.00729248,-0.00493439,0.00814758,-0.00538055,-0.00796509,-0.00890778,0.00336853,0.00186676,0.008125,0.00463837,-0.00365662,0.00991486,0.00462524,-0.00648346,-0.00136536,0.00907623,-0.00440186,0.000539246,0.00680481,-0.00533661,0.000106201,-0.00648102,0.00241638,0.00698883,0.00221191,0.00526825,-0.00796814,-0.00863495,-0.00902222,-0.00640045,0.00721375,-0.00189545,0.000466309,0.00132538,0.00452454,0.00251984,0.00973999,-0.00374176,0.00552673,0.0049234,0.00286133,-0.00878937,-0.00321716,-0.00937225,0.00889282,0.00399506,0.00985535,0.00994537,0.00189697,-0.00257599,0.00130676,-0.00181122,0.000936279,-0.000690002,-0.00730042,-0.00432953,-0.00992676,0.00246552,-0.00940369,0.00770294,-0.00162964,0.00470306,0.00655945,0.00459869,-0.000109863,0.00883514,-0.00284851,0.00167023,-0.00630493,0.00267426,0.00393494,-0.000769958,0.00384766,-0.000967102,-0.00652771,0.00259064,-0.0005896,-0.00427643,-0.00267395,0.00206451,-0.0055542,-0.00444122,-0.00794128,-0.00703583,0.00801636,0.00635101,-0.000767212,-0.00439789,0.00418457,0.000912781,0.00541077,-0.00470917,-0.00798706,-0.00294342,0.00215515,0.00234283,0.00556396,-0.00240509,0.00602844,-0.00792938,0.00390015,-0.00965973,-0.00140686,0.00478668,-0.00891602,0.00810516,0.00641174,0.00580353,-0.00382202,0.00870209,0.00104675,0.00543365,-0.00675537,-0.00505646,-0.000939331,-0.00101044,0.00134644,-0.00535797,0.00201599,0.00678375,0.0045459,0.000610046,-0.00352478,-0.00587128,-0.00809448,-0.0093399,-0.00599915,-0.00866302,-0.00251221,0.00760468,-0.0088446,-0.00627899,0.000355225,-0.000743713,0.00950134,0.00159332,0.00457031,-0.00157257,-0.0043988,0.000266418,-0.000804443,0.0029306,0.00101746,5.27954e-05,-0.00170654,-0.00442169,0.00231262,-0.00373505,0.000926514,0.00418304,0.00104919,0.00921539,-0.00884277,0.00155731,0.00378967,0.00421661,-0.0019519,0.00551361,0.00209656,-0.00841888,-0.00433838,-0.00113556,-0.00746765,0.0066214,0.0030603,0.0094223,-0.00334045,0.00964996,0.00430664,0.00999969,0.00104065,0.00597931,0.00846313,-0.00159088,-0.00276184,0.00592194,0.00959229,-0.00253693,0.00181458,0.00479034,0.00675659,-0.00502594,-0.0036676,0.00289703,0.00401855,0.00375458,0.00735413,0.0055545,-0.00955933,0.00161713,0.00644226,0.00307526,8.54492e-05,-0.00862579,-0.0098407,-0.00922821,-0.00798462,0.000838318,6.7749e-05,0.0089566,-0.00970703,0.00282196,0.0027301,0.0029422,0.00398071,-0.00486237,0.00970886,0.00304108,0.00714111,0.000597839,-0.00243347,0.00456573,-0.00116333,0.00701508,0.0078656,0.00782867,0.00312988,0.00720184,0.00716858,-0.0018576,0.00908325,-0.00102936,0.00703796,0.0058194,-0.00924072,0.00513397,0.00403625,0.00617218,0.00722046,-0.00649567,-0.000274048,-0.000486755,0.0025293,-0.00310577,0.000669556,-0.00884491,0.00574829,-0.00688385,-0.00157043,-0.00858978,-0.00906006,0.0049826,0.00956848,-0.00440887,-0.00283325,0.000306091,-0.0043512,0.00401031,0.00849121,-0.00810089,0.00323303,0.00198029,-0.00602417,-0.00242584,0.00388367,-0.000186462,0.00768311,0.000143738,-0.00583679,-0.00717743,0.00867554,0.00742035,-0.00436584,0.00131989,0.00101563,-0.00778351,-0.00514099,-0.00938202,-0.00623413,-0.00765533,0.00340027,-0.00897064,0.00098877,-0.00938263,-0.00217957,-0.00213348,0.00174683,-0.00515289,-0.000317993,-0.00855804,0.000102539,-0.00215363,-0.00445251,-0.00293182,0.00511841,-0.00257233,-0.00302063,0.00505768,-0.00914307,-0.0035965,0.000540161,-0.00927704,-0.00361938,0.00258636,0.00779236,-0.00562347,0.00575195,0.00878876,0.00529846,0.00133087,0.00803345,-0.00717682,0.00462097,0.0018985,-0.0027124,-0.00249786,0.00232239,-0.00860809,-0.0074231,-0.00936188,-3.479e-05,-0.0098764,-0.00203613,0.00504364,0.00411194,0.00340607,0.00251099,-0.00146881,0.00632507,0.00155182,0.000280762,-0.00608673,0.00316711,-0.000126648,-0.00966431,-0.00099762,-0.00379944,-0.00131683,-0.00326172,0.00661102,-0.00801208,0.00329376,0.00855103,-0.0054483,0.00209167,0.00401764,-0.000163574,0.0056369,0.00307434,-0.0038327,0.00965698,0.00767914,-0.00350159,5.52368e-05,0.0020752,-0.00650909,0.00892639,0.000993958,0.00615356,0.000884705,-0.00807922,0.00929596,-0.00404541,-0.00732697,0.00204407,0.000273743,-0.00945923,-0.0033316,0.000858765,-0.00576019,-0.00602539,0.00568329,-0.00507263,-0.00349335,-0.0046814,-0.00246979,-0.00418762,-0.00261322,0.00863525,-0.00497833,7.62939e-05,-0.00780731,-0.00701294,0.00597015,0.00928162,0.00123688,-0.00756348,0.00318817,0.00999084,0.00983185,-0.00395386,0.00448822,-0.00623352,0.0082901,-0.00212158,-0.0073172,-0.00282898,-0.00807587,-0.00300415,-0.00441559,0.00176697,0.00104645,-0.00253906,0.00600555,-0.00588318,0.000969543,0.00833618,0.00175873,0.00578308,0.00200592,0.00368408,0.00565643,-0.00667175,-0.000531921,0.00256714,0.00551117,-0.00168518,-0.00633148,0.00904785,-0.00586456,0.0073053,0.00991974,-0.00781128,0.00934174,-0.00813782,-0.00146576,0.00605225,-0.00605743,0.00854797,-0.00517548,0.00970093,-0.00424957,-0.00107483,-0.000896912,0.00719727,0.00757782,0.00955627,-0.00331757,0.00760376,0.00723724,-0.00799622,-0.00212494,0.00498291,-0.0024588,0.0028302,-0.00200653,-0.00160278,0.00630219,0.00359802,-0.00264984,-0.00809082,0.0063327,0.000869751,0.00125763,-0.0054187,-0.00455475,0.00620789,2.83813e-05,0.000476074,-0.00354767,-0.00382507,0.00897491,0.00865601,-0.00283356,-0.00766663,0.00840973,0.00318359,-0.00959991,0.00124573,0.00364532,-0.00687866,-0.00603424,-0.00552551,0.0049942,-0.00746826,-0.00932404,0.00858215,0.00776886,0.000477295,0.0083432,0.00513123,-0.0077182,0.00102051,-0.000220032,-0.0093158,0.00384552,0.00322388,0.00279877,-0.00319641,-0.00722748,0.0011499,0.000212097,5.18799e-05,-0.00562469,-0.00613892,-0.000167542,0.00199158,0.00896637,0.00541992,-0.00552765,0.00918518,0.00185822,0.00488892,0.00194427,-0.00680481,0.00336334,0.00633057,0.00506073,-0.00941589,0.00879425,0.00880737,-0.00836578,0.00291443,-0.00153656,-0.00361816,-0.00552277,-0.00325134,-0.00231659,-0.00188354,-0.00859772,0.00364929,-0.00323334,0.00807373,0.00522186,0.000178833,-0.0089743,0.00531616,0.00374847,0.00789978,0.00077301,-0.00609375,-0.000205383,-0.00662537,-0.00867889,0.00290649,-0.00882721,0.00816589,-0.00701752,0.00637939,0.000695496,0.00883606,0.00106964,0.00338745,-0.00382477,-0.00305237,-0.00410492,-0.00200684,-0.0095755,-0.00093689,0.0027713,-0.000740967,0.0012558,0.006745,-0.0079892,0.00124756,-0.00851837,-0.00344421,-0.00107391,0.00302124,0.00891449,-0.00994202,0.00382965,0.00864258,0.00636688,-0.00618591,-0.007966,0.00717407,0.00165131,-0.000613403,-0.00614838,-0.00732178,-0.00241974,0.00333801,0.00459503,0.00421753,0.00196625,0.00723083,0.00457672,0.00585449,0.00762177,-0.00237244,-0.000890808,0.00665161,-0.00764069,0.0060907,-0.00149506,0.000671387,-0.00100861,0.00918274,-0.00192352,0.00697632,-0.00466949,0.00846619,-0.00186371,0.00962891,-0.00581085,-0.00949646,0.00399689,-0.00230835,-0.00662018,0.0068573,0.00597076,0.00522705,-0.00428497,-0.00591003,-0.000629578,-0.00870239,0.00900726,-0.00623596,0.00450836,-3.41797e-05,0.00606903,-0.00755798,0.00669708,0.000294189,0.00471283,0.0016864,-0.00375092,0.00634521,0.00775116,-0.00194031,0.00847687,-0.0028186,0.00299652,0.00312439,0.00369293,-0.00313477,0.00326141,0.00344299,0.00720978,-0.00554077,0.00635834,-0.009422,0.0093399,0.00402588,-0.00490021,0.00109192,0.00539581,0.00462769,-0.00270172,-0.00345276,-0.00431,0.000327148,0.0057663,0.00350647,0.00553497,0.000186768,-0.00168365,-0.0064679,0.00524323,-0.00173096,-0.00223907,0.00318665,-0.00987274,-0.00636353,-0.00808746,-0.00596741,0.000499573,-0.00964844,-0.00641632,-0.00736755,0.00167267,-0.00252319,0.000586853,-0.00945129,0.00395905,0.00907471,-0.00426544,0.00434387,0.0026712,0.00420776,0.00683929,-0.00441956,-0.00187836,0.00693848,0.00671356,-0.00917908,-0.00437714,0.00632935,-0.00683014,0.00162781,0.00548737,-0.00355713,0.00902069,0.0045636,0.00302765,-0.00365845,0.00207855,0.0011908,0.00855621,-0.00991211,0.00515594,-0.0019281,0.00738556,0.00674438,-0.00393463,0.00676941,0.00982819,0.000373535,-0.00238068,0.00384583,-0.00880341,-0.00996216,-0.00236969,-0.00913635,-0.00819672,-0.000200195,0.00891083,-0.00561462,-0.00303925,-0.00127808,0.00927338,0.00597351,-0.00301849,0.000866699,0.00153046,0.00219055,0.00717804,0.00529663,-0.00650543,0.004599,0.00786285,-0.00392578,-0.00202179,-0.000238647,0.00434845,0.00226196,-0.00720612,-0.000759888,0.00694733,-0.00207764,0.000754089,-0.000402222,-0.00902802,0.00211792,0.00967133,0.00239685,-0.00326508,-0.00108887,-0.00764191,-0.00580017,0.00954865,-0.0026355,0.00662689,0.00656921,-0.000274353,-0.00845947,-0.00470978,-0.0039325,0.00257843,0.000501709,0.00616058,0.0042572,-0.00158051,0.00831055,-0.00794952,-0.00229919,-0.00743866,0.00402954,-0.0092276,0.00796082,-0.00468353,0.00172119,0.00513885,-0.00840027,0.00199738,0.000447998,0.00296234,-0.00981995,-0.00708344,0.00427246,-0.00294464,-0.00973572,-0.00661346,0.00225708,0.00523041,0.00341492,-0.00628021,0.00846436,-0.00970001,0.00619446,0.00922882,0.00195679,7.65991e-05,0.000165405,0.000226135,0.00679687,0.00737274,-0.00810974,-0.00797577,-0.00795288,-0.00999908,-0.00706848,-0.00506439,-0.00822998,-0.00922638,-0.000148315,0.00427277,0.00502808,-0.00249664,-0.00578674,0.000348206,-0.00411621,0.00300262,0.00257874,0.00847443,-0.00660034,0.00508392,-0.00348938,-0.00103607,-0.00836182,0.00655975,-0.00742859,0.00712921,0.00966187,-0.00475739,-0.00767639,-0.00671722,-0.0084668,0.00394501,0.00232971,0.00273712,0.0063147,-0.00952057,-0.00584778,0.00580475,0.00806885,-0.00234161,0.00435364,-0.00220184,-0.00414185,-0.00670563,-0.00550354,-0.000970154,-0.00625488,-0.00980011,-0.00885681,-0.00518768,-0.00920776,0.00618744,0.00585632,-0.00454193,0.00106201,0.00406952,-0.00480164,-0.0037204,0.00361694,-0.00834137,0.000731812,-0.00241058,0.00251953,0.00176727,0.00901917,0.00470001,0.00683228,-0.00779205,-0.00837708,0.00792389,-0.00938232,0.00579315,0.00510559,0.00257355,-0.00706177,-0.00966461,-0.00897034,0.00896149,-0.00214355,-0.00135284,-0.00404236,-0.00759979,-0.00556519,0.00854095,-0.00854797,0.00320221,-0.00326416,0.00282928,-0.00592468,-0.00332001,0.00382202,0.00932465,0.00539001,-0.00685394,-0.000244141,0.000839539,-0.00804138,-0.0020871,-0.00640015,-0.00481354,0.00534363,0.00129303,-0.000583496,-0.00482208,0.00210754,-0.00140106,-0.00373169,0.0086264,0.00381287,-0.00985687,0.00821777,0.00834442,-0.00297791,0.0012381,0.00432739,-0.00785553,-0.00670227,0.00219635,-0.00134033,0.00283905,0.00920227,0.00833038,-0.0097229,0.00824066,0.00629822,-4.73022e-05,0.00324219,0.0011618,-0.00885193,0.00237579,0.00661743,-0.000585022,-0.00468567,0.00591217,-0.00553467,0.00581268,-0.0046405,0.00587433,0.00584839,0.00816742,-0.00715393,0.00257477,0.0048291,-0.000708313,-0.00566345,0.00132599,0.000469971,-0.00300201,-0.00860657,-0.00755951,0.0068335,0.00409882,0.000579224,-0.00876923,0.00298218,0.00840668,0.00345642,-0.00199066,-0.00702148,0.00273407,0.00658752,-0.00191132,0.00588501,0.00489349,0.00153503,0.00178131,-0.00423584,-0.00230255,0.00486145,0.00439972,0.00167847,0.00895844,-0.00187073,0.00625641,0.00769043,-0.00851105,0.007901,-0.00733612,0.00286255,0.0031015,0.00573914,-0.00606537,0.00125732,0.00660858,0.00820618,0.00538116,0.00193726,0.00982269,-0.00313538,0.00731598,0.00896484,0.00555634,-0.00172302,0.00505157,-0.00859741,-0.00837799,0.00400574,0.00890045,0.00331299,-0.00916779,-0.0093866,-0.00582489,0.00375854,-0.00900055,-0.000337524,0.00118805,-0.00319824,0.00493622,-0.00228455,-0.00474823,-0.00849487,-0.00954498,-0.00366516,0.00667877,0.00193115,-0.00963165,-0.00791687,-0.00921844,0.00714233,-0.00751129,0.00652283,0.00787262,-0.00879883,0.0096286,0.00621643,0.00326447,0.00317017,-0.000399475,0.00272644,0.00726959,-0.00288818,0.00521698,-0.00738464,-0.0047995,-0.00791138,-0.00570953,-0.00255432,0.00736969,-0.00783691,-0.000366516,0.00377991,0.00908966,0.00639771,-0.000941467,0.00318054,-0.00932709,0.00885498,-0.00462189,-0.00778992,0.00743195,-0.00140259,-0.00359528,-0.00756897,-0.00032074,-0.0003125,-0.00504913,-0.00959412,-0.00727264,0.00118774,0.00882904,-0.00230286,-0.00311127,-0.00283936,0.000851746,-0.00913269,0.00747589,0.0066687,-0.00116852,-0.00852112,0.00480133,-0.00622559,-0.00441925,0.00609436,-0.00582245,0.00754028,0.00891205,0.00627625,0.00591705,0.00202881,0.00163788,0.00858704,-0.00466766,-0.00369751,0.00157074,-0.00541077,0.0027359,-0.00557617,0.00152313,-0.00915466,-0.00655975,0.00545532,-0.000692444,0.00891785,-0.00224213,0.00345947,-0.00226349,0.00536926,-0.00899872,0.00749878,0.0046225,0.00176208,-0.00651703,0.00163574,-0.00722198,0.00465881,-0.00948456,-0.00506714,1.5564e-05,0.00562195,-0.00758881,0.00145264,0.00914764,0.00121399,-0.00551727,0.000257568,0.00798676,-0.00700256,-0.00295746,-0.00458984,0.0093454,0.00753479,0.00540314,-0.0040271,-0.00896393,-0.00361145,0.00987701,-0.0039917,-0.00412872,-0.00387878,0.00577667,-0.00542114,-0.00833649,0.00829529,-0.00658539,-0.00425293,-0.00877472,-0.000526733,-0.00189667,0.00857544,-0.00763092,0.00121765,-0.00984467,0.00712646,-0.00209259,-0.00990906,0.00488312,-0.00953735,-0.00434723,0.00765564,0.00259918,0.00264648,-0.00158234,0.000474243,0.00861603,-0.00725952,0.00401459,0.000109253,-0.00675385,-0.00519287,-0.00474396,0.00312317,-0.00819794,0.00790894,-4.54712e-05,-0.00892151,0.00459625,-0.0038916,-0.00907745,-0.00946228,-0.00305878,0.00846802,0.0059726,-0.00693665,-0.000850525,-0.000949707,0.00791718,-0.0047821,0.00653351,0.00691772,0.00456879,-0.00143616,-0.000594177,-0.00386719,0.00873993,0.0096637,0.00307892,-0.00424194,-0.0017569,7.99561e-05,0.0078653,-0.000144043,-0.00410919,0.00637512,0.00907745,0.00748901,0.00949554,-0.00988831,0.00702789,0.00271973,-0.00813019,-0.00214783,0.00702911,-0.0053894,0.000826111,0.00115906,-0.000606384,-0.00277588,-0.000823059,-0.00340515,-0.000566101,0.0096228,-0.0052652,0.00572205,0.00746246,-0.00413086,0.000312195,-0.00489685,0.00879181,0.00502563,-0.00627838,-0.00369934,-0.00626556,-0.00884521,-0.00222443,0.00587708,-0.00239716,-0.00668091,0.00028656,0.0053949,0.000709534,-0.00441895,-0.00593292,0.00141663,0.008367,0.00700317,-0.00307037,0.00550476,-0.00911224,0.00164795,-0.00831329,-0.0057782,0.00358429,-0.00142212,0.00615082,0.00913025,0.0067691,0.00185547,-0.00686554,-0.0032074,0.0057547,0.000543213,-0.00954987,0.00877136,-0.00914642,0.00870361,0.000910339,0.00162903,-0.00262177,0.00539917,-0.00767242,-0.0030719,0.00564117,-0.00530762,-0.00248566,0.00123108,0.000954895,0.00564575,-0.00571686,0.00610046,-0.0063681,-0.00767822,0.00544647,0.00809875,-0.00101532,-0.00621704,-0.00118317,0.00878845,-0.00267426,-0.0059082,0.00720673,-0.00526794,-0.00603241,0.00231079,0.00842865,-0.00250793,-0.000777283,-0.00749756,0.0052951,-0.00636902,0.00840363,0.00372925,0.00561859,0.0047113,0.00182281,5.37109e-05,0.00221161,-0.00270447,0.00479279,-0.00946167,-0.00711334,0.00294617,0.00762604,0.00924561,0.000456238,-0.00177429,0.00563507,-0.00476196,-0.00726715,0.00469666,-0.000867615,-0.00742188,0.00252899,0.00892151,-0.00656952,-0.00967163,0.00765717,0.00246277,-0.00115814,0.00255127,-0.00907013,0.00188293,-0.00932098,0.00830933,0.000159607,0.00874451,0.00925446,-0.00833496,0.00815887,0.00960999,-0.000119324,0.00168091,-0.00725983,-0.00395813,-0.00712982,-0.00758057,-0.003284,0.00460266,0.00353546,0.00294312,0.00789886,-0.00314514,-0.00781097,-0.00268555,-0.000898743,-0.000639038,0.00414337,0.00459595,0.00813568,0.00368347,0.009711,-0.0011499,-0.00218536,0.00638489,0.00420441,-0.000860596,-0.00404938,0.00902771,0.0079361,0.00952637,-0.00464386,-0.00182556,0.00621857,-0.000926514,-0.00615631,0.00538757,0.00936432,0.00184326,-0.00577423,0.00722961,-0.00731415,-0.00310181,0.00431488,0.00526306,-0.00350433,0.00830078,-0.00307648,0.00605042,0.00610626,0.00511353,0.0098642,0.00115417,-0.00816986,0.00139893,0.0059494,0.00713684,0.0089798,-0.00378052,-0.00700836,0.00556091,-0.00213226,-0.0063623,0.00380341,0.00298889,0.00380646,0.00271606,-0.0038028,-0.00901672,-0.00289154,-0.00248291,-0.00701447,0.00610657,-0.00691376,-0.00289673,0.0019809,0.00992126,-0.00794769,0.00553711,-0.00400421,0.00898987,-0.000680847,-0.0081189,-0.00715729,-0.00512512,0.00519928,-0.00980225,-0.00466583,0.00413879,0.00500519,-0.000450439,-0.00871735,-0.00165588,-0.000950623,0.00399902,-0.00649933,0.00405334,-0.00735565,-0.00739136,-0.00019928,-0.00717102,-0.0038974,-0.000559082,-0.0070047,0.00123352,0.00473663,0.00355835,0.000896912,-0.00917053,-0.00114105,0.00902344,-0.00368195,0.00817932,0.00378204,0.00489868,-0.00292877,0.00484558,0.00981842,0.00524658,0.00596893,-0.00260925,-0.00771942,0.00912964,-0.00917633,0.00737732,-0.00851898,0.000610352,0.00444794,0.0013678,-0.00726776,0.00875122,0.00465424,-0.00907532,0.00634674,0.00761475,-0.00574493,-0.00738953,0.00763702,-0.00373657,0.00106293,0.00798767,-0.00308441,-0.00124023,-0.00210968,0.00361877,-0.000505066,0.00416626,0.00254974,-0.00893372,0.00568756,0.00654541,-0.0021463,0.0068927,-0.00919403,0.00495972,-0.00838531,-0.00733948,-0.00483734,0.00347168,-0.0033548,-0.00506775,0.00407013,-0.0088562,-0.00924225,0.00527039,0.00784088,0.00203857,-0.00323517,0.000237427,0.00178741,-0.00478149,0.00247894,0.00139587,0.00622223,-0.00525391,0.000712585,-0.00469177,0.00645782,0.00968384,0.00927826,-0.00646301,-0.0071933,-0.00590576,-0.00901154,-0.00735535,0.00058136,0.00703979,-0.0063443,-0.00580627,-0.0099057,-0.00741699,-0.00990753,0.0047467,0.00665802,-0.000213623,-0.00188873,-0.00413391,0.000585022,0.0027124,0.000524597,0.00411438,0.00718781,0.000423584,0.00514496,-0.00894592,0.00677887,-0.00301758,0.00478485,0.00324768,0.00467072,0.00145142,-0.00274323,-0.00774231,-0.00882416,0.00789307,0.00537323,-0.00535339,0.00160675,-0.00463013,-0.00305328,-0.00802307,-0.00372406,0.00794434,0.00478973,-0.00918884,0.000495911,-0.00532104,0.00671478,0.00271179,0.00457916,0.00963623,0.00553436,0.00424133,0.0038382,-0.00812134,0.00906097,-0.00303772,-0.00141449,0.00546875,-0.00989288,0.00743713,-0.00586639,-0.000531006,0.00648529,0.00722839,0.000794983,0.00794189,0.001008,-0.00710144,-0.00611786,0.00994995,0.00148773,0.00601013,-0.00629242,0.00955566,0.000737,-0.00687439,0.0055838,-0.00417847,-0.0034317,0.0058075,-0.000176697,0.00281006,-0.00820587,0.000618286,-0.00826141,0.00958374,-0.00577301,-0.000879517,0.00164215,0.000205078,-0.00332062,0.00787659,-0.0051535,0.00373657,-0.00303619,-0.0015509,0.00166412,-0.00575928,-0.00210724,0.00740051,-0.00259247,-0.00921997,0.00727875,-0.00370667,0.00238922,-0.00258301,-0.00206573,-0.00830994,0.00192169,0.00321411,0.00767181,0.0051532,0.00631744,0.00223389,-0.000696106,-0.00675476,-0.00911102,-0.00646118,0.000643005,-0.00247131,-0.00405121,0.00119141,0.00450165,0.00456604,0.00680939,-0.00574585,0.00869232,0.0059198,-0.00621674,0.00678955,-0.00397247,-0.00184753,-0.00781708,-0.00213989,-0.00568024,0.00282654,0.00232086,-0.00847168,-0.00361847,0.00650452,0.00950958,-0.00314331,2.53296e-05,0.000748901,0.00406158,0.00790771,0.00806366,0.00212219,0.00128937,0.0037439,0.00830902,-0.00781311,0.00150543,0.00842773,-0.00642609,-0.00249451,-0.00997772,-0.00897827,0.00167084,0.0096405,-0.0028476,0.00558838,-0.00458771,0.00515442,-0.00179169,-0.00880981,0.00261078,0.00560974,-0.0064975,-0.00811035,-0.0039212,-0.00243103,0.00834747,-0.00325073,-0.00637115,-0.0074054,-0.00694427,-0.000168457,-0.00192657,0.00724915,0.00293976,0.000198975,-0.00277496,0.00309509,-0.00168793,0.00191406,0.00389618,0.00669495,0.00448517,-0.00596069,-0.00410065,0.00961121,-0.00822845,-0.00936279,-0.00395294,0.00840637,-0.0045163,-0.00922974,-0.00784821,0.00464294,-0.00406586,-0.00149902,-0.00297394,0.00488342,-0.00156464,0.00289185,0.00848236,0.000690308,-0.00670013,-0.00199463,0.00933319,0.0086261,-0.00415985,0.00290405,0.00739105,-0.0097467,0.00636871,0.00165039,-0.00453156,-0.0078656,-0.00980194,0.00330688,-0.00862213,0.00583191,-0.00235931,0.00193604,-0.00206818,0.00790833,0.00400909,-0.00339966,0.00294281,-7.38525e-05,0.00961578,-0.0086377,-0.000776672,0.00844788,-0.000226746,-0.00471558,0.00458588,0.00503601,0.00479401,0.0024292,0.00184296,0.00625305,-9.46045e-06,-0.00814087,-0.00119293,-0.0063385,0.00567535,0.00763672,0.00829071,-0.00617615,0.00716095,-0.00117554,0.00810638,-0.00169739,-0.00524017,-0.000515137,0.00106659,0.00366028,0.00378448,0.00868042,-0.00501617,-0.00854065,-0.00545258,-0.00952637,0.00267059,0.00826233,-0.00763885,-0.006073,0.00193939,0.00563171,0.00753815,-0.00689697,-0.00439728,0.000130005,-0.00460907,0.00706421,-0.00852692,-0.0066803,-0.00376801,-0.000126953,0.00236298,-0.00823669,-0.00462616,0.000592041,0.0060849,0.00702332,0.00312897,0.00328369,0.00545135,-0.00433777,-0.00519012,0.0070105,0.00827484,-0.000757446,-0.00927094,-0.00416504,0.00736786,0.00432678,-0.00380096,-0.00118042,0.000542908,0.00247742,0.00153229,-0.00997314,-0.00938751,-0.00974304,0.00204132,0.00851929,0.0053891,0.00922791,-0.00196136,-0.00164062,-0.00231476,0.00595276,-0.00516327,0.00860962,0.00531342,-0.00800598,0.00274811,-0.00666748,-0.00891388,0.00391418,-0.00291473,-0.00840942,0.00281586,0.00327576,-0.00183929,0.00744629,-0.00668488,-0.00335876,-0.00871307,0.00996216,0.000396423,-0.00442688,0.00677643,-0.00679932,0.00687225,-0.00336609,-5.82886e-05,-0.00377563,0.000555115,0.00138611,-0.00890472,0.0030957,-0.00574249,-0.00360779,0.00554962,0.0028772,0.00579193,-0.00678528,-0.00638275,0.00963135,-0.00202911,0.00841614,-0.00938934,0.00242065,-0.00139313,0.00355896,-0.00315765,0.00530762,0.00051239,0.00520569,-0.00237518,0.00735474,0.00149994,0.00491882,0.00327057,0.00262451,0.00438202,-0.000739136,0.0090921,-0.00982056,-0.00302887,0.00979431,-0.00459808,-0.00591797,-0.00792023,0.00308167,0.00751251,0.00339478,0.00752045,-0.00931458,-0.00426361,-0.00781982,0.00610565,0.00916809,-0.00461395,-0.000499268,-0.00435211,9.21631e-05,0.00677399,0.00941895,0.00895966,-0.00997986,-0.00478729,-0.00900269,0.00385345,-0.00948547,-0.00898529,-0.00170166,0.00314178,-0.00186218,0.00949249,-0.00961548,-0.00536285,-0.00554749,-0.00904144,-0.00868164,-0.00884796,0.00602112,0.000725403,-0.00983765,-0.00950104,0.00440613,0.00910553,0.000979004,-0.00450958,0.00617004,-0.00858856,0.00283081,-0.0060611,-0.00712463,0.00795563,-0.000219727,-0.00134308,-0.00891541,0.0040506,0.000889893,0.00745697,-0.00763977,-0.00999115,0.000222168,0.00315155,-0.00673523,0.00114288,-0.0031604,-0.00644684,-0.00463928,-0.0022348,-0.00519531,-0.0085257,0.00521057,0.00518829,0.00317993,-0.00527252,-0.00562317,-0.00627533,-0.00397217,0.00612518,-0.000578003,-0.00131317,-0.00758911,-0.00652008,0.00190857,0.000387268,-0.0036084,0.00960419,0.00839905,0.00413849,-0.00296753,-0.00768951,-0.00954407,0.000252991,0.008396,0.00441132,0.00464172,0.00404327,0.00954468,-0.00628082,-0.00748108,-0.00417816,0.00454102,-0.00695343,0.000650024,0.000901184,0.00244751,0.000205994,0.000597534,0.00959381,-0.00267334,-0.00199005,0.00892395,-0.00278778,0.00824097,-0.00572906,0.00719177,0.00406891,-0.00074707,0.00180145,0.0019635,-0.00452362,-0.000574951,-0.001586,0.00480164,0.00174713,0.00281982,0.00692108,-0.00773132,-0.00180634,0.00849976,-0.00486481,0.00592712,0.00512848,0.000527344,-0.00413116,-0.00766052,0.00786407,0.00796509,0.00693451,0.00306824,-0.00328705,0.00487549,-0.00885529,-0.0053241,0.00698761,-0.00967896,-0.00368805,0.00872498,-0.000999451,0.00836426,-0.00475128,-0.00822205,-0.00193573,0.00806763,0.00576752,-0.00460266,-0.00550873,0.00349365,-0.00931915,-0.00385437,0.00359406,-0.00629517,-0.00219879,-0.00441467,0.00568512,0.00276367,-5.88989e-05,0.000278931,0.00607697,-0.000267334,-0.00508698,0.00178894,-0.00491791,-0.00132568,0.00552948,-0.00332214,0.008013,-0.00134888,-0.000397034,0.00650818,0.00518219,0.00372559,0.00994598,-0.00215759,-0.00809784,0.00296021,-0.00562897,0.00224304,-0.00151459,-0.00958252,-0.00430939,-0.00372742,0.000244446,0.00515991,0.00171722,0.00149353,-0.00250824,-0.00875,0.00526337,0.00446838,-0.00446014,-0.00224976,0.00414154,-0.00324036,0.00470123,-0.00127686,0.00116425,-0.00507019,0.000288391,-0.0067688,0.00414398,0.000541382,0.00261383,0.00533691,0.00589325,0.00015686,-0.00300995,0.00410278,0.00422455,0.00533875,-0.00627045,0.00359131,0.00195038,-0.00735046,0.00814484,0.00286499,0.00688324,0.00365173,0.000548401,0.00598633,-0.00816437,0.00490784,-0.00374725,0.00201782,-0.00537994,0.00798035,0.00557037,0.00502197,-0.00195099,0.00943176,0.00381378,-0.00593872,0.009935,-0.00917542,-0.00870453,-0.00680176,0.00309052,-0.00127869,-0.00667206,-0.00850464,-0.00467194,0.00468445,0.000223694,0.00301514,0.00946014,0.00527649,0.00729523,0.00682007,-0.00670074,0.00205994,-0.00514496,0.00697266,-0.000342102,0.00159729,0.00821564,-0.0074646,0.00634857,-0.00454895,-0.00231049,-0.0024292,-0.00381622,0.000183716,-0.00141083,0.00114136,-0.00302399,-0.00264221,-0.00877289,0.00730957,0.00153778,-0.00646423,0.000915833,0.00513794,0.00768158,0.000280151,-0.00203217,0.00868896,-0.00178009,-0.00584656,-0.00230438,-0.00297485,0.000965271,-0.00328186,0.000411682,-0.00579102,0.00873016,-0.00546326,-0.00857147,0.00930298,-0.000672913,-0.000828247,0.00105865,-0.00363037,-0.00443146,0.00718567,0.00461456,-0.00552856,0.00526703,0.000140991,0.00240875,0.0076709,0.00123505,0.00460022,-0.000246277,0.00503052,0.0012851,-0.00787415,0.00696198,0.000612793,0.00822968,-0.000719604,-0.000653992,-0.00651978,0.00988129,0.00762634,-0.00278168,0.00769531,-0.000947571,0.0037262,0.00589142,-0.00767944,-0.0064444,-0.000857544,-0.0043222,0.00141846,-0.00379669,-0.00956238,0.00188995,-0.00594849,-0.00519196,-0.000825806,0.00484039,-0.00571777,0.00218231,-0.00808533,0.00984161,-0.0088269,-0.00386139,0.000221558,0.00720612,-0.00121338,-0.000510559,0.000657349,-0.0077536,-0.0038147,4.73022e-05,-0.00521545,0.00527496,0.00743164,-0.00937531,0.00916565,-0.00839569,0.00158813,0.00903412,-0.00463684,0.00154694,-0.00728271,-0.00191193,0.00993958,-0.00958466,-0.000118408,0.00559906,-0.0055426,-0.00147797,0.00714355,0.00437958,-0.00452087,-0.0088205,0.00356567,-0.00775787,0.00456726,-0.00129974,0.00321045,-0.00800079,-0.0017157,-0.00360321,0.00514038,-0.00853668,-0.00180725,0.0045816,-0.00658203,0.00344696,-0.0091449,0.0085672,-0.00289429,0.00576263,0.00783386,-0.00133392,-0.00973389,0.00122284,0.00569153,-0.00980927,-0.00803833,-0.00235992,0.0059906,0.00345367,0.00625488,0.00782684,-0.00470642,0.0037674,0.00220825,0.00959564,0.00516296,0.0014444,-0.00611572,0.00575897,-0.00783875,-0.00820282,0.000345459,0.00412933,-0.00214905,-0.00486176,0.0056543,-0.00248077,0.00879456,-0.00321991,-0.00112671,0.00374115,-0.00344543,0.00703522,-0.00593506,0.0056076,-0.00230652,0.00121613,-0.00970825,-0.00906891,-0.0062262,-0.000364685,-0.00838379,-0.00747589,-0.00864197,0.00760529,0.00710083,0.00819916,0.00200867,-0.00456146,-0.00919189,0.000768738,0.00228821,-0.00155243,0.00180054,-0.00195465,-0.00624084,-0.00305511,0.00414063,-0.00715851,0.00298401,-0.00375702,0.00689087,0.00296967,0.00152527,0.00665436,0.00411377,-0.00875763,0.00594543,0.00349152,-0.00512817,0.00547211,-0.00219299,0.00706696,0.00322754,-0.00152863,0.00367249,0.00269318,-0.00175659,0.00805267,-0.00489563,0.000682678,-0.00601807,-0.0029715,0.00866516,-0.00365204,0.00950562,-0.00678864,0.00591736,-0.00999847,0.00887695,0.00941376,-0.00657654,0.00695587,0.00115845,0.00344818,0.00274597,-0.0024765,0.000412598,-0.00187286,-0.00955261,-0.00298309,0.0057019,0.00126312,-0.00190979,0.0057486,0.00108887,0.00566864,-0.00776306,0.00903107,-0.00436401,0.00915619,0.00445007,-0.00282318,0.00340576,-0.00546173,-0.00870789,0.00549835,0.00346069,0.00962738,-0.00567444,-0.00569183,-0.000136719,0.00723602,0.000112915,0.00891876,0.00167603,0.0051767,0.000216675,-0.000357361,0.00296143,0.0062619,-0.00880066,0.0017923,0.00278198,-0.00169586,-0.00537659,-0.00431976,0.0052002,-0.00588409,-0.00294861,0.00661896,-0.000721436,-0.0084903,-0.00995422,0.00492096,-0.00092041,-0.00670197,-0.00983093,0.00589874,0.00366577,0.0072934,-0.00101624,0.00986481,-0.00290039,0.00630829,0.00305237,0.00213165,0.0084436,0.00815521,-0.00606262,-0.00698822,-0.00823975,-0.00435333,0.00820129,-0.00218231,0.00611206,-0.00340485,0.00740662,-0.00313812,-0.00443848,0.00381317,-0.00188416,-0.00454315,0.00917114,-0.00488678,-0.00810852,0.0039151,0.00100342,-0.0066922,0.00529602,-0.00245087,-0.00987915,0.00620941,-0.000108032,-0.00332855,0.000585937,0.00663055,0.00224182,0.00659454,0.00146118,-0.00761627,0.00390808,-0.00236908,0.00680908,0.00628143,0.00145325,0.00509308,-0.00430786,-0.00386383,-0.00356018,0.00929352,-0.00782715,-0.00523956,-0.0045697,-0.00445526,0.00531372,-3.32642e-05,0.00998718,-0.00584076,0.00917725,-0.00543243,-0.00332703,0.000449524,0.00282593,0.00637543,-0.00294983,-0.00527191,-0.00967773,0.00820282,-0.00231873,0.00230743,0.00072876,-0.00213776,-0.00987122,-0.00649994,0.00810791,-0.0018338,-0.0090448,0.00361847,-0.00847778,-0.00307281,0.00172302,-0.00702484,-0.00496582,0.0069577,0.00899475,0.00688263,0.0077063,0.00607025,0.00433289,-0.00434662,0.00360107,-0.00292267,0.00429993,-0.00540009,0.00178101,0.00779144,-0.00954163,0.00403473,0.00630859,-0.00897491,0.00937073,0.00927032,0.00624634,0.00459076,-0.00740051,0.000619202,-0.00434326,-0.00869904,-0.00329285,-0.00660614,-0.00639771,-0.0010318,0.00325623,0.0079068,0.00414551,0.000404968,-0.0011908,0.00947052,-0.00365112,-0.00657623,-0.00507141,0.00839752,0.0042749,0.000837097,0.00817688,3.05176e-07,0.00698608,-0.00954254,0.000116577,0.00459137,0.00854492,-0.00490265,-0.00268982,0.00748322,-0.00198608,-0.00743073,-0.00867981,-0.00101166,0.00945557,0.00568573,-0.00129089,-0.00558075,0.00193237,0.00225922,0.00103943,-0.00591156,-0.000493164,-0.00489777,0.00487366,0.00330841,-0.00875854,0.00202728,0.00177429,-0.00760834,-0.00880127,0.00584686,0.00830383,-0.0033493,-0.00155884,-0.00562653,0.00602478,-0.00360199,-0.00296875,0.000419617,0.00149963,-0.00305389,-0.00396851,0.00179779,0.00629089,0.00860748,0.00950439,0.0013205,-0.00303894,0.00669464,-0.00348755,0.00680023,-0.00492737,-0.00847992,0.00111816,-0.0089505,0.00718811,0.0083963,-0.00761597,-0.0081192,0.00487,0.0076358,0.00437256,-0.00789337,0.00468079,0.00455109,-0.00385376,-0.00046051,0.00818298,-0.000545349,-0.00823242,0.00699188,0.00193909,-0.002341,0.000299072,-0.00772369,-0.0024884,0.00947662,-0.00419678,-0.00179474,-0.00853699,-0.00977997,-0.00265747,-0.00740875,0.00535583,0.000201721,0.00897949,0.00824677,0.00575256,0.00473419,-0.000223389,0.00298431,0.0042157,-0.00587006,0.00379639,-0.000383606,-0.00269226,0.00370148,0.000101318,0.00595551,0.00659119,-0.00623871,-0.00724609,-0.00518585,-0.00137146,0.00962189,-0.00918335,0.00400482,0.0049823,0.00159576,0.00835205,-0.00365997,0.00221497,0.00499542,0.00442261,-0.000367737,-0.00811096,0.000133362,0.00309082,0.00669403,0.000567017,-0.00767792,-0.00658081,-0.00466217,-0.000188599,-0.00812592,0.00947021,0.00837616,0.00618469,-0.00589813,-0.0096936,-0.00637848,0.00124939,-0.000682068,-9.76563e-06,0.00388641,-0.00843201,-0.00716522,0.00758423,-0.00301666,0.008703,0.0049649,0.00715088,-0.00427521,0.00921692,-0.00897919,-0.00224731,0.00792328,-0.00532776,-0.008685,0.00345215,0.0063913,-0.00836853,-0.00884003,-0.00668823,0.00894135,-0.0083429,0.000868225,0.00139404,-0.00161407,-0.00868835,-0.00424774,0.00676147,0.00253754,-0.00784241,-0.00387543,-0.00652344,-0.00579132,0.000757446,0.00729767,-0.00939819,-0.00878815,0.00867371,-0.000415955,-0.00780029,-0.00364044,-0.00753113,0.0082962,-0.00266724,-0.00253571,-0.00629456,-0.00625336,-0.00993652,0.00733856,-0.00105408,0.00124786,-0.000545654,0.00379486,-0.000247192,0.00111237,-0.000432129,0.00964569,-0.0073114,0.00865265,0.00946655,-0.00729645,-0.000684204,0.00418121,-0.00678711,0.00578094,0.0061969,-0.00698944,-0.000130615,0.00669037,0.00489441,0.00545319,0.00349854,-0.00175568,-0.00802917,-0.00317841,0.00316284,0.00825531,0.00898865,0.00742828,0.0029248,0.00953583,0.00251038,0.00258575,-0.00815308,-0.000101624,0.00409851,-0.00739349,0.0039917,0.00215546,-0.00968445,-0.00719696,-0.00157837,0.00411957,0.002724,0.00348785,-0.000800781,-0.00139679,0.00788635,0.00997345,-0.00461304,0.00341888,-0.00263489,0.00257233,0.00104736,0.00137909,0.00772278,-0.00340302,-0.00475708,0.000296326,0.000521851,-0.00764008,0.00203613,-0.00701691,0.00232483,-0.00482635,-0.0095105,-0.00274811,0.00469421,-0.00464935,-0.00533447,-0.00408478,0.0041925,0.00820343,-0.00637329,-0.00321442,0.0023822,-0.00595551,-0.00856445,-0.00732452,0.00582581,-0.00181366,-0.00284546,0.0013974,0.00608582,-0.00905853,0.00484619,0.00576385,-0.000275269,0.00762238,-0.006427,-0.00641266,0.00830505,0.00854156,0.00739746,-0.00231964,-0.00161072,-0.000988464,-0.00461792,-0.00414459,0.00153992,0.00934479,-0.00841064,-0.00907501,-0.00568054,-0.00514618,-0.00491821,-0.0092984,-0.00170959,-0.00414886,0.00992188,0.00799774,1.52588e-05,-0.00235077,0.00517212,0.000625916,-0.00894348,-0.00943939,-0.00510498,-0.00860138,0.00797668,0.00989777,-0.00184692,0.00812836,-0.00766174,-0.00402679,-0.000991211,0.00362762,-0.00929626,-0.00590057,0.00652466,-0.00429108,-0.00536438,-0.00541107,-0.00523682,0.00718475,0.000696411,-0.00724579,0.00278687,0.00586761,-0.00955139,0.00890778,-0.0053418,0.00457001,-0.00954529,0.00836212,-0.000560303,0.00110443,-0.00772278,0.00142975,-0.00880615,-0.00171661,-0.00752136,0.00342316,0.00898315,0.00391937,-0.00737854,-0.00534515,-0.00312988,-0.00917511,-0.000731812,0.000437317,0.00391724,-0.00318756,0.00398132,-0.00891693,0.00418701,0.00469452,0.00332336,0.0019046,-0.00325806,0.00228363,-0.00114319,-0.00678558,0.00564453,0.00239227,-0.00285583,-0.00967499,-4.27246e-05,0.00283295,0.00974792,0.00354889,-0.00625732,0.00641815,-0.00676941,0.00819855,0.00606323,0.000960388,0.00915466,0.00458649,0.000981445,-0.000727844,0.00408264,-0.00197479,0.00755981,-0.000834045,0.00957703,-0.00117279,-0.00013916,0.00345428,0.00220032,0.00230499,-0.00305298,-5.0354e-05,0.00351501,0.00877106,0.00288086,0.00146454,8.36182e-05,0.0035379,0.00672485,0.00581146,0.00346863,-0.00308197,0.0025415,-0.00419708,-0.00976746,0.00422394,0.00939331,-0.000748596,0.00193787,0.00576813,-0.00865723,0.00896942,0.00514709,0.0068631,-0.00254761,0.00276947,-0.00857727,-0.00217865,0.00178467,0.00346405,-0.00267273,-0.00604462,0.0034021,-0.00113434,0.00442322,-0.0044223,0.00636719,0.0017868,-0.000726929,0.00800079,-0.000257568,-0.00996002,-0.00656067,0.00153717,-0.00240967,0.00643768,0.0034845,-0.00850067,-0.00102661,-0.00120758,-0.00902893,-0.00180023,0.0079541,-8.3313e-05,0.00246155,0.00695099,-0.00640503,0.00762299,0.00951843,0.00806549,0.0099585,0.00472382,0.00870422,-0.00314423,-0.00389282,-0.000968323,0.00158142,-0.00636566,-0.00389648,0.00335907,-0.00528748,0.00371368,-0.00098999,-0.00448151,-0.000339966,-0.00259369,-0.00111084,-0.00167755,-0.00701355,-0.00997528,-0.00519653,-0.000416565,-0.00374573,0.00188141,-0.00918457,-0.00788605,-0.003974,-0.00171112,-0.00401245,-0.0062735,0.00386414,0.00955963,0.00438232,0.00723358,-0.00366882,-0.00899384,-0.00493774,0.000447693,-0.00501038,0.00294098,-0.00791016,0.00618134,0.00640198,-0.00932343,0.00452759,0.00224701,0.00213074,0.00452545,0.00643799,-0.00854279,-0.0012616,-0.00019989,-0.00311646,0.00162445,-0.00221252,-0.00318695,-7.32422e-05,0.00556122,0.00584045,0.00087677,0.00463013,0.00108002,-0.00554016,0.00230377,0.00505615,-0.00900665,0.00020813,-0.00359344,0.000267334,0.00311371,0.00464783,0.00349762,-0.00567383,-0.0097464,-0.00565857,0.00888947,-0.00370483,-0.00977448,0.00085144,0.00289459,0.000236816,0.00584198,0.000740356,0.0008255,0.00521362,0.00491547,-0.00442932,0.00299469,-0.00471191,0.000258484,-0.00809509,-0.00528534,-0.000477295,0.00968353,0.00130554,0.00629791,-0.00802002,-0.00399689,0.000335083,-0.00694305,-0.00827759,0.00702972,-0.00944397,-0.00469574,0.0028125,-0.00442413,-0.00146912,-0.00164764,-0.00568726,-0.000545959,-0.00417786,-0.00748627,0.000285645,0.00147675,-0.00100769,-0.00689911,-0.000206299,0.00945648,0.00960388,0.000426331,-0.00310059,-0.00379425,-0.00578064,-0.000197449,0.000665283,-0.000462952,0.00440125,0.00154205,0.00515381,0.00226288,-0.00328796,0.000957336,0.00942749,-0.00780426,-0.00728577,-0.0016391,-0.00245117,0.00214813,-0.00102966,-0.000934753,-0.00141968,0.00993256,0.00704285,-0.00661713,0.00658447,-0.00163849,-0.00650574,-0.00337372,0.000623779,-0.0047525,-0.000112915,0.00910797,0.00476074,-0.00659698,-0.00721619,-0.00385956,0.00805786,-0.00935944,0.00374695,0.00803619,0.00457764,0.00977264,0.00933899,0.000107727,-0.00661743,-0.00138824,-0.00887756,-0.00733246,-0.00146484,0.0099704,-0.00434021,-0.00897186,0.0090979,0.00166107,-0.00548645,0.00550201,-0.000866699,-0.00350372,0.00424622,-0.00859833,0.00770386,0.00228851,0.00642029,0.00903961,-0.00112793,-0.00814972,0.00759827,0.00372833,0.00170044,0.00299408,-0.000657349,0.00578033,-0.00974854,-0.00146759,-0.00178406,-0.00949188,0.00358765,0.00627777,0.00578064,-0.00177582,0.00577148,-0.000957336,0.00859924,-0.00575897,0.00586548,-0.00536041,-0.00176575,0.00887115,-0.00206787,-0.00411896,-0.00875183,-0.00257294,0.00103394,-0.00942047,0.00920349,0.000221252,-0.000766602,-0.00845245,-0.00133728,0.00256622,0.00159302,-0.0034024,-0.00881165,-0.00522552,0.00217529,0.00854218,0.0033429,-0.00784149,4.27246e-05,-0.00480621,-0.00331116,-0.00496918,-0.000742188,0.00936493,-0.0022113,0.00870392,0.00888306,0.0088681,-0.00179504,0.0034903,0.00298096,-0.00348419,-0.00549988,-0.00529755,0.000614014,0.000120544,0.00823669,0.00265289,0.00584473,-0.00750519,0.00597717,-0.00734589,0.0077356,-0.00854889,-0.000715942,-0.00498138,0.000349121,-0.000198059,0.00471985,0.0050589,0.0027478,0.0053598,0.00384705,0.00308746,-0.00100586,0.000937195,0.00322815,-0.00558319,-0.00184937,0.00434662,-0.00557434,0.00935944,-0.00572021,-0.00159943,-0.00599792,0.00322784,0.00644409,-0.00908844,0.0035199,-0.00366547,-0.00129395,-0.00530792,0.00954163,-0.006008,0.000128174,0.00755463,0.00362976,0.00651276,0.00477295,-0.00768829,0.0023468,0.00920929,-0.00829712,-0.00322418,0.00725525,0.0023941,0.00498047,-0.00624054,0.0049176,-0.0086203,-0.00633179,0.00107513,0.00689636,0.00647858,-0.00817139,0.00153534,0.00975403,0.00300323,-0.00147583,0.00295258,-0.0049469,0.00126617,-0.00218262,-0.00186066,0.00935608,0.0065799,-0.00122925,0.00490814,0.00422546,0.0092569,-0.00455322,0.00607147,-0.00377625,0.00460968,0.00690796,0.00944183,0.00691345,-0.00704926,-0.0027832,0.00783173,0.00285706,-0.00040741,-0.00456421,-0.00094635,-0.00438293,-0.00515228,-0.00437256,0.0059201,0.00175598,-0.00597137,-0.00314575,-0.00375641,0.0028363,-0.00255219,0.00317871,0.00283661,0.00542053,-0.00958221,0.00366333,0.00351166,0.00107117,0.00325104,-0.00762939,0.00108124,0.00635071,-0.00873993,0.00836304,0.00335785,0.00282166,-0.00524261,-0.00429688,0.00315399,-0.00295349,-0.000944519,0.00345337,-0.00171783,0.000587769,-0.00553314,0.00567627,-0.00844513,-0.00999207,-0.00369598,0.00143433,-0.00921539,0.00686951,0.00487946,-0.00520996,0.00878387,-0.00226501,0.00550568,-0.00519409,0.00336517,-0.00583313,0.00849518,-0.00445557,-0.002659,-0.00727234,0.00916046,-0.00393188,-0.00147614,-0.00502014,0.00781403,0.000439453,-0.000273743,0.00748596,0.00976837,-0.00227905,-0.00123932,0.00180847,0.005336,0.0019751,-0.00156036,-0.00549011,0.00982941,-0.0077356,0.00657562,0.00715271,0.0035611,-0.00734863,-0.00401886,0.00629944,-0.00815643,-0.00780151,0.00446869,0.00351257,0.00498932,0.00496826,-0.00514923,-0.00464539,-0.00168915,-0.00997681,-0.00506012,0.00338806,-0.00787933,-0.00857422,-0.00245148,-0.00582458,-0.00826874,-0.00176147,0.000489197,-0.000720825,0.00745514,0.00452393,0.0065744,-0.00473816,-0.0053952,0.00934448,0.00361664,0.00368591,-0.00650726,-0.0032373,0.00442841,-0.00888611,0.00943146,-0.00415894,0.0068222,0.00910828,-0.00726654,0.00064209,-0.00638947,-0.00576843,-0.00128876,-0.00977173,-0.0073941,0.00804626,0.00767731,0.00866211,-0.00337921,-0.00288513,0.00494415,0.0050061,0.00346771,-0.00700012,0.00082428,-0.00667725,-0.00404083,-0.00773621,-0.00936981,-0.00732544,0.00190765,-0.00353088,-0.00532562,0.00712402,-0.00587433,-0.00782166,-0.00173065,0.00573364,-0.00957428,-0.00904602,-0.0082724,0.00256592,-0.0063797,0.00935852,-0.00963837,-0.00331665,-0.00847809,0.00895447,-0.00551605,-0.00785156,-0.00305695,-0.00369568,0.00940704,-0.00197632,0.00769623,0.00297058,0.00544342,0.00837158,0.00659393,0.00551575,-0.00209442,0.00225464,0.00144867,0.00550232,0.00710602,0.00373535,0.00507294,0.0094928,-0.00164276,0.00187622,-0.00472076,0.00904968,0.00197174,-0.00926025,-0.00511993,0.000735474,-0.00673798,0.00938843,-0.00831207,0.00611267,-0.00745941,0.00188477,-0.00148468,-0.00825623,0.00511993,-0.00270874,-0.00682526,0.00919128,0.00131256,0.00967041,-0.0015213,-0.0049823,-0.00356903,-0.00191528,0.00223969,-0.00921448,-0.00921234,0.00659668,-0.0027298,0.00305725,0.00969513,0.0042688,0.00138275,0.00339539,0.00346588,0.00516357,-0.00261017,0.00836243,0.00741241,0.00834351,-0.00689606,-0.000479126,0.00184723,-0.00212891,0.00133759,0.00343323,-0.00791718,0.00280884,-9.67407e-05,-0.00833801,0.0084317,-0.00278076,-0.00838654,0.000769653,0.00620636,0.000164795,0.0042807,-0.00768127,0.0057193,-0.00429199,-0.00928253,-0.0071283,-0.00771698,-0.00708862,0.00873627,-0.00600891,-0.00378998,0.0058374,0.0011496,-0.00776062,-0.00718719,-0.00645142,-0.00423004,0.00917908,0.00240387,0.000107422,0.00540985,-0.00862732,-0.00970428,-0.00542358,0.00788177,-0.00961731,0.00680084,-0.00898193,0.00599823,0.00277161,0.00723175,0.00849487,0.00757172,-0.00989807,-0.00809906,-0.00893066,0.00541473,-0.00106384,0.00612091,0.00780396,-0.00266022,0.000836792,0.000204163,-0.00723877,0.00615936,-0.00763367,0.0094632,0.00500366,-0.000314026,-0.00491272,-0.00578949,0.00859375,-0.00926788,-0.00443787,-0.000241394,-0.00740601,-0.00288971,0.00535339,-0.00358002,-0.00893311,0.001633,0.00102356,-0.000492859,0.00307495,-0.00788727,0.00413513,0.00933258,-0.00731934,0.001362,0.00125061,-0.0087912,0.00894653,0.0071933,0.0039325,-0.0045517,0.00593506,-0.00758087,0.00874329,-0.00263641,0.00270874,0.00485199,-0.00275452,-0.00273285,0.00333008,-0.00269562,-0.00399841,0.000471497,-0.00313843,0.00758881,-0.0034259,-0.00271088,-0.00263428,-0.00148224,-0.00447449,0.00303253,0.00390503,-0.00209625,-0.00558167,-0.00198578,0.000541992,-0.00144073,-0.000184937,0.00754669,-0.00366089,-0.00170319,0.0032782,0.00194244,0.00535889,-7.1106e-05,0.00137024,-0.00348602,0.00666382,-0.00873199,-0.00434631,-0.00842621,0.00431641,0.00512665,-0.00730896,-0.00756561,0.00737915,-0.000682678,0.0040448,0.00940826,0.00991455,-0.00334747,0.00627747,-0.00219208,-0.00901489,0.00494476,0.000951538,-0.00205414,-0.00534668,-0.00299347,-0.00537048,-0.00486542,0.00998169,-0.00934967,-0.0011261,-0.000313416,-0.00896729,0.00868866,-0.00975281,0.00691437,-0.0031311,-0.00106598,-0.00968811,-0.00286957,-0.00844727,-0.00580109,0.00563049,-0.00435272,0.00414673,-0.00770416,0.0077655,-0.0072226,0.00871338,-0.00396271,-0.00672058,0.00383331,0.00431519,-0.00676422,0.00373474,0.0091275,-0.00498535,-0.0032962,0.00569397,-0.00602753,0.00987427,0.00425385,-0.0092804,0.00868073,0.00295654,-0.00130157,-0.00462585,0.00856476,-0.00667603,0.00785004,0.00122009,-0.00606293,0.00503906,0.00452118,-0.00518005,-0.00988983,0.00716431,0.00652435,0.00773621,0.00739655,-0.00623779,-0.00332794,-0.00346863,0.0011087,0.00389526,0.00277679,0.00276794,-0.00844086,0.00162598,-0.00234894,-0.00699158,0.00406036,-0.00398315,-0.000892639,-0.00118469,0.00892487,0.00113037,0.00995819,-0.0032489,0.00146515,-0.00397095,-0.00198395,0.0083783,0.00199371,0.00477539,-0.00390656,0.000259399,-0.00417694,-0.00356812,0.00200287,0.00395691,-0.00673431,0.00506104,-0.00144318,-0.00396667,0.00963409,0.00972534,-0.00643219,-0.00194885,0.00524078,-0.0055127,-0.000151672,-0.00342712,0.00539825,0.00840942,-0.00478912,0.00316101,0.000419006,0.0055542,0.00246796,-0.00562195,0.00561554,0.00498413,0.00943207,-0.0082135,0.00130035,-0.00923828,0.00891571,0.00194885,-0.00721405,-0.00805054,-0.00126862,-0.00357239,-0.00961517,0.00260986,0.00169159,-0.00821472,0.00940948,0.00180542,0.00560883,0.00958435,-0.00982758,-0.00640137,0.00329559,-0.00361267,-0.00201385,0.007052,-0.00743561,0.00375671,0.00316315,-0.00377197,-0.00377228,0.008255,0.00101593,0.000189209,0.00209808,-0.0085553,-0.00814301,0.00299805,0.00298798,-0.000111694,0.00099884,-0.00628296,-0.0032901,0.00514832,-0.00124603,0.00640869,0.00607635,0.00378723,0.000434875,0.000135498,-0.00110016,-0.00263245,0.00635406,-0.00104004,0.00799286,-0.00754822,0.00182404,-0.00805542,-0.00883209,0.000602417,-0.00284271,-0.00684814,-0.00876251,-0.00161804,0.00766632,0.00164429,-0.0039859,0.00735291,-0.00633636,0.00148438,-0.00168976,-0.00592224,0.000461731,0.00173462,-0.00406158,-0.00988098,-0.00162689,-0.00354248,-0.00828888,-0.00796082,0.00271027,0.00471558,-0.00655914,0.00140076,-0.00621429,-0.00942871,-0.00605988,0.00476624,-0.00308807,0.00308716,-0.00897858,-0.00630188,0.00240143,-0.00367432,0.00749725,0.00475891,0.00556671,0.00934937,-0.00881989,-0.000488892,0.00672028,0.0062207,-0.00511749,0.00451721,-0.00882538,-0.0039978,-0.00358307,-0.00866028,0.00924225,-0.00724365,-0.00140411,-0.00345886,-0.00376434,-0.00445435,0.00923187,0.00168396,-0.00753265,0.00843262,0.00113739,-0.00666931,0.00324982,0.000479736,-0.00787506,0.00304382,-0.00110443,0.00574951,0.00500702,0.00738586,-0.0052829,0.00330444,0.00759613,0.00791931,-0.00897308,-0.00279297,-0.00729523,-0.00879333,-0.00686249,-0.00348022,-0.00185455,0.00881042,-0.00863861,-0.00469482,0.00673065,-0.00270691,0.00101105,-0.00737427,0.00627289,-0.00178284,0.00239899,-0.00745605,0.00958466,-0.00185486,0.000837708,0.00412231,-0.00552155,0.00863953,0.00663971,0.00142334,0.00376678,0.00626282,-0.00488251,0.00350952,0.00526215,-0.00742249,0.00658356,-0.00555664,-0.00822296,-0.00585388,0.0063504,0.00328735,0.00112396,0.00253113,0.00473053,0.004104,-0.00388458,-0.00570496,-0.00296356,-0.00404419,0.0045639,-0.00899963,0.00358063,0.00290527,-0.000718079,-0.000790405,0.0096756,-0.00598511,-0.00191803,-0.00951477,0.00563385,0.00334717,0.00377655,0.00138977,0.00676788,0.0099646,0.00417816,-0.00651428,-0.0066098,-0.00207031,-0.0079007,-0.00666443,-0.00918671,-0.00369507,0.00535248,-0.00749817,0.00934967,-0.000847168,0.00675018,0.007547,0.00431183,0.00553589,0.00410492,3.35693e-05,-0.00398773,-0.000483398,-0.00977081,-0.00347595,0.00976349,-0.00984253,0.00293549,0.00858093,-0.00412201,-0.008479,0.00503632,-0.00723328,0.00966827,0.00266968,0.00434418,-0.00935608,-0.00855316,0.00766602,-0.00632843,0.00877502,0.00652618,-0.00442749,-0.00916901,-0.00127747,0.00521881,0.00045166,-0.00136505,-0.00295105,0.00283722,0.00136597,0.00489594,0.00531677,-0.000306091,0.00237793,0.00242645,-0.0099115,0.00110138,-0.00744995,0.009039,0.00292664,-0.00262787,0.00594482,0.00754608,0.000393677,0.00381866,0.00162476,0.00576019,0.00405212,0.000753479,0.00365234,-0.00350616,0.000464478,-0.00651093,0.00109009,-0.00244049,0.00119324,-0.00766205,0.00800049,-0.00823029,0.0028009,-0.00738739,0.00344604,0.00693695,0.00684998,-0.00537445,-0.00851074,-0.00412628,-9.70459e-05,0.00368927,0.00119263,-0.00360748,-0.00647766,-0.00988373,0.00661865,-0.00869415,0.00427063,0.00921906,0.00682983,0.00842621,-0.00628967,0.00131012,0.00588867,0.000566101,0.00840393,-0.00829803,-0.00714233,0.00553802,-8.60596e-05,-0.00929291,0.00179932,0.00615448,0.00480286,-0.006362,-0.00822388,-0.00977203,0.00463318,0.00080719,0.00685059,-0.00942902,0.00596741,-0.00247284,-0.00391479,0.00499603,0.000368042,-0.00588959,-0.00645752,-0.00368439,0.00439758,0.00586945,-0.00171509,-0.00765778,-0.00038147,-0.00688324,-0.005625,0.00588837,-0.00740662,0.00116486,-0.00912476,-0.00523346,-0.00511536,0.000326233,0.00184814,0.00178925,0.00305481,0.00591339,0.0063562,-0.00523102,-0.00133362,-0.00176117,0.00846191,0.00651825,0.00828186,0.00261505,-0.00277222,-0.00515045,0.00346375,0.00935455,0.00671631,0.00257538,0.000774536,-0.00623016,-0.00401001,-0.00249176,0.00177673,-0.0038266,0.00911133,-0.00753937,-0.00696716,0.00187775,-0.00485718,0.00524506,0.00610535,0.00119537,0.00814697,-0.00132599,-0.00244324,0.00943878,0.00718628,0.000559998,0.00894958,0.00692047,-0.00367676,0.00371552,0.00684631,-0.00104706,0.00462036,0.00595306,0.00280945,-0.00415131,0.00614014,-0.00991486,-0.00659851,-0.00707977,-5.49316e-05,0.00392426,0.000184937,-0.00951996,-0.00990234,0.000282898,0.00972229,-0.00615936,0.0056604,-0.00302643,-0.00642395,-0.00668549,0.000695801,-0.00319122,0.00830872,0.00421417,-0.00573364,0.00760101,-0.00451721,0.00685211,-0.00956543,0.00216278,0.00166077,0.00654083,-0.00173706,-0.00169342,-0.00159485,-0.00640717,-0.00818604,-0.00115509,0.00227844,0.00332062,-0.00984985,-0.00840973,-0.00515686,-0.00396332,-0.00266602,0.00935516,0.00266174,-0.00294647,0.00242798,0.00995209,-0.00270325,-0.00331635,-0.000505371,-0.00380646,-0.00468933,-0.00976044,0.00759644,-0.00410797,-0.00173401,-0.00196625,-0.0092041,0.00186005,-0.00727478,0.00537872,-0.00184448,-0.0080899,-0.00974915,0.00258698,0.00373779,0.00885468,0.0074054,0.00497101,0.00660522,0.000506287,0.00575134,-0.00715668,-0.00917969,-0.000322571,-0.0081488,-0.00848358,0.00544556,0.0041806,-0.00273254,-0.0086972,0.00454346,-0.00317169,-0.00143738,0.00751495,0.00717651,0.00543304,-0.00270081,0.000465393,-0.00259277,0.00280731,3.96729e-05,-0.00453339,0.0042981,0.00676361,-0.00165344,0.00283112,0.00191162,0.000114441,0.00878235,-0.0021286,0.0093103,-0.0093277,-0.00709045,0.000899963,-0.00944336,-0.00875031,-0.00270935,-0.00277069,-0.00528687,-0.000340881,-0.00651184,-0.00282806,-0.00415771,-0.00128693,-0.00193542,-0.00395966,-0.00699341,-0.00377594,-0.0074176,-0.00585297,-0.00973145,0.00500458,0.00360413,-0.0031955,-0.00330933,0.00286713,0.00269226,-0.00567474,0.00633545,-0.00737579,0.0064093,0.00202179,-0.00173462,0.00208832,-0.00368225,0.000206604,-0.00345703,0.00407196,-0.0010199,-0.0058078,-0.00976929,-0.00361237,0.00595886,-0.00570892,-0.00660889,0.00184784,-0.00618347,-0.00418427,0.00508667,0.00826508,0.0041156,-0.000921326,0.00937988,0.00845184,0.00341858,0.0093924,-0.00466675,0.000220642,0.00328796,-0.0029306,-0.00299072,0.00638397,0.000286255,-0.00257782,-0.00652954,-0.00524567,-0.00402405,-0.00923676,0.0087793,-0.00185577,-0.00308044,0.00240509,-0.00800171,-0.00563385,-0.00532043,0.00266022,-0.00281006,0.0062326,0.00581848,0.00684113,0.00341675,0.00155609,-0.0081012,-0.00473969,-0.00525879,-0.00685089,-0.000516968,-0.00676971,0.00022583,-0.00117584,0.000133667,-0.00893646,-0.00606689,0.00139374,-0.00958679,0.00407257,-0.00507446,0.00867035,-0.00811584,-0.00743011,0.00726563,-0.00653351,-0.00889099,0.00186798,1.58691e-05,-0.00640533,-0.000349731,0.00227936,0.00723877,-0.00813263,-0.00592957,0.00911652,0.00799683,-0.00390289,-0.00406799,0.00269196,0.00635254,-0.000903625,-0.00820251,0.00831818,-0.00863159,-0.00132233,-0.00677063,-0.00369232,-0.00289307,-0.0023465,-0.00320984,0.00197296,0.00263062,0.00383636,0.00404236,0.00562653,-0.00799805,-0.00996124,0.00154846,-0.00741913,-0.00571655,-0.00592682,0.000870972,-0.0068515,0.0035376,-0.00124786,-0.00142761,0.00264191,-0.0011731,-0.00811188,-0.00378479,0.0013736,0.00421387,0.00629364,0.000361938,-0.00534393,0.00876099,-0.000218811,0.00257507,-0.00719818,0.00653076,-0.00483673,-0.000582886,-0.00887665,-0.00341431,0.00025238,-0.00754944,0.00993317,0.00298828,0.00786102,0.00823792,-0.00545624,-0.00519897,-0.0041983,-0.00165833,-0.00473236,0.00608643,0.0068869,-0.000675659,0.0074173,-0.00409302,0.00892914,-0.00725159,-0.00869476,0.0083252,-0.00525909,0.00517639,-0.00775604,-0.00759644,0.0021347,0.00817078,0.000545959,0.00220459,-0.00607697,-0.00170593,-0.00847626,-0.00320923,-0.0020816,-0.00289124,0.00548981,0.000224609,0.00693329,-0.00882263,0.00775665,0.0015686,-0.00121979,-0.00793762,0.00863678,-0.00511475,-0.00372833,-0.00367371,0.00344269,-0.000762939,0.00722015,0.00553162,-0.00751312,-0.00131348,0.00443817,0.00624084,0.00108185,0.00229614,0.00573822,-0.00998352,-0.0004599,0.00412842,-0.0060672,-0.00657898,0.00317413,0.00324585,-0.00316559,-0.00198303,-0.00770355,0.00371094,0.00725555,-0.00963318,-0.00778046,-0.00541382,0.00300873,0.00203308,-0.00674408,0.00993408,0.00690643,0.00957825,-0.00928192,0.00881714,0.00676117,-0.00543518,0.00491852,-0.00470215,-0.00461456,0.0035553,0.00116974,-0.00156128,-0.00940826,0.00811218,0.00978424,-0.00769775,-0.00480743,0.00479797,0.00607452,-0.00404907,-0.00299957,-0.00482483,-0.00964691,-0.00655273,0.00882782,0.00580627,0.00793243,-0.00614624,0.00848724,0.00825378,0.00912506,-0.00876709,-0.0012088,-0.0009198,0.00924347,0.00464722,0.00755219,-0.000151978,0.00860016,-0.00184082,0.0075827,-0.00288025,-0.00749237,0.000831299,-0.00330475,0.00245789,-0.00872162,0.00672607,-0.00229767,-0.00757507,0.000224915,-0.00509399,-0.00158356,0.00858337,-0.000340271,0.00943359,-0.00834991,-0.00250427,-0.00510468,-0.000628662,-0.00478424,-0.00927551,-0.0037558,-0.00121826,-0.00807404,0.00483215,-0.00098114,0.00672729,0.0095932,0.00138123,0.0035318,0.00727051,0.00102997,0.0069342,-0.00490448,0.00947388,0.00404877,-0.00694641,0.00402252,0.0073999,0.0014621,-0.00369812,0.00562531,0.000111084,0.00108246,-0.00175842,0.00021637,-0.00833008,-0.00427765,0.00543518,-0.00689178,-0.00886108,0.00319427,0.00944519,-0.00538666,-0.00741943,0.00631073,0.00683411,4.42505e-05,-0.00494263,-0.00711578,-0.000835571,0.00971344,0.00263184,-0.00427277,-0.00700134,0.00893341,0.00436646,-0.00734772,-0.000100708,0.00801666,-0.00567627,0.00647186,-0.00357117,0.0022757,-0.00843384,0.00499847,0.00414978,-0.00797699,0.00015625,0.00104462,0.00962463,0.00257111,0.00915649,-0.00757721,0.00441589,0.00423248,-0.00737061,0.0019455,0.00508606,-0.00768036,0.00963745,-0.00257477,-0.00680237,0.00714508,0.00424316,-0.0083255,-0.00468689,-0.0059787,0.00550903,0.0025058,0.002995,0.0032608,0.00749756,-0.00726837,-0.00719421,-0.00982391,0.00927124,-0.00983551,0.00630798,-0.00492035,-0.00510742,0.00761688,-0.00993591,0.003284,-0.00657593,0.00290131,-0.0043634,0.00510162,-0.00107178,-0.00116974,-0.000411987,-0.00415497,-0.00953247,0.00321625,0.00348083,-0.00417328,-0.00789551,0.00887177,-0.00612244,-0.00964081,-0.00709839,-0.00639069,0.0023407,0.00975494,0.00692139,0.000241394,0.00543274,0.00932648,-0.00677368,-0.00341949,0.00471619,0.00938629,-0.00412109,-0.00456085,0.00675354,-0.00475311,0.00394165,-0.00537018,0.0031073,-0.00277924,-0.00852295,-0.00303497,-0.00966003,-0.00937958,-0.00245239,-0.00974274,-0.00998596,-0.00424164,0.00621582,0.00731903,0.00869202,-0.00205292,0.00654419,0.00596283,-0.0020636,0.00749908,-0.00740479,0.00900116,-0.00569031,-0.000273132,0.0034314,0.00424652,-0.00062561,-0.00505707,0.00311523,0.00451141,-0.000307007,-0.00154022,0.000709229,0.00760834,0.006828,0.000589905,-0.00972412,-0.00365021,-0.00265808,-0.00335419,-0.00912231,-0.00145172,-0.00720276,0.00694,0.00657715,0.0070163,-0.00024353,-0.00321503,0.00643677,-0.000433655,0.0097821,-0.00350677,0.00451904,-0.000989075,-0.000563354,0.00137726,-0.000113525,-0.00683746,-0.00971741,-0.00825043,-0.00339844,-0.00516632,0.00888245,-0.00707733,0.00372681,0.00183685,0.00679871,-0.00479095,-0.00467529,-0.00301544,0.000593872,-0.0060788,-0.00954224,0.00808929,-0.00816956,0.00937164,-0.00681152,0.00796356,0.00707092,0.00687286,-0.00742065,-0.00558014,-0.00212219,-0.00326263,0.00269287,-0.00972931,0.000813599,-0.00572235,0.00259155,0.00332855,-0.0025592,-0.000193787,-0.00366211,0.00640594,-0.0056781,-0.00136444,-0.00700562,-0.00268463,0.00301941,0.00107819,0.00662354,-0.00113068,9.58252e-05,0.00244659,-0.00371216,-0.00111969,0.00711365,0.00305328,0.0060498,-0.00983917,-0.00936462,0.00821075,0.00497192,-0.00947662,0.00222351,0.00823151,0.0071167,0.00278046,-0.00155945,-0.00157196,-0.00845337,-0.00525543,0.000848999,-0.000887146,0.00232422,-0.00077179,-0.00398865,-0.00440155,0.00851196,-0.00595612,-0.00450989,-0.00180267,0.00417236,0.00200409,-0.00415222,0.00222198,0.00836792,-0.00907867,-0.00135315,0.00798492,0.00516113,-0.00639191,-0.00955017,0.000798645,0.0036145,0.00787689,0.00281921,-0.00902435,-0.00220947,-0.00345978,-0.0076825,-0.00617157,0.00675171,0.00741058,0.000507202,0.00966949,-0.00543945,-0.00669952,-0.00604919,0.00381134,-0.00972046,-0.0079776,0.00421082,0.00656647,0.00797119,0.00638885,0.00784973,-0.00675262,0.006698,0.00421234,0.00643005,0.00416656,-0.00947754,-0.00169464,0.00651428,0.00463654,0.00850708,0.00648041,-0.000335083,0.00496979,-0.00528564,-0.00845001,0.00244446,0.000478821,0.00820679,0.0013266,-0.00358459,-0.00852386,-0.00695313,0.00862274,0.00814026,0.00327423,-0.00170288,-0.00874908,0.00918152,0.00618561,-0.00197998,-0.00797638,-0.00389832,-0.00447723,-0.00872192,-0.00124664,-0.00953674,-0.00840179,0.00213379,0.00425262,-0.00117126,-0.000275574,-0.000350342,0.00633392,-0.00723938,-0.00978607,-0.00211182,0.00780975,0.00882141,-0.00162079,-0.00408813,-0.00350739,0.00857361,0.00453278,-0.0022168,0.00519501,-0.00142029,-0.00601288,-0.0074353,-0.00827057,-0.00959778,-0.00294525,-0.00568115,-0.00109161,0.000603638,0.00904816,0.00210815,-0.00545563,-0.00925354,-0.00972015,-4.88281e-06,-0.00855011,0.00739319,0.00606232,-0.00295776,0.00743744,0.00210632,0.00670807,0.00731201,0.00531952,-0.00855164,0.0075296,0.00986694,-0.00709137,-0.00301819,0.00883942,0.00876953,0.00301727,0.00526917,-0.00404999,-0.00691772,-0.00654205,0.00787292,-0.000826111,-0.00313232,0.00704315,0.00135559,-0.00617645,-0.000811768,-0.00841461,0.00727966,0.000211487,0.00410645,-0.000102844,-0.00779236,0.00365021,0.000684814,0.00979095,0.00770203,-0.00554779,0.00298584,0.00407928,-0.00967468,0.00792999,-0.00992798,-0.00942535,0.00164001,0.00439606,0.00600586,0.00208954,0.00820862,0.0091629,-0.000150146,-0.00356354,0.00159363,-0.00745697,0.0056665,-0.00357208,-0.00164246,0.00984894,0.00251831,0.0098764,6.28662e-05,0.00139313,-0.00553223,0.00959442,-0.00672791,-0.0075119,-0.00942261,-0.00660553,0.00954773,-0.00655365,0.00490967,0.00408905,0.00545227,-0.000419617,-0.0034729,0.00949066,0.00254822,-0.0087973,0.00949219,0.0024118,0.00739807,-0.00637421,-0.00713257,0.000664978,-0.00843567,-0.00283783,0.000715332,0.00706268,-0.0083905,-0.00287567,-0.00790161,0.00941742,0.00909607,-0.00617523,-0.0089209,0.000541687,-0.00941345,-0.00742401,0.00671997,-0.00175201,0.00764343,0.00369049,-0.0069165,0.00534882,-0.00317078,0.00248077,0.00923218,0.00965668,-0.000293579,0.00925934,-0.000771484,0.00398407,0.00283752,0.00933868,-0.00786499,0.00614349,-0.00221497,-0.00696869,0.00201416,-0.00105255,0.00111145,-0.00435028,0.00792847,-0.00979156,-0.00562073,-0.00249359,-0.00605957,-0.00726105,0.004151,0.00391388,0.00911255,0.0043515,0.00198914,0.00518463,0.00750732,0.00785858,0.00445618,-0.00336884,0.00818726,-0.00892731,-0.00688538,-0.00143402,-0.00478516,0.00680634,-0.00547302,-0.00369843,-0.00234741,-0.00712799,0.000255737,0.000150452,0.00956299,-0.00791779,0.0068634,0.00542511,-0.00999146,-0.00775055,-0.00408752,-0.00756195,0.00305176,0.00618622,-0.00603455,0.00650177,-0.00224487,-0.00829498,-0.00741516,-0.00207123,0.00818115,-0.00838165,0.00833313,0.00203156,-0.00660767,-0.00626129,0.00277283,-0.00087738,-0.00254883,-0.0091214,0.00246643,-0.00548553,0.00942017,0.000850525,-0.00102356,-0.00148041,0.00336182,0.00646698,0.00886536,0.0064505,-0.00166138,-0.00445953,-0.00630432,-0.00138031,-0.00158691,0.000883484,2.99072e-05,0.000339661,-0.00735229,0.000308533,-0.000569458,0.00192291,-0.00489502,-0.00337189,0.00846008,-0.00131805,0.00484741,-0.00234528,0.00868103,-0.00907074,0.0059375,-0.00379913,0.00665588,0.00397736,0.00743774,-0.00992096,-0.00605286,0.00813873,0.00341064,0.00210175,0.00711731,-0.00127411,-0.0070813,8.14819e-05,0.00772888,-0.00394867,2.44141e-05,-0.00316925,0.00234436,0.00542755,-0.00620972,-0.00983795,0.00252625,-0.00283295,0.00827881,0.00288788,0.00483704,0.00658234,0.00255249,0.00282074,-0.00916077,-0.0060141,0.000673828,0.00277313,0.00709534,0.00469025,-0.00829468,0.000557556,0.00516785,0.00900787,0.00970947,-0.00101349,0.00161926,0.00225128,-0.00625122,0.0058725,-0.00198792,0.00473297,0.00788574,-0.00597198,0.000908813,0.00176544,0.00118286,0.00126556,0.00187195,0.00366119,0.00770264,-0.00960236,-0.00253601,0.00573273,0.00650757,0.00923676,0.00924744,0.00829254,0.00166016,-0.0094046,0.00378479,-0.00334686,0.0022229,-0.00771393,-0.00736145,0.00112701,0.0022583,-0.00287872,-0.00762878,-0.00297333,0.000828857,-0.00708649,0.00454529,0.00466461,0.00199707,-0.00752472,-0.00427673,0.00935333,-0.00517456,-0.00638092,-0.00253235,0.00140533,-0.00662354,-0.00084259,0.00634094,-0.00386688,-0.00328735,-0.00309723,0.00390564,-0.00615082,0.00889648,-0.000332336,-0.00327576,-0.000133972,-0.00100952,0.00526459,-0.00364075,0.00449615,0.00105713,-0.00349396,-0.000626831,0.00305206,-0.00584106,0.00120453,0.00732849,-0.00415375,0.0023584,-0.00782745,0.00678772,0.00819122,-0.00528198,0.0072226,0.00931335,-0.00960052,0.00530029,0.00916718,-0.0085321,-0.00221649,-0.00683228,0.00581879,-0.00518616,-0.00934418,0.00238281,0.00998993,0.0059137,-0.00567108,0.00200806,-0.000506897,-0.00367004,-0.000884705,0.00610596,-0.00285919,0.00262512,0.000327454,-0.00626099,-0.00925446,0.00636169,-0.00172211,0.00896973,-0.00688019,-0.00589783,-0.00172089,0.000860596,0.00207611,-0.00259094,-0.00935638,0.00347412,0.000426941,-0.00715515,-0.0093161,-0.0041272,-0.0040152,0.00197205,-0.00128754,0.00211914,0.00156219,-0.00864685,4.18091e-05,-0.00872437,-0.00502838,-0.00744934,0.00498444,-0.00259521,-0.000974426,0.00212708,0.00885284,-0.000430908,0.00153656,0.0016449,-0.00804047,0.00183105,-0.00468292,-0.00233337,-0.000382996,-0.00674683,-0.00182037,0.00175476,0.00213776,0.00789795,-0.00706329,-0.0095282,-0.00516571,0.00482788,0.00740082,0.00538025,-0.0019809,0.00810547,-0.00561554,-0.0069574,-0.0029953,0.00679321,-0.00829987,0.00502136,0.00210358,-0.00504639,0.00216034,-0.00212097,0.00862823,-0.00835083,-0.00642242,-0.0068219,-0.00310883,0.000942383,-0.00123566,-0.00251892,-0.0077951,-0.00810425,-0.00446686,0.00235046,0.0048819,-0.00142822,0.00669647,0.00434875,-0.00976532,3.2959e-05,6.68335e-05,0.00503845,0.00857574,0.000341797,0.00845673,-0.00901794,0.00521759,0.00856079,0.00967865,-0.00625793,-0.00952728,-0.00124756,0.0065451,0.00988098,-0.000346375,0.00997925,0.00686859,0.000961304,-0.00692719,0.00630371,0.00346161,-0.00645447,-0.00395721,-0.00321167,-0.00586334,-0.000803833,-0.00112396,-0.00450439,0.00170624,-0.00552429,-0.00311493,0.00148804,-0.00601715,0.000946655,-0.00961761,-0.00117187,0.00377899,0.00517151,0.00468048,-0.00342163,0.00890717,-0.00128723,-0.00990814,0.00880127,-0.00782013,-0.00186707,0.00192902,-0.00544067,0.00140961,0.00499451,0.000504456,-0.00208496,0.00940887,0.00585999,-0.00886932,0.00793091,-0.00600983,-0.00770813,0.00412018,-0.00133057,-0.002034,0.000852661,-0.00521454,0.00919312,0.00914886,-0.00689514,0.00343903,0.00356445,0.000351257,-0.00438904,-0.00460663,-0.00915405,0.00938568,-6.65283e-05,0.000960999,0.0051001,-0.000935364,0.00263489,-0.00454559,0.0053894,-0.00279938,0.00527771,-0.000813904,-0.00422363,-0.00339386,-0.00557556,-0.00253143,0.00532349,-0.00490631,0.00163757,0.000614319,0.00809326,-0.00452423,0.00347961,0.00393585,0.00314819,0.00556488,0.00151306,0.00774567,-0.00544922,-0.00182648,0.00230042,-0.00264374,-0.00863647,-0.0088858,-0.00259583,0.00308014,0.00764893,0.0071994,0.00338684,0.000229797,0.00246948,-0.00575836,0.00181091,0.00911774,-0.000112305,0.00505341,-0.000761108,-0.00494354,0.00896606,-0.0025528,0.00723328,0.00835846,0.00376709,-0.00576447,0.00235657,0.00433624,0.00335327,0.0032309,0.00617126,0.00330231,-0.00821289,-0.00275421,0.00523987,-0.00943085,-0.0018689,-0.00590729,-0.00887512,-0.00355072,-0.00355225,-0.00341583,0.000388794,-0.00374481,0.00579956,-0.00746735,-0.00540588,-0.00970062,-0.00975098,-0.00524933,0.000303345,0.00389435,-0.00114136,0.00105072,0.00907898,0.0073526,0.00569092,-0.0057547,-0.00251648,-0.00401337,0.00980835,0.00214691,0.00707947,-0.00989105,-0.00472656,-0.00243195,0.00442932,-0.00496796,-0.00885132,-0.00167877,0.00109558,0.00106842,-0.00850342,0.00721893,-0.00635925,0.00353058,-0.00462036,-0.00792633,0.00362732,0.00273102,0.00686035,0.00569794,-0.0023822,0.00398224,-0.00499878,0.00590424,0.00717468,-0.00240326,-0.00613525,-0.00449493,0.00886047,-0.00111298,0.00251343,0.00231293,0.00423767,0.00816559,0.00500977,-0.00085968,-0.000131226,-0.00925507,-0.00958374,0.00379974,0.00731628,-0.00306244,-0.00720459,-0.000896301,0.0031427,0.00205597,-0.00879028,-0.00713531,0.00891052,0.00641266,0.00972168,-0.0021048,-0.00881775,-0.00467987,-0.0026062,-0.00799225,0.00152039,-0.000909119,0.00828857,-0.00198517,-0.00351257,-0.00696259,0.00146851,0.00372894,-0.00235413,-0.00252777,0.000996094,0.00196259,-0.00844177,-0.00229218,-0.00406616,-0.00947174,0.00978699,0.0040567,0.000344238,-0.00776154,0.00889465,-0.00816864,-0.00671021,-0.0050943,-0.00955627,0.0013443,-0.00116699,-0.00865753,0.000996704,-0.00209198,0.00603638,-0.000638733,-0.00788391,-0.00816498,0.0089624,0.0017746,0.00036438,-0.00156219,0.00667358,0.00639496,0.00730408,-0.00197113,0.00323242,0.00603485,-0.000502319,-0.00407928,0.00770142,-0.00149323,0.00850769,0.00242584,-0.00585693,0.00662323,-0.00910339,-0.00714325,0.00161987,-0.00180328,0.00822693,0.00752594,-0.00580566,0.00603973,0.00706116,-0.00825409,0.000928955,0.00796478,-0.00103821,-0.00417084,-0.00411377,0.00678436,0.000491333,-0.0049118,-0.00187134,-0.00968903,-0.00678772,0.00983551,-0.00828125,-0.00864288,0.00368713,0.00538361,0.00571899,0.00773529,0.00347839,-0.00795502,-0.00580811,0.002258,0.00914856,0.00513214,-0.00380005,0.00273773,0.00226013,0.00495758,-0.00419434,0.001987,0.00937561,-0.0031662,0.00207153,-0.0021817,0.0020575,-0.0089267,0.00906006,-0.00695587,-0.00313171,0.00298859,-0.00416626,-0.00452301,-0.00462952,-0.00710785,0.00645508,-0.00207062,0.00412659,0.0060965,0.00998657,-0.00178619,-0.0053009,-0.00708588,0.000490723,-0.000857239,0.00365051,0.00865753,-0.00296997,0.00852875,-0.00745667,-0.00636078,0.00366699,-0.000815735,0.00794006,-0.00682831,0.00946411,0.00892181,0.0014032,-0.00243256,0.00848389,0.000553894,0.00949524,0.00213898,-0.000211182,0.00189301,-0.00622131,0.00719879,0.00744141,0.00575165,0.00081604,-0.00194061,0.00050415,0.00994232,0.0021698,0.00503326,-0.00696045,-0.00272247,-0.00559753,0.00343292,0.00411011,-0.00443024,-0.000923462,-0.00642914,-0.00222168,-0.00236847,0.00275452,0.000759583,0.00310669,0.00127533,-0.0030011,-0.00468842,-0.00584229,0.00931366,-0.00162781,-0.00746063,0.0099939,0.00955902,0.00843689,-0.00724457,-0.00532227,-0.00517609,-0.00624451,0.00127228,-0.00272827,0.00292084,0.0058905,0.0084024,-0.00816162,-0.00333771,0.00140442,0.00945831,-0.00255981,0.00386078,0.00185974,0.0047525,-0.00186035,-0.0026712,-0.00618103,-0.000402527,0.00299927,-0.00512115,0.0088446,0.00430573,0.00608154,-0.000676575,0.00349915,-0.00581024,0.00644897,-0.00152496,-0.000654907,0.00956207,0.00816406,0.00514618,0.00294495,-0.00426483,0.000289307,-0.00285065,0.00586121,0.00302155,-0.00311279,-0.00270294,0.00465637,0.0067337,-0.00297974,-0.00659821,0.000892944,0.00718414,0.00475098,-0.00172394,0.00113342,0.00968536,0.00914185,0.00973236,-0.00305969,0.00454987,0.00425537,-0.00941681,0.0048761,0.00709015,0.00915405,0.00864105,0.0065033,-0.00238129,0.00790039,-0.00328156,0.0083844,0.00144806,0.00955688,-0.00737213,0.00208191,0.00889069,0.00818604,-0.000818176,0.00415833,-0.00474091,0.00285034,0.00419281,-0.00382385,0.000865784,-0.0023877,0.000473328,0.00469788,-0.00897675,0.00153442,0.00583588,0.00128601,-0.00395599,0.0086792,0.00309296,0.00250305,-0.00875946,-0.00189087,5.70679e-05,0.0099115,-0.00307465,-0.00611328,0.00954071,-0.00992615,-0.00158905,0.00507446,0.00935638,-0.00544739,0.00600983,0.00573486,0.00231659,-8.97217e-05,-0.00496552,-0.00506958,-0.00376617,0.00770935,0.00579742,-0.00327637,0.00392059,0.00451233,0.00361115,0.000177002,0.00318939,0.00188171,-0.00121185,-0.000646973,-0.00314728,-0.00362,0.00664093,-0.00668579,-0.00727692,0.0095697,0.00748199,0.00612305,0.00361298,0.00801331,0.00662384,0.00684204,0.0073349,0.00327332,-0.00562103,0.00953369,0.00670135,-0.00808777,0.00605988,-0.0067395,0.00952484,-0.00450745,0.00197906,0.00208496,0.00861786,0.000576782,0.00744904,0.00506958,0.00179291,-0.00127258,-0.00721771,-0.00372314,-0.00813751,0.00650696,-0.00670868,-0.00523071,0.0066391,0.00547791,0.00928864,0.00460937,-0.00106476,0.00220276,0.00608673,-0.00514038,0.00656342,0.00824402,-0.00600189,-0.00041748,-0.00766388,0.000164185,0.00833527,-0.00215942,0.00406586,-0.000474243,0.00941071,-0.00630371,-0.00543488,-0.00710876,0.00253693,-0.00378784,0.00164642,-0.00817688,-0.00197357,-0.000549316,0.00812225,-0.00711609,-0.00880829,0.00247437,0.00180511,-0.00236389,0.00234528,0.0093457,-0.00449249,-0.00735779,-0.00320038,0.0091272,0.00704193,0.00946472,0.00486725,-0.00411865,-0.000779114,0.00466614,0.00186066,0.00867065,-0.000143127,-0.00019104,0.00809235,-0.00844238,0.00176239,0.00145569,0.00887482,-0.00639526,0.00274994,0.00116882,-0.00547943,0.00887451,0.00563202,-0.00448914,0.000342102,-0.00357056,-0.00177887,0.00604431,0.00665192,0.000332031,-0.00667023,-0.000668335,-0.00123749,0.00964478,0.00877045,0.00693542,0.00698639,-0.00156982,0.00735565,0.00541809,0.00663605,0.00575073,-0.00310211,-0.00365784,-0.00197601,-0.00433105,-0.00979034,0.00627014,0.00646271,-0.00275269,0.00510345,0.00676453,0.00226471,0.00454834,0.00439178,-0.00561218,0.000742493,-0.00336548,-0.00411285,-0.00929749,0.00220856,-0.00243164,-0.00759796,0.00227112,-0.0080246,-0.00358765,-0.00825104,0.000656128,0.00035553,0.007229,-0.00325958,0.00242004,0.00266144,0.00908081,-0.0048111,0.00912537,-0.000794373,0.00603027,-9.30786e-05,0.00733459,-0.0046994,0.00713989,0.00870697,0.00861023,0.00125885,0.00647217,0.00440155,0.00951477,-0.00760712,0.0030896,-0.00519684,-0.00838928,0.0090152,0.00105469,-0.0072757,0.00146057,-0.00356171,0.00942993,-0.00402252,-0.00937317,0.00497467,0.00227783,0.00737518,-0.004328,0.00993683,-0.00133911,-0.00527008,-0.00184143,-0.00836273,0.0026416,-0.00914581,0.00464905,-0.00461151,0.00328247,-0.00643951,0.00670593,-0.00849701,-0.005354,0.00566132,0.000891724,-0.00470673,-0.00420532,-0.00503082,0.00876892,0.00707184,-0.00920898,-0.00570343,-0.00309998,-0.00784882,0.00869751,0.00145599,-0.00315247,0.000843811,0.00357666,-0.000740051,0.00517395,0.00846222,-0.00550903,-0.00447906,0.00344177,-0.00468109,0.00550293,0.00305145,-0.0017865,0.00672638,0.00567505,-0.000335999,0.00105164,-0.00700287,0.00906982,0.00817108,0.00851868,0.00944366,-0.00525024,-0.00361481,0.00217712,-0.00362152,0.00677734,-0.00288116,0.00858948,-0.000885925,-0.00578491,0.00818451,-0.000681763,0.00796295,-0.00887451,-0.00760529,-0.0090741,-0.00176239,-0.00342896,-0.00243805,0.00497498,-0.00974945,-0.00538574,-0.00350128,0.00802795,0.00931427,-0.00568237,0.00701752,-0.00835266,0.00574127,0.00974365,-0.00806915,-0.00760437,-0.00515594,-4.5166e-05,-0.000948792,-0.00816467,-0.00306488,0.00901367,0.0011911,-0.00347107,-0.00267303,0.00598267,-0.00383698,-0.00196106,0.00633209,0.00492432,0.00677948,-0.00707214,-0.000737,0.00490112,0.000852966,0.00275818,-0.00356781,0.00997559,-0.00880402,-0.00590759,0.00315216,0.00921021,-0.00437897,-0.00150696,0.00973541,-0.00333252,-0.00305939,-0.00747742,-0.00850555,-0.00859009,0.00296722,-0.00225647,0.00874176,-0.0025,0.00651337,0.000718384,0.00678986,0.00400024,0.00539154,-0.00699036,-0.00404877,0.00497314,0.00241425,-0.00882019,-0.00846161,-0.000518799,0.00539398,-0.00320862,-0.00613617,-0.00841309,0.00714325,-0.00359314,0.00824005,-0.00964722,0.00547455,0.00158875,0.00497955,0.00984131,0.00320038,0.00889954,-0.000605164,0.00911499,0.00813324,-9.82666e-05,-0.0082016,-0.00776367,-0.00691437,0.00115784,0.00750275,0.00826782,-0.00412994,0.00423035,-0.00317963,-0.00872803,-0.000700989,0.00568176,-0.00493622,0.000311279,-0.008815,0.00707458,0.00254547,-0.000551758,0.00434052,-0.00502869,0.00457794,-0.00225464,-0.00342194,0.000934448,-0.00852631,0.00926514,-0.00928986,0.00152649,-0.00145477,-0.00692993,-0.00545074,-0.00169006,0.00610504,-0.00677734,0.000907898,-0.00215271,-0.000534363,-0.0012146,0.00759857,-0.00829895,0.00893951,0.0038208,-0.00256622,-0.00356628,0.00983917,0.00739136,-0.00177399,-0.00639221,0.00247711,-0.00644043,0.00278778,0.00978577,-0.00783417,-0.00861206,0.00893158,-0.00346985,0.00921783,-0.00506104,-0.00053009,-0.00959656,0.00894562,0.00327515,0.00221527,-0.00703186,-0.00833832,0.000458984,0.00998016,-0.00921326,0.00267853,-0.00444702,0.000577087,-0.00457825,-0.00769135,0.00261963,-0.00318146,0.00343567,-0.00413544,0.000721436,0.00651703,-0.00360901,-0.00634125,-0.0060791,0.00248505,0.00085022,-0.00899628,-0.00871948,0.0025351,0.00837585,-0.00178802,0.00686279,0.00947968,-0.0044696,-0.00940399,-0.000269775,-0.00886871,0.00387634,0.00846832,-0.00605469,0.000302429,-2.38037e-05,-0.00285858,-0.00142944,-0.0051944,-0.00460754,0.0069278,0.00766846,-0.00254669,0.00668762,-0.00686005,0.000301514,-0.00394196,-0.00457581,-0.00390961,0.000532227,0.00343231,0.00816467,0.00109161,-0.0025769,-0.00261139,-0.00352844,-0.00154388,0.00503662,0.000739441,-0.00309265,0.0034964,0.0024353,0.0012973,-0.00896545,-0.00347504,-0.00631836,-0.00812531,0.00541565,0.00285431,0.00783813,-0.00971588,-0.00838684,-0.00720306,-0.00103271,-0.000661926,0.00618958,0.00166534,0.00613159,0.00684906,-0.0092926,0.00977203,-0.00660645,0.00562958,-0.00827087,0.0024295,0.00981567,-0.00650787,0.000817261,0.00995026,0.00946045,-0.00675079,-0.0054657,0.00764679,-0.00860962,-0.00728668,-0.00555725,-0.0041684,-0.000332031,0.00469696,0.0071051,-0.0001828,0.00335571,0.00701263,0.00408386,0.00991608,-0.00348389,0.00247284,0.00194153,0.00144073,-0.00178833,-0.00110992,0.0022406,-0.00529633,-0.00749512,0.00907684,-0.00845642,-0.0049826,0.00845825,-0.00915436,0.00141296,-0.0073056,0.000134277,0.00700897,0.00841125,0.00304718,0.00659546,0.00537933,-0.00589905,0.00638824,-0.0080957,-0.00123077,0.00504456,0.00803009,0.00512329,0.00499115,-0.00719543,-0.00171478,0.000314941,0.0068576,-0.00605652,-0.00753387,-0.00345825,-0.00781891,-0.0099762,-0.00911469,-0.00213379,-0.00622589,0.00760803,-0.00114471,-0.00664917,0.00944916,-0.00174133,0.00668854,-0.00294189,0.00201874,-0.00146179,0.00969757,0.00805054,-0.000704651,-0.00999084,0.00819489,-0.00960937,-0.00590851,-0.000765991,0.00749298,-0.00685913,0.00421967,-0.00222473,-0.00209564,-0.00963623,-0.00750763,0.00219543,-0.00525848,0.00112183,0.00672211,-0.00594299,-0.00168304,0.00947754,-0.000278625,-7.75146e-05,-0.00605682,0.00449341,0.00930267,-0.00864563,-0.00806732,0.000231934,-0.0017215,0.00491516,0.00759796,-0.00424438,-0.00553864,0.00216736,0.00125153,-0.00487305,-0.00933624,0.00967346,-0.00179413,0.00740845,0.00469818,-0.00100403,0.0087735,0.0066626,-0.000622864,0.00669739,0.00826691,-0.0080481,0.00251312,-0.00565979,-0.0030014,0.00733887,0.00691864,0.00848694,0.000281067,0.00188599,-0.00959381,0.000700073,0.00842682,0.00965576,-0.00421173,0.00754211,-0.00325165,0.00971069,-0.00912262,-0.00942444,0.00555817,0.00611328,0.00848602,-0.00363708,0.000168762,0.00792603,0.0064267,-0.00353333,-0.00910736,0.00921143,0.0075119,0.00744934,-0.0069577,0.00903198,-0.000445862,-0.00912659,0.00693024,-0.0085498,-0.00463409,-0.00669861,-0.00213104,0.00552856,-0.0072403,0.00629578,-0.00382904,0.00532959,-0.00545197,0.00641907,-0.00285126,0.00991577,0.0085434,-0.00476624,0.00111481,0.00334961,0.00755829,-0.000697632,-0.00661835,-0.0053064,0.00940521,-0.00981262,0.00426178,-0.00198975,-0.00310333,0.00445129,0.00906769,-0.00763794,-0.00215485,0.00365662,0.00811188,0.00181152,0.00506317,-0.00563416,0.00670685,-0.00457886,-0.00363678,0.00814148,-0.0048349,0.00725342,-0.0054422,0.00154602,0.00879913,-0.00362915,0.00745941,-0.00385803,0.00792145,0.00683594,0.00788055,-0.00150818,-0.00215546,0.00771118,-0.00636627,0.000158081,0.00888092,-0.00694092,0.00753143,-0.00229675,-0.00365692,0.00194214,-0.00261383,-0.00731018,0.000543518,-0.00157715,-0.00398956,-0.0083197,0.00679474,-0.00843628,0.00121674,0.00623718,0.00540924,-0.00457275,-0.00418243,-0.00707703,-0.00830048,0.00907593,0.00762543,-0.00669983,0.00597809,-0.00342773,0.00945282,-0.00606873,-0.00644257,0.00697876,-0.000887756,0.00637878,0.00475006,-0.00564209,-0.000583801,0.0072052,-0.00513153,-0.00222778,-0.00182281,-0.00202698,0.00422516,0.00128418,0.0082077,0.00524475,-0.00186737,-0.0060437,0.00732025,0.000582886,0.00690338,0.00985107,-0.00167267,0.000549927,0.00584991,0.00803101,0.00904144,0.00670837,-0.00471527,-0.00744141,-0.00772491,0.00562073,0.000520325,-0.00750366,0.00584076,0.00884949,-0.0081308,0.00190674,-0.00744904,-0.00704285,0.00464386,-0.000147705,0.000218201,-0.000493774,-0.000843201,-0.00960449,0.00165497,-0.0049408,0.00072052,0.00259888,-0.00532623,-0.00882141,-0.000352478,-0.0094751,0.0020871,0.00442688,-0.00874969,-0.00676392,-0.00829254,-0.00363342,-0.00415863,-0.00520508,-0.00365265,-0.00643982,-0.00126678,0.00426392,-0.00618073,0.00757019,-0.00976166,-0.00429443,0.00693573,-0.00504089,0.00566925,0.00818237,0.00350922,-0.00271057,0.00533844,0.00575684,-0.00364777,0.00112366,-0.00544159,-0.00250854,0.00327728,-0.00197571,0.00364166,-0.00255127,0.00709686,0.00455383,0.0079007,0.00469116,-0.00437653,0.00227478,0.00764801,0.00328125,0.00166962,-0.00225037,0.00819611,0.00228149,0.00304779,0.00254089,-0.000142517,-0.00424561,0.0025705,-0.00678894,-0.00205536,0.00276245,0.00805023,-0.00867737,0.00277008,0.00736816,-0.0077005,0.00343811,-0.000353699,-0.00136597,-0.0068692,0.00112,-0.0011142,-0.00937744,-0.00664337,0.000930786,-0.00419891,0.00239624,0.00078949,0.00443298,-0.00929535,-0.00198242,0.00824188,-0.00181091,0.008909,0.00654907,-0.00647369,-0.0062384,0.000726624,0.00205322,-0.000544739,0.00771301,0.00147003,0.00359253,-0.00615875,0.00160583,-0.00854828,-0.00477051,0.00949677,0.00200256,-0.00401581,0.00602661,0.00423431,0.000465698,0.00537994,-0.00995361,0.000866394,-0.00644226,-0.00504852,0.00635132,0.00720551,0.00284119,0.00501129,-0.000996094,-0.00393585,-0.00512146,0.000871887,-0.00293335,0.00525482,0.0012323,-0.00715424,-0.00539795,-0.00240997,-0.00153503,-0.00375458,-0.00932739,0.000882263,0.00813904,-0.00861664,0.00934082,0.00794403,-0.00318298,0.00357208,-0.000330811,-0.00341217,-0.0039386,0.00312408,-0.00427979,0.00962616,0.00243469,0.00535187,-0.0034436,-0.00512848,-0.00250061,-0.00943207,0.00624023,0.00513641,0.00781799,0.00408478,-0.00616577,-0.00176666,0.004953,-0.0037851,-0.00659912,-0.00302521,0.00546692,0.00227081,0.00400269,0.00917328,-0.00907776,0.002565,0.00970215,0.0076413,0.00788147,0.00240997,-0.000438232,-0.00980865,0.0079071,-0.00788177,0.00764404,-0.000364075,0.00756165,0.00700226,-0.00698853,0.00378754,0.00840759,0.00737457,-0.000273438,-0.00454132,-0.00299255,-0.00145233,-0.00314819,-0.00753815,0.00492371,-0.00916595,-0.00155029,-0.00239044,0.00871887,-0.000453796,0.00358276,-0.00128571,0.00995544,0.00499664,-0.00368652,0.00858856,-0.00480408,-0.00750214,0.00570435,0.00504486,-0.00399719,-0.00763763,0.00581787,-0.00910431,0.0089386,-9.73511e-05,-0.00428345,-0.00604645,-0.0044342,-0.00456879,-0.000537109,0.00703094,0.0024469,0.00426056,0.00611938,0.00794037,0.00114441,-0.00329681,0.00974854,-0.000505676,0.00822083,0.00807159,0.00941284,0.00950531,0.00523865,-0.00132172,0.0091748,-0.00921417,-0.00123962,-0.00616425,-0.00190308,0.00114838,0.000348511,0.00385651,-0.0097583,0.00340546,0.00656555,0.00405304,0.00467163,0.00536957,-0.001026,-0.00526215,0.00544922,-0.00014679,0.00413635,0.00122345,0.00163696,0.00466888,-0.00638489,-0.00617767,0.00729736,0.00262909,0.00397278,0.00784698,0.00149292,0.00154633,-0.00322815,0.00360992,0.00828613,-0.00576691,-0.00142517,0.00642365,-0.0032605,-0.00149811,0.000944214,0.00660065,0.000915527,-0.00283478,0.000442505,-0.00054657,-0.000123291,-0.00196442,-0.0013678,0.00529449,-0.00231445,-0.00607452,0.00207581,0.00943634,0.00340454,0.0026474,0.00233582,0.00219147,-0.00890381,0.00701385,-0.00402527,-0.00112762,-0.000177002,-0.00516266,0.00455505,-0.000208435,-0.00635254,-0.00106964,-0.00536072,-0.00973846,0.00163208,-0.00289459,-0.00221008,0.000594788,-0.00216064,-0.00782501,-0.00943054,0.00610382,0.00133179,-0.0080484,-0.00545959,0.00710114,-0.00382812,0.00924774,-0.00373474,0.00889923,-0.00857788,0.00187592,0.00730652,0.00181061,0.00114502,-0.00735138,0.00422668,0.00114777,0.00440308,0.00937836,0.00858826,0.00722321,0.00525879,0.00487762,0.00695374,0.00534943,-0.00722534,-0.00304108,-0.00911438,0.00583893,0.00101318,0.00843475,-0.00305359,0.00400421,0.00903687,0.00711761,0.00669861,0.000157776,0.000908203,0.00582001,0.00670471,-0.000387878,0.0056897,0.00235443,0.00852722,-0.00732025,-0.00255615,-0.000466614,0.00872864,-0.00532684,-0.00476685,0.00516937,0.00887146,0.00590485,0.00312012,-0.00792511,-0.00448181,-0.00831268,-0.00983276,-0.00193756,0.000231323,0.00233307,-0.00956299,0.00594452,-0.000426636,-0.0068454,0.00299194,0.00353363,-0.00489319,0.00446442,-0.00810547,0.00364227,-0.00660583,0.00157501,0.00620728,0.00408295,0.00599792,-0.00520111,-7.32422e-06,0.00766815,0.00948059,-0.000551453,-0.00768677,0.00221039,0.00540466,-0.00416351,0.00723145,0.000522156,0.000332642,0.00927521,-0.00619019,0.000415955,0.00582703,-0.00992279,0.00611084,0.00470428,-0.00154968,-0.00644501,0.00319702,0.00119965,-0.000234985,2.10571e-05,0.00913086,0.00271454,-0.00366638,-0.0052121,-0.00702515,0.00706146,-0.000281372,0.00816803,0.0087915,-0.00294708,0.00648254,-0.00452606,-0.00435669,0.000501404,-0.00181213,-0.00298187,-0.00240723,-0.00978058,0.00139709,-0.0018869,0.00370239,0.00401947,0.00767273,0.00907135,0.00803467,0.00471405,-0.00642273,0.00520538,0.0096521,0.000115662,0.000673218,0.0068277,-0.00738281,0.0030368,-0.00447693,-0.000749207,0.00599243,-0.00871002,0.00968933,-0.00721283,0.00384033,0.00768768,-0.000265503,0.00274933,0.00522339,4.24194e-05,0.00722107,0.00944977,-0.0057959,0.00116669,-0.00128845,-0.00179901,-0.000155029,0.00887299,0.00576843,-0.000684509,-0.0037915,0.00597382,0.00495422,0.00810577,0.00235718,0.000281677,-0.00216858,0.00488434,0.00235352,0.00460907,-0.00903748,-0.00503632,0.00526001,-0.00323151,-0.00408997,0.00865631,0.00513916,-0.000427551,0.00923645,0.00127472,0.00105347,0.000833435,-0.00749573,-0.00686859,-0.00293457,-0.00663605,-0.007724,0.00953888,0.00223755,-0.0050235,0.000114136,0.000809631,-0.00936768,0.00848358,-0.00741882,0.00225616,0.00131226,0.00169769,-0.00876038,-0.00580902,-0.00166016,0.00743134,0.00265198,0.00192657,-0.00922241,0.00349701,-0.00161926,-0.00422455,-0.00731201,-0.00729279,-0.0050116,-0.00894989,0.00313354,0.00287445,-0.00596252,0.00806305,0.00617676,0.00681122,0.00209045,-0.00787323,-0.00911987,0.00233002,-0.00929016,-0.00644623,-0.00869385,-0.00775665,-0.00354187,0.00765656,0.00651733,0.00436371,0.000897827,-0.00525238,0.000576172,-0.0084964,-0.00940857,0.000139465,0.00254517,-0.00852448,-0.00289856,-0.00585541,0.00648682,0.00709198,-0.00300964,-0.0079245,-0.00853638,0.00616547,-0.00817932,-0.00575531,0.00153809,0.00150848,0.00815491,0.00596466,0.00577271,-0.00906647,-0.00244446,-0.00245209,-0.00177002,-0.00274689,-0.00341492,0.00430695,-0.00202759,0.00827972,0.00680603,0.00655426,0.0090625,-0.00317413,-0.00521912,0.00960236,0.000562744,0.000704041,-0.00792786,0.00376373,0.00653564,0.00272675,-0.00475769,0.00435089,0.0060437,-0.00929352,0.00585388,-0.00832367,0.00314941,-0.00254425,-0.00953064,-0.00894745,0.00691528,0.000787048,0.000651245,-0.00720795,-0.00859619,0.00351288,-0.00703796,-0.00779266,-0.00432251,-0.00655426,0.00896423,0.0096109,0.00379883,0.00339813,-0.00477966,-0.00968475,0.00483032,-0.00881744,0.00329285,0.00463287,-0.00716553,-0.000388489,0.00974426,0.00787628,0.00687378,-0.0035025,-0.00386292,0.000357971,-0.00898926,-0.00534698,0.00903381,0.00739044,-0.00569214,-0.00810944,-3.05176e-06,-0.000713806,-0.00917236,-0.00897736,0.00558899,-0.00864227,-0.000367432,-0.000138245,0.00737244,0.00391754,0.00478516,-0.0087796,-0.00809021,0.00227814,-0.0046521,0.00291107,-0.00923645,-0.00324799,0.0053833,-0.00225372,0.000496216,0.00265167,-0.00604614,0.00353851,0.00267029,0.000289612,0.00512207,-0.00689972,0.00384827,-0.00502167,0.00795044,0.00424408,-0.00440735,-0.00296967,-0.00349854,-0.00021759,-0.00553406,0.00175812,0.00983765,0.00752777,0.00203064,0.00947418,-0.00797852,0.000292664,0.00484924,0.00549103,-0.00788452,-0.00411041,-0.00551575,0.000121155,0.00418213,-0.00286896,0.00749817,0.00867706,0.00728394,-0.00817047,0.00545349,-0.00852875,0.0054834,-0.00720245,-0.00508728,-0.00618378,0.00784302,-0.0021524,0.00743835,0.00602448,0.00842529,0.00979218,-0.000407104,0.00340851,0.00629272,-0.00355621,-0.00706116,0.00628082,0.00550781,-0.00938507,-0.0059613,-4.60815e-05,-0.00486694,-0.0098819,-0.00554504,-0.0052597,0.00923096,-0.00223419,-0.00924988,0.00595245,0.00686401,0.00137054,0.00448669,-0.00609711,-0.00790527,-0.00625519,0.00222717,0.00390411,-0.0060144,-0.00729889,-0.00446594,0.00626862,0.00659912,0.00105194,0.000969849,-0.0036911,0.0089978,0.0066098,9.70459e-05,-0.00566254,0.00524414,0.00218719,-0.000521851,0.00566681,0.00440063,0.00559662,-0.00932434,0.000609436,0.000529785,-0.000349426,-0.00974792,-0.00552216,-0.00730591,-0.00783844,-0.000230103,0.00758453,0.00495605,-0.00405792,0.00579163,0.005242,0.00637817,0.00880463,-0.000120239,-0.00223724,-0.00897705,-0.00643829,-0.0014032,0.00045929,-0.00204712,-0.00197418,0.00350525,-0.0063559,-0.00876953,-0.00499054,0.0011676,0.0026297,-8.17871e-05,0.00232513,0.00314636,-0.00227142,-0.00192139,0.00278534,0.00600403,-0.00574677,0.00477417,0.00420258,-0.0086969,-0.00748383,0.00406738,-0.000610657,0.00560608,-0.0021701,0.00502075,0.00615814,0.000475464,0.000506897,0.00169678,0.00732147,-0.00752625,-0.00414032,-0.00684204,-0.00930817,0.00316345,0.00420074,0.0034668,0.00908173,-0.000892944,-0.00915741,0.00168579,0.00030365,-0.00813293,0.00609772,0.00187744,0.0071701,-0.00199402,0.00527863,0.00310425,-0.00250641,-0.000913696,0.00869781,0.00942871,0.00408661,0.00167053,0.00166779,0.00991333,0.00476166,-0.00267883,-0.00549896,-0.00137939,0.00233124,0.00260071,0.00251007,-0.00538696,0.00460785,-0.000928345,0.00600739,0.00195312,0.00440399,-0.00670349,-0.00969452,0.00970337,-0.000467834,-0.00316223,0.00571686,-0.00807373,-0.00719513,0.00625793,0.00755402,0.00768433,-0.00796539,0.00311951,-0.00387054,0.00104004,-0.00996613,-0.00601501,-0.00324432,0.00105591,0.00461517,-0.00958313,-0.000254822,0.00179443,-0.001409,0.00897766,0.000410461,0.00231812,-0.000226135,-0.00877014,-0.000935974,0.00668945,0.000976257,0.00373596,0.00101837,0.00397095,1.06812e-05,-0.00194153,-0.003414,0.0082251,-0.000310364,-0.00924011,0.00107941,-0.0014856,0.00782562,0.00340271,-0.0051889,-0.00109863,-0.00276886,0.00254944,0.00309357,-0.00155151,0.00571869,-0.000237427,-0.00376068,-0.00878174,-0.00389923,-0.00839539,0.00956085,-0.00372681,-0.00381012,-0.000361938,0.00337067,-0.00232422,-0.00120148,-0.00957458,0.00298126,0.00448853,0.0017392,-0.00447083,-0.00129486,-0.00922607,0.0078244,-0.00848816,0.0058548,-0.00440552,0.00486664,-6.40869e-05,0.00474274,0.0030127,0.00567841,0.00736389,0.000681458,0.00209106,0.0080722,0.00535828,0.00398346,0.00689209,-0.00513947,-0.00951843,0.00996124,-0.00352173,-0.0061441,0.00429626,-0.00107269,-0.00508789,-0.00212921,-0.00663513,-0.00380585,-0.0087439,0.00471771,0.00924988,-0.00792572,-0.000427246,-0.00279083,0.00851379,0.00188019,-0.00107544,0.00315765,-0.00728088,0.00592438,-0.00662598,-0.00462433,0.00842834,0.00951935,-0.00801636,-0.00832428,0.00720398,0.0029776,0.00881592,-0.0051297,0.00560852,0.00161163,0.00293335,-0.00722809,0.00520447,0.00573395,-0.00160156,-0.00180695,-0.00744568,0.000657043,0.00427368,0.00894623,-0.000779419,-0.00330658,-0.00537842,0.00784393,0.00176575,0.00915558,0.00850464,0.00269867,0.00175232,-0.00164398,0.00998535,0.00632294,0.0057428,0.00960724,0.00812622,-0.00347076,0.00529968,-0.00677826,-0.00301025,-0.00386993,-0.00301453,0.00451202,-0.00436157,-0.00706207,0.00236267,0.00379059,0.00813477,-0.00023468,0.00799377,-0.00363007,0.00354126,-0.00557526,0.00544128,-0.00743744,-0.00407959,-0.000271301,-0.0087323,0.00768097,0.00433472,0.00348969,0.00703552,0.00203766,-0.00715332,-0.0014798,-0.000692749,0.000945129,-0.0094812,0.00263275,-0.000354614,-0.00528412,-0.00858643,-0.00136017,0.00461243,-0.00133759,-0.00540649,-0.00564606,-0.00422913,-0.00690277,0.00412109,0.00258759,-0.000316772,0.00333282,0.00905884,0.00115326,0.00791199,-0.000318298,0.00346924,-0.00713654,-0.00298035,-0.00254364,0.00641479,0.0055307,0.00856873,-0.0030307,0.00195801,-0.00803253,0.0091217,0.00353302,-0.000838623,0.00998627,-0.00975891,0.00746002,-0.0079126,0.0023996,0.00848938,0.00406281,-0.000201416,-0.00298004,0.00542908,-0.00634613,0.00635742,0.00665985,0.00762268,0.00154572,0.000826416,0.00913177,0.00663269,-0.00194916,-0.00273193,0.00724823,-0.000978394,-0.00151825,-0.00525513,0.00882172,0.00635193,0.00315094,-0.00268066,0.00666473,-0.00481384,-0.00262909,-0.00594604,-0.00141022,-0.00291321,-0.00854584,-0.00098877,0.00740936,0.00861633,0.000713196,-0.00874634,0.000935974,-0.00866272,0.00546051,-0.00515625,-0.00801788,-0.00818787,-0.00899139,-0.00115601,-0.00163971,0.00160339,0.00766998,-0.00268311,0.002883,-0.00272644,-0.00924286,0.00932495,-0.00663727,0.000385132,0.000582581,-0.00106934,0.002612,-0.00249939,0.0024588,-0.00480347,0.0084433,0.000182495,0.0066983,-0.00781494,-0.00633087,0.00499329,0.00861359,0.00895874,0.00610199,-0.00650452,0.00851715,0.00958008,-0.00144562,-0.00774841,-0.0082785,0.00311157,0.00883881,-0.0071759,0.00853912,0.00361572,-0.000232239,-0.00822449,-0.00571747,-0.00984497,-0.000846252,-0.00933167,0.00926422,0.00679199,-0.000190735,-0.00393494,-0.00120331,0.00258911,-0.000453186,-0.000471802,-0.00680756,-0.00839111,0.00117889,-0.00237976,0.00776398,-0.00708618,-0.00748199,-0.00809631,0.00282379,-0.00943359,0.00637665,0.00894104,0.00368439,-0.00637085,0.000567322,0.0002948,0.000658264,-0.00383545,-0.00209747,0.00252747,0.00905792,-0.00276489,0.00619476,-0.00279846,0.00919586,0.00090332,-0.00174347,-0.00912048,0.00638458,-0.00376831,-0.00809967,-0.0048761,-0.00906342,-0.00271729,0.00993866,0.00649719,-0.00183563,0.0031189,0.000184021,0.00656189,0.00838043,-0.00219727,-0.00455109,0.00188049,0.00689728,-0.00960327,-0.00645416,0.0040155,0.0040274,-0.00503662,-0.00271271,0.00952942,-0.00491669,-0.00943481,-0.00551422,-1.52588e-05,0.000377502,0.00126465,-0.0020462,0.00194397,0.00522247,-0.00387573,0.00550385,0.0069696,-6.92749e-05,0.00920654,-5.15747e-05,-0.00837585,-0.000185242,-0.000426025,0.00910004,-0.00252991,0.00518707,-0.00871094,0.00577118,-0.00893005,0.00136017,-0.00658569,0.00777435,0.00398621,-0.00135345,1.2207e-05,-0.00207794,-0.00721863,-0.0076413,-0.00985474,0.00402679,-0.000982056,0.00280914,0.00787598,-0.00109894,0.00925842,-0.00468964,0.00226685,0.000357361,-0.00493469,0.000174866,0.00738037,-0.00879181,-0.0069989,-0.00728485,0.00227905,-0.000733948,0.0046283,-0.00675629,-0.00897461,-0.00265656,-0.0034906,0.00707306,0.00268188,0.00325287,0.000206909,0.00451569,-0.00868896,-0.000193176,-0.00771667,0.000884094,-0.00402466,-0.00518219,-0.00569885,-0.00350922,0.000737305,0.00109833,-0.00717712,-0.00335175,-0.00534058,-0.00353912,-0.000588989,-0.00833099,-0.0081958,0.00371796,-0.00937195,-0.00313446,-0.00876587,-0.00931793,0.0080365,-0.00744965,-0.00298828,-0.00983429,-0.00180115,0.00403595,-0.00180054,-1.86157e-05,-0.00732239,0.00163483,0.00885986,0.00294159,0.00803528,0.000659485,0.00805542,0.00685883,0.00583435,0.00142242,-0.000151367,0.00454559,-0.00736267,0.00923615,-0.006698,-0.00618561,6.71387e-06,-0.00558685,0.00247803,-0.00252228,0.004505,-0.00773407,0.00643921,0.00334808,0.0076947,0.00310699,0.00924805,0.00423798,-0.00386169,-0.00775116,-3.2959e-05,-0.0020401,0.00139832,-0.00999603,-0.00734131,0.00732635,3.72314e-05,-0.00831512,0.0063855,0.000149841,-0.00638245,-0.00239594,0.00520996,0.00924286,0.00870178,-0.00692596,-0.00180542,-0.00758209,-0.00314758,0.00840729,-0.000598145,-0.00751251,-0.00536804,-0.00108368,0.00789429,-0.0027359,0.00360291,0.00491364,0.00773437,-0.000439758,-0.00967224,-0.00828827,0.00798462,-0.00281158,0.00636902,0.00962311,0.00270752,-0.00703888,0.00828918,-0.00603973,-0.00903442,-0.00530914,-0.00234924,0.00503571,-0.00317871,-0.00480988,0.00101624,0.00816193,0.00933716,-0.00772858,0.00994812,-0.00634857,0.00257568,0.00874725,0.00100891,-0.00318329,-0.00440063,-0.00756989,-0.00423889,-0.00202972,-0.0075293,-0.00386749,0.000767212,0.00242462,0.0022522,-0.00233307,0.00758972,0.000492249,-0.000993652,-0.000154114,-0.00720886,0.00748566,0.00179565,-0.00951813,-0.00206604,0.00371735,-0.00531738,0.00238739,0.00958069,-0.00550018,0.00672974,-0.00662506,-0.000706177,-0.00985443,-0.00800049,0.00625702,0.00363586,0.0059671,0.00955444,0.00884613,0.00416931,0.00227692,0.00345703,-0.00604523,0.00745667,0.00438751,0.00276978,-0.000604553,0.00506042,0.00261139,0.00155518,0.00798065,-0.00645691,-0.00773895,-0.00112427,0.00752289,-0.00553284,-0.00635101,-0.00120605,-0.00916534,-0.00560486,-0.00791229,-0.00962769,-0.00427155,0.00488953,-0.00211029,0.00767334,0.00501678,0.00251282,0.00636749,0.00975952,0.00651215,0.00882751,-0.00216644,0.000693359,-0.00697296,-0.00960388,-0.0023996,0.00953735,0.00237396,-0.00121887,-0.00401947,-0.009646,-0.00263458,-0.00945496,0.00828644,0.00220581,0.0058139,0.00725037,-0.00516937,0.00915527,0.000531921,-0.00454041,0.000925598,0.000264893,-0.00066803,0.00673523,-0.00311615,0.00959717,0.00502655,-0.00236023,-0.00198212,-0.0037854,0.00542816,0.00973572,0.0046402,0.00417969,-0.0066507,0.00958557,0.00206329,0.00255493,0.00660248,0.00875183,0.00059967,0.00540283,0.00800018,0.003797,-0.00443817,-0.00821411,0.00535492,-0.00371643,0.00726227,0.0057666,-0.00852081,-0.00722595,0.00101349,-0.00359253,0.00418549,0.00483093,0.00712799,-0.002229,0.00628632,0.00901672,0.000918274,0.00891968,0.00559418,0.00689392,0.00269684,-0.00608398,-0.00507843,0.00502502,-0.00222382,0.00182251,-0.00791901,-0.00502747,-0.00353119,0.00670166,-0.000115051,-0.00670105,-0.00591278,0.00761597,0.00614594,0.00156677,-0.00905609,0.00862793,0.00367645,0.0063385,-0.00764862,-0.00119995,-0.009711,-0.000823364,0.00862213,-0.00780518,0.00879608,-0.00335632,-0.00493134,0.00787476,0.00701019,0.000302124,-0.00799652,0.00990234,-0.00225616,-0.00328552,0.00473907,0.00734009,-0.00119049,-0.00255676,0.00358795,-0.00574951,-0.00698029,-0.000949097,0.00386261,0.00969604,0.00818695,0.00309998,0.00587555,-0.00226074,-0.00287628,-0.00384705,-0.00506073,0.00744263,-0.00235748,0.00977234,0.00136627,-0.00713135,-0.00744415,0.00052063,0.000469055,-0.00692017,0.00967621,0.00996033,-0.00743988,-0.00786133,0.0018161,0.00465393,0.00295197,-0.000892334,0.00678802,-0.00383606,0.00195709,0.00804932,0.00740448,0.00105286,0.004888,-0.00197388,-0.00852203,0.000883179,-0.00794281,-0.00689941,-0.00817902,0.00221741,0.00877716,0.00233521,0.00624603,-0.00338196,0.00536041,-0.00020752,-0.00243439,0.000647583,-0.00288055,0.00453491,-0.00640778,-0.00413147,0.00436676,0.000625,0.00713837,0.00884338,-0.00758514,-0.00287476,-0.00398346,-0.00886536,-0.00842377,0.00809814,0.00303925,-0.00069519,-0.00283661,-0.0073938,-0.00398102,-0.00508362,0.00948883,-0.00528809,0.00776825,0.00453186,-0.00613495,0.00347778,-0.00390045,-0.000286255,0.000604553,-0.00703369,0.00382538,-0.00297546,0.00501984,0.00223999,-0.00124176,-0.00197327,0.0074234,-0.00463867,-0.00628937,0.00928284,-0.00687225,0.00139282,0.00649506,0.00235535,-0.00755463,-0.00560303,-7.59888e-05,-0.00619324,0.000688782,-0.00656372,0.00181,0.00519958,-0.00182953,0.00257324,0.00496552,0.00309631,-0.00979706,-0.00912964,0.00720306,-0.000940552,0.00709869,-0.00760986,-0.00866486,0.00965149,0.00417023,0.00619507,0.00517426,-0.00356506,0.00173004,-0.00365234,0.0015329,0.00597229,0.00509064,-0.0080896,-0.00177643,0.00982605,0.00456451,0.0069458,-0.00194122,0.00455872,-0.00453583,0.000516357,0.00885101,-0.00826721,-0.00189789,-0.00331543,0.00341278,-0.00208923,-0.00220917,0.00451294,-0.00044342,-0.00534485,0.00484283,-0.00193604,9.49097e-05,-0.00147156,-0.00542938,-0.00359985,-0.00715973,-0.00890686,0.00728668,0.00358398,-0.00939484,-0.00108826,0.00830353,0.00867798,-0.00879791,-0.00645325,0.00793365,0.00574463,-0.00255646,-0.00843933,0.00148956,-0.00615356,-0.00285797,-0.00548401,0.00928375,-0.0029541,0.00311005,0.00897522,-0.00337128,0.00440552,-0.0068399,0.00650085,-0.00616302,0.00998779,-0.00989532,0.0036554,-0.00377899,-0.00714478,0.00175629,0.00200134,0.00409332,-0.00292969,0.000927429,0.0081012,0.00276642,-0.00830444,0.0054306,-0.00648254,0.0025528,-0.00920654,-0.00192169,-0.00518738,-0.00123505,-0.00657349,0.00668304,-0.00645081,-0.00828461,0.00365723,0.00405731,-0.00371033,0.00671661,-0.0094519,0.00801361,-0.00540344,-0.00591888,0.00816162,0.00136444,0.00503235,0.0091214,-0.0044397,-0.0080777,0.00915955,-0.00785004,-0.00319336,-0.00750031,-0.00645935,0.00847931,0.000963135,0.000909119,0.00973816,0.00842194,0.00209229,-3.69263e-05,-0.00568542,0.00729034,-0.000743408,-0.00252594,0.0088324,0.00539703,-0.00348145,0.00625458,-0.000145874,0.0080545,0.00294067,0.00411713,-0.00105774,0.00557526,-0.00741455,-0.00612579,0.0026593,-0.00672821,0.00451538,0.00333832,-0.00743225,-0.0085434,0.00279297,0.00532196,-0.0047699,0.0054422,-0.00351929,-0.00236237,0.00220886,0.00554108,-0.000358887,0.00309784,-0.00993347,0.00706573,-0.00866333,0.00951508,0.000365601,-0.00967133,-0.00437012,0.00970184,-0.000331421,0.000642395,0.00158325,0.00147064,-0.000462036,0.0083194,0.00325928,0.00763397,-0.00346375,0.00867218,-0.000279541,-0.00399567,-0.00777405,0.00201324,-0.0049707,-0.000605774,-0.00683044,-0.00634491,-0.00175171,-0.00438385,-0.00907043,-0.00608978,0.00343994,0.0074826,0.00206848,-0.00190887,0.00966675,0.00280609,0.0081488,0.00651031,0.000991211,-0.00560089,-0.00426697,0.00448029,0.00647583,7.41577e-05,-0.00361633,0.00231354,0.000183105,0.00264374,0.00666321,-0.00467743,0.00117554,0.00992035,0.00813416,0.00381989,-0.00648438,-0.00528351,0.00735901,-0.00688202,0.00626587,-0.00515533,-0.00409973,-0.00647064,-0.00651123,-0.00688263,-0.00967957,0.000366516,-0.00575317,-0.00265289,-0.00781799,-0.00605804,-0.00739746,0.000346375,0.00804749,-0.000431824,-0.00238159,-7.23267e-05,0.00947937,0.00755768,0.00335693,-0.0010965,-0.00695984,-0.00677704,0.00888062,0.00508636,0.000292358,-0.00312347,-0.00174805,-0.00871124,-0.00220154,0.00383087,0.000533447,-0.00467682,-0.00287903,0.0043985,0.0097876,2.13623e-06,-0.00517761,-0.00610809,0.0050769,-0.00686188,-0.00753479,-0.0073764,-0.00953613,0.00754364,-0.00338806,0.00590607,-0.00498901,0.00103119,-0.00117493,0.00405182,-0.00721924,-0.00358673,-0.00433289,0.00237335,0.00283569,0.00150238,0.00870056,0.00118317,0.00923828,0.00911102,0.00448792,0.00579376,0.00105103,-0.0029483,-0.00540833,0.00651764,-0.00766357,0.0081369,-0.00442566,-0.0013327,0.00215698,-0.00982086,0.00899841,0.00255524,-0.0054248,-0.00400909,0.00142639,0.00349396,-0.00134644,0.0033847,0.00442078,-0.00820404,0.00845459,-0.00482697,-0.00545593,0.00277374,0.00304077,