64,4,1,256,256,64
-0.0024765484,-0.00411875,0.00077281211,-0.0027744578,-0.001243398,-0.0047433615,-0.00052718732,-0.0038153999,0.0037381374,0.0049463433,0.0035320275,-3.2326581e-06,0.0014200095,0.0036145621,0.00096469795,-0.004092499,-0.003597902,0.0045008832,0.0042455548,0.0038946896,0.00050508353,-0.0031948345,0.00050085458,-0.0024103324,0.0044312167,0.0032150101,-0.0034470611,0.0032939475,-0.00033077689,-0.0043929517,-0.0047754478,0.00037288757,0.0032996028,0.0034533214,0.0018091808,-0.0011924193,0.00085656857,0.0019639717,0.0021136538,0.0021861808,0.0049028748,-0.00050247166,-0.0040207362,-0.0030840586,-0.00052621398,-0.0037299889,0.002687649,0.00093720471,0.003046441,-0.0011058865,-0.0028423093,-0.0022794054,-0.0048091531,-0.0022202818,-0.001660317,0.0038286614,0.0045587808,-0.0030730139,0.0037130105,0.0008232293,-0.0016331891,-0.0018567256,-0.0037064075,0.0047997022,-0.0039702731,0.0042151373,0.003057351,-0.00067043755,0.0021006028,-0.001933354,-0.003814069,9.2335051e-05,-0.0038262539,-0.0025647025,0.0010409514,0.0019782446,-9.3201106e-05,-0.0029032581,-0.0027269946,0.0019428317,0.0038182192,0.0031695949,0.0019716923,0.0033947687,-0.00098359322,-0.0034684288,-0.0037370973,0.00039813133,0.0015167228,0.0048782068,-0.00074037348,0.0024703728,-0.00069735621,-0.0045446038,-0.0042274761,0.0032572495,0.0047873121,0.0029970198,-0.0033134883,-0.0011340503,-0.0021682779,-0.00010110945,0.0034096169,0.0041376817,-0.0030241989,-0.0018397157,0.00030034097,-0.0023590474,-0.00096137202,-0.004875704,0.0014798013,-0.001333187,-0.00025595577,-0.0024517272,0.00093487298,0.0020072983,0.00052790377,0.001035578,-0.0026813917,-0.0012016783,-0.00081678425,0.0043599319,-0.0026458351,0.0042082774,0.0044994271,0.00071358,0.0042485052,-0.0047464144,-0.0024479066,0.00041054221,2.210349e-05,0.0045224571,0.0047991949,0.0020761846,0.0031609296,-0.00191191,0.0006403384,0.0018543748,-0.0045030653,-0.0016074095,-0.00040489587,0.0026634644,0.0047233194,-0.0046171683,0.00075677787,-0.0019676552,0.0014507977,0.0016795228,-0.00032226892,-0.0024521594,0.0022111462,6.0727898e-05,-0.0046573162,0.0034446703,0.0023142527,0.0040410929,0.002386115,0.00036924215,0.0049649435,0.0048280197,0.0012100575,0.0028485267,-0.0044541853,0.00043604585,0.0011585376,-0.0025047444,0.0024723409,-0.0047593206,0.0044049066,-0.00051929745,-0.0014735142,0.00075293456,0.00070830618,-0.0046937138,-0.00092490768,0.00089581942,-0.0043044692,-0.0035947411,-0.003920719,-0.0024359713,-0.0021754686,0.00060571466,-0.00069888864,0.0047480935,0.0016858015,0.00098618305,-0.0013862334,0.0020042209,-0.0022020869,0.0041550481,0.0038214975,0.00055110547,0.0015534405,0.0024850444,0.00089558637,-0.002225071,-0.003528481,-0.0026659177,-0.0039674287,-0.0015761814,-0.00058669541,0.0027836524,0.0014409945,0.0032730096,-0.0020834355,0.0019260554,-0.00073709522,-0.0014580438,0.0023056655,0.00023171158,0.0025363873,0.0018446557,-0.0022668026,0.003027802,0.0046053505,0.0029544114,0.0038094919,-0.0033805208,0.00088283335,0.00016431064,0.0019762771,-0.004915086,-0.00062592421,-0.0044753486,0.003280729,-0.0027245812,-0.0011343942,0.004738571,0.0017061559,0.0010518942,-0.0038134079,-2.872646e-06,0.00071558092,0.0042888599,-0.003551287,-0.0034649103,0.00316446,0.0046773106,0.0026707886,-0.0038113248,-0.0027612083,0.002857651,0.0036944305,0.0037364905,0.0035748719,-0.0040860432,0.0017969583,0.0043049275,0.0012169287,0.00076081847,0.0039078301,0.002619264,0.0025689112,-0.00054599318,0.0028348361,-0.0026182859,-3.3411386e-06,0.00095622158,-0.0025936864,-0.0034423178,-0.00076328431,-0.003610832,0.002935624,0.0018514745,-0.0027319656,-0.0026967912,-0.004085856,0.0031527029,0.0048028219,-0.0010041562,-0.00066097293,-0.0037653428,-0.0039472275,0.0034102737,-0.002418025,-0.00051412973,0.00092694675,-0.0013547168,0.0022052811,-0.0020438657,-0.002682464,0.0046077114,0.0026313834,-0.0045017701,0.0036297714,-0.0031612592,-0.0019278137,-0.0017134009,0.0042122173,0.0030452757,-0.00037560078,-0.004505772,0.0028437166,-0.00063236568,0.0039371371,-0.0045910221,0.0019332145,-0.0040851658,0.0023580395,-0.0022293775,-0.00241127,0.0035986965,0.0019641541,-0.0043901652,0.0032117181,-0.0032019739,-0.0026161639,0.0023703848,-0.0032269352,-0.0011158667,0.0048159146,0.002595778,-0.00057301197,0.00013891668,0.0021523706,-0.0030383908,-0.004380939,9.6783942e-05,0.0016107855,0.0049348646,-0.0026553606,-0.0011583475,0.0037828022,0.00084142064,-0.0022860746,0.0042902708,0.0045048523,0.0016230092,0.0014799193,0.0049931222,-0.0015425996,-0.0029351257,0.0026855157,0.00048415813,-0.0041010481,-0.0042246109,0.0020859895,0.0037106078,0.001441078,0.0026988708,-0.00049688014,0.0025741123,-0.0037292957,-0.0035571491,-0.0012327913,0.0001144442,-0.0022740815,-0.002798947,-0.0045967632,-0.0046329492,0.0026315413,-0.0014466844,-0.00028258713,-0.00057432566,0.0033007114,-0.0010762785,0.00044036063,0.0037413048,-0.0023912595,0.00097818529,-0.0034168022,0.00018870504,-0.0029545205,-0.00025726529,-0.0023372422,0.0049317718,-0.00084754502,0.0027237515,0.0049521989,0.00061896417,0.0032510148,-0.0021885846,-0.0010867474,0.0039400726,0.00086774623,-0.0027524023,0.00046637091,-0.0019244454,0.0047634047,-0.0015605388,-0.0037449967,0.0020697079,0.0029716121,0.0049000096,0.00056027386,0.0016589145,-0.0032464336,0.0030968456,-0.00097771084,-0.0014137838,0.0038750225,0.003490377,0.0018243496,-0.0020665304,0.001111779,-0.0034572726,-0.0035037123,-0.0044976735,0.0023899458,-0.0030213963,0.0029932069,-0.00022470744,0.001467211,0.0020793585,-0.0037941437,-0.0045118832,0.00056138549,0.0022915135,0.0035588991,-0.0016552434,-0.0011675451,0.0049309838,-0.0021466844,0.0029061716,-0.0028755944,0.0042642533,-0.0019907926,-0.0018158058,-0.0021269427,0.0037477546,0.0028652291,-0.0020282666,0.0015861682,-0.0012932978,-0.0043090778,-0.0045594501,0.0038020509,0.00023462982,-0.00043181571,0.0040378647,-0.0010670427,0.0035948782,-0.0037018751,-0.00078695868,-0.00010051817,-0.0030947142,0.0039895743,-0.0019943992,0.0049622184,-0.0016126589,0.0009854666,-0.0039741891,-0.0043430525,0.0029610215,-0.0037166213,0.0038591068,0.0022395812,0.0014666025,-0.00089354908,-0.0025744145,-0.0044528764,-0.0017053394,0.0027809481,-0.00067416583,-0.0033191012,-0.0042944699,0.0005767164,0.00070433055,-0.0015817044,-0.0043805343,0.0036667781,-0.0043383234,0.0047592741,0.0021587549,0.0038623153,0.0027469067,-0.0024861096,0.00072303746,-0.0037207025,0.00056112621,0.0013370899,0.001879075,-0.00040700229,-0.0029962729,0.0011170087,0.00084622418,0.0040366482,0.0041924309,-0.0018769537,-0.0041411352,-0.00019950957,0.0035884123,0.0038199543,0.0011870287,0.00098746276,-0.001642252,0.0027541857,0.0030964814,0.002781779,0.0025004469,-0.0015812335,-0.00047048899,0.0019866489,-0.0012216965,-0.001497073,-0.0032123332,0.0035873883,-2.7163328e-05,-0.0015672479,-0.0010023001,-0.0015038297,0.00050454769,0.0046090966,-0.0013580404,0.00013466627,-0.0020552359,0.0012490151,-0.0010655067,1.0828078e-05,-0.0035486912,-0.0027630411,0.0013240973,0.0049460626,-0.0033407556,0.0018919883,0.0039055698,0.0011090413,-0.00094204759,0.0010572485,-0.00097957647,0.0025124095,0.00038578304,-0.0025820349,0.00082829153,0.0041286271,-0.0049264634,0.0014542011,-0.0038697051,0.0022812061,-0.0037319719,0.0019346313,0.004225611,-0.0025324158,0.0034669684,-0.0026424168,0.004082489,-0.0027301042,-0.0037035673,0.0022455941,-0.00039502116,-0.00049012515,-0.0035378431,0.0046997279,-0.0037233954,-0.0016958473,0.0024059068,0.0041199159,0.0049622482,-0.0018237988,0.0036981773,0.00049755844,0.0011494759,0.003881157,0.0046984738,-0.00081335639,0.00041058215,-0.0039002078,-0.00048558268,-0.0024403714,0.0033665722,-0.0043421214,0.0027909284,0.0024543421,-0.0040656411,0.0014271823,0.003360741,-0.00018185348,0.0031384074,-0.00043563935,0.00028749259,0.0004556224,-0.0027319197,0.0042439925,0.0033326422,-0.0017139898,0.003661946,0.0025419985,0.00237747,1.667589e-05,-9.9724239e-05,-0.0013742898,0.0028313999,-0.0023611639,-0.0033129918,0.0049068201,-0.003442096,-0.0023481963,0.0012024078,0.00031347545,0.00034923526,0.0034219938,-0.0037923216,-0.0016622315,-0.0035187655,-0.00041705104,0.00068278227,1.4857353e-05,0.0023794703,-0.00011736781,0.00027870865,-0.00051001522,-0.0010720477,0.0023842274,-0.0016345505,0.0023296361,-0.00054832074,-0.0015732847,0.0009569261,-0.00076691483,0.0039042562,0.0042514586,0.0012941156,0.00030058594,-0.0047081518,-0.0032989471,0.0023676394,-0.0024855529,-0.0021352915,-0.0031033026,-0.0018389551,-0.0044107443,-0.00089246725,-0.0016996715,-0.0031039541,0.0038474869,5.9894625e-05,-0.0019322334,0.0020609675,0.0042767512,0.0009980092,0.003099135,-0.00049636337,0.0034249412,0.0020090733,0.0046927857,0.0013699863,-0.0017104892,0.00048943433,-0.001790999,0.00016960175,-0.041105008,0.026493175,-0.1097082,-0.0052226496,-0.084071425,-0.012892467,-0.022122789,0.079085293,-0.0086627012,0.035526056,-0.011700358,-0.028344577,-0.033638171,-0.1493031,0.066808112,-0.010484505,-0.37630139,-0.055029331,-0.11430687,0.025712683,0.0015246258,0.083115305,0.079916789,-0.025890427,0.075928408,0.015262666,0.014106262,0.0023664973,0.036434782,0.0093576715,0.15065174,0.054588916,-0.036853502,0.14522283,-0.050281683,0.029816182,0.0016774489,-0.072508177,-0.037605493,0.056842708,0.064798273,-0.067177566,0.018077359,-0.019298036,0.026045799,-0.028075552,0.0061320636,0.066426302,-0.081683988,-0.037763886,0.042734233,0.14359561,0.090145435,-0.13660122,-0.040896816,0.10068629,0.049871834,0.087550125,0.042346329,0.023575387,0.047756717,-0.024886843,-0.012549979,-0.05300932,0.003354408,-0.0021620713,0.0010195843,-0.0045761108,0.0022013388,-0.0048024094,0.0024567901,0.00058306727,0.0026733558,-0.00080553328,0.0024860512,-0.0039206743,0.0020787345,-0.0025625406,-0.00053476247,-0.0035622155,-0.0037845265,0.0040542161,-0.0035236209,-0.0026562713,0.0026629226,0.0034197681,0.0019854556,0.0026573764,0.0016612939,-0.0024722545,0.0028557007,-0.0029756467,0.004735325,-0.00096457934,-0.0038793259,-0.0026368778,0.0037183236,0.0045138323,-0.0015766499,-0.00098939156,-0.0046671438,0.0049342322,0.0045274675,0.0048072857,-0.0010156707,0.002922117,-0.0011926011,-0.0020970396,-0.0020762942,-0.0011899171,-0.0038772147,0.001564515,-0.0035643821,2.0761789e-05,0.0009841845,0.0017668442,-0.0017918817,0.00081108068,-0.0035840147,0.00084825491,0.0035403191,0.0019091056,-0.0035771584,0.0030115639,-0.0044558245,0.00207471,-0.0015341357,0.0049521494,-0.0020033382,-0.0038846808,0.0048548359,-0.0026057963,-1.4212728e-06,-0.0036120086,0.0044626867,-0.0041835522,-0.0049037385,-0.0026809351,-0.0013315097,0.0011485336,-0.0049775749,0.0049726415,-0.0020647804,0.0037194144,0.00071239804,-0.0038008528,-0.0020714776,-0.0037610894,-0.0042480039,0.0043952208,-0.0034172385,0.004093731,-8.67042e-05,0.0014061753,-0.0039794289,0.0037391936,0.0029345344,-0.0023977034,-0.0042678242,0.0024679045,0.0012004099,0.0046602148,-0.0040792703,-0.0046633607,0.0024790232,-0.0019194005,0.0024199186,-0.0024673264,-0.0036282986,-0.0010265545,-0.0029099231,0.0029608201,0.00063197289,-0.0028578256,9.9073356e-05,0.0023324154,-0.0039900767,-2.1806361e-06,0.0029942082,-0.003462482,0.0047781992,0.0043345409,0.0039713799,0.0035815494,0.00059589837,0.00049771401,-0.00075223421,-0.00013235778,-0.0001333961,0.00097584879,-0.0030557327,-0.00089405393,-0.0027531968,-0.0020524113,0.0023839728,0.0046311283,0.00046095702,-0.0031849663,-0.0037871163,0.0034093331,0.0020794479,-0.0047453558,-0.00075083886,0.0025158446,-0.0015843217,-0.0001830265,0.00046712968,0.0013646994,-0.0018014435,0.0046064764,-0.0029776947,-0.0045284968,-0.003823381,-0.00092735445,-0.0022763143,3.0703844e-05,-0.00068994914,0.0044437313,0.0038595527,0.0040885621,-0.0042931598,0.0008342812,0.0037830471,-0.0014069197,-0.0010406712,-0.00044223579,0.00016375334,0.0041021317,0.0030373983,-0.0023244779,0.0013115541,-0.0035689568,-0.0046054512,0.0043132954,0.00047899458,0.0010208837,-0.0015568779,0.00077658032,-0.00045157823,-0.00069130276,0.0020549087,-0.0010039357,-0.0039898711,0.002880954,0.0022433989,-0.004665612,0.0046377748,0.0036914384,0.0036839264,-0.00071451281,-0.0022326921,0.0011248521,-0.0037720513,-0.00090224063,0.00058567259,-0.00081263696,-0.0019322769,-0.001147686,0.00033551129,-0.00039463612,0.00070761417,0.0040275448,0.00084214841,-0.0008863244,0.0033983045,-0.0049187165,-0.0037309211,0.0017144618,-0.0028098653,0.0010817853,0.00050823304,-0.000811908,0.0012618408,-0.0020812194,0.0011112437,-0.0043627917,-0.0033190696,-0.0018741284,-0.00083200787,0.0043452477,-0.0047480517,0.0018454913,-0.00096134043,-0.0022693376,0.0036088847,0.00096770084,0.0043455529,0.0036781024,-0.0047920287,0.00097406006,-0.00086906408,0.004027788,-0.0046228778,-0.0024821715,-0.004412862,0.0035043483,-0.0029217379,-0.0027282559,0.0022651677,-0.00013364465,-0.002461205,-0.0049253714,-0.00083190357,-0.0014421854,-0.0015915356,0.0019080738,-0.0013645361,-0.002357146,0.0045978576,0.00073445056,0.0034249347,0.0013048754,-0.00054520819,-0.00027249606,-0.0041025155,0.0026913951,-0.003565148,0.0049267703,0.0047123456,-0.00061414692,-7.7688997e-05,-0.0031529265,-0.0020620326,-0.0027123849,0.00035769137,-0.0019256477,0.0039852446,0.0011814294,0.0013282225,0.0013790611,0.0042692607,0.0027775894,-0.0012225661,0.00037840339,0.0040057963,-0.00049595389,0.0049901414,-0.0027213608,4.885346e-05,-0.00016827018,0.0025090717,0.0047287273,-0.0028245531,0.0034143155,-0.0043606203,0.0013165347,-0.0032760911,-0.0031763016,-0.00030269297,0.0027388846,0.0039919596,-0.0018375764,0.00065922771,0.0031766789,0.0033007943,-0.0036656897,0.00036733719,0.0039063459,0.0021314375,0.0032545399,0.0049482328,-0.0013211302,-0.0017603896,-0.00021956177,-0.003399369,-0.0021023516,-0.0038446366,-0.0013557807,0.001408482,-0.0038735741,0.0019737272,0.00016892285,-0.0016642843,-4.1444006e-05,-0.0021573745,-0.00095118737,-0.0029411136,-0.004221158,5.4310265e-05,0.0029754751,0.0047939545,-0.00055079076,-0.0028534483,-0.0036091303,0.0047734582,0.0024494462,-0.0030801444,-0.0048514151,0.0015303282,0.0015042857,0.0037769382,0.00036454769,0.00064459179,0.0012280551,0.00029071959,0.002238429,0.0031092172,0.0018181566,-0.00059291694,-0.0028729855,-0.0030286514,-0.0036713695,-0.003811351,0.0036507707,0.0014051829,0.0045550406,0.00050581607,-0.0038851398,0.00087273573,0.0030619382,0.0045813155,-0.0039741265,-0.00047125074,0.0033841603,0.0017945318,0.0049854982,-0.0014740119,0.0029331993,-0.0043481582,0.0047424036,0.0013771818,-0.0043600982,0.00032921704,0.002683572,-0.0049701512,0.0018647508,-0.0033066606,0.0035463362,-0.0031897287,-0.00039303216,0.00020748766,0.00063236509,-0.000107148,0.0015436999,-0.00037156554,0.002304862,0.0024511151,0.0049305332,-0.0020993863,0.0020502041,-0.0018533991,0.0038945811,-0.00084619915,0.002885295,-0.0018881039,-0.0038485961,-0.0017894433,-0.0006081346,-0.0029159455,-0.0013229904,0.0015096925,0.0031589775,-0.0011553345,-0.00063382719,0.0008519951,-8.5017388e-05,-0.0013771967,0.004208343,0.0038744729,-0.0008698157,0.0026171248,0.002012373,-0.0023406397,-0.0006285486,-0.0027066468,0.0012113319,0.0043841475,-0.0048099661,0.0036134057,-0.0042213618,0.00041886541,0.003823837,0.0038524073,-0.00021321983,0.0027768944,0.00249539,0.0011598507,0.0026398568,-0.00067446444,-0.00041322144,0.004521144,-0.00048880073,0.0016625963,-0.0045272308,0.0042757976,0.0040173262,0.0020652435,0.0012933979,-0.0041514968,0.0026594649,-0.0015826295,-0.0035527497,0.0018493567,0.0030639141,0.003521735,-0.0019132952,-0.004800536,0.0005524734,-0.0022968982,-0.0016036252,-0.0015618042,7.4209873e-05,-0.0038913351,-0.0020639978,-0.0031316738,0.003029797,0.0046119725,-0.0041709417,-0.0043046826,0.0010196832,0.00072662626,7.8293388e-05,0.0038169926,0.0010473416,-0.0015640072,0.003789494,-0.00058015559,-0.00079115902,-0.0016548185,-0.0044153124,-0.0049617523,0.0024000029,-0.0029384648,0.0049860591,0.0022327982,7.2381203e-05,0.0022098939,-0.0039481919,-0.0014559541,0.00056932125,0.0019888632,-0.0049547774,0.0018778793,-0.00092664992,0.00067435954,0.00041819605,-2.1216573e-05,-0.0033038609,0.0039766621,-0.0041095495,-0.0048527479,0.0027423011,0.00065723691,-9.4282335e-05,-0.0031424146,0.0046782583,-0.00068842803,-0.0027538876,-0.0025676756,0.0028374462,0.0017242811,0.0010859714,-0.0015704141,-0.00060690913,-0.0032972806,-0.0037336146,-0.0021004723,0.0036298155,0.00079537069,-0.0029283075,0.0011662099,-0.0019546763,0.0048012459,-0.0047108352,0.00029109808,0.0023134141,-0.0025234561,-0.0031668388,-0.00012554795,0.0046395689,0.00034484061,-0.0022850321,-0.00064914022,0.0025403748,1.702577e-05,0.0026396071,0.0044351607,-0.0024219798,-0.0030727266,0.0020108382,0.0028750061,0.0010811189,0.0018912623,-0.0043743837,0.0021663169,0.00038311335,0.0043929243,0.0038392561,-0.00061212335,-0.0023904918,-0.00099405086,-0.00051746103,-0.004188683,-0.0044548231,-0.0011436871,-0.0036879598,0.0014427451,-0.0023869966,-0.0024679355,0.0022748922,-0.0028477441,0.0014950941,0.0033466344,-0.0016307406,0.0045475954,-0.0015721784,0.0023619018,-0.0036182313,-0.003751797,0.0027019523,-0.00092271423,0.0012831346,0.0017159049,-0.0016009108,-0.0038089042,-0.003436756,-0.0037015121,0.0028957062,-0.002659599,0.0032869445,0.0036424249,-0.00083399986,-0.00077433859,-0.00384822,0.0041309797,0.0014148299,0.0020263801,0.0023289363,0.004503963,0.0010719738,-0.00048598322,0.0013686333,-0.0036846309,0.0026789747,0.0027684204,-0.0030487733,0.0033851634,0.0016998074,0.0039040219,0.0037652599,0.00090145027,-0.0012133757,-0.0012879512,-0.0047062868,0.0013292895,-0.0024681656,-0.00037499698,0.00078972255,0.0047823995,-0.0047622472,0.0029096531,0.0022229777,0.004014002,-0.001264917,-0.003505209,0.0044780969,-0.0033169418,-0.00021852167,-0.0026599889,0.00458619,5.2143636e-05,-0.0029285728,-0.00024825366,-0.0017291222,-0.0042267847,0.0043887215,-0.0014471743,0.0045900202,0.0049175203,-0.0030672531,0.0035117947,0.0019543855,-0.0040941125,0.00034986051,0.0039382523,0.0013045392,0.00049567732,-0.00049891564,0.0048504543,0.0047271705,-0.0045194012,-0.0035026114,-0.0013785688,0.00029213043,0.00025968821,3.3797326e-05,-0.0014901284,-0.003608579,0.0029316645,0.00055356953,0.0029820214,0.0013613901,7.0930426e-05,-0.0017262826,0.0022308491,-0.0033306288,-0.0021585314,0.0036030935,0.00079872762,0.0044460386,0.0046048695,0.0019843082,0.0027098785,0.0026447038,-0.0023212479,-0.002309268,-0.0019811652,0.0036088239,-0.00059816394,0.0036098169,0.0021811698,0.0043289578,0.00016188652,-0.0034560012,0.0021527384,-0.00082957243,-0.0014571861,6.0433451e-05,-0.0043763142,-0.0016470651,0.001247159,-0.00057919834,0.0022934745,-0.0020366256,-0.0020497839,-0.0043775516,-0.0014068291,-0.00021689267,-0.0012579469,-0.0019179003,-0.00023874731,0.0017109338,0.0043136668,-0.0020065944,-0.0043208187,0.0020630209,0.00154353,-0.0031104391,-0.00062701318,0.0035310297,-0.00035921665,-0.0025577407,-0.00041287872,-0.0049202979,0.0045013106,-0.0039717829,0.0013368259,0.0025651459,0.0014329592,-0.00090546643,0.00084526753,0.0013550691,-0.0010938463,-0.0021458785,0.0037716853,-0.0032677697,-0.0015138576,-0.0016575263,-0.0018631933,0.00036232921,-0.0013968585,-0.0036329984,-0.0041482222,0.0036076062,0.0023166172,-0.00061979447,-0.00074313794,0.00096739268,0.0017299579,-0.00019207926,0.0015761475,-0.00057312939,0.0042117869,-0.0031361078,0.0026945286,0.0019952754,-0.0019198309,-0.0036180704,0.004163196,-0.0037851911,-0.0020940457,0.00069688831,-0.00016010077,0.00092150604,0.0020915101,0.0031057261,0.0010702179,-0.0029607033,-0.0021188979,0.0039398962,-0.0021838973,0.00068853233,0.0014591584,-0.0022196923,-0.00036206933,-0.00060979519,0.0032926761,0.0038461249,0.0029363285,0.0046471274,0.001374021,0.004088633,0.0033600061,-0.0033166908,-0.0024796365,-0.0039785569,0.0047858626,-0.00037720533,0.0043860125,-0.00018172951,-0.0012223992,-0.0021108059,0.0033438789,0.0017095379,0.00092911458,-0.0028928231,-0.0041076612,-0.001790937,0.0029988878,-0.0047128397,0.0037437385,-0.0017979304,0.0022416548,0.0025744604,-0.004749223,0.002425779,0.0018435882,0.00034413191,-0.001672952,0.0023738281,-0.0011327616,0.0029227798,0.0025179563,0.003155769,-0.0013874976,-0.0022814421,-0.0046217179,-0.00265711,-0.0032001566,0.0020406292,0.00081263875,-0.00066837643,0.0034820419,-0.0026106744,-0.00046493742,0.0022557746,-0.0049093032,0.0044982636,0.0043040025,0.0019788293,0.003523758,0.0049096608,-0.0049110573,-0.0048024028,0.0036803084,-0.0026358937,0.0018249224,0.001188424,0.0033488761,-0.0002139637,0.0049111891,-0.00077276741,0.0018555013,0.00014615805,-0.0038897502,-0.0037853479,-0.0036221748,0.0019820808,-0.004996441,0.0015374629,-0.002668557,0.002858399,-0.0013399039,-0.001302375,-0.0032652294,-0.0034525215,0.0046740866,-0.0042598623,-0.0040413212,0.0022121976,0.00022811086,-0.00098902738,0.0017671434,-0.0036281162,0.0023378591,-0.0027236663,0.002055159,-0.0040672838,-0.0030652331,-0.0042654979,-0.0048098284,0.0030638199,-0.0030571972,0.0019515042,-0.00063672636,-0.0047996819,0.0020056389,-0.0017481456,0.00085641479,-0.0040454113,-0.0049795377,-0.0024043618,0.0026318817,-0.0047830278,0.0031346845,0.0024731593,-0.0028497099,-0.00077282046,0.0033617799,-0.0011515794,-0.00017665596,0.0038976603,-0.0045274734,-0.00031730982,0.0020076088,-0.0028298317,-0.0026821213,-0.0049306184,0.0049455529,-0.0013132171,0.00023973556,-0.001488475,-0.0014398972,-0.0024433683,0.0047258466,0.0013730577,0.0015089647,0.0014995668,-0.0010348914,3.5198631e-05,0.0014049599,0.0031480472,-0.0045404905,0.0027891468,-0.0033913707,0.0017884688,0.0033489518,-0.0040036404,0.0034993522,0.0013232032,-0.0033947771,0.001547663,-0.0043687749,-0.0022654162,0.0007513604,0.00015242846,0.0036799686,0.0018321029,0.0032626455,-0.0025109057,-0.0024129151,-0.0044359487,-0.0046944988,0.0027482514,0.0048075461,0.0026748727,0.0049705231,0.0015995608,0.0010672323,-0.0030105393,0.0046558964,-0.0018862436,0.0025364004,0.0041056674,-0.0022425316,0.0026709657,0.00082540785,0.0047762579,0.0023216973,-0.004613387,0.0047089583,0.00076157425,0.0018177466,-0.0029138451,0.0049851066,-0.0035658502,-0.004315027,0.002359886,0.001375287,0.0019165246,0.0048120516,0.0017290763,0.0028716026,-0.0039664846,-0.0003960106,0.0024546902,-0.0045623725,-0.00013980658,0.0007932881,1.9928516e-05,0.0034689849,0.0041468071,-0.0043485128,0.00481785,0.0039199256,-0.0035980885,0.0047573566,0.001075323,0.0045021879,-0.004085043,-0.0030220305,-0.0024554472,-0.00013763995,-0.0025004308,0.00281893,0.0019934396,0.00214402,-0.0027612107,-0.0012000231,0.0040260094,0.0048408788,-0.0039864796,-0.0019877617,0.0032641803,0.0013471995,-0.0009045813,0.0045133722,0.0024221025,0.0021117256,0.0025854944,0.0017168472,-0.0026956736,-0.00319862,-2.0339192e-05,-0.0025683807,-0.0017409484,0.00038097473,0.0046424949,0.00070844088,0.00011769862,0.0045151889,-0.0035295623,-0.0018509321,0.00015206487,-0.0018009398,0.003525713,-0.00016539604,-0.0039196938,0.0040232497,0.0019221852,-0.0024707673,-0.0013470051,-0.0010196922,-0.00025556953,0.00031559976,-0.0041494911,0.0012182222,0.0032812565,-0.0046819269,-0.0017770032,-0.0033525341,-0.0036450755,0.0036701553,-0.002595828,0.0018078272,-0.0039726698,0.0043822777,0.0023301844,0.0019012378,0.00046437833,0.0012662397,0.00019482048,-0.0046031183,-0.0027601819,0.00057254109,0.0016722832,-0.00088518893,0.0028597813,-0.00050315234,0.0024387966,0.00019432814,-0.0032107322,-0.0017881481,-0.0044757086,0.0038533901,-0.0042381596,0.00058077786,0.001525418,-0.0016547338,-0.0033462285,0.0012087677,-0.0037888657,0.0010187272,-0.0012961135,-0.001011583,-0.0024478702,0.0018879835,-0.0016396288,-0.00020430179,-0.0032946812,0.0036186545,0.0025357752,0.003492521,-1.5333594e-05,-0.00066401158,-0.0014485333,0.0028921883,0.001349592,0.0021616135,0.0015527991,0.004843992,-0.0025577985,0.0028850399,0.0026762192,-0.0039068043,-0.00029540451,0.0046761882,0.0037495904,-0.00092733478,0.00060750876,-0.0037548225,-0.0031930416,-0.0047176218,0.0035215246,-0.0026443659,-0.00080097114,-0.0035869121,-0.0017378829,0.0030977582,-0.002419409,-0.0041296321,-0.0031602209,-0.0041725873,-0.0034438514,-0.0041446995,-0.0035535341,-0.0038225215,0.00026500376,-0.0023419432,-0.00079037284,-0.0029522805,-0.0023129587,-0.0046793842,0.00074506198,-0.0030205839,0.0049504715,-0.0046751243,0.0020398549,0.0018210171,0.00042276653,-0.0025375955,0.0016966365,-0.0039089482,0.00086606239,0.0045420801,-0.0019295744,-0.002055435,-0.00056174669,0.0010918734,0.0033292996,0.0041493082,-0.001178954,0.0037110238,0.0039701366,0.0039779537,-0.0047437888,-0.0017711524,0.0048206973,0.0034225737,0.0017712979,0.0013264469,-0.0039407271,0.0036376321,0.001376035,-0.0032224493,-0.0047168308,1.7741622e-05,0.0035107051,-0.001035246,-0.00084273373,0.00081644153,-0.00047229323,-0.0011726115,0.0016739039,-0.0032877653,-0.0045124244,-0.00010270447,-0.0014446507,-0.0047718537,0.0030507098,0.0045787287,-0.00016990812,-0.0035889583,0.0017460422,0.0033286511,-0.0048857868,-0.0013230345,-0.0016020731,0.0018936793,-0.0013709114,-0.0037712567,0.0019924675,0.004259907,0.0034866642,0.001952102,0.0047645545,0.0014718763,-0.0027264355,0.002196549,0.0027868532,-0.0010230598,0.0034652769,0.0023472761,0.0018420003,-0.0023487405,-0.0042983365,0.0045943224,-0.0031407558,-0.0038363009,0.004455055,0.0018052558,-0.0043032026,0.0048338574,-0.0018778382,0.0039076185,0.00055113706,0.0036404865,0.0030710827,-0.0043126118,0.0027745079,-0.00046343717,-0.00032538088,-0.0025902908,-0.00061811719,0.00072723542,0.0038611858,0.0021681319,0.0020286242,-0.001933078,-0.0037854623,-0.0036313789,0.0017400966,-0.0037682038,0.0031535845,0.0022545849,-0.0048255163,-0.00017608912,-0.002776479,0.0038791602,0.00070006166,0.0020632158,-0.0039704495,0.00043101939,-0.0049318314,-0.003776285,0.001844425,0.0033199452,0.0039631372,0.0024700163,-0.0035789352,-0.0040715885,0.002210416,-0.004749484,-0.0019584839,-0.0025645576,0.0019241623,-0.0010965184,0.00033347162,0.0046189737,-0.00062447879,0.0016322688,0.0048856318,-0.0019570081,0.0038628667,0.00050593409,0.002193136,0.0015356825,0.0043652457,0.002641484,-0.0020356713,-0.0036351573,0.0022602711,0.00022401722,0.0043200987,0.0040168148,0.00088772332,-0.00047899219,-0.0020829539,0.0039851808,-0.0047599023,-0.0034530227,-0.00047426554,-0.0045245254,-0.0024386345,0.0045348072,0.0020952599,0.0044321626,-0.0028648244,0.00086994445,-0.0031645923,-0.00020587118,-0.0049562305,0.0036437469,-0.00065236423,-0.0046150559,-0.0028211545,0.00048221442,0.0003361282,-0.0036558669,0.0012856237,0.0048063719,-0.0020698105,0.0015057174,-0.0036786323,-0.0028194718,0.0011492065,-0.0043697321,0.0049096107,0.0019046901,-0.003458557,-0.0021032671,0.0021713279,0.0015073554,0.0025279127,-0.004439733,-0.0032856809,0.0042949527,-0.0015174226,0.0041823405,0.0020620422,0.0026141726,-0.0019198714,-0.0016606496,-0.00069685374,0.001983435,-0.0010574088,-0.00078398858,0.0042429655,0.003749749,0.0031160097,-0.0020102475,0.0048382056,-0.0035727834,-0.0045915419,-0.0035876214,-0.0028039043,0.0033734231,-0.00087936436,-0.0015047423,0.00091923213,-0.0030400335,0.0012002806,-0.00029573949,-0.0029226183,0.0018933867,0.001351671,0.0025707291,0.0045874893,0.0028427212,0.0021314476,0.0001246968,0.0032831298,0.0040299653,-0.00043798181,0.0010566393,0.0044546759,0.000939664,-0.0037062102,0.0030139773,0.0021414064,-0.0031961017,0.0018474762,0.0029386036,0.00095682955,-0.00098108804,-0.0030322628,-0.0041483271,-0.0012715516,0.003149625,0.0016193954,-0.004008091,0.0047332376,0.0046782934,-0.0013425247,-0.0032863282,-0.003189932,0.0011535577,-0.0022976671,-0.0019489519,0.0031303393,-0.00010387093,-0.0037489008,0.003354203,-0.0030919414,-0.0010826299,-0.0024432878,-0.0010957525,0.0048306328,0.0012070141,-0.0026942282,0.0029128735,0.0024916016,-0.0049537253,0.0036264764,0.0028130011,0.0026065837,-0.0044974005,-0.0025421189,0.0022466962,0.0042936712,0.004762308,0.0028117447,0.0016566,0.0041995281,0.0014573745,-0.0010418067,-0.0011128757,0.0027524428,0.0067755448,-0.29821876,-0.2297898,-0.030218183,0.050513106,-0.11150291,-0.15379831,0.0096538102,0.17718089,-0.018593543,0.21171245,0.082143343,0.11766093,0.19774963,0.070637158,-0.085909977,0.41840892,-0.12709922,0.37085571,-0.096069295,-0.071543113,0.033701456,-0.14143405,0.032648019,0.048634708,-0.21126256,0.081901639,-0.055869056,-0.11248938,-0.088402954,-0.23029061,-0.031203438,0.35336056,-0.065999787,0.060428153,-0.50445444,-0.09567175,-0.074621175,0.17655162,0.24286051,0.45578025,-0.099175657,0.07415664,0.050047187,-0.14501614,-0.062257526,-0.26626873,0.30859724,0.37254895,-0.10801244,-0.20044404,-0.2223608,-0.18841632,-0.184527,0.026214314,-0.14070692,-0.078862943,0.27130192,0.1049079,0.05535889,0.10323253,-0.049341428,0.1607453,0.22531527,0.0002369741,-0.0030700112,-0.0030433596,-0.00069609853,-0.0013132432,-0.0017335403,0.0024551138,-0.0030881341,0.0015785789,-0.0043396247,-0.0051440454,0.00019488477,0.002682724,-0.0020178372,0.00035289491,0.0014156272,-0.0099056671,0.0051896406,-0.0054471657,-0.0040862772,-0.0014290795,-0.0043977065,0.004556832,0.00092344453,0.0018757476,0.0027847128,-0.0056638564,-0.0053700754,-0.0018888724,-0.0028293053,-0.0021050432,-0.00014798336,-0.0033566724,0.006895378,-0.0060623519,0.00080552695,-0.0041302945,0.0018637878,-0.002099191,0.0035318906,-0.0039534223,-0.0032533469,-0.0042894248,-0.0044583108,0.0034027965,0.00047609138,0.00037545923,-0.00072651677,-0.002492109,-0.0046842532,0.0064039697,0.0010569566,-0.0012342424,-0.0057235462,0.0023715244,-0.00042399824,0.0010480657,-0.0047359003,0.0030558372,-0.0039080453,0.0019841847,0.004915187,0.00025938269,0.0047402564,-0.066272331,0.03670408,-0.03418096,-0.0037087633,0.014875306,-0.01883707,0.036317327,-0.0050576078,-0.0065024804,0.034740323,-0.02082827,-0.05619341,0.026964443,-0.059072689,0.072174483,0.024275839,0.11029437,-0.073827009,-0.0048976613,-0.023578188,-0.024969748,0.10719732,-0.10761125,-0.074767582,-0.028057048,0.022446064,-0.071758324,0.078697235,0.075406416,0.01403099,-0.0019222752,0.086753751,-0.0029413085,0.028625142,0.049623836,0.032374201,-0.033181623,0.018394967,0.022765454,0.038357472,-0.008579169,-0.020488262,-0.0029154823,-0.024150109,-0.014022687,-0.036218573,0.022369667,0.087444728,0.04027002,-0.012469429,0.020273812,0.034763254,0.014247399,-0.0019510563,-0.041467914,0.032303503,0.0027763401,-0.0067944698,0.071437475,-0.0022362712,0.002259947,-0.014208733,-0.032590729,-0.048809183,-0.026718994,-0.099016662,-0.11694546,0.019638622,-0.025106261,-0.032125566,-0.016736131,0.025333322,0.034673666,-0.010574242,0.040474395,-0.017584297,0.050420456,0.019753951,0.017396287,-0.063586181,0.0080838038,-0.065385848,0.063491051,-0.0080316872,-0.028115386,0.019748483,-0.03232817,0.033713818,0.035413777,-0.067722877,0.035436253,0.0049451108,0.00095149015,-0.0042058625,-0.04370201,-0.0086903915,0.072187044,0.0090780701,-0.012756668,-0.17369992,-0.030152424,-0.035690902,0.060145409,0.13554754,0.20408018,-0.063681189,0.045935705,0.031860385,-0.040585137,-0.037319135,-0.10021445,0.11882338,0.053582409,-0.04928068,-0.0053162393,-0.013473304,-0.02653631,-0.090921378,-0.011381404,-0.022215612,0.0021568884,0.098622274,0.03120337,0.011620986,0.076889592,-0.011824166,0.074097983,0.050716228,0.001411766,-0.0038834711,-0.0042464585,0.0020149054,-0.0038944473,0.0031559333,0.00087421825,0.0036219163,-0.00025315268,0.0048104395,-0.0039300206,0.0035447925,-0.0015002255,0.00031412086,0.0035041949,-0.0041090365,0.0036592939,-0.00076128958,0.0038053696,-0.004190348,-0.003077517,0.0030863295,0.0020237729,0.00084542923,-0.0028434395,-0.0012317556,0.0012971537,0.0042606209,-0.003358351,0.0011865776,-0.0011643551,-0.0032021107,-0.0010701217,0.00347869,-0.0043943699,0.00079233779,0.0018089981,0.00048776834,0.0019835976,0.0042820848,-0.0017917439,0.0050485317,0.0021878661,0.0015856587,-0.00094479902,0.0038816389,-0.0045158432,-0.0032195682,-0.00014956515,0.0036796307,-0.0042215062,0.0026613184,0.0022360653,0.0016840705,-0.0036871688,-0.0012184105,0.00056674965,-0.0018066609,-0.0027330309,-0.0013345482,-0.0043805442,0.0043921705,-0.004105354,-0.0019770689,0.00015018245,-0.0012409797,0.00031472938,-0.0030452301,-0.0040048956,-6.9979218e-05,-0.0032742252,0.0036507651,-0.00092563891,0.0021854672,0.0046719797,-0.0036733314,0.0019530467,0.00366994,-0.0019793968,-0.0032811353,-0.00089653987,0.0004788646,0.0024896576,0.0018584434,-0.0034440879,-0.0010972144,-0.0017242882,-0.0018987933,0.0042213513,0.0029647455,0.00093073386,-0.00092866551,-0.004031148,-0.0028391663,0.0013079479,-0.00062110603,-0.0026724962,0.0029977057,0.0048781519,-0.005556664,0.0045930749,0.0043882931,8.0938919e-05,0.0021040941,0.0041723728,0.0021509978,-0.0046859221,-0.0033991031,0.0037484144,0.0031730153,-0.004251742,0.0021650275,0.0028397911,-0.0033393768,0.0037664677,0.00027199496,-0.00067321298,-0.00090202609,0.0045211625,0.0041520236,0.003254304,-0.0014420188,-0.0025401318,-0.0017746479,0.0028720052,-0.00067675014,-0.00025817892,-0.0028530152,-0.0051363594,-0.0021703379,-0.011977099,0.0015969951,-0.0053596721,0.0024523637,-0.00088342101,0.0014190841,0.00041251408,0.00060784173,0.0015808192,0.0014249177,0.003151702,0.0030795724,0.0030083846,-0.0033466311,-0.0026111082,-0.00080888027,0.0070079795,0.0028404017,0.001006363,-0.0028821252,-0.0079682616,-0.0013368977,-0.00042914436,-0.0085158116,0.0039066321,-0.0015085036,0.0061741213,0.0032756449,0.0002758591,0.00074143235,0.0047265352,0.0027929547,-0.0016559468,-0.012264111,-0.0023074643,-0.0034172609,0.003142125,0.0080165393,0.011037801,-0.0083712735,-0.0011803354,0.0013993917,-0.0049379659,-0.001121106,-0.0066038876,0.013111655,0.00011007722,-0.0016790302,-0.00083382112,5.345387e-05,-0.0049844238,-0.0092422333,-0.00046987978,-0.0017572933,-0.0022239031,0.01262015,0.0036609439,0.00071864903,0.0025302377,-0.0035672768,0.0072315735,0.0021956438,-0.0070118403,-0.026398716,-0.020368889,0.0079780955,-0.0051194924,-0.011271325,-0.0050299893,0.0013822848,0.004619149,-0.0046071382,0.0093941154,-0.011772501,0.010465493,-0.0010534569,0.011557,-0.012583603,0.023928002,-0.017460128,0.021042476,0.002740257,-0.0088770854,0.0025953206,-0.014404907,0.0092140746,0.010077904,-0.016445275,-0.00037754545,0.00065208095,0.0092252858,-0.0078491715,-0.0071876099,0.0056726249,0.015287969,0.0024475953,0.00046502984,-0.029693292,-0.01018552,-0.0025482691,0.0074300813,0.030101136,0.042022087,-0.010780715,0.0082890879,0.0051094867,-0.0081294372,-0.010875679,-0.018485633,0.037351415,0.017476092,-0.0032426051,-0.00016584268,-0.0019815018,0.0021626317,-0.018241529,0.0034502741,-0.0063884177,-0.0051333435,0.019145079,0.0099384895,0.0062372373,0.016185314,-0.012525907,0.011655572,0.012436831,0.018849542,0.011694307,0.008312974,-0.035249054,0.027179134,0.0093597369,-0.0021511553,-0.020902197,0.013439643,0.013169453,0.010867295,0.01483227,-0.013919991,-0.015019341,0.037036413,0.042390425,0.070448633,-0.014415794,-0.01032576,0.0011247484,-0.01275483,0.018062483,-0.00065303009,-0.039447603,-0.010669434,0.011799367,-0.025882675,-0.0071217704,-0.0055399216,-0.017225231,0.011916035,0.0077457208,0.019111426,0.0034486619,0.012953218,0.077945962,-0.037436504,0.035603841,-0.041867698,-0.065022737,-0.075107338,0.022807102,-0.029242612,-0.024876133,0.0074086128,0.027565661,0.06372516,-0.0026486616,0.03428274,-0.0024299817,-0.044192866,-0.027640034,-0.0040918539,0.020288279,0.014329833,-0.012009428,0.00010835915,-0.024463943,-0.027068733,0.0086540105,-0.047044184,-0.033256968,-0.050320077,-0.040009538,-0.14830813,-0.081197239,-0.095375319,0.033032559,0.023472968,-0.041099598,0.074202293,0.0090031327,-0.053049808,0.016545541,-0.096936783,-0.19687388,0.089397886,-0.11892175,0.09796538,-0.011642889,0.16971269,-0.14708207,-0.010539384,-0.011769121,-0.068261842,0.14217059,-0.1596602,0.053745083,-0.010189483,0.026257775,-0.057535074,0.12496973,0.10092611,0.011787645,0.020337414,0.11257763,-0.0090252974,0.025971991,0.053974986,-0.070783197,-0.026432901,-0.026035366,0.062558909,0.15958893,0.13936324,-0.026543999,0.071049564,0.028581268,-0.0031696404,-0.030679235,-0.1652597,0.25933385,0.042411802,0.0086864014,0.065096957,0.039298868,0.14661259,-0.027393458,-0.0065109277,0.067543699,0.094190308,-0.026291322,0.0074273841,0.051074323,0.04467319,-0.1033866,0.03171712,-0.068065754,-0.077261662,0.0042391238,-0.053927338,0.079387225,-0.044969786,-0.0065509009,-0.053197746,0.01859359,-0.0099814402,-0.031202036,0.01334286,-0.07538186,0.015092015,-0.030943957,0.01468238,0.020290018,-0.050422873,-0.051245439,0.058531175,-0.030242812,-0.0077766284,0.04136427,-0.038218143,0.015066242,0.016225738,-0.075867338,-0.081297551,0.044083616,0.067034981,0.010244863,-0.0038461055,0.034155375,-0.024108256,0.080385496,0.0022227097,-0.047631311,-0.022604491,0.030722827,-0.04471726,0.12217032,-0.035926361,-0.077826371,-0.020753133,-0.034239103,0.033231777,-0.036278623,0.062846505,0.15917368,-0.012073697,-0.040140616,0.066001676,0.080802535,0.088687081,0.01416309,-0.050393075,0.020111433,0.0022426697,0.026022407,0.062853772,0.060847073,0.024922013,0.062040996,0.0024667687,0.048282262,-0.0075756167,-0.046044496,-0.053026067,0.01325087,-0.0088830771,-0.019625673,-0.024355013,0.0056162693,0.027474092,-0.0021021622,0.034136761,-0.002717668,0.019324492,0.022046507,0.012458171,-0.0284865,0.044125024,-0.030688219,0.055736693,-0.01449265,-0.014664421,0.0067162289,-0.0076915194,0.010988543,0.0084902653,-0.033539863,0.017318919,-0.010509225,-0.0017394516,-0.0092526285,-0.040606678,-0.013060322,0.059542177,-0.0021117354,-0.013707532,-0.094695403,-0.028843314,-0.017154471,0.039200285,0.070878483,0.10439607,-0.026643771,0.0155101,0.019999424,-0.030408236,-0.025769402,-0.053793158,0.057093501,0.044127631,-0.02594769,-0.019652204,-0.026963845,-0.021429274,-0.039151457,0.00047120504,-0.020465736,-0.026759493,0.052043534,0.030749178,0.0054355479,0.03216153,-0.003574941,0.027925225,0.039503109,-0.045540031,-0.20036677,-0.19516533,0.035133241,-0.015017151,-0.073579941,-0.061201401,0.019089084,0.10001723,-0.03283902,0.11838407,-0.0074727058,0.10657004,0.096231944,0.025284599,-0.1312716,0.12183587,-0.11956669,0.19908597,-0.039429314,-0.050200209,0.017305764,-0.099559066,0.06924405,0.045642912,-0.14642576,0.070665275,-0.014505447,-0.013086289,-0.03671945,-0.15531463,-0.034186769,0.18168842,-0.035929883,-0.012286408,-0.35403435,-0.063134789,-0.07036085,0.13229734,0.25243958,0.38468694,-0.10234554,0.084039967,0.072188076,-0.10298595,-0.06391981,-0.20659609,0.21568018,0.15945714,-0.082700914,-0.05515749,-0.1056758,-0.10222039,-0.14035767,0.0047109883,-0.093342684,-0.040648156,0.18670386,0.067426496,0.026230842,0.12581332,-0.028507752,0.14426238,0.1503041,0.10932564,-0.050142227,-0.057101053,-0.075825654,0.0075414724,-0.082320228,-0.15804961,0.059843345,0.065780851,0.036357394,-0.037208386,-0.04571799,-0.087496037,0.027925008,0.035569871,0.04717688,-0.0060331856,-0.0010259995,-0.060173432,0.024888647,0.077859348,0.01019555,0.03046191,-0.085246079,0.10353639,-0.0095023646,-0.027730227,-0.068329712,0.056046417,-0.02540365,0.06910447,0.14687552,-0.012787537,0.055120351,-0.064876315,-0.16532348,0.038956938,-0.11725489,0.0044493675,-0.020217076,0.25331756,-0.074805735,-0.036858833,-0.10613095,0.087518961,0.010638357,-0.033006526,0.15050316,-0.029358234,-0.058330484,-0.02563532,0.19428099,0.097684538,-0.18879841,0.01828323,0.16103948,0.091890908,0.16586603,0.045694327,0.067637874,-0.03639482,0.024218143,0.0025899134,-0.047984406,-0.061408194,-0.033140553,-0.0064998847,-0.022841433,-0.088330676,-0.0099270881,-0.11652384,-0.060712824,-0.027437597,0.007990847,0.086833689,0.10408328,0.044088112,-0.048140161,0.075280333,0.058209618,-0.054827855,0.031158652,0.024681629,-0.024338075,-0.037551567,0.0042012154,0.032254301,-0.17427372,-0.037919387,-0.046428021,0.069309323,0.1036865,-0.088898764,-0.031028528,0.073294507,0.082943531,-0.012687439,0.060503855,0.14561249,0.045757712,-0.064352888,-0.076854195,-0.044233938,-0.1567753,-0.058814855,0.044457834,-0.093071496,-0.013764663,-0.059376992,-0.12371254,-0.18268977,0.19870924,0.074382017,0.036225052,-0.10759006,-0.0657979,0.10347769,-0.043077942,0.03217969,-0.017766352,-0.047843009,0.06668866,0.057445823,-0.0097348324,0.020514433,-0.044171671,0.028465266,-0.041027688,-0.0040625039,-0.011970488,-0.025395838,0.008591946,-0.015709536,-0.0074338645,-0.013888565,0.0024375367,0.016814648,-0.0046486169,0.018266484,-0.0032860562,0.0010173078,0.0077561766,0.0038228486,-0.014174365,0.018321005,-0.014231955,0.022346253,-0.012108209,-0.0047233782,0.0055259329,-0.0023732758,0.0038449539,0.0081017084,-0.0098184249,0.0059795545,-0.0060509637,-0.0015073365,-0.0078020366,-0.015360045,0.0036068118,0.024224364,0.00032240666,-0.010066844,-0.030188342,-0.013235771,-0.0094418875,0.0097427678,0.0272142,0.039443924,-0.014491551,0.0061391904,0.00078321818,-0.0091135772,-0.0084926344,-0.018570045,0.032905101,0.020374941,-0.014684891,-0.0079981861,-0.014447903,-0.0080220861,-0.024673262,-0.0021457804,-0.0095344187,-0.0073817202,0.018361762,0.011301031,0.00070120745,0.014004318,-0.0065446339,0.0078318885,0.022879555,-0.013811528,0.024303775,0.00038127262,-0.007091242,0.0045638903,0.0029024553,0.011589729,0.00071139778,-0.017544996,0.0056224145,-0.029169667,-0.022009533,-0.0014761273,-0.033482574,0.0019350132,0.0062005517,-0.02748812,-0.010851739,-0.047994834,0.018189943,-0.0017861763,0.023245844,-0.012721238,-0.0035629983,0.0012001829,0.014365882,-0.02171522,0.022157309,0.019658302,0.010280633,0.027804843,0.020300842,-0.049354611,0.023924492,0.0061264712,0.044772255,0.011688714,-0.008728851,-0.012406256,0.0031464104,-0.03197827,0.0022561392,-0.0011249169,-0.007357013,0.014411114,-3.4833131e-07,0.017821246,-0.0044042018,-0.026136243,0.0069382125,0.019003562,0.035974854,0.039120576,0.010067577,-0.010477331,0.027574481,0.025782557,-0.014399512,-0.007658865,9.8506729e-05,-0.0038915915,0.0003328038,-0.01467191,-0.030343025,-0.031184922,0.0094169889,-0.0075410479,0.0077583166,-0.016127984,0.0073421757,0.024031421,0.0038359363,-0.012483889,0.011666957,-0.022654903,-0.050588683,-0.0022053918,-0.043133125,0.0089414788,0.0032096884,-0.018924272,-0.021398541,-0.061483782,0.013890923,-0.0015326087,0.031114647,-0.0039638423,0.010811609,-0.0023602877,0.023154087,-0.022131996,0.032217402,0.034201681,0.010961474,0.028413507,0.029113682,-0.046180566,0.025199526,-0.0035587662,0.026385122,0.0057283492,-0.0091232985,-6.6669307e-05,0.028177832,-0.0031072073,0.0028333414,0.014610039,-0.0026763106,0.015148825,-0.016123045,-0.0025815582,0.018385929,-0.036393395,0.011641526,0.036469478,0.054255465,0.050047178,-0.0033573227,-0.005563048,0.034842855,0.038452337,-0.0059551715,-0.010133666,0.0033929982,0.017084584,-0.011828528,-0.011080852,-0.038088297,-0.010483438,-0.007532888,-0.017701685,0.0019289817,-0.0010961137,-0.001203865,0.0027093041,-0.0011849698,0.0015463172,0.0054231942,-0.0020656203,-0.014795533,0.005249589,-0.0061334028,0.0053909739,-0.0075635479,-0.0037691584,-0.015599077,-0.012233098,0.0030808538,0.0021469722,0.0095178989,-0.014253008,0.0080589587,0.0083802899,-0.0011593387,-0.0028143439,0.0052608012,0.0040380616,-0.0032667896,0.00070382988,0.0065327764,-0.017914796,0.011101105,0.0023752679,-0.0096425693,-0.00320536,-0.009036064,0.0042997816,0.020236899,0.016476808,-0.0099130406,0.0066392807,0.00037099504,-0.0056702114,-0.0083842444,-0.0064847695,0.016304624,-0.0066403235,0.004783573,0.0098807984,0.015519692,0.0067405113,-0.0031731667,-0.0060500401,0.0033153047,0.01633076,0.0090999765,0.00056316203,0.0084455264,0.01299928,-0.0062027477,0.010641862,0.00022451745,-0.0013800598,-0.0047673009,-0.0091348897,-0.0027459934,-0.0077165921,0.0023171451,-0.0028496076,0.0046352468,0.0059508493,0.0049441788,0.005878721,0.0010823745,0.0023959853,0.0058273926,0.0035706705,0.00088404726,0.0063346623,-0.007525171,0.0064664321,-0.0022545938,-0.0061786178,0.0032187802,-0.00061148,0.00079966259,-0.0014291479,-0.0054139357,-0.00065982629,0.0018162372,0.0034572499,-0.0002557662,-0.0004029097,0.0057776941,-0.00026341391,0.0068938944,0.0024027767,-0.0083108552,0.0037159034,-0.0058122878,-0.00074202611,0.011841041,0.0074585858,-0.0068431609,0.0061696464,0.0063141659,-0.0074043181,-0.0022876086,-0.0073611753,0.0045958424,0.0044691554,-0.0023391518,0.0032271328,0.0020462494,-0.0021351267,-0.0080393564,-0.0038479133,0.0022487793,0.0023931268,0.0087219231,-0.0019821007,0.00043561364,0.011306446,-0.0013716588,0.0074557029,0.0020084611,-0.0048258294,0.0051995743,-0.0099559957,-0.00081103747,-0.0029853778,0.0034147325,-0.0012632977,0.0031795861,0.0026673607,-0.0026971631,0.0045541926,-0.010413138,-0.00090515261,-0.005621848,0.0019987911,-0.0053437698,-0.0084404968,-0.0058944188,-0.010724801,0.0094984487,0.0019907091,0.0009531841,-0.0021845567,-0.0029287778,0.0056842149,-0.0033009945,-0.005205145,0.0087904164,0.0024419357,0.0009018822,0.00061324187,0.0071848248,-0.0092472174,0.011061289,-0.00053266028,-0.0037296841,-0.0033199234,-0.0027233232,0.003298344,0.016778532,0.004713058,-0.0043451121,0.0053029327,0.0018106517,0.0046528127,-0.0097383149,0.0038282523,-0.001062283,-0.0046010762,-0.0036620038,0.0046789425,0.0079401366,0.012185011,-0.0032361091,-0.0067170442,0.0029280386,0.0035011375,0.0080043523,0.0011497515,0.0016051953,0.0071693421,-0.0021857861,0.0027726883,-0.0028865941,0.0018094309,0.0014270429,-0.0061981095,0.0046196671,-0.007714269,0.0026501896,-0.0038038681,0.0008937468,0.00042418683,0.0029297527,0.009172645,-0.0047710158,0.0039405212,-0.00054632418,0.0034142585,-0.0030370504,-9.0229434e-05,-0.0062945086,0.0024521479,-0.0040713804,-0.0048540613,0.0032608003,-0.0030422108,0.00085296359,-0.0021581442,-0.0071540806,0.00020438767,0.00019259122,0.0036727195,0.0036542322,-6.5145562e-06,0.0011610192,-0.0042350161,0.0014199604,-0.0034673515,-0.0024881205,-0.0058160378,0.0023991059,0.00016983611,0.011123491,0.013422131,-0.0057312944,-2.0023977e-05,0.001915323,-0.0068367484,-0.0067791,-0.0071211299,0.009931875,0.0039354939,-0.0040996902,0.0071266146,0.0031358587,0.0039534607,-0.0078556432,-0.0025963503,-0.00034567457,-0.0062267146,0.0085028662,0.0018224107,0.0027428333,0.0048102381,0.0035166139,0.0061883853,0.0047480464,-0.0036836967,0.00080547387,0.00050784465,0.0025929611,-0.0062000731,0.001935473,-0.0018836219,-0.0027329014,-0.0014844966,0.0042031382,0.0041278835,-0.0048966805,0.00063120179,-0.0024189947,0.00057642229,0.0025320957,-0.00034373915,0.0023842454,0.0032786197,0.0022932634,-5.3849942e-05,2.1120512e-05,0.0039315973,-0.0015394878,0.0031588972,-0.0045386607,-0.0048956045,0.0058465986,0.0022644613,0.0036104011,0.0024575448,0.0054816296,-0.0055635023,0.0029196152,-0.0014212932,-0.00021244235,0.0025243646,-0.0019205978,0.0035776358,0.0012316249,0.0059406214,-0.004523525,-0.0038454812,0.003874697,0.0041066656,0.0019008937,0.0022236998,-0.00048663584,-0.0014602666,-0.00061105607,-0.0012001041,0.0085324461,-0.0019806823,-0.0063754645,-6.4276543e-06,0.0024436607,0.0024123673,0.0052138741,0.0033703477,0.0012069817,0.0069581031,-0.0045159689,0.0026594186,0.0023244805,0.00030515154,-0.0026234746,0.0032875835,0.0035331832,-0.00057004968,-0.00061413516,0.0028806145,-0.0007958684,-0.0035830222,0.0044151354,0.0045245668,-0.00012509183,-0.00080499649,0.0011671157,-0.0018012541,0.00079678217,0.0029399126,0.0016567547,-0.0033759361,0.0055290384,-0.0009959625,0.00018307807,-0.0038545604,-0.002753745,-0.0014979881,-0.0039994856,-0.00070607161,0.0022774517,0.00099563017,0.0045445427,0.003392438,0.0053766857,0.0029603971,0.0035516855,0.0046562649,-0.00037865978,-0.0037586314,0.0022888791,-0.0037022953,-0.0034232754,-0.00068284081,-0.0031644554,-0.0023472822,-0.0013231107,0.001231138,0.0036461162,-0.0031830732,0.0039668718,-0.0044311284,-0.0020890405,0.0037245305,0.0023896361,0.00059774833,-0.0048476698,-0.001639499,-0.0018053087,-0.0037305398,-0.0025324062,-0.0010668023,0.0042808197,0.00029076005,-0.0030142907,0.0016010764,-0.002592257,0.00377652,0.0024447636,-0.004345558,0.0037187396,0.00054844964,-0.0011860273,0.00065778007,-0.001112908,-0.003911435,0.0030685419,0.0035928351,0.0008392369,-0.0028457425,-0.0015589468,-0.0023807891,-0.00082669113,0.0013409331,-0.0054657961,-0.0011850971,0.0025889664,-0.0001179536,0.0031016458,-0.0064975814,0.0033391372,-0.0049112188,-0.0021252682,-0.00051548507,0.006652148,-0.0018198962,0.0041894544,-0.0031836498,-0.0020693825,0.001036242,0.005463496,-0.0016612126,0.0050951879,0.00046775104,0.0031513313,-0.0047875365,0.0034772914,-0.0028184714,0.0022662749,0.0031695166,-0.0015610921,-0.0034448101,-0.0021094643,-0.0049540621,0.005876591,0.0013615343,0.0035817456,-0.00089286081,0.003495054,0.00613296,-0.0013835986,0.0020525638,-0.004079212,0.0016113347,0.00035458597,-0.0034144775,0.0034914262,0.0023268925,-0.00049687576,0.0011162078,-0.0062298687,-0.0053382813,-0.0030552915,0.00069265571,0.0048449857,-0.00035507783,0.0032296209,-0.0021389325,0.0005457042,-0.0024721315,-0.0042665256,0.0048986858,0.0037254448,-0.0020308424,0.0013022562,-0.0043958361,0.0032623922,0.0032028489,0.00021075472,0.0015524078,0.0014214287,-0.0044615295,0.001283591,0.0016783093,0.0015097915,-0.0029669306,0.00065357085,-0.0017609614,0.0022158751,-0.0026809314,0.0013737197,0.002402712,0.0020793009,-0.0016494893,0.0037669235,0.001173596,-0.0031645814,0.001591272,0.0020224851,0.005174658,0.0028343003,0.00078769866,-0.0026690275,0.0051916839,-0.00061147648,0.0032856171,-0.0034365988,0.00035021504,0.0044539591,-0.0039290439,-0.0024752869,-0.0012865627,-0.00011942424,0.00090800813,-0.003334225,0.0042565408,0.00084210759,-0.0029249732,0.0046714568,-0.0018402501,0.0029503589,0.003229408,-3.8399239e-05,-0.0028994371,-0.00055297085,-0.12799388,-0.14768833,-0.123633,-0.009161443,0.022848472,-0.033050678,0.082389021,0.011706764,-0.035284792,0.0062750328,-0.073168279,-0.15113536,0.075546375,-0.10358765,0.087190244,-0.062991611,0.14252176,-0.14536963,-0.041133605,-0.0026966689,-0.07667668,0.10567497,-0.14221378,0.097430662,0.0044942503,0.029038617,0.0012509182,0.10236961,0.071894716,0.012433386,-0.0028992362,0.056448779,0.049601091,0.0061276276,0.043053411,-0.11213012,-0.011132448,-0.0662603,0.083438423,0.17274897,0.23635411,0.002238072,0.10908635,0.077242273,-0.024345735,-0.058876567,-0.21537235,0.22649008,0.047151586,-5.8175273e-05,0.021764585,0.013643691,0.098663725,-0.067563129,0.028464205,0.0538688,0.12330247,0.025510498,-0.024464202,0.037917845,0.076932027,-0.13957961,0.066802273,-0.043886745,-0.031491981,-0.034779897,-0.025508456,-0.0034076538,0.0082645578,-0.010637801,0.034995599,0.00079923615,-0.021197871,0.0049357177,-0.035258436,-0.046249194,0.019196194,-0.034656617,0.022841795,-0.018188158,0.028411737,-0.034537179,-0.031815415,0.0075432984,-0.018156531,0.032165619,-0.041943803,0.0340124,0.006020085,0.017699508,-0.0069132802,0.031917486,0.025963881,0.009149483,0.01183546,0.023296226,-0.018071668,0.0060226249,0.019761936,-0.01702314,0.0079058154,-0.015982563,0.013363445,0.041724428,0.050537088,0.0033049879,0.027009674,0.015335156,0.002786741,-0.010191448,-0.046843191,0.050618263,-0.0079405997,0.0072386308,0.015542731,0.012805056,0.031554078,-0.0096697362,0.003795526,0.015758821,0.051504681,-0.0076303651,-0.020356193,0.015089006,0.013351653,-0.0363339,0.018832802,-0.024145223,0.0045480456,-0.00067970967,-0.014449454,0.0064643272,-0.010798179,-0.0040349249,-0.0043309259,0.0024029132,0.0036163061,0.0007500861,0.0093655562,-0.0016785316,-0.0052968986,-0.0073829432,0.0053827623,-0.0025820457,-0.015735276,0.0052637934,0.0024166111,-0.0070420223,-0.0029754215,0.00082484854,0.015877073,-0.00084195609,0.00033688157,-0.0058960571,0.0066482996,-0.0013567248,0.0078779702,-0.0023847654,0.0046480528,0.0023804399,0.0090233739,0.015555979,-0.0041648197,-0.0078644785,-0.0074744909,0.002507825,0.0028266162,0.013530851,0.0072665224,-0.012246652,0.0003299938,0.0017749279,-0.0016004609,-0.0051920951,-0.0033019938,0.012657467,0.0030950291,-0.0081571416,0.0038563223,0.00098722873,0.0007623536,-0.011912,-0.008529748,0.0048034958,-0.0065071756,0.0040815394,0.0073306479,-0.0023153555,0.010048912,0.0042213906,0.00049629948,-0.0016236281,-0.032698548,-0.17967197,-0.17486212,0.043294463,-0.023216925,-0.060136964,-0.050860191,0.01674842,0.084469568,-0.019669418,0.10405362,-0.018019231,0.085004802,0.071771007,0.016498391,-0.11338048,0.068074716,-0.094262223,0.17725245,-0.035615148,-0.04868282,0.018686308,-0.065166942,0.048608057,0.038468821,-0.11868588,0.05770535,-0.027596848,9.469788e-06,-0.021627857,-0.12091304,-0.040607048,0.1716738,-0.030055179,-0.029476965,-0.30430154,-0.070214343,-0.052463262,0.11796842,0.23322558,0.3419128,-0.078944753,0.066862926,0.062970218,-0.08592215,-0.061450947,-0.1763092,0.18477387,0.14231095,-0.06520932,-0.035927755,-0.094693832,-0.0874608,-0.12699846,-0.0054294173,-0.069011852,-0.037686459,0.16339762,0.058878562,0.015039961,0.10936375,-0.01801093,0.11398073,0.12782629,-0.019648597,-0.038282095,-0.038373907,0.0049360305,0.0045188729,-0.013023563,0.0084925833,0.0040402593,0.0072398216,-0.0063830057,-0.0077401307,-0.016031427,0.01858649,-0.0084220105,0.008526353,-0.02930549,-0.0068770337,-0.028185349,0.0054742704,0.0050367227,-0.010019273,0.010209361,-0.030060855,0.020252212,0.0035287218,-0.014538754,0.0040435596,0.0048198023,0.0077301924,-0.0045715789,-0.001858947,0.00052342829,0.0058852901,0.0033134871,0.0031054051,-0.040955216,-0.0059264365,-0.01983219,0.019255417,0.043114611,0.067149496,-0.013129555,0.016452549,0.013201631,-0.0039801537,-0.007067518,-0.03618763,0.039475873,0.0081380939,-0.0045711634,0.012697814,-0.002220733,0.006161918,-0.020368157,-0.0037432211,-0.0032750742,0.018081856,0.017843314,-0.00026977679,0.0084478064,0.014456042,-0.015295342,0.019998321,0.0059019344,-0.0060940626,0.0020838836,-0.00042629213,-0.0026325722,-0.0037166069,-0.003779479,0.00049972465,0.0023003556,0.0031198279,0.0036078305,0.0022332675,-0.0065013716,0.0034698859,-0.00034268124,0.0048402043,-0.00071294551,-0.0011967779,0.00098970309,-0.0033916921,0.0048841906,-0.0032895165,5.7530459e-05,0.00050549303,-0.001009894,-0.00061795666,0.0012222164,-0.003490918,0.0061333506,0.0019196212,-0.0032427548,-0.0011521825,0.0021701511,-0.0030108749,0.0004159151,0.00064417475,0.0036587625,0.0023146809,-0.0049664353,-0.0036734997,0.00023037102,-0.0020419713,0.0015856329,0.0055971637,0.0036933815,0.0028318572,-0.001074262,-0.00013699599,0.0044950887,0.0038990518,-0.00058335264,0.0016577235,-6.9044135e-05,0.0038036287,-0.0041127509,0.0034565264,0.0046415351,-0.0025491044,0.0016015514,0.00058228918,-0.00039790438,0.0041221609,-0.00038160936,-0.00075518004,-0.0021414944,0.0042271166,0.003266242,-0.00059875284,-0.0012561584,0.0030097794,-0.0020037963,0.0040104141,-0.002770506,-0.0042625384,-0.00016252539,-0.0039509104,0.0028641965,-0.0018130513,0.0027631157,0.0037133441,-0.00043664678,-0.0014659729,0.0011516332,-0.00114653,0.0013738224,0.0016302814,0.0040023667,0.0022392886,0.0043698458,-0.0015122667,0.0014546327,-0.0020850656,-0.0031784265,0.003755088,0.0023647603,0.0051866546,-0.0037576886,-0.001351949,-0.00034280535,-0.001941827,0.00075341809,0.0040525364,0.0017823076,-0.00074822746,-0.0044388537,-0.0035181237,-0.0039940114,0.001592324,0.0046081382,-0.0028681706,0.0041051273,0.0002759826,-0.0047780637,-0.0015091632,-0.0039530175,0.0026243902,0.0025427324,-0.00037007501,0.00027725856,-0.0051254487,-0.0022741648,0.0046044607,0.00024888076,0.0023796023,-0.0007703309,-0.00095724207,0.0034028802,0.0036644273,-0.0024013909,0.016809758,0.02213213,-0.024334065,0.0066375351,-0.027676794,0.0103584,-0.042584136,0.026888477,0.014239636,0.010918017,0.025592906,0.035251842,-0.026540653,-0.064311673,0.027791506,0.003197891,0.03809706,-0.015043555,0.0016538972,0.02048778,-0.0061106878,0.033137039,0.033561746,-0.017696935,0.0086529168,-0.0046839345,-0.019636179,-0.016577814,-0.027130077,-0.0035838138,0.030247346,0.021707449,0.0073288605,0.072751218,-0.0067100796,0.05405844,-0.028623482,-0.0078380801,-0.03350953,-0.0053338518,-0.063446794,-0.021482705,-0.021345524,-0.034796285,-0.0047918124,0.014165418,0.07809515,0.026786698,0.037717804,0.0025701902,-0.0040593729,-0.016567308,0.020589857,-0.022682267,-0.025069242,0.026956473,-0.01431971,0.013962818,-0.0099740732,-0.0084925887,-0.019768611,-0.0057213518,-0.044774209,-0.0024919453,-0.011139949,0.033066838,0.013661268,-0.0049787297,0.0057229182,0.0019314204,0.0097481076,0.0048999328,-0.00027684009,0.023889132,0.0015242368,-0.00058446756,-0.0039163354,0.00032716112,0.0055742057,0.012096245,0.016915589,-0.009279586,-0.0086667673,-0.011344343,0.0019123365,0.016248671,-0.022323206,-0.011742011,-0.0071169617,0.02281421,-0.012021534,0.017007687,-0.0084085317,-0.0013333742,-0.0063221753,0.023251498,-0.0042725379,0.0055081319,0.022920378,0.033217947,0.0039620311,0.0030712362,0.0068702775,-0.013210977,-0.021411447,-0.0094279426,-0.00073203617,-0.0041843504,-0.00083659894,0.0011393607,0.0056642484,-0.0058878126,0.0033903023,-0.00010285316,-0.0059816168,0.013424506,0.00094167039,0.015877733,-0.0099743459,0.0059393551,-0.0057194848,-0.012136795,0.018158855,0.0088696873,0.0045155379,0.012995807,-0.0094370612,-0.0044442927,-0.023441075,0.018523506,0.012078704,-0.0096822162,0.031377657,0.016258815,0.037537129,0.00051187043,-0.006090525,0.029338939,0.0068507365,-0.00060341007,0.0017001955,-0.0097851836,-0.0038817186,0.0074182793,0.059082384,-0.022555434,-0.012100947,-0.024288125,0.0025055245,0.014724097,-0.021681949,-0.023526271,0.0099477762,0.010273908,-0.010989004,-0.0024563641,-0.0017414502,0.0043739703,-0.00077734876,0.031481563,-0.016527456,0.0313686,0.030711372,0.018148895,0.0065962902,-0.023612702,-0.023019306,-0.003986923,-0.026085737,-0.01496975,-0.025400366,-0.019740679,0.013449365,0.017644073,-0.033660032,0.007632791,0.0047260389,0.0013440253,0.0098525897,0.042290117,0.0038231707,0.005927331,-0.021672434,-0.0025803211,0.0056338363,-0.012312232,0.012013556,-0.00033984707,0.010407206,0.026751289,0.0033278804,0.0048710191,-0.054736944,0.082172823,0.036935273,-0.012289897,0.016064668,-0.011356084,0.036243528,0.0094614722,-0.0055081661,0.073635326,0.031741164,0.0034300248,0.00036782768,0.026220302,0.015699901,0.03588069,0.01526189,-0.031420869,0.0024028933,-0.075021136,0.032890017,0.070482104,-0.11621502,-0.064257218,-0.032315729,0.072580499,-0.052260602,0.058472881,-0.0009189309,0.025514334,-0.051409573,0.069890414,0.028671944,-0.018802962,0.080374566,0.061132433,0.025181261,0.01234671,0.063107568,-0.008902889,-0.028007827,-0.031224838,0.012646125,0.0011472687,-0.015512487,-0.032932457,0.0030968734,-0.0084476443,0.014948615,-0.016401635,-0.0031919546,0.024061957,-0.029578887,0.033878825,-0.030572478,0.012177764,-0.02841609,-0.0420572,0.099196612,0.018096847,0.071226406,0.028167882,-0.032248861,-0.0076355325,-0.046548168,0.16811177,-0.079023101,-0.082138849,0.12234083,0.13633902,-0.1643275,0.064993466,0.042126459,0.010190849,-0.06582034,0.10049311,-0.024334243,-0.085865134,0.056086244,0.024099815,0.12059618,-0.050426852,-0.17095311,-0.011876606,-0.031513333,0.13134612,-0.061615115,-0.033389356,0.027332719,0.011959096,-0.068436419,0.097984138,-0.095281841,-0.059916877,0.17756169,0.10967544,-0.19535179,0.19377056,0.085079096,0.15523354,-0.0086261154,-0.12886699,-0.16689407,0.056612611,-0.31235736,-0.096858678,-0.035249835,-0.12144691,-0.053251256,0.018095322,0.073670239,-0.12328447,0.24968192,0.099765639,-0.15644583,0.016818123,0.071608069,-0.029410828,-0.013710054,-0.064127312,0.10634267,-0.025176808,-0.089770633,0.099832125,0.016820558,-0.10140119,0.0047933227,-0.13560985,-0.013270519,0.030873705,0.0072199289,-0.0045067666,0.011307828,0.0083435336,0.01337562,0.0044894188,-0.0062013181,0.019043815,-0.0047601997,-0.011147343,0.0040774462,-0.0053861045,0.0095296691,0.010944096,0.023719169,-0.014182549,-0.022943957,-0.008140689,-0.0020571587,0.018388945,-0.017911552,-0.011479235,-0.0044313788,0.013498783,-0.0050580913,0.011523391,0.0056508062,0.0095339346,0.00020045788,0.030972409,-0.019321214,0.018675643,0.022612081,0.032105723,0.0023130132,-0.01130166,-0.00094249714,-0.00072178329,-0.011087952,-0.004834628,-0.016633495,-0.0077833937,0.0055301968,0.00089791695,-0.011078305,0.01803741,0.0038083558,0.0027095706,0.00061636265,0.01365319,0.0087915555,0.0075463686,-0.0088091034,0.0066936054,0.017268694,-0.011414025,0.0012139417,0.0064350986,0.00056127803,0.0074607158,-0.0042232591,-0.01284796,-0.0089879659,0.016824941,0.0042663508,-0.0067537488,0.012768474,0.013763138,-0.0040000922,0.0026592327,-0.0017093303,0.0064521195,-0.0066864986,0.0063782435,-0.0023060905,9.3807063e-05,0.0025453568,0.003717443,0.010080354,0.0044650724,-0.012782923,-0.0051819914,0.0041457764,0.010977536,-0.012223435,-0.0068006145,-0.001462473,0.0060550296,-0.00094452161,0.013639379,-0.013102409,0.0043923349,0.011161384,0.0080426001,-0.021744523,0.0089115591,0.015021034,0.019845436,0.0081556946,-0.0040000556,-0.010825695,-0.0087987297,-0.03180497,-0.0040165616,-0.006392754,-0.0064173569,-0.0053824784,-0.00056230295,0.0043743971,-0.015721062,0.016645985,0.007180271,-0.006112119,0.0058679172,0.0095100738,0.0029540702,-0.0057949993,0.00076866638,0.0047691572,-0.0095224829,-0.0030839609,0.0055143445,0.0035991373,-0.003327242,-0.0032718817,-0.016621184,-0.0026979241,0.0046020941,0.0087357637,-0.0022635483,0.0063357393,0.0015696385,0.0096396077,-0.0028038413,-0.0040955862,0.0031037348,0.0015230269,-0.0054114578,0.0019982787,0.0042748906,0.0039602307,1.4567119e-05,0.022791804,-0.0036507185,-0.0020355186,-0.0020237094,0.0014388111,-0.0016198793,-0.0086700639,-0.0022593745,-0.0059442501,0.0056336848,0.00052085523,0.0089953563,0.0012960241,0.0025539193,-0.0046812707,0.0097891847,-0.0033738169,-0.0032204695,0.013187097,0.0012278758,0.00093586521,-0.004820015,0.0033594381,-0.0083794187,0.0032376721,-0.0010690897,-0.00093054858,-0.0059271849,-0.0033416693,0.0045278531,-0.015340379,-0.0025028248,0.010372425,-0.0013831505,0.00037550818,-0.0015105108,0.0028788079,0.0095666427,-0.00018793011,0.001394135,0.0021390076,-0.0074227608,0.0049476262,0.00057706859,-0.001307754,0.0017723778,0.0038370351,-0.0012637492,-0.019308192,0.11466671,-0.04009226,-0.0057948858,0.0065851202,0.058645505,-0.062773461,0.047115174,0.03403571,-0.0030440615,-0.012804295,0.063353374,-0.010505665,-0.066304259,0.027033673,0.013180696,-0.11792313,-0.0036068308,-0.055468485,0.010993482,0.020284445,0.054713047,0.0099733556,-0.046336736,0.020492112,0.0018810021,-0.05523506,0.028220359,-0.01784523,-0.0045392006,0.09822044,0.039308342,-0.09812384,0.11043321,0.0081755207,0.13605357,0.0067008339,-0.039910692,-0.064845809,0.013341742,-0.14011698,-0.054242563,-0.038399926,-0.054901329,-0.0090386295,-0.019906874,0.09187397,-0.06851243,0.04156459,0.030734156,-0.042563044,0.0087785515,0.021667391,-0.0174448,-0.046241072,0.008768641,0.0068809815,-0.009526174,0.011754867,0.037388693,0.017146315,-0.024314735,-0.038006404,-0.049687158,0.00092929315,0.005904124,-0.0023464825,0.0020286222,-0.0015384822,0.0044702669,-0.0032160931,-0.0025080164,0.0036166843,-0.0029086056,0.0046619982,0.0038418607,-0.0032506252,-0.0012710092,0.0025525713,0.0011610532,-0.0045619809,-0.0017908563,-0.0018431946,-0.0051352849,-0.00099863895,-0.0045315902,-0.00028544545,0.0029621164,0.0044344441,0.0022573333,0.0031315443,-0.0021097745,-0.00071582411,-0.00070362139,0.00088648961,-0.0011151582,-0.0016183715,-0.0016541113,0.0016150578,0.0053160778,-0.00075262946,0.0053075622,-0.0018131919,0.0020752662,-0.003248658,0.0031193783,-0.0064310015,-0.00015956645,-0.0031119446,-0.0037342062,0.002806994,0.00055108234,-0.005630726,-0.0013903511,-0.00038214087,-0.0019051212,0.0047513018,0.00011080631,0.002952863,0.0046136161,-0.0048127519,-0.0046471371,-0.0028567747,0.0038525766,-0.004918568,0.0042338905,-0.00068051861,0.0016887482,-0.12045523,0.20656873,0.077056556,-0.053887459,0.018797135,-0.039834327,0.079789383,0.0002155285,-0.0079763437,0.16767899,0.057262659,0.03504221,0.00038168486,-0.012361911,0.071219038,0.08360889,-0.0945041,-0.072902276,0.0048585607,-0.13839379,0.099162146,0.2005909,-0.30552479,-0.21405387,-0.075838313,0.17447934,-0.18421918,0.13317586,0.0055954158,0.043439945,-0.051466714,0.1842796,0.07056814,-0.01379624,0.19134172,0.25633733,0.039981885,0.0041027872,0.11224176,-0.048677514,-0.069386114,-0.064257976,0.014964578,0.0068010608,-0.025770946,-0.11112128,0.057436227,-0.01398975,0.047503946,-0.023177302,-0.040701773,-0.0010088783,-0.088054007,0.074728928,-0.1016124,0.026118618,-0.079138259,-0.089437976,0.24450797,0.062179855,0.15097293,0.020549589,-0.12442403,-0.029339289,-0.031602652,0.067732423,0.029544863,0.0018148602,0.014081511,0.019759725,0.034620966,0.010103755,-0.0076335303,0.052494266,0.0054203973,-0.018111862,-0.0013534189,0.010969626,-0.005685009,0.029592525,0.055009705,-0.022356275,-0.033372828,-0.041669682,-0.0004980378,0.03598216,-0.035850441,-0.032884531,-0.020744584,0.020842247,-0.0027601007,0.021122401,0.00092261503,0.028726593,-0.021704366,0.055215383,-0.022022147,0.043832802,0.040150155,0.075762914,-0.00014772712,-0.019895501,0.0054482576,-0.029286073,-0.031650423,-0.01980972,-0.038533111,-0.023447951,0.011119079,0.01367357,-0.03790857,0.0067668652,-0.012405943,-0.0025048246,-0.00061392848,0.044672915,0.010795862,0.027434129,-0.017067053,0.01043335,0.0069484145,-0.022280884,0.026757223,0.0035908509,0.01893115,0.040596405,-0.014252598,-0.015172172,-0.027665491,0.039476574,0.019739743,0.012074552,-0.021768316,0.018129425,-0.0081297807,-0.0019425849,-0.020159384,0.028941005,0.017420024,0.0087527115,-0.0016091434,-0.0011115105,-0.0036981231,0.01488838,-0.011651648,0.013274514,-0.023975154,-0.028442154,-0.0018438108,0.0086427878,-0.0046894646,-0.031649115,-0.004431604,0.010657563,0.01728084,0.017889836,-0.02129128,0.0060656261,-0.0038660144,0.034154023,-0.02448646,0.019656525,0.033110953,0.02179888,-0.0063853505,-0.022325944,-0.0049746244,-0.032798306,-0.04260415,-0.0014737072,-0.043426004,-0.015543323,0.0027354483,-0.016055747,-0.041963683,-0.0010707192,-0.0043667159,0.0090923084,-0.007138593,0.030983017,0.023017322,0.010144759,-0.0085820305,0.00030486634,-0.0023081232,0.0053806898,0.030191335,-0.0059033398,0.012356173,0.027908527,0.0012101725,-0.011904048,-0.053970399,0.03342307,0.14794721,-0.083186693,0.050528823,0.043306033,0.091386167,-0.084304623,-0.080837923,0.14189325,-0.051037634,-0.021138798,0.04723563,0.049383847,-0.023361292,-0.0080273481,0.06567227,0.026222964,-0.055234515,-0.10783875,0.0092576231,0.08124355,-0.21096276,-0.18498876,-0.063714108,-0.014306756,0.053051989,0.020100829,0.0025015134,0.066303665,-0.058544919,0.21058798,-0.047827622,0.083121357,0.19070768,0.22764001,-0.02764277,-0.07288597,-0.011446837,-0.18183362,-0.004873658,-0.072485533,-0.11473109,0.018898468,-0.029052477,0.092786741,-0.1759938,0.069818183,0.075433792,0.012861749,-0.059759206,-0.0020740917,-0.031239012,0.086045751,0.071518155,-0.11885232,0.055857385,0.032942972,0.10542084,-0.079372372,-0.017549975,0.14007221,-0.10195558,0.014086265,-0.098195272,0.077601533,-0.041912124,-0.07225989,0.027741525,-0.084199809,0.074765884,0.060433289,-0.039558508,0.029090485,0.11528493,0.0097618894,-0.019792139,-0.25825594,0.060823262,0.040774147,-0.12069656,-0.11007769,-0.072998551,0.050481278,-0.047059815,0.20598053,0.050249221,-0.0082653266,0.059726686,0.079567401,-0.024579989,-0.033304769,-0.18785179,-0.053964677,0.215524,0.053724593,0.0070618137,0.25769143,0.095209155,-0.0082510453,0.11637636,-0.044294521,-0.23650564,0.049151637,-0.3045468,-0.09632077,0.021865206,-0.10396369,-0.062283548,0.14455441,-0.0025724818,0.0090562183,0.2197528,0.064378729,0.0098254999,0.1172174,0.096078905,-0.0035412216,-0.12884082,0.036854187,-0.077319701,0.030930429,0.039962609,0.078596271,-0.085031571,0.058476435,-0.11246204,0.00057366551,-0.015531408,0.064122927,0.020304793,-0.012832288,0.0068108068,0.020077388,-0.0081296884,0.0098917927,0.00061419926,0.03726976,-0.0081128106,0.017550569,-0.019763531,-0.029469673,0.01132442,0.026050739,0.054846843,-0.018599253,-0.04156567,-0.012344987,0.009726759,0.030870694,0.002195848,-0.01023467,-0.0093613515,0.026446292,-0.01289347,0.01440027,-0.033992468,-0.010339168,0.018428617,0.038052073,-0.027779586,0.056052165,0.028378542,0.06644003,0.0056360603,-0.019109011,-0.020993402,-0.035054294,-0.076749998,-0.02142781,-0.019236061,-0.036937331,0.0031556812,0.015940354,0.031186997,-0.011191821,0.038789056,0.0028037455,0.010656772,0.018465362,0.021180774,0.027885666,-0.022562058,0.0069715968,-0.015195436,-0.011541809,-0.00048520925,0.0022248516,-0.0071842414,0.023775543,-0.027731068,-0.013946195,0.0027730915,0.0046545522,-0.0013198528,-0.0044022897,0.0041940338,-0.003269791,0.0011746584,0.0045379124,-0.0033378018,0.0041320082,-0.0015144809,-0.0049426196,-0.001752972,-0.0029818966,0.0023598803,-0.0037527366,0.0013019545,7.0115898e-05,-0.000221335,0.0003817782,-0.00388135,0.0059320735,0.0030414051,0.0027303277,-0.0021156523,0.0030476565,-0.0029061531,0.0026269735,0.00089351524,-0.00057861852,0.004029666,0.0040703348,-0.0053984587,0.0049932758,-0.0033115214,0.0049217908,0.00080208739,0.0044702766,-0.0019161298,-0.0043311182,-0.00027410909,0.004588782,-0.003595512,0.001568109,0.0020420542,0.0047959967,-0.0015656731,0.0032386158,-0.0029896176,0.0025679126,0.0056875198,-0.0032583453,-0.0027293383,0.002101785,-0.0003796414,0.0045879921,-0.0036723699,0.0011488682,-0.0036477022,0.0038182805,-0.0061899054,0.0036332417,-0.0024375107,-0.0028614179,-0.056017789,0.10082867,0.050053772,-0.0020909262,0.025086863,0.029417996,0.05082319,-0.0083980522,-0.022255245,0.069081305,-0.014186929,-0.022794955,0.0057498084,0.01291399,-0.0054682093,0.021850991,0.091611493,-0.022949926,-0.054668601,-0.055062273,0.0083972413,0.070472548,-0.089064125,-0.049386058,-0.040212997,0.019016812,0.00046594158,0.032145124,0.0012273631,0.047213079,-0.051028379,0.10170215,-0.047682217,0.056017819,0.081390005,0.09076404,0.0039434696,-0.019152675,0.0060884616,-0.035935993,-0.028398822,-0.047061256,-0.033957516,-0.014408058,-0.004084852,0.017981292,-0.056539982,-0.0063283591,0.013558234,0.004156979,-0.0051600646,0.044980764,0.0013873513,0.039969814,-0.011693993,-0.0056408278,0.016046438,-0.019921231,0.054049433,-0.012386863,0.022763706,0.069437633,-0.014079872,-0.02868101,-0.015898672,0.046244188,0.0278531,-0.00997385,-0.033398152,0.004192705,-0.01738823,0.0022328835,-0.015480759,0.047667282,0.042412229,0.027629682,-0.0051655244,0.0052858106,0.017371186,0.042111669,0.039086028,0.0085187951,-0.029302473,-0.023775401,-0.0019464792,0.017452596,-0.015248393,-0.061439803,-0.02751552,0.027600005,0.0071079899,0.031659321,-0.035723192,0.00072333938,0.0016653715,0.03796779,-0.015492252,0.0075432236,0.060230298,0.086684659,-0.033451149,-0.0058824003,0.0015582866,-0.057297775,-0.075610689,0.00012322742,-0.055216917,-0.024376851,0.0015660543,-0.017005823,-0.019400527,0.0084325609,-0.015679741,0.012986786,-0.045489839,0.0035503921,0.017450009,0.0054298652,0.0031590415,0.0012689647,0.0047658845,-0.0088027428,0.018815857,0.010131526,0.019806623,0.0061160623,-0.020688577,-0.031854912,-0.049558551,0.16958314,-0.013135939,0.090921493,0.13314494,0.073918852,0.15673209,0.0024230374,0.029615217,0.13612708,-0.057061013,-0.066866368,0.027327305,-0.016522254,-0.002186092,0.023070668,0.24849623,-0.11211037,-0.037103123,-0.085780934,-0.044195715,0.06455891,-0.02186475,-0.061158108,0.020865686,-0.01827057,-0.027720144,-0.081768027,0.018805934,0.059347984,-0.0055315426,0.11310172,-0.1019124,0.21924262,0.0041999277,0.15745975,-0.10445165,-0.12330703,-0.083160768,0.038368574,-0.031767709,-0.12383364,-0.17357425,-0.12069055,0.078039787,0.10717268,-0.11492294,0.14185141,-0.072631598,-0.050444763,0.056017722,0.11749333,0.061077724,0.013322843,-0.13279624,0.050068623,0.053475614,-0.037584404,-0.011246644,-0.052213477,0.0071398734,0.10154208,0.056379825,0.041302059,0.0034916449,0.012238651,-0.0026519979,-0.005052258,0.0035853981,0.0025400083,-0.0018661266,0.0066087953,0.006671092,0.012530027,0.0039481655,0.014716101,-0.0038557548,-0.017762675,0.0070940815,0.012627026,0.0053259683,-0.0043518167,0.0092410913,0.00029507778,0.00040115649,0.012898964,-0.0036670866,-0.021732171,0.0045001276,0.0082392579,-0.020801258,0.0021068479,-0.0021485853,-0.0033071643,0.016332373,0.016052745,0.0063945989,0.021976628,0.0036820968,0.040130393,-0.0077991345,-0.0041707218,-0.0059387534,-0.015060094,-0.034464094,0.0033134838,-0.013342158,-0.0051927063,0.0087616326,0.0068859739,0.034605028,0.0093615648,0.018936016,-0.0013660351,-0.015817672,-0.010230241,0.0015931901,0.0053499898,-0.012652594,0.011738629,-0.0014025058,-0.0035408461,0.0090825479,-0.0010090368,-0.0082736471,-0.0090536333,-0.020821003,-0.0028207237,0.00052268607,0.0080404846,0.0028472044,-0.0020693189,-0.0010815963,-0.001819051,0.0037466126,-0.0033929451,-0.0042935469,-0.00014800706,-0.0048238627,-0.0018417251,0.00095709131,0.0057780783,-0.003301887,0.0012660388,0.0087896401,-0.00024307832,-0.00044990091,-0.0030637763,0.0036842689,0.0032872605,-0.00014893896,-0.0036409185,0.0032807347,0.0053537153,0.00076023078,0.0035796541,-1.6064551e-05,0.0014128085,-0.0017124774,4.2425799e-05,0.0021799781,0.00038892437,0.0052783032,0.0041825695,0.0029699077,-0.0035237315,-0.0037741474,-0.0098852093,-0.009495919,-0.0029982512,-0.002870093,0.0018386871,0.0030855944,-0.0017833494,-0.00072432491,-0.001140083,-0.00066827111,-0.0021163252,0.00099617203,-0.00022614094,0.0051031765,0.0030645561,-0.0050577792,0.0028020097,-0.0059622393,-0.0054312979,0.0060012288,-0.0032673827,-0.0047066792,0.004586095,0.0016988892,0.00074900902,-0.0098180822,0.058501498,0.0045370731,0.023061775,0.046447549,0.024025002,0.032157261,0.0091988537,0.00860906,0.038281413,-0.015795124,-0.0075239331,-0.0054154745,-0.01454897,-0.0016651968,0.017631457,0.088448553,-0.028187987,-0.025908234,-0.014713405,-0.0014617046,0.0055209712,0.0080403509,-0.018828773,0.0011727837,0.0018529578,-0.0064350067,-0.016548736,-0.002145063,0.0056400703,0.005346328,0.031871476,-0.038650667,0.065098923,0.0027157901,0.052898653,-0.0179129,-0.033033855,-0.038094928,-0.0040184987,-0.034878749,-0.02732384,-0.052909889,-0.045345322,0.029510112,0.030572679,-0.011908751,0.020408104,-0.024343552,0.0012237891,0.010909118,0.03682557,0.028344369,0.0055890265,-0.032061982,0.020873505,0.010086306,-0.020538262,-0.0056519446,-0.0076999988,-0.0088514279,0.03014316,0.0091060538,0.0015373709,-0.0056478061,0.021768767,0.0033508377,0.012337844,-0.016644692,0.0011113387,0.013743747,0.0088844114,-0.00443464,0.0079929411,-0.0081814047,-0.014791549,-0.01342749,-0.027874113,-0.0025122749,-0.0098014648,-0.045635967,-0.0079802434,-0.012064092,0.0023264134,-0.004367419,0.0024263847,0.0084433353,-0.01728197,0.0013391741,0.014243124,-0.0067172819,0.0028765571,0.0089920498,0.013899973,0.016687828,0.01669286,-0.017776172,0.041780764,-0.014634163,0.036486994,-0.0058269553,-0.002624404,-0.017742125,-0.002689045,-0.018678714,-0.016520445,-0.0037527987,-0.013545846,0.00852256,0.0085894394,0.012406355,-0.01315126,-0.027441573,0.0057323667,0.020786265,0.035183241,0.0049011835,0.0070158375,-0.003637997,0.01418362,-0.0039025052,0.0073555456,0.0089763006,0.0017406329,0.0017315959,0.021490069,-0.010926597,-0.010488945,0.0034155367,0.033498848,0.0042526387,0.011330244,-0.0033728806,0.01906922,0.0017561222,0.012233339,-0.00037751825,0.0063280335,-0.012713473,-0.0045576578,-0.0096411349,-0.027276844,0.0070073547,0.0046341659,-0.019289004,-0.0067514363,-0.038845563,0.0016954018,-0.0016709936,0.014235912,0.01362828,-0.012804737,-0.0057826777,0.0076629664,-0.0043258103,0.0078972362,0.013582347,0.0097044615,0.024312618,0.027296438,-0.036347881,0.024211927,-0.016507804,0.023081793,0.00034503319,-0.01528733,-0.0095438694,0.010825398,-0.026927839,-0.0047358757,-3.3282489e-05,-0.025417338,0.00069305111,-0.0050453131,0.017979188,-0.028242745,-0.0058718123,0.0088408017,0.01276695,0.037094624,0.012886527,0.00031467666,0.0034249085,0.0081181079,0.0096788601,-0.0098222044,-0.0077756582,0.010940656,0.011924093,0.013690605,-0.0072035696,-0.017394877,-0.0030147484,0.0038580509,0.0039871787,0.00025059473,-0.0027616318,0.0035791646,0.00092754192,0.0043858517,0.0041935757,0.0030782401,-0.0040905317,-0.0025742313,0.0011046494,0.00051646309,0.0019822959,0.0032716328,0.0015556663,-0.0027560499,-0.0046713424,-0.0017920967,0.0045512007,0.0055184832,-0.0048929459,-0.00079754527,-0.00084280536,-2.8499203e-06,0.0016161382,0.00024788665,0.0028429184,-0.0011200185,-0.00096209799,0.0021935474,-0.0026434752,-0.0055894235,0.0015049045,0.0038384316,-0.00020701132,0.002182945,0.0027867419,0.0023517425,-0.0010712086,-0.0040713293,-0.0017084962,-0.002500173,0.0045134119,0.0040069952,0.00044615018,0.0019755093,-0.0022485357,-0.0047681236,-0.0014268983,-0.0011579495,-0.00023706149,-0.0022925589,-0.0023805492,-0.0041961294,-0.0048045862,0.0009176982,0.0036400124,0.0018834013,-0.00057523171,-0.0014332464,-0.0030622151,-0.0043702629,-0.014060105,-0.021771347,-0.018202742,0.0083785148,-0.022688618,-0.0056128293,-0.023869699,-0.0083824936,0.014882455,-0.0011779185,0.014436082,0.010938721,0.006263131,0.0049134939,0.0067361511,0.015092458,0.02269089,0.0021103576,0.015059396,-0.015532684,-0.015222726,0.0083241088,0.012132675,-0.024178503,-0.014953588,-0.0078459554,0.0084168305,-0.0070871779,-0.0079004432,0.0018232316,0.0041853809,-0.00087329628,0.030361328,0.018827168,0.0026390175,-0.022642215,-0.014626183,-0.0054876598,0.0081697647,0.0074442532,0.031856611,-0.0054598478,-0.012064095,-0.005024687,-0.0040596162,-0.027374059,-0.028234663,0.033305238,0.038659819,-0.011822994,-0.017761657,-0.0226243,0.0039502002,-0.015428068,0.016342657,-0.010505225,-0.02949137,0.013735401,0.016208471,-0.0074354011,0.0060691664,-0.0068849602,-0.0065366012,0.012611661,0.0027598767,-0.004122315,-0.0031819188,-0.00077622686,0.00390383,0.0043523001,0.0046722781,-0.0040772724,0.00056359324,-0.0028666131,0.0029868542,-0.0045694285,0.0046769595,-0.0020489363,-0.0031170147,0.0036328994,0.0044155848,0.0027280234,0.0049657738,-0.0035475784,0.00013286383,-0.0021605824,-0.0011097161,0.0026449876,0.00039970073,0.0045153278,-0.002218896,0.0046913063,-0.001715589,0.0014170537,0.003911662,0.0010656241,0.00053302142,-8.1509059e-05,-0.0014504359,-0.0043373924,0.0048062104,-0.00087617373,-0.00062580023,0.002663673,0.0026291333,0.00015281887,0.0033728575,-0.0023759775,-0.0017896042,0.0017249064,0.0016216073,-0.0019383649,-0.004213587,0.0015733872,0.004857204,-0.00067054067,0.0006474087,0.00072093759,0.0012462483,0.0040520566,0.0015013097,0.00014769883,0.00025787146,-0.0040920495,0.0043317765,0.001883196,-0.00095382249,0.001038932,-0.029173542,-0.05858196,-0.056594831,0.0073703371,0.0085716382,-0.017140225,0.013929294,0.0032880806,0.013138121,-0.005825968,-0.0022542863,-0.03399213,0.037600526,-0.0030816302,0.017057571,-0.040485981,0.031217875,-0.044441035,0.02052816,0.0049639886,-0.020544777,0.025554078,-0.056534769,0.030741515,0.0098035258,-0.021547252,0.0062900297,0.013743701,0.013410847,0.00097087567,-0.025395543,0.0085103218,0.018653809,-0.00048418394,0.0084260015,-0.079592083,-0.0043844908,-0.024215371,0.038168959,0.081818078,0.1130095,-0.025243364,0.02989193,0.028495158,-0.017592192,-0.016516114,-0.070162799,0.069183843,0.032141573,-0.0061277301,0.0092085391,-0.0064973684,-0.0018653864,-0.029340019,0.0026713553,-0.016683972,0.028438609,0.039062617,0.0045976256,0.012728427,0.029589589,-0.015319714,0.040079375,0.016317135,-0.0034725516,0.0039777817,0.0027094473,0.0024082512,0.0020330825,0.00065205234,0.0044035774,-0.00023179377,-0.0051657135,0.0002247809,0.0028855774,0.0013154426,-0.00022280076,0.002855585,0.0032086086,0.00026348018,-0.0024247809,0.0019089024,-0.0013270763,-0.0022467558,-0.0036081661,0.0043092105,0.0034709561,-0.0046369484,-0.0046844616,-0.003657304,-0.0024892765,-0.0021140468,0.0027352266,0.0018136001,-0.0021577962,-0.0013824812,-0.0057162428,0.0025271861,-0.00053408853,0.0041127667,-0.0047267408,0.00087998615,-0.0041992361,-0.0010223211,0.00036953538,-0.00012650886,0.0040508971,0.0022296536,0.0036232947,-0.0016406784,0.0014963947,-0.00018736242,-0.001108599,0.0022291526,0.0013131428,0.00084926018,-0.0040629387,0.0037827631,0.0020826437,0.0055434969,0.0019508133,-0.0039698404,-0.002871473,0.0005961563,-0.0015408032,0.0018593905,-0.0036771038,0.0020674397,-0.0038795631,0.10545034,0.032117383,-0.014049737,0.0031002532,0.03100345,-0.026868313,0.039312737,0.028542908,0.04819144,0.053900236,0.025993143,-0.041469344,-0.0016292257,0.02475418,0.065031158,0.082829942,-0.029881026,-0.046290544,-0.020312541,0.013673865,0.038147789,0.026332027,-0.02133199,-0.012453414,0.02148595,0.0052705464,0.0088269887,-0.058458485,0.010408426,-0.016700264,0.034051448,-0.0057599633,0.053808825,0.015903421,0.13622192,-0.026870624,0.02215889,-0.036973196,-0.052822353,-0.13760355,-0.021688436,-0.026005209,-0.072646777,-0.003241885,0.036152366,0.055413061,-0.071083022,0.0017157083,0.01110517,-0.071337163,0.014119156,-0.011951653,0.028399133,0.0016198401,0.0037863898,-0.0029004793,-0.036331961,0.0071456528,0.036613366,0.0060851544,0.011604428,-0.039414111,-0.059667317,-0.0059042524,-0.0088713668,-0.0018449532,-0.0016837473,0.000346999,-0.00038304274,0.0024652521,0.0017724073,-0.001570716,-0.0037998083,0.0051960969,-0.0023939162,0.00065057438,0.0022950341,0.00023325305,-0.0028897301,0.0012497282,8.0303046e-05,0.0040403811,-0.0025884369,0.0031639038,-0.000411856,-0.0054290616,0.0028762889,-0.00027254297,0.00010277162,0.0047826503,-0.0032473148,-0.00098173258,-0.0046147898,-0.0014241296,-0.0040579787,0.0013523376,0.0035587295,-0.0009752244,-0.0056513224,-0.0041905309,-0.0053824492,0.0014302966,0.0044975551,0.0041337097,-3.9800029e-05,0.00030542822,-0.0029187743,-0.0036721171,-0.0041476822,-0.00076992412,0.0045928506,0.005686154,-0.0052539234,0.003089337,0.0020348749,-0.0060710949,-0.0028357242,0.0024514566,-0.0027992539,0.00076047927,0.0075751046,0.0045831864,0.0043364607,-0.0015343204,0.0029167361,0.007281695,0.0073470591,0.16137259,-0.17925243,-0.014357142,-0.13702061,0.10009956,-0.046498587,-0.082102252,-0.090421595,0.043182302,-0.071060747,-0.019204896,0.16719117,0.030242695,-0.047470305,0.12713008,0.013363675,0.25478616,0.012397814,0.15227671,0.082116068,0.00099441045,-0.023164175,-0.061409784,-0.048619395,0.017100409,-0.0403472,-0.10614007,-0.068219378,-0.11322916,-0.093405111,0.095529577,-0.043869308,0.13882028,-0.05090927,0.079313971,0.1128252,-0.064801188,0.031969026,-0.063158422,-0.1692041,-0.061136086,0.1076023,-0.0056492698,0.0076511076,-0.026495618,0.064721708,0.10763573,0.11094696,0.22633139,0.060408231,-0.1881244,-0.31122598,-0.049984082,0.0072038579,0.070469348,-0.04004003,0.038995744,0.033421394,-0.15205923,0.0019038012,-0.166301,-0.23292318,-0.09141089,0.023212963,0.020706999,-0.0093934374,0.024802087,-0.015223902,0.018481417,-0.001422081,-0.0061666539,-0.0090583759,-0.0036682831,0.0045943569,-0.0049873553,0.0073242584,-0.011406415,0.0079501022,0.0045025535,0.014192205,0.047030964,0.012023797,0.0079043446,-0.011256641,-0.0066146621,-0.012820091,-0.0090003837,-0.0037341661,0.0041520408,0.011619809,-0.0089366488,-0.011272199,-0.0096697143,-0.0014846796,-0.0055697796,-0.0060949795,0.006955955,-0.01114373,0.016312852,0.0082496464,0.0012522832,0.0073508125,-0.0048405841,-0.031722206,-0.020507203,0.023711857,-0.0027845333,-0.0017412296,0.0043242111,0.012960827,0.0047918256,-0.0066992695,0.019624175,0.013602359,-0.018204327,-0.011276099,0.0022561205,0.0087552965,0.0043473803,-0.0043621964,0.004925054,-0.0069345125,-0.014843879,-0.0039813228,-0.016448818,-0.0083091334,0.00031672171,0.0022537392,0.0091274588,-0.07963102,0.031252829,-0.056353181,0.075258031,-0.015071732,0.023008025,-0.026073945,0.0044366987,0.0065708104,0.030553486,0.021286699,0.018687014,0.069425715,-0.0029895687,0.020394542,0.22045721,-0.0016905279,0.055265185,-0.047378401,-0.01057971,-0.032223335,-0.048596806,0.012234504,0.0067255729,-0.011938296,0.018616955,-0.013402654,-0.047551612,-0.036896775,-0.067465965,-0.00059349341,0.064707182,-0.082719274,0.077459718,-0.056404962,0.010944226,0.007891023,-0.0022934839,-0.04001503,0.002072339,0.023444008,0.012373647,0.0067175148,0.004917572,0.013648829,-0.067833567,0.0064151186,0.082531017,-0.0020521632,-0.051387949,-0.044258004,-0.060798204,0.023610467,0.03711727,-0.073706549,-0.0082863706,-0.0050806266,-0.026703543,0.019158138,-0.019652563,0.010251052,0.021300837,0.025551169,-0.016818718,-0.03154549,0.023964805,-0.005609434,0.039327684,-0.013169188,0.019414349,-0.019048133,-0.0007394809,0.0071708505,0.0193475,-0.031011847,0.020853316,0.10459427,-0.023799182,0.0053900346,0.11500865,-0.0071389673,0.033330021,-0.050229731,-0.016808896,0.00039202642,-0.055385921,0.036356101,-0.020909997,-0.009707102,0.049816999,0.018932478,-0.029855067,0.0087129595,-0.11857925,-0.010084646,0.038200691,-0.064303854,0.047599186,-0.11486537,0.024334819,0.0099086127,0.057721872,0.011307157,0.066625459,0.0047392666,0.029298047,0.024610882,-0.024369761,0.003485991,-0.10137224,0.0066289163,0.040541749,-0.010368354,-0.022248109,-0.016589809,-0.034165248,0.029723552,0.012437837,-0.044748636,0.011319504,0.0049634545,0.026784576,-0.0020851948,0.024899062,0.04012087,0.077186212,0.026595317,0.1297781,-0.26299554,-0.10032944,-0.15619067,0.098219935,-0.076143981,-0.12340717,-0.081793751,0.071465454,-0.071849774,-0.028728494,0.16803033,0.094720786,-0.051836717,0.14870967,-0.057496678,0.35466215,-0.027586208,0.20587992,0.07631529,-0.039477636,0.040494418,-0.15856735,-0.049444025,0.036528901,-0.1177259,-0.10291404,-0.063483907,-0.092132945,-0.077927413,0.049244901,-0.027562182,0.18682926,-0.028371554,0.086757815,0.029314817,-0.11561348,-0.022575975,-0.01634792,-0.08383508,0.094781148,0.075239892,0.017025494,0.036081484,-0.054617697,0.06371812,0.014647561,0.23618013,0.32768078,0.041355363,-0.26234754,-0.35922651,-0.0727848,-0.055855109,0.086310182,-0.089551437,0.093490703,0.10656565,-0.12692752,-0.0030714013,-0.14212373,-0.26929958,-0.035391475,0.044812764,-0.0037751511,-0.070171396,-0.034758805,-0.041674997,0.013138427,-0.020176755,-0.022196033,-0.022163577,0.024604095,0.020654439,0.06438896,0.0026814258,0.01704645,0.05418876,0.017483621,-0.0011341661,0.10787459,-0.032014764,0.059108757,-0.0032091285,-0.0065305883,-0.019928391,-0.043774309,0.0054496172,0.02323096,-0.030166895,-0.0088697932,0.027896508,-0.054005284,-0.027876367,-0.048162002,0.0048642117,0.039529891,-0.020832704,0.038809024,-0.076525482,0.0067598217,-0.018291297,0.03309213,0.028811618,0.070352774,0.0025222672,0.015715295,0.016842221,-0.0337599,-0.032041889,-0.051072023,0.038904938,0.080706631,-0.0049209616,-0.039976925,-0.017214326,-0.014960637,0.0044897919,0.014533792,-0.042260773,-0.0057865941,0.05809672,-0.014135976,0.023717364,0.053876421,-0.013613333,0.03830987,0.013939081,-0.0070134746,-0.024109082,0.016224722,-0.010645043,0.033451777,-0.0087889389,0.0090601975,-0.015710183,-0.011012907,-0.00043845383,0.0033716829,-0.0085316625,0.014215303,0.048014325,-0.0091482049,-0.0030092725,0.07198242,-0.001511436,0.017866555,-0.013341039,-0.010736079,-0.0073398953,-0.03704495,0.013133341,-0.011935201,-0.014541198,0.016262897,0.01304748,-0.014283779,0.00065340146,-0.046839287,0.00040255486,0.023188335,-0.037712777,0.037071192,-0.051824896,0.015076941,0.0049018289,0.021222824,-0.0024605899,0.022864015,0.012718045,0.012293796,0.014116441,-0.0089123121,0.005386622,-0.043948719,0.01179967,0.030183738,-0.00095128648,-0.012432545,-0.016337168,-0.01599832,0.01680967,0.0085905382,-0.02264803,0.0069075225,-0.00032601657,0.012124398,-0.0065550165,0.0022553456,0.013816776,0.031026528,0.0070722914,-0.0068890269,-0.033544475,0.050471332,-0.028386424,0.049581054,-0.007794314,0.017807882,-0.027123291,-0.016513235,0.015823597,0.010348606,-0.020191305,0.0076297491,0.10269507,-0.015650498,0.020188854,0.13460609,0.011983106,0.024352081,-0.049348442,-0.021717405,-0.018045427,-0.051105141,0.019591937,-0.026618695,0.00020135861,0.043923704,0.021814709,-0.036608004,-0.00063658285,-0.089667975,-0.0032979336,0.036471776,-0.064515867,0.058740107,-0.070773024,0.026852708,0.010825124,0.0497617,-0.033930976,0.028482361,0.017688582,0.012147858,0.019669626,-0.011520974,0.017114371,-0.079187422,-0.0098158967,0.057871274,-0.0092003931,-0.032955869,-0.014066653,-0.034412523,0.04027998,0.032072448,-0.047941962,0.0020302682,-0.0047655969,0.016136149,-0.0046637642,0.00116276,0.025858641,0.042648724,0.00897056,0.10106616,-0.15298699,0.025417059,-0.15817355,0.082147901,-0.0031778765,-0.046816026,-0.037090288,-0.0015112572,-0.052572431,-0.018680759,0.14748208,0.048417452,-0.034376253,0.039207408,0.039401924,0.2668844,0.040404042,0.12784493,0.06542071,0.00070371202,-0.057499068,-0.028996337,-0.056941788,0.026775458,-0.064837192,-0.060489717,-0.024131966,-0.053121277,-0.045572367,0.084070252,-0.058093357,0.059920282,-0.03891609,0.095994653,0.059228485,0.0039984674,0.034391112,-0.0696393,-0.1902946,-0.093945778,0.13890581,-0.015723195,-0.024449074,0.046596123,0.066066538,0.048369834,0.045810186,0.15690534,0.063472526,-0.15137354,-0.18351009,-0.055210378,0.046647122,0.06504559,-0.053335894,0.059174085,-0.03082299,-0.080778161,-0.012772957,-0.1669116,-0.1356546,-0.028119525,-0.034535203,-0.0029659102,0.006475808,0.0040288357,0.0030772941,0.0054051353,0.0024953299,0.0063959698,-0.00033673846,-0.0042011183,0.0051406873,-0.0013696156,-0.0061916234,0.0060038534,0.0069178001,-0.0073853677,0.0040365904,0.0065676163,0.0052056029,0.003058386,-0.0097256748,-0.0004223312,-0.0042765514,-0.0085289961,-0.0019311427,-5.1048438e-05,0.00522787,0.0091304016,-0.00096577234,0.00028147016,-0.0013443435,-0.016728631,-0.00055934897,0.0023691094,-0.0026009653,0.0032063826,-0.008385948,-0.00014719265,0.0059113188,0.00070108242,-0.00086528685,-0.0022635427,0.0024452776,0.0066222234,-0.0013770468,0.0031217642,-0.0037711093,-0.012975725,-0.0043887455,0.0011405672,-0.0050670673,0.00043672635,0.00048173199,-0.001901727,0.006728599,0.0046201786,-0.0019254232,-0.0035388439,0.0026137953,0.0033937293,0.0002742304,0.00047706164,0.0032583432,0.0087528137,0.0026349579,-0.010789122,0.0089249196,0.073956347,-0.0075698351,0.052313223,-0.014106565,0.038442336,-0.024276561,-0.024750415,0.018229201,0.015994741,-0.035594571,0.0075285498,0.11571408,-0.033264869,0.037402332,0.14357033,0.023615279,0.012760802,-0.046307445,-0.017041106,-0.0098897051,-0.051933619,0.030411183,-0.047296575,0.0057147547,0.061677024,0.021474858,-0.042080955,0.02076279,-0.13412344,-0.012292466,0.032200371,-0.091335359,0.057822438,-0.068037948,0.043479273,0.02774485,0.059938529,-0.028403888,0.011729838,0.033990475,0.023759827,0.0070136224,-0.0096024528,0.012862582,-0.08923307,-0.040161626,0.016170803,-0.0050724659,-0.035751389,-0.0033822887,-0.032549968,0.062782182,0.026813401,-0.046532253,0.012649703,-0.029930008,0.024033586,-0.013245552,0.010511909,0.059817811,0.06947586,0.0056213624,-0.012149307,-0.04507004,0.11687619,-0.051653748,0.095797031,-0.010841611,0.036870895,-0.03613522,-0.030501796,0.037065977,0.017885132,-0.034543398,0.010030133,0.15219962,-0.048759591,0.067332196,0.29382462,0.023741265,0.050917292,-0.083886982,-0.026104474,-0.014498008,-0.071999936,0.042117682,-0.051663944,0.0076625747,0.075270881,0.029696778,-0.059479528,0.011148769,-0.15961924,-0.027820545,0.059835503,-0.12430974,0.10357552,-0.11715669,0.058953575,0.052790738,0.062941057,-0.074303515,-0.00044399422,0.086021416,0.050917171,0.017229529,0.0026906756,0.021617411,-0.13196914,-0.053715955,0.06373143,0.0057847494,-0.066986044,-0.027481943,-0.0648564,0.097965492,0.053002139,-0.072390973,0.0063616409,-0.033786748,0.017738629,-0.031050579,-0.027612436,0.066725284,0.090874365,0.0073166443,-0.013601924,-0.02782826,0.07523986,-0.025402178,0.054567853,-0.013238712,0.010542658,-0.034577279,-0.015466236,0.0154524,0.028959786,-0.0016147307,0.0057390991,0.11591334,-0.017932028,0.032610902,0.19365655,0.012882586,0.042436785,-0.070350152,-0.0096099214,-0.024609202,-0.044201082,0.030168066,-0.028149886,0.001582915,0.063759121,0.034132255,-0.059565724,-0.011445436,-0.11475761,-0.0052693242,0.050730781,-0.081459427,0.056945533,-0.10085001,0.020322879,0.013945085,0.045361059,-0.053885476,0.024299076,0.031225299,0.017929801,0.011611427,-0.015227472,0.0090702685,-0.097037503,-0.016255258,0.056891146,-0.01188207,-0.051584175,-0.019642231,-0.039865687,0.053292716,0.027319172,-0.051973453,-0.016665033,-0.014144117,0.019745628,-0.0040543254,0.00077096191,0.024319242,0.065787013,0.0075240847,0.015345284,-0.105129,-0.045956012,-0.063789656,0.055270013,-0.042147484,-0.025441251,-0.008673752,0.059047882,0.02487025,0.068372299,0.026079624,0.038462226,0.08002065,0.050668931,0.022493892,0.20881657,-0.071582002,0.10225509,-0.0097233838,-0.027905008,-0.013940752,-0.070743463,0.0226535,0.021881694,-0.03425818,0.00516361,0.010198605,-0.066601088,-0.023797318,-0.085595214,-0.018979069,0.11167455,-0.078260483,0.03589468,-0.06147723,-0.046697787,0.0029159308,0.038158532,0.0059852484,0.081609726,-0.0022258443,0.034449734,0.0093162619,-0.031893661,0.014550524,-0.066250867,0.066625016,0.13756653,-0.025710884,-0.10322451,-0.098230682,-0.074144294,0.012281562,0.051872021,-0.077038973,0.0050322488,0.044219509,-0.013455708,0.030491016,0.031739073,-0.074721337,0.015516031,0.0076524204,0.14435941,-0.15813093,0.018699254,-0.14139474,0.089889821,-0.016408589,-0.069982779,-0.11295719,0.010106139,-0.1406105,-0.09670063,0.21693678,0.034675753,-0.14708837,0.079101813,-0.001720902,0.13444508,0.079950658,0.15942488,0.189631,0.0075997141,-0.049039528,-0.015542092,-0.068667229,-0.0046926209,-0.06958042,-0.097965744,-0.019362131,-0.095203814,-0.087295243,0.20990977,-0.020353755,0.02021377,-0.011105809,0.093639702,0.1368681,0.012400508,0.01951742,-0.11097513,-0.22731941,-0.1251756,0.12829637,-0.038498229,-0.0041968201,0.012189269,0.026665927,0.12664602,0.11530807,0.23569177,0.084221744,-0.091899021,-0.31118897,0.0082635261,-0.00075457604,0.052582796,-0.0049599928,0.039314459,-0.024817189,-0.15928424,-0.022240714,-0.23387674,-0.21526418,-0.12989967,-0.031159891,0.046780063,-0.07808296,0.07957261,-0.075410429,0.086752065,-0.028256757,0.0012981314,-0.068902328,-0.017565233,0.0028266002,-0.0028310585,0.043616354,0.0019926724,0.098361211,0.0084217609,0.032603949,0.26940696,0.037642255,0.071933667,-0.045093094,-0.012937551,-0.032006073,-0.071935667,0.017444135,-0.021432686,0.0071491018,0.021822135,0.00065352859,-0.0936331,-0.043205542,-0.080125558,-0.0086753102,0.088905831,-0.11072096,0.10080878,-0.064812376,0.025471672,0.0080126443,0.035439271,-0.10005548,-0.011810431,0.062012887,0.0065733801,0.028870262,-0.018085432,0.033812582,-0.065157122,-0.012953319,0.13016951,0.013932837,-0.075374939,-0.088058968,-0.047266043,0.067858731,0.045108414,-0.066088646,0.0023003709,-0.0055799391,-0.048344712,-0.0086860406,-0.046939313,-0.042547481,0.010063576,0.034693727,-0.00040633539,0.0040723748,0.0085963649,0.0032050448,-0.00069533864,-0.00057100585,-0.0020383197,-0.0042551252,-0.00084304993,0.0025375229,-0.0021165691,0.002688355,-0.0057873448,-0.004343552,-0.0038176816,0.0048340211,0.0033274402,0.0011558501,0.00038303643,0.0028397983,0.0020353401,-0.0045842043,-0.0014723119,0.0016717267,0.0036553518,0.0030389934,0.0039185206,0.0069720052,-0.0016050425,-0.0033686026,0.0049127807,-0.0023562915,-0.0014754357,0.0036656076,-1.0437689e-05,0.0069427944,0.0030456028,0.0018124166,-0.0043864004,-0.0043100991,-0.0055626367,-0.00028122615,-0.0028908749,0.0021729247,0.0056025787,-0.0010453758,0.0049064445,-0.0019018066,-0.0047174968,0.00054194508,0.0012946332,0.0064913946,0.0016573973,0.002637961,-0.0048166058,0.0053642237,-0.0059115129,-0.0056982997,0.0031298101,-0.0026528695,-0.0054259099,-9.6265685e-05,-0.0063889339,-0.0058587685,0.03531704,-0.11897649,0.068922936,-0.093683239,0.11876148,-0.021673466,0.012429179,-0.055723962,-0.0061806185,-0.0029088301,0.032164065,0.025945295,0.04656508,0.16648308,-0.016084937,0.030199878,0.33541179,0.016341695,0.11067771,-0.047706263,-0.041045135,-0.055218779,-0.10313992,0.029102734,-0.036337837,-0.033613505,0.057451519,0.021503526,-0.093935063,-0.021665171,-0.14957983,-0.023896792,0.11748646,-0.14003198,0.12908807,-0.1576875,0.046492791,0.01184492,0.075973535,-0.082099515,0.047429871,0.068249998,0.02780511,0.033400892,-0.022256371,0.033004195,-0.14576305,0.015669841,0.15184022,0.013826634,-0.10637639,-0.10037149,-0.083529316,0.07462261,0.065819852,-0.10431666,0.03114463,0.00078252502,-0.011204042,-0.001412642,-0.020119214,-0.0077889481,0.076889446,0.02728697,-0.0082984983,-0.081354332,0.054527766,-0.05583009,0.10419603,-0.036831817,0.042018447,-0.045030846,0.0039227714,0.024423504,0.057790233,-0.043258574,0.056119434,0.19217292,-0.016366729,0.031432277,0.32485142,-0.024101494,0.069378206,-0.081926715,-0.039893032,-0.002190124,-0.123119,0.052165087,-0.048322046,-0.017082162,0.087897944,0.042205397,-0.078939667,-0.0091160651,-0.21210858,-0.011871933,0.11352021,-0.15304752,0.11696973,-0.16109968,0.02656861,0.02916455,0.089405807,-0.014883271,0.086728083,0.040240018,0.06381649,0.035935582,-0.038049676,0.012305131,-0.1728696,0.011230606,0.10438612,-0.013208282,-0.10563185,-0.071670851,-0.089173602,0.070189857,0.052951324,-0.10528526,0.026665878,0.0038132031,0.01708861,0.008486495,0.016646357,0.036534088,0.12113827,0.022389645,-0.0065468233,-0.13082184,0.019026091,-0.050770444,0.099049029,-0.021387377,0.026224623,-0.036881012,-0.003079055,0.0039273802,0.056968383,-0.024045883,0.048985061,0.1643108,-0.03326779,-0.010388184,0.2529688,-0.013041418,0.096444614,-0.078569998,-0.040299126,-0.039148131,-0.11323935,0.036228302,-0.012557438,-0.046990634,0.084486978,0.024616321,-0.060831241,-0.030324758,-0.16885276,0.0031067303,0.11117181,-0.12324308,0.12471724,-0.23554932,0.046935656,-0.022018935,0.088480718,0.017579973,0.12293234,-0.00054483305,0.027404523,0.049690709,-0.037078218,-0.00065754855,-0.1976696,0.062100077,0.13123089,-0.0078621813,-0.025163386,-0.02963337,-0.077384559,0.01590508,0.05320548,-0.10278548,-0.0062508153,0.033332643,0.0067906785,0.013407559,0.040987406,0.056816349,0.093573254,0.065279031,0.09108511,-0.081798464,0.048400204,-0.083238358,0.07084559,-0.023472419,-0.038608255,-0.072330546,-0.0014926555,-0.03868552,-0.022169836,0.090784686,0.011939259,0.024058434,0.051109288,0.018803415,0.19766574,0.046276599,0.080467596,0.022556465,-0.010890259,-0.029325012,-0.038440359,-0.023252669,-0.022343505,-0.015891958,-0.027061343,-0.022179701,-0.087769229,-0.051245662,0.007450784,-0.018501124,0.079744568,-0.066168763,0.074892488,0.016207346,0.0013506672,0.015692703,-0.01735529,-0.12633116,-0.047155105,0.077266408,-0.0091634686,0.017313383,-0.015989808,0.040200647,0.019118449,0.034876362,0.13605541,0.041052688,-0.099408294,-0.15567225,-0.022285513,0.037873578,0.037858521,-0.031479419,0.02279672,-0.0027712287,-0.070099496,-0.016824176,-0.092508068,-0.10468547,-0.033010668,0.011355585,-0.0092812599,-0.0058026597,0.052944836,-0.023348603,0.029699617,-0.0019748016,0.0031856463,-0.0081412951,-0.017412285,0.012176467,0.012231789,-0.0036543395,-0.0083335761,0.068058274,-0.017046852,0.03209077,0.10793132,0.017067204,0.011090262,-0.04298617,-0.01298417,-0.020830135,-0.014926741,0.018896576,-0.016922084,0.0084769126,0.028188496,0.014464526,-0.039581559,-1.9561344e-05,-0.055996589,-0.0035173396,0.026284352,-0.052503751,0.028473955,-0.044271819,0.023419265,0.0035797053,0.028885416,-0.043054673,0.0011606127,0.014091677,0.0044407454,0.00123909,0.00079140232,0.011038832,-0.048092322,-0.027672669,0.043879715,-0.011151905,-0.016138486,-0.0026196284,-0.021721413,0.038184545,0.011903685,-0.031631939,-0.012402569,-0.019204173,0.004168018,0.0018390931,-0.0054114939,0.01098618,0.021729475,0.004039164,0.0041703914,-0.014011309,0.012075983,-0.013009131,0.010740958,-0.0032616952,0.0040184006,-0.0020638528,-0.0089004606,0.0037324733,-0.0029563213,0.0048822252,0.0018946643,0.020683101,0.0011652497,0.003637761,0.038356796,0.0052560019,0.0063951971,-0.0087493493,-0.0016502402,-0.0057638569,-0.0035533463,0.0054652484,-0.0052140496,0.0010533448,0.0076530502,-0.0021987121,-0.0055196967,-0.0098086601,-0.0090942239,0.00055231477,0.0076730572,-0.012614989,0.019959548,-0.018191765,0.0091213629,-0.0057919935,0.0069883197,1.3276886e-05,0.0039018233,0.0037066777,-0.0052504965,4.0873611e-05,0.0028759076,0.0013207619,-0.013774058,0.00087715031,0.018750024,0.00015656117,-0.0050895531,0.003857177,-0.013044606,0.0019399623,0.0048235632,-0.0073406833,-0.0074375164,-0.0028130236,-0.0015297945,-0.0028355695,-0.0076692781,0.0099069011,0.0028924553,0.0099723781,-0.013453809,-0.018946167,0.0088273262,